{"learner":{"attributes":{"best_iteration":"0","best_score":"0.8103405324014858","scikit_learn":"{\"_estimator_type\": \"regressor\"}"},"feature_names":[],"feature_types":[],"gradient_booster":{"model":{"cats":{"enc":[],"feature_segments":[],"sorted_idx":[]},"gbtree_model_param":{"num_parallel_tree":"1","num_trees":"31"},"iteration_indptr":[0,1,2,3,4,5,6,7,8,9,10,11,12,13,14,15,16,17,18,19,20,21,22,23,24,25,26,27,28,29,30,31],"tree_info":[0,0,0,0,0,0,0,0,0,0,0,0,0,0,0,0,0,0,0,0,0,0,0,0,0,0,0,0,0,0,0],"trees":[{"base_weights":[-1.5665668E-3,-5.3873754E-1,2.4988994E-2,-2.445429E-1,-1.032174E0,-1.5898652E-2,1.2459934E-1,2.7214888E-1,-4.4622207E-1,-1.5032545E0,4.5093647E-1,-1.5703201E-1,4.393147E-3,3.599599E-1,4.26784E-2,2.5194911E-2,1.9622657E-3,-4.9791105E-2,-1.04154395E-2,-5.871245E-2,-1.4912915E-1,1.0661552E-1,-2.595056E-2,-7.172697E-2,-6.9933827E-3,5.471182E-4,-1.7042572E-2,1.2876031E-1,1.5825089E-2,-1.1144576E-4,7.0782574E-3],"categories":[],"categories_nodes":[],"categories_segments":[],"categories_sizes":[],"default_left":[0,0,0,0,0,0,0,0,0,0,0,0,0,0,0,0,0,0,0,0,0,0,0,0,0,0,0,0,0,0,0],"id":0,"left_children":[1,3,5,7,9,11,13,15,17,19,21,23,25,27,29,-1,-1,-1,-1,-1,-1,-1,-1,-1,-1,-1,-1,-1,-1,-1,-1],"loss_changes":[1.1537352E2,5.5055977E1,3.1391306E1,2.5130875E1,9.9888214E1,1.56516285E1,4.3231823E1,3.6505404E0,2.2413548E1,4.9062088E1,5.8186253E1,1.4863609E1,1.0809438E1,5.492552E1,7.394145E0,0E0,0E0,0E0,0E0,0E0,0E0,0E0,0E0,0E0,0E0,0E0,0E0,0E0,0E0,0E0,0E0],"parents":[2147483647,0,0,1,1,2,2,3,3,4,4,5,5,6,6,7,7,8,8,9,9,10,10,11,11,12,12,13,13,14,14],"right_children":[2,4,6,8,10,12,14,16,18,20,22,24,26,28,30,-1,-1,-1,-1,-1,-1,-1,-1,-1,-1,-1,-1,-1,-1,-1,-1],"split_conditions":[-2.743826E-1,-6.1035943E-1,5.580496E-1,-2.4322982E0,1.1965607E0,-2.5635433E-1,-2.1816385E-1,-3.752024E0,-2.7928197E-1,8.6213523E-1,-2.799805E-1,-5.690691E-1,1.4613857E0,5.659415E-1,1.0750924E0,2.5194911E-2,1.9622657E-3,-4.9791105E-2,-1.04154395E-2,-5.871245E-2,-1.4912915E-1,1.0661552E-1,-2.595056E-2,-7.172697E-2,-6.9933827E-3,5.471182E-4,-1.7042572E-2,1.2876031E-1,1.5825089E-2,-1.1144576E-4,7.0782574E-3],"split_indices":[0,2,2,2,2,0,0,2,0,2,0,5,0,2,2,0,0,0,0,0,0,0,0,0,0,0,0,0,0,0,0],"split_type":[0,0,0,0,0,0,0,0,0,0,0,0,0,0,0,0,0,0,0,0,0,0,0,0,0,0,0,0,0,0,0],"sum_hessian":[8.086E3,3.8E2,7.706E3,2.39E2,1.41E2,5.464E3,2.242E3,6.7E1,1.72E2,1.07E2,3.4E1,6.86E2,4.778E3,5.78E2,1.664E3,3.3E1,3.4E1,5.1E1,1.21E2,8.9E1,1.8E1,1.2E1,2.2E1,8E0,6.78E2,4.69E3,8.8E1,1E1,5.68E2,1.145E3,5.19E2],"tree_param":{"num_deleted":"0","num_feature":"18","num_nodes":"31","size_leaf_vector":"1"}},{"base_weights":[5.8209333E-3,-5.501696E-1,3.3569645E-2,1.0555639E-1,-7.10236E-1,-7.433829E-3,1.0218393E-1,-1.6098543E-1,2.1373153E0,-4.1081873E-1,-1.1858802E0,-1.4589942E-1,1.409534E-2,3.1127304E-1,2.8979588E-2,1.17325615E-2,-5.7101388E-2,1.5499632E-1,7.953472E-3,-1.5379821E-2,-6.6996425E-2,-7.397974E-2,-8.398744E-3,-4.5009092E-3,-3.0213717E-2,1.393615E-2,8.329214E-5,2.1523114E-2,-7.180573E-4,-4.7197468E-3,3.0253462E-3],"categories":[],"categories_nodes":[],"categories_segments":[],"categories_sizes":[],"default_left":[0,0,0,0,0,0,0,0,0,0,0,0,0,0,0,0,0,0,0,0,0,0,0,0,0,0,0,0,0,0,0],"id":1,"left_children":[1,3,5,7,9,11,13,15,17,19,21,23,25,27,29,-1,-1,-1,-1,-1,-1,-1,-1,-1,-1,-1,-1,-1,-1,-1,-1],"loss_changes":[1.25926544E2,4.079933E1,2.1872318E1,4.204333E1,4.3946625E1,1.4510822E1,4.4501495E1,2.7049383E1,1.6645432E1,1.8097485E1,3.562834E1,1.6723137E1,1.3856889E1,2.9270508E1,8.38795E0,0E0,0E0,0E0,0E0,0E0,0E0,0E0,0E0,0E0,0E0,0E0,0E0,0E0,0E0,0E0,0E0],"parents":[2147483647,0,0,1,1,2,2,3,3,4,4,5,5,6,6,7,7,8,8,9,9,10,10,11,11,12,12,13,13,14,14],"right_children":[2,4,6,8,10,12,14,16,18,20,22,24,26,28,30,-1,-1,-1,-1,-1,-1,-1,-1,-1,-1,-1,-1,-1,-1,-1,-1],"split_conditions":[-2.7345058E-1,-2.8030437E-1,4.0738454E-1,3.953466E-1,-3.933949E-1,-2.5635433E-1,-2.113107E-1,-2.4322982E0,1.4782698E0,8.2321024E-1,1.1965607E0,-2.584478E-1,-2.502387E-1,1.2810806E0,-1.6174716E-1,1.17325615E-2,-5.7101388E-2,1.5499632E-1,7.953472E-3,-1.5379821E-2,-6.6996425E-2,-7.397974E-2,-8.398744E-3,-4.5009092E-3,-3.0213717E-2,1.393615E-2,8.329214E-5,2.1523114E-2,-7.180573E-4,-4.7197468E-3,3.0253462E-3],"split_indices":[0,0,2,2,2,0,0,2,2,16,2,0,0,2,0,0,0,0,0,0,0,0,0,0,0,0,0,0,0,0,0],"split_type":[0,0,0,0,0,0,0,0,0,0,0,0,0,0,0,0,0,0,0,0,0,0,0,0,0,0,0,0,0,0,0],"sum_hessian":[8.16E3,3.87E2,7.773E3,7.6E1,3.11E2,4.866E3,2.907E3,6.8E1,8E0,1.92E2,1.19E2,6.54E2,4.212E3,7.53E2,2.154E3,4.9E1,1.9E1,5E0,3E0,1.74E2,1.8E1,9.2E1,2.7E1,5.84E2,7E1,1.88E2,4.024E3,5.51E2,2.02E2,4.38E2,1.716E3],"tree_param":{"num_deleted":"0","num_feature":"18","num_nodes":"31","size_leaf_vector":"1"}},{"base_weights":[4.0246276E-3,-4.848726E-1,2.5625521E-2,1.3377573E-1,-6.439904E-1,6.0292685E-1,1.8470839E-2,5.38597E-1,-4.0594837E-1,-9.5522624E-1,-3.37078E-1,4.262195E-1,4.5164638E0,-9.6652806E-2,3.1575467E-2,6.1337557E-2,1.3851958E-2,-4.277265E-2,-1.6890472E-3,-7.8301795E-2,-3.4538597E-2,-4.386267E-2,-1.1400434E-2,1.1977348E-2,6.842511E-2,2.942662E-1,1.0247089E-2,1.5453221E-2,-8.522033E-3,1.3734973E-2,3.5026864E-4],"categories":[],"categories_nodes":[],"categories_segments":[],"categories_sizes":[],"default_left":[0,0,0,0,0,0,0,0,0,0,0,0,0,0,0,0,0,0,0,0,0,0,0,0,0,0,0,0,0,0,0],"id":2,"left_children":[1,3,5,7,9,11,13,15,17,19,21,23,25,27,29,-1,-1,-1,-1,-1,-1,-1,-1,-1,-1,-1,-1,-1,-1,-1,-1],"loss_changes":[8.560623E1,3.3850372E1,3.205321E1,1.5731559E1,2.5755554E1,6.3772305E1,1.1572908E1,7.039818E0,5.1571236E0,2.0724953E1,7.9893827E0,1.5854824E1,2.2401329E1,2.3523287E1,4.113214E1,0E0,0E0,0E0,0E0,0E0,0E0,0E0,0E0,0E0,0E0,0E0,0E0,0E0,0E0,0E0,0E0],"parents":[2147483647,0,0,1,1,2,2,3,3,4,4,5,5,6,6,7,7,8,8,9,9,10,10,11,11,12,12,13,13,14,14],"right_children":[2,4,6,8,10,12,14,16,18,20,22,24,26,28,30,-1,-1,-1,-1,-1,-1,-1,-1,-1,-1,-1,-1,-1,-1,-1,-1],"split_conditions":[-2.743826E-1,-2.8030437E-1,-3.0433616E-1,1.11899495E-1,-3.0654034E-1,2.0034485E0,-2.5635433E-1,-3.1190172E-1,-3.0887222E-1,-1.0154669E0,-3.0979466E-1,-3.052016E-1,-2.693627E-1,-2.9912207E-1,-2.701447E-1,6.1337557E-2,1.3851958E-2,-4.277265E-2,-1.6890472E-3,-7.8301795E-2,-3.4538597E-2,-4.386267E-2,-1.1400434E-2,1.1977348E-2,6.842511E-2,2.942662E-1,1.0247089E-2,1.5453221E-2,-8.522033E-3,1.3734973E-2,3.5026864E-4],"split_indices":[0,0,1,6,1,3,0,1,1,7,6,1,0,1,1,0,0,0,0,0,0,0,0,0,0,0,0,0,0,0,0],"split_type":[0,0,0,0,0,0,0,0,0,0,0,0,0,0,0,0,0,0,0,0,0,0,0,0,0,0,0,0,0,0,0],"sum_hessian":[8.104E3,3.42E2,7.762E3,7E1,2.72E2,9.4E1,7.668E3,4E1,3E1,1.34E2,1.38E2,9.1E1,3E0,7.83E2,6.885E3,1E1,3E1,1.3E1,1.7E1,3.9E1,9.5E1,2.2E1,1.16E2,7.7E1,1.4E1,2E0,1E0,1.2E2,6.63E2,6.31E2,6.254E3],"tree_param":{"num_deleted":"0","num_feature":"18","num_nodes":"31","size_leaf_vector":"1"}},{"base_weights":[-2.8277028E-3,-6.086041E-1,1.3126189E-2,-1.0484556E0,2.2520787E-1,7.3391205E-1,6.5260995E-3,-9.115431E-1,-2.24032E-1,1.1398476E0,-2.183234E-1,3.669862E0,4.600372E-1,-5.2859396E-2,4.1584555E-2,6.3202284E-2,-5.032012E-2,1.4014313E-1,3.3355083E-2,3.741696E-2,-3.0751748E-2,3.5907805E-2,2.4830881E-1,-2.3943482E-3,5.8460664E-2,-1.3891271E-2,-9.851711E-4,7.242127E-3,3.8864123E-4],"categories":[],"categories_nodes":[],"categories_segments":[],"categories_sizes":[],"default_left":[0,0,0,0,0,0,0,0,0,0,0,0,0,0,0,0,0,0,0,0,0,0,0,0,0,0,0,0,0],"id":3,"left_children":[1,3,5,7,9,11,13,15,-1,17,19,21,23,25,27,-1,-1,-1,-1,-1,-1,-1,-1,-1,-1,-1,-1,-1,-1],"loss_changes":[7.87156E1,7.6887596E1,3.7748756E1,6.0293274E1,2.9862865E1,5.620569E1,1.6376842E1,2.8719986E1,0E0,1.6998613E1,1.9634567E1,1.9391533E1,2.4189907E1,2.1774708E1,1.7266998E1,0E0,0E0,0E0,0E0,0E0,0E0,0E0,0E0,0E0,0E0,0E0,0E0,0E0,0E0],"parents":[2147483647,0,0,1,1,2,2,3,3,4,4,5,5,6,6,7,7,9,9,10,10,11,11,12,12,13,13,14,14],"right_children":[2,4,6,8,10,12,14,16,-1,18,20,22,24,26,28,-1,-1,-1,-1,-1,-1,-1,-1,-1,-1,-1,-1,-1,-1],"split_conditions":[-3.0654034E-1,1.1965607E0,-3.0433616E-1,1.0750924E0,1.6267352E0,-1.250646E0,-1.8896088E-1,-2.4322982E0,-2.24032E-1,-3.1190172E-1,-5.6503586E-2,-1.0240438E-2,-3.052016E-1,-2.74813E-1,-2.5633684E-1,6.3202284E-2,-5.032012E-2,1.4014313E-1,3.3355083E-2,3.741696E-2,-3.0751748E-2,3.5907805E-2,2.4830881E-1,-2.3943482E-3,5.8460664E-2,-1.3891271E-2,-9.851711E-4,7.242127E-3,3.8864123E-4],"split_indices":[1,2,1,2,2,7,2,2,0,1,6,2,1,1,1,0,0,0,0,0,0,0,0,0,0,0,0,0,0],"split_type":[0,0,0,0,0,0,0,0,0,0,0,0,0,0,0,0,0,0,0,0,0,0,0,0,0,0,0,0,0],"sum_hessian":[8.143E3,2.08E2,7.935E3,1.36E2,7.2E1,7.1E1,7.864E3,1.32E2,4E0,2.3E1,4.9E1,5E0,6.6E1,2.919E3,4.945E3,5E0,1.27E2,4E0,1.9E1,1.4E1,3.5E1,2E0,3E0,3.9E1,2.7E1,3.74E2,2.545E3,1.219E3,3.726E3],"tree_param":{"num_deleted":"0","num_feature":"18","num_nodes":"29","size_leaf_vector":"1"}},{"base_weights":[2.0827157E-3,-3.2903824E-2,8.84078E-2,-1.3258234E-1,-1.9305734E-2,8.5625924E-2,1.6536722E-1,2.0919858E-1,-1.8312308E-1,9.315321E-3,-5.4840717E-2,2.9721585E-1,7.2063E-2,1.5522807E-2,7.9837645E-4,-7.340045E-3,-1.9905817E-2,5.362653E-4,-9.9276856E-2,9.588881E-3,-3.155369E-3,4.2566612E-2,9.099771E-3,4.4581555E-3,-6.6630202E-3],"categories":[],"categories_nodes":[],"categories_segments":[],"categories_sizes":[],"default_left":[0,0,0,0,0,0,0,0,0,0,0,0,0,0,0,0,0,0,0,0,0,0,0,0,0],"id":4,"left_children":[1,3,5,7,9,11,-1,13,15,17,19,21,23,-1,-1,-1,-1,-1,-1,-1,-1,-1,-1,-1,-1],"loss_changes":[2.4578405E1,7.8467774E0,2.0733442E1,1.2043647E1,5.184408E0,6.7110806E0,0E0,1.7559919E0,4.6738243E0,7.9643974E0,4.6481295E0,8.847282E0,7.757262E0,0E0,0E0,0E0,0E0,0E0,0E0,0E0,0E0,0E0,0E0,0E0,0E0],"parents":[2147483647,0,0,1,1,2,2,3,3,4,4,5,5,7,7,8,8,9,9,10,10,11,11,12,12],"right_children":[2,4,6,8,10,12,-1,14,16,18,20,22,24,-1,-1,-1,-1,-1,-1,-1,-1,-1,-1,-1,-1],"split_conditions":[5.580496E-1,-1.3915975E0,6.703867E0,-2.4322982E0,-3.0153766E-1,-1.2504056E0,1.6536722E-1,-1.4446048E-1,4.6989226E-1,5.476288E0,-4.4597414E-1,-4.5319843E-1,1.4154787E0,1.5522807E-2,7.9837645E-4,-7.340045E-3,-1.9905817E-2,5.362653E-4,-9.9276856E-2,9.588881E-3,-3.155369E-3,4.2566612E-2,9.099771E-3,4.4581555E-3,-6.6630202E-3],"split_indices":[2,2,13,2,10,7,0,10,16,13,16,10,10,0,0,0,0,0,0,0,0,0,0,0,0],"split_type":[0,0,0,0,0,0,0,0,0,0,0,0,0,0,0,0,0,0,0,0,0,0,0,0,0],"sum_hessian":[8.136E3,5.79E3,2.346E3,6.94E2,5.096E3,2.345E3,1E0,8.9E1,6.05E2,2.823E3,2.273E3,1.4E2,2.205E3,5.8E1,3.1E1,5.19E2,8.6E1,2.822E3,1E0,7.3E1,2.2E3,2.3E1,1.17E2,2.036E3,1.69E2],"tree_param":{"num_deleted":"0","num_feature":"18","num_nodes":"25","size_leaf_vector":"1"}},{"base_weights":[-4.66479E-4,-1.2567973E-3,1.6123304E-1,4.2728507E-3,-1.3416803E-1,3.9302817E-4,1.8690772E-1,7.549849E-1,-1.6179378E-1,-1.7471707E-3,4.028753E-4,6.851638E-3,4.015408E-2,2.1255378E-1,-5.2905693E-3,-7.2380784E-3,-4.0078398E-2],"categories":[],"categories_nodes":[],"categories_segments":[],"categories_sizes":[],"default_left":[0,0,0,0,0,0,0,0,0,0,0,0,0,0,0,0,0],"id":5,"left_children":[1,3,-1,5,7,9,11,13,15,-1,-1,-1,-1,-1,-1,-1,-1],"loss_changes":[2.0807987E1,5.9985194E0,0E0,5.5524445E0,8.129857E0,2.078672E0,4.8992085E0,3.0544035E1,3.3382397E0,0E0,0E0,0E0,0E0,0E0,0E0,0E0,0E0],"parents":[2147483647,0,0,1,1,3,3,4,4,5,5,6,6,7,7,8,8],"right_children":[2,4,-1,6,8,10,12,14,16,-1,-1,-1,-1,-1,-1,-1,-1],"split_conditions":[9.159025E0,2.2821116E0,1.6123304E-1,2.0034485E0,-1.6843488E0,-2.8577176E-1,3.0211296E0,-5.1731396E-1,1.5381953E0,-1.7471707E-3,4.028753E-4,6.851638E-3,4.015408E-2,2.1255378E-1,-5.2905693E-3,-7.2380784E-3,-4.0078398E-2],"split_indices":[13,10,0,3,3,6,13,5,6,0,0,0,0,0,0,0,0],"split_type":[0,0,0,0,0,0,0,0,0,0,0,0,0,0,0,0,0],"sum_hessian":[8.161E3,8.16E3,1E0,7.835E3,3.25E2,7.673E3,1.62E2,9E0,3.16E2,1.367E3,6.306E3,1.51E2,1.1E1,1E0,8E0,3.09E2,7E0],"tree_param":{"num_deleted":"0","num_feature":"18","num_nodes":"17","size_leaf_vector":"1"}},{"base_weights":[-1.6860489E-3,-5.122132E-1,1.2049452E-2,-9.619594E-1,2.9463682E-1,7.43352E-1,5.5250856E-3,1.3237725E0,-1.0952201E0,1.4842595E0,-6.7160614E-2,-1.1279588E-1,1.7635524E0,-2.7247025E-2,6.2408872E-2,8.471032E-2,7.082365E-3,-5.050838E-2,-1.50975E-1,2.6526546E-2,1.3050519E-1,-5.2554835E-2,7.532426E-3,-2.5935544E-2,4.837989E-2,4.1662768E-2,2.0241974E-1,-1.0068133E-2,-6.553132E-4,1.0685905E-2,1.1571668E-3],"categories":[],"categories_nodes":[],"categories_segments":[],"categories_sizes":[],"default_left":[0,0,0,0,0,0,0,0,0,0,0,0,0,0,0,0,0,0,0,0,0,0,0,0,0,0,0,0,0,0,0],"id":6,"left_children":[1,3,5,7,9,11,13,15,17,19,21,23,25,27,29,-1,-1,-1,-1,-1,-1,-1,-1,-1,-1,-1,-1,-1,-1,-1,-1],"loss_changes":[5.700953E1,7.7576385E1,3.7770164E1,4.3179794E1,3.324067E1,6.133989E1,1.4631955E1,3.263214E0,1.8226227E1,1.7942757E1,1.3016962E1,1.7605274E1,6.464527E1,1.2258756E1,1.7040466E1,0E0,0E0,0E0,0E0,0E0,0E0,0E0,0E0,0E0,0E0,0E0,0E0,0E0,0E0,0E0,0E0],"parents":[2147483647,0,0,1,1,2,2,3,3,4,4,5,5,6,6,7,7,8,8,9,9,10,10,11,11,12,12,13,13,14,14],"right_children":[2,4,6,8,10,12,14,16,18,20,22,24,26,28,30,-1,-1,-1,-1,-1,-1,-1,-1,-1,-1,-1,-1,-1,-1,-1,-1],"split_conditions":[-3.0654034E-1,1.1965607E0,-3.0433616E-1,-2.4322982E0,1.4782698E0,-3.052016E-1,4.0738454E-1,-2.816188E0,1.0750924E0,-3.2554683E-1,-1.1505312E0,1.3321397E0,1.9458294E0,-2.862093E-1,-2.701447E-1,8.471032E-2,7.082365E-3,-5.050838E-2,-1.50975E-1,2.6526546E-2,1.3050519E-1,-5.2554835E-2,7.532426E-3,-2.5935544E-2,4.837989E-2,4.1662768E-2,2.0241974E-1,-1.0068133E-2,-6.553132E-4,1.0685905E-2,1.1571668E-3],"split_indices":[1,2,1,2,2,1,2,2,2,11,3,2,17,1,1,0,0,0,0,0,0,0,0,0,0,0,0,0,0,0,0],"split_type":[0,0,0,0,0,0,0,0,0,0,0,0,0,0,0,0,0,0,0,0,0,0,0,0,0,0,0,0,0,0,0],"sum_hessian":[8.128E3,2.12E2,7.916E3,1.36E2,7.6E1,6.9E1,7.847E3,7E0,1.29E2,1.7E1,5.9E1,3.8E1,3.1E1,4.979E3,2.868E3,5E0,2E0,1.25E2,4E0,1E1,7E0,1E1,4.9E1,2.8E1,1E1,2.3E1,8E0,3.73E2,4.606E3,5.9E2,2.278E3],"tree_param":{"num_deleted":"0","num_feature":"18","num_nodes":"31","size_leaf_vector":"1"}},{"base_weights":[-3.150204E-3,-3.919314E-3,1.5693507E-1,-1.356523E-1,8.0980256E-4,-1.2689103E0,-8.51569E-2,8.9883525E-3,-5.4235842E-2,-2.778697E-1,-1.8691523E-2,-3.2874688E-3,-5.541845E-2,7.2064943E-4,-2.605649E-3,-1.6370902E-2,-1.6415851E-3],"categories":[],"categories_nodes":[],"categories_segments":[],"categories_sizes":[],"default_left":[0,0,0,0,0,0,0,0,0,0,0,0,0,0,0,0,0],"id":7,"left_children":[1,3,-1,5,7,9,11,13,15,-1,-1,-1,-1,-1,-1,-1,-1],"loss_changes":[1.9747282E1,5.08737E0,0E0,1.6086424E1,3.5498135E0,4.39849E1,5.3285065E0,2.2761724E0,5.9534245E0,0E0,0E0,0E0,0E0,0E0,0E0,0E0,0E0],"parents":[2147483647,0,0,1,1,3,3,4,4,5,5,6,6,7,7,8,8],"right_children":[2,4,-1,6,8,10,12,14,16,-1,-1,-1,-1,-1,-1,-1,-1],"split_conditions":[9.159025E0,-5.5055594E-1,1.5693507E-1,-1.341596E0,1.3271145E0,-6.505479E-1,1.389459E0,8.2321024E-1,-9.494441E-2,-2.778697E-1,-1.8691523E-2,-3.2874688E-3,-5.541845E-2,7.2064943E-4,-2.605649E-3,-1.6370902E-2,-1.6415851E-3],"split_indices":[13,4,0,14,7,7,6,16,3,0,0,0,0,0,0,0,0],"split_type":[0,0,0,0,0,0,0,0,0,0,0,0,0,0,0,0,0],"sum_hessian":[8.166E3,8.165E3,1E0,2.82E2,7.883E3,1.1E1,2.71E2,6.864E3,1.019E3,1E0,1E1,2.67E2,4E0,6.305E3,5.59E2,7.3E1,9.46E2],"tree_param":{"num_deleted":"0","num_feature":"18","num_nodes":"17","size_leaf_vector":"1"}},{"base_weights":[6.4054555E-3,-4.4289488E-1,2.6984595E-2,9.3643464E-2,-6.6083616E-1,8.061754E-2,1.4776953E-3,6.672946E-1,-1.06128655E-1,-1.353943E0,-4.8432007E-1,2.93291E-1,5.7399996E-2,-2.214965E-1,6.9685318E-3,-1.8944396E-2,4.921231E-2,1.5310413E-2,-1.5909286E-2,-8.280229E-2,-3.2616157E-2,-4.474282E-2,-1.4074609E-2,4.4421315E-2,1.1989989E-2,2.1570325E-3,2.1595912E-2,-8.040682E-2,-8.748996E-3,1.9562656E-2,-8.3044415E-6],"categories":[],"categories_nodes":[],"categories_segments":[],"categories_sizes":[],"default_left":[0,0,0,0,0,0,0,0,0,0,0,0,0,0,0,0,0,0,0,0,0,0,0,0,0,0,0,0,0,0,0],"id":8,"left_children":[1,3,5,7,9,11,13,15,17,19,21,23,25,27,29,-1,-1,-1,-1,-1,-1,-1,-1,-1,-1,-1,-1,-1,-1,-1,-1],"loss_changes":[7.536859E1,4.1807274E1,1.0662151E1,1.1989167E1,3.041977E1,1.2386808E1,6.469599E0,9.325827E0,6.91767E0,9.729752E0,1.6734825E1,7.6500816E0,1.2082682E1,7.9103317E0,1.4139139E1,0E0,0E0,0E0,0E0,0E0,0E0,0E0,0E0,0E0,0E0,0E0,0E0,0E0,0E0,0E0,0E0],"parents":[2147483647,0,0,1,1,2,2,3,3,4,4,5,5,6,6,7,7,8,8,9,9,10,10,11,11,12,12,13,13,14,14],"right_children":[2,4,6,8,10,12,14,16,18,20,22,24,26,28,30,-1,-1,-1,-1,-1,-1,-1,-1,-1,-1,-1,-1,-1,-1,-1,-1],"split_conditions":[-2.743826E-1,-2.799805E-1,-2.1816385E-1,-4.2650856E-2,-6.7253375E-1,-1.1505312E0,-2.151219E-1,-8.167893E-1,-2.814732E-1,-2.759866E-1,-9.527467E-2,-2.693627E-1,1.7477677E0,-1.3184968E0,-2.113107E-1,-1.8944396E-2,4.921231E-2,1.5310413E-2,-1.5909286E-2,-8.280229E-2,-3.2616157E-2,-4.474282E-2,-1.4074609E-2,4.4421315E-2,1.1989989E-2,2.1570325E-3,2.1595912E-2,-8.040682E-2,-8.748996E-3,1.9562656E-2,-8.3044415E-6],"split_indices":[0,0,0,6,3,3,0,6,0,0,6,0,3,6,0,0,0,0,0,0,0,0,0,0,0,0,0,0,0,0,0],"split_type":[0,0,0,0,0,0,0,0,0,0,0,0,0,0,0,0,0,0,0,0,0,0,0,0,0,0,0,0,0,0,0],"sum_hessian":[8.149E3,3.56E2,7.793E3,1.03E2,2.53E2,2.511E3,5.282E3,2.6E1,7.7E1,5E1,2.03E2,2.46E2,2.265E3,1.26E2,5.156E3,6E0,2E1,2.6E1,5.1E1,3.4E1,1.6E1,6.6E1,1.37E2,1.9E1,2.27E2,2.183E3,8.2E1,3E0,1.23E2,9.3E1,5.063E3],"tree_param":{"num_deleted":"0","num_feature":"18","num_nodes":"31","size_leaf_vector":"1"}},{"base_weights":[-3.3207636E-3,-4.451245E-1,1.7568462E-2,3.8791347E-2,-6.425625E-1,6.1002487E-1,9.970568E-3,9.0994847E-1,-1.5963973E-1,-1.1433604E0,-2.31202E-1,2.8117955E0,3.2787147E-1,6.935775E-2,-1.48613155E-2,-3.301562E-2,6.1294764E-2,1.536073E-2,-2.4437726E-2,-8.647102E-2,-3.960539E-2,-3.515187E-2,-4.2296476E-3,3.991398E-2,2.1783395E-1,-1.4284275E-3,3.9881166E-2,-5.5611264E-3,5.6178733E-3,-4.838935E-3,1.725626E-4],"categories":[],"categories_nodes":[],"categories_segments":[],"categories_sizes":[],"default_left":[0,0,0,0,0,0,0,0,0,0,0,0,0,0,0,0,0,0,0,0,0,0,0,0,0,0,0,0,0,0,0],"id":9,"left_children":[1,3,5,7,9,11,13,15,17,19,21,23,25,27,29,-1,-1,-1,-1,-1,-1,-1,-1,-1,-1,-1,-1,-1,-1,-1,-1],"loss_changes":[7.48176E1,3.4993797E1,3.4839417E1,1.864178E1,5.329786E1,5.995933E1,1.1273605E1,1.0731852E1,1.3671233E1,2.2715149E1,9.901775E0,3.0739273E1,1.4757361E1,1.7514582E1,8.087468E0,0E0,0E0,0E0,0E0,0E0,0E0,0E0,0E0,0E0,0E0,0E0,0E0,0E0,0E0,0E0,0E0],"parents":[2147483647,0,0,1,1,2,2,3,3,4,4,5,5,6,6,7,7,8,8,9,9,10,10,11,11,12,12,13,13,14,14],"right_children":[2,4,6,8,10,12,14,16,18,20,22,24,26,28,30,-1,-1,-1,-1,-1,-1,-1,-1,-1,-1,-1,-1,-1,-1,-1,-1],"split_conditions":[-2.743826E-1,-2.799805E-1,-3.0433616E-1,-3.1190172E-1,-3.0654034E-1,-1.241465E0,-2.3918258E-1,-6.4819086E-1,-2.814732E-1,-3.9918944E-2,-5.7236046E-1,-3.052016E-1,-2.6694623E-1,-2.6182565E-1,-2.0789503E-1,-3.301562E-2,6.1294764E-2,1.536073E-2,-2.4437726E-2,-8.647102E-2,-3.960539E-2,-3.515187E-2,-4.2296476E-3,3.991398E-2,2.1783395E-1,-1.4284275E-3,3.9881166E-2,-5.5611264E-3,5.6178733E-3,-4.838935E-3,1.725626E-4],"split_indices":[0,0,1,1,1,7,1,10,0,6,10,1,0,0,1,0,0,0,0,0,0,0,0,0,0,0,0,0,0,0,0],"split_type":[0,0,0,0,0,0,0,0,0,0,0,0,0,0,0,0,0,0,0,0,0,0,0,0,0,0,0,0,0,0,0],"sum_hessian":[8.105E3,3.65E2,7.74E3,1.06E2,2.59E2,9.7E1,7.643E3,1.9E1,8.7E1,1.16E2,1.43E2,1E1,8.7E1,2.253E3,5.39E3,3E0,1.6E1,3.6E1,5.1E1,4.2E1,7.4E1,3.3E1,1.1E2,5E0,5E0,5E1,3.7E1,4.33E2,1.82E3,9.84E2,4.406E3],"tree_param":{"num_deleted":"0","num_feature":"18","num_nodes":"31","size_leaf_vector":"1"}},{"base_weights":[4.7763693E-3,4.0219333E-3,1.5281731E-1,-3.0704468E-2,2.494082E-2,-2.2168669E-1,-2.5805393E-2,1.9216064E-2,1.6899836E-1,5.601443E-2,-1.3654768E-2,4.5874115E-4,-2.5396838E-3,-1.2137172E-2,1.1270219E-3,2.2916451E-2,5.9588766E-3],"categories":[],"categories_nodes":[],"categories_segments":[],"categories_sizes":[],"default_left":[0,0,0,0,0,0,0,0,0,0,0,0,0,0,0,0,0],"id":10,"left_children":[1,3,-1,5,7,9,11,13,15,-1,-1,-1,-1,-1,-1,-1,-1],"loss_changes":[1.8628742E1,5.882005E0,0E0,2.842356E0,4.1639338E0,5.54912E0,2.5956554E0,4.238678E0,2.7274122E0,0E0,0E0,0E0,0E0,0E0,0E0,0E0,0E0],"parents":[2147483647,0,0,1,1,3,3,4,4,5,5,6,6,7,7,8,8],"right_children":[2,4,-1,6,8,10,12,14,16,-1,-1,-1,-1,-1,-1,-1,-1],"split_conditions":[1.4069341E1,-2.6149003E-2,1.5281731E-1,-3.9863947E-1,2.242765E0,-5.6449556E-1,-5.073465E-1,-5.690691E-1,-5.017121E-1,5.601443E-2,-1.3654768E-2,4.5874115E-4,-2.5396838E-3,-1.2137172E-2,1.1270219E-3,2.2916451E-2,5.9588766E-3],"split_indices":[13,6,0,16,12,5,12,5,4,0,0,0,0,0,0,0,0],"split_type":[0,0,0,0,0,0,0,0,0,0,0,0,0,0,0,0,0],"sum_hessian":[8.096E3,8.095E3,1E0,3.043E3,5.052E3,7.5E1,2.968E3,4.86E3,1.92E2,2E0,7.3E1,1.237E3,1.731E3,6E1,4.8E3,2.7E1,1.65E2],"tree_param":{"num_deleted":"0","num_feature":"18","num_nodes":"17","size_leaf_vector":"1"}},{"base_weights":[-3.5539288E-3,-4.220927E-2,4.5344885E-2,-3.8292874E-2,-6.082201E-1,-3.5488912E-1,5.0549027E-2,-1.323244E-1,-2.0511825E-2,-1.1617311E0,5.964034E-2,-1.458944E-1,-2.51286E0,5.4911107E-2,-3.9946228E-1,1.0944991E-2,-9.460944E-3,3.2843035E-3,-1.7438121E-3,8.211233E-4,-8.269985E-2,-1.884234E-3,1.6835267E-2,-5.6682628E-2,-4.7692307E-3,-2.7053443E-1,1.2832276E-2,2.5600193E-3,2.4095826E-2,-2.4050714E-2,1.662157E-2],"categories":[],"categories_nodes":[],"categories_segments":[],"categories_sizes":[],"default_left":[0,0,0,0,0,0,0,0,0,0,0,0,0,0,0,0,0,0,0,0,0,0,0,0,0,0,0,0,0,0,0],"id":11,"left_children":[1,3,5,7,9,11,13,15,17,19,21,23,25,27,29,-1,-1,-1,-1,-1,-1,-1,-1,-1,-1,-1,-1,-1,-1,-1,-1],"loss_changes":[1.5301197E1,9.998518E0,7.462133E0,7.506144E0,1.1528996E1,2.0379597E1,6.949312E0,1.430908E1,4.6801443E0,9.88656E0,4.1716895E-1,2.0371993E0,3.3490837E1,5.5147314E0,2.1892762E0,0E0,0E0,0E0,0E0,0E0,0E0,0E0,0E0,0E0,0E0,0E0,0E0,0E0,0E0,0E0,0E0],"parents":[2147483647,0,0,1,1,2,2,3,3,4,4,5,5,6,6,7,7,8,8,9,9,10,10,11,11,12,12,13,13,14,14],"right_children":[2,4,6,8,10,12,14,16,18,20,22,24,26,28,30,-1,-1,-1,-1,-1,-1,-1,-1,-1,-1,-1,-1,-1,-1,-1,-1],"split_conditions":[2.3803666E-1,2.3230286E-1,-5.690691E-1,-1.3915975E0,-1.9749388E-1,1.621304E0,2.584946E0,-2.4322982E0,-1.003179E0,-5.937163E-1,7.203963E-1,-7.131883E-1,4.7544995E-1,2.3868127E0,1.499844E0,1.0944991E-2,-9.460944E-3,3.2843035E-3,-1.7438121E-3,8.211233E-4,-8.269985E-2,-1.884234E-3,1.6835267E-2,-5.6682628E-2,-4.7692307E-3,-2.7053443E-1,1.2832276E-2,2.5600193E-3,2.4095826E-2,-2.4050714E-2,1.662157E-2],"split_indices":[2,2,5,2,5,10,2,2,2,12,12,10,2,2,7,0,0,0,0,0,0,0,0,0,0,0,0,0,0,0,0],"split_type":[0,0,0,0,0,0,0,0,0,0,0,0,0,0,0,0,0,0,0,0,0,0,0,0,0,0,0,0,0,0,0],"sum_hessian":[8.093E3,4.52E3,3.573E3,4.49E3,3E1,4.5E1,3.528E3,7.13E2,3.777E3,1.6E1,1.4E1,4.2E1,3E0,3.495E3,3.3E1,9.9E1,6.14E2,5.39E2,3.238E3,5E0,1.1E1,1.1E1,3E0,1E0,4.1E1,1E0,2E0,3.466E3,2.9E1,3E1,3E0],"tree_param":{"num_deleted":"0","num_feature":"18","num_nodes":"31","size_leaf_vector":"1"}},{"base_weights":[-4.594343E-4,-1.1914376E-3,1.4893287E-1,1.72108E-2,-3.3241548E-2,2.1094222E-2,-1.3353856E-1,2.9819445E-3,-9.19435E-2,1.209211E-2,9.2384004E-4,-1.8876834E-2,-1.0450053E-3,-3.404069E-3,2.9240032E-3,-8.494789E-3,-1.6351134E-3],"categories":[],"categories_nodes":[],"categories_segments":[],"categories_sizes":[],"default_left":[0,0,0,0,0,0,0,0,0,0,0,0,0,0,0,0,0],"id":12,"left_children":[1,3,-1,5,7,9,11,13,15,-1,-1,-1,-1,-1,-1,-1,-1],"loss_changes":[1.7754635E1,4.800904E0,0E0,3.03004E0,6.313526E0,2.90875E0,3.5649738E0,7.24889E0,5.2266245E0,0E0,0E0,0E0,0E0,0E0,0E0,0E0,0E0],"parents":[2147483647,0,0,1,1,3,3,4,4,5,5,6,6,7,7,8,8],"right_children":[2,4,-1,6,8,10,12,14,16,-1,-1,-1,-1,-1,-1,-1,-1],"split_conditions":[1.4069341E1,-1.5121326E-1,1.4893287E-1,3.9133112E0,-1.7444257E-1,-8.487897E-1,-6.3194144E-1,4.2802405E-1,5.4449987E-2,1.209211E-2,9.2384004E-4,-1.8876834E-2,-1.0450053E-3,-3.404069E-3,2.9240032E-3,-8.494789E-3,-1.6351134E-3],"split_indices":[13,11,0,9,16,12,10,11,16,0,0,0,0,0,0,0,0],"split_type":[0,0,0,0,0,0,0,0,0,0,0,0,0,0,0,0,0],"sum_hessian":[8.139E3,8.138E3,1E0,5.17E3,2.968E3,5.041E3,1.29E2,1.836E3,1.132E3,5.8E1,4.983E3,4E1,8.9E1,8.05E2,1.031E3,4.88E2,6.44E2],"tree_param":{"num_deleted":"0","num_feature":"18","num_nodes":"17","size_leaf_vector":"1"}},{"base_weights":[5.728031E-4,-4.040739E-1,1.9093458E-2,-2.0371658E-1,-8.168501E-1,4.5303977E-1,1.332537E-2,-7.0301116E-1,-1.1260625E-1,7.2383E-1,-1.126095E0,2.882014E0,1.8698835E-1,1.2570412E-2,1.4520955E-1,-7.0397146E-3,-8.650598E-2,2.1368723E-2,-1.0934597E-2,-2.8106451E-2,8.139901E-2,-7.077412E-2,-2.1630688E-2,2.1978338E-1,2.4461353E-2,1.7852323E-2,-2.9713709E-2,-8.129664E-4,3.0792837E-3],"categories":[],"categories_nodes":[],"categories_segments":[],"categories_sizes":[],"default_left":[0,0,0,0,0,0,0,0,0,0,0,0,0,0,0,0,0,0,0,0,0,0,0,0,0,0,0,0,0],"id":13,"left_children":[1,3,5,7,9,11,13,15,17,19,21,23,25,27,-1,-1,-1,-1,-1,-1,-1,-1,-1,-1,-1,-1,-1,-1,-1],"loss_changes":[6.0959034E1,2.9275776E1,1.9462616E1,1.0884139E1,5.6083E1,6.5376755E1,1.6718405E1,2.1122345E1,1.1836729E1,2.4169134E1,1.8854065E1,3.406803E1,1.2568165E1,1.0847936E1,0E0,0E0,0E0,0E0,0E0,0E0,0E0,0E0,0E0,0E0,0E0,0E0,0E0,0E0,0E0],"parents":[2147483647,0,0,1,1,2,2,3,3,4,4,5,5,6,6,7,7,8,8,9,9,10,10,11,11,12,12,13,13],"right_children":[2,4,6,8,10,12,14,16,18,20,22,24,26,28,-1,-1,-1,-1,-1,-1,-1,-1,-1,-1,-1,-1,-1,-1,-1],"split_conditions":[-2.743826E-1,-3.933949E-1,-3.0433616E-1,-3.0887222E-1,-2.799805E-1,-1.241465E0,1.4069341E1,-3.0952242E-1,-3.0433616E-1,9.8037654E-1,6.696284E-1,-2.693627E-1,2.584946E0,4.0738454E-1,1.4520955E-1,-7.0397146E-3,-8.650598E-2,2.1368723E-2,-1.0934597E-2,-2.8106451E-2,8.139901E-2,-7.077412E-2,-2.1630688E-2,2.1978338E-1,2.4461353E-2,1.7852323E-2,-2.9713709E-2,-8.129664E-4,3.0792837E-3],"split_indices":[0,2,1,1,0,7,13,1,1,2,7,0,2,2,0,0,0,0,0,0,0,0,0,0,0,0,0,0,0],"split_type":[0,0,0,0,0,0,0,0,0,0,0,0,0,0,0,0,0,0,0,0,0,0,0,0,0,0,0,0,0],"sum_hessian":[8.132E3,3.55E2,7.777E3,2.4E2,1.15E2,1.01E2,7.676E3,3.6E1,2.04E2,1.9E1,9.6E1,9E0,9.2E1,7.675E3,1E0,2.4E1,1.2E1,3.3E1,1.71E2,8E0,1.1E1,6.7E1,2.9E1,5E0,4E0,7.6E1,1.6E1,4.833E3,2.842E3],"tree_param":{"num_deleted":"0","num_feature":"18","num_nodes":"29","size_leaf_vector":"1"}},{"base_weights":[-3.1756312E-3,1.6631793E-2,-3.0305263E-2,1.5338199E-1,1.1407754E-2,-2.1676814E-2,-2.422767E-1,1.24531366E-1,1.7563573E0,-9.969034E-2,2.179798E-2,-1.8105393E-2,-1.9480707E-1,-8.0442196E-1,-1.599343E-1,7.3039345E-3,-5.6899738E-2,-5.6757998E-2,1.884848E-1,-7.6198326E-3,1.7032377E-2,2.1298435E-2,9.2843623E-4,-1.1884122E-3,3.062898E-3,-1.4574845E-2,1.6196592E-2,-8.557953E-3,-1.4098684E-1,-2.5160415E-2,-2.9277198E-3],"categories":[],"categories_nodes":[],"categories_segments":[],"categories_sizes":[],"default_left":[0,0,0,0,0,0,0,0,0,0,0,0,0,0,0,0,0,0,0,0,0,0,0,0,0,0,0,0,0,0,0],"id":14,"left_children":[1,3,5,7,9,11,13,15,17,19,21,23,25,27,29,-1,-1,-1,-1,-1,-1,-1,-1,-1,-1,-1,-1,-1,-1,-1,-1],"loss_changes":[4.398325E0,3.3780212E0,6.3120613E0,7.8282304E0,5.2636285E0,2.0492983E0,6.1202774E0,4.8453374E0,2.1744019E1,9.103261E0,5.4333463E0,1.4638782E0,3.4549294E0,2.1213184E1,4.111864E0,0E0,0E0,0E0,0E0,0E0,0E0,0E0,0E0,0E0,0E0,0E0,0E0,0E0,0E0,0E0,0E0],"parents":[2147483647,0,0,1,1,2,2,3,3,4,4,5,5,6,6,7,7,8,8,9,9,10,10,11,11,12,12,13,13,14,14],"right_children":[2,4,6,8,10,12,14,16,18,20,22,24,26,28,30,-1,-1,-1,-1,-1,-1,-1,-1,-1,-1,-1,-1,-1,-1,-1,-1],"split_conditions":[-2.693102E-1,-1.2496448E0,1.6780066E0,-2.7493387E-1,-1.1473771E0,3.9133112E0,1.6890584E0,5.476288E0,-1.250722E0,-1.6070984E-1,-1.1365272E0,1.4070469E0,-3.343788E-1,-4.6383608E-2,-1.0060029E-1,7.3039345E-3,-5.6899738E-2,-5.6757998E-2,1.884848E-1,-7.6198326E-3,1.7032377E-2,2.1298435E-2,9.2843623E-4,-1.1884122E-3,3.062898E-3,-1.4574845E-2,1.6196592E-2,-8.557953E-3,-1.4098684E-1,-2.5160415E-2,-2.9277198E-3],"split_indices":[11,7,7,11,7,9,7,13,7,10,7,7,16,16,11,0,0,0,0,0,0,0,0,0,0,0,0,0,0,0,0],"split_type":[0,0,0,0,0,0,0,0,0,0,0,0,0,0,0,0,0,0,0,0,0,0,0,0,0,0,0,0,0,0,0],"sum_hessian":[8.183E3,4.73E3,3.453E3,1.73E2,4.557E3,3.319E3,1.34E2,1.71E2,2E0,3.89E2,4.168E3,3.253E3,6.6E1,1.6E1,1.18E2,1.69E2,2E0,1E0,1E0,3.48E2,4.1E1,3.2E1,4.136E3,3.037E3,2.16E2,5.6E1,1E1,1.3E1,3E0,2.6E1,9.2E1],"tree_param":{"num_deleted":"0","num_feature":"18","num_nodes":"31","size_leaf_vector":"1"}},{"base_weights":[-3.616142E-3,-3.7290952E-1,1.3033774E-2,-4.6012515E-1,8.273075E-1,1.2303902E-2,1.4155611E-1,-2.3793411E-1,-1.0974144E0,-1.5892155E0,1.248202E0,-1.2788055E-2,7.158403E-2,7.3422077E-3,-1.9414354E-2,-1.2178612E-1,-4.6224546E-2,-1.4452027E-1,5.7858855E-2,8.100941E-2,-1.3309576E-2,-7.1913335E-3,2.920052E-4,2.816986E-2,2.0944155E-3],"categories":[],"categories_nodes":[],"categories_segments":[],"categories_sizes":[],"default_left":[0,0,0,0,0,0,0,0,0,0,0,0,0,0,0,0,0,0,0,0,0,0,0,0,0],"id":15,"left_children":[1,3,5,7,9,11,-1,13,15,17,19,21,23,-1,-1,-1,-1,-1,-1,-1,-1,-1,-1,-1,-1],"loss_changes":[4.9741726E1,3.6913185E1,1.5887198E1,4.5900467E1,2.639409E1,1.1513813E1,0E0,1.4115189E1,1.7187897E1,1.7639025E1,1.2261288E1,1.3277482E1,3.3596523E1,0E0,0E0,0E0,0E0,0E0,0E0,0E0,0E0,0E0,0E0,0E0,0E0],"parents":[2147483647,0,0,1,1,2,2,3,3,4,4,5,5,7,7,8,8,9,9,10,10,11,11,12,12],"right_children":[2,4,6,8,10,12,-1,14,16,18,20,22,24,-1,-1,-1,-1,-1,-1,-1,-1,-1,-1,-1,-1],"split_conditions":[-2.743826E-1,1.2968253E0,1.4069341E1,-2.8721988E-1,-1.8420836E0,5.580496E-1,1.4155611E-1,-2.271012E0,-5.3159076E-1,1.6945581E0,2.584946E0,-2.5635433E-1,-2.607208E-1,7.3422077E-3,-1.9414354E-2,-1.2178612E-1,-4.6224546E-2,-1.4452027E-1,5.7858855E-2,8.100941E-2,-1.3309576E-2,-7.1913335E-3,2.920052E-4,2.816986E-2,2.0944155E-3],"split_indices":[0,2,13,2,3,2,0,2,4,2,2,0,0,0,0,0,0,0,0,0,0,0,0,0,0],"split_type":[0,0,0,0,0,0,0,0,0,0,0,0,0,0,0,0,0,0,0,0,0,0,0,0,0],"sum_hessian":[8.088E3,3.48E2,7.74E3,3.25E2,2.3E1,7.739E3,1E0,2.42E2,8.3E1,3E0,2E1,5.438E3,2.301E3,6.8E1,1.74E2,8E0,7.5E1,2E0,1E0,1.6E1,4E0,6.76E2,4.762E3,1.3E2,2.171E3],"tree_param":{"num_deleted":"0","num_feature":"18","num_nodes":"25","size_leaf_vector":"1"}},{"base_weights":[-4.3737233E-4,-1.1669934E-2,5.5783916E-2,2.8364135E-2,-2.6581902E-2,-1.2364088E-1,7.177455E-2,-3.1738418E-1,3.941371E-2,-6.827345E-3,-5.3881884E-2,-2.0866224E-1,6.6824996E-1,2.0628539E-1,4.3096367E-2,-8.662291E-3,-4.521975E-2,3.3284833E-3,-2.101038E-3,-2.7057447E-3,8.7035354E-4,-3.2738443E-2,-2.5323553E-3,1.967551E-2,-1.4331671E-2,7.118621E-2,1.6580623E-3,4.1629183E-3,2.3260511E-2,8.764994E-3,7.647641E-4],"categories":[],"categories_nodes":[],"categories_segments":[],"categories_sizes":[],"default_left":[0,0,0,0,0,0,0,0,0,0,0,0,0,0,0,0,0,0,0,0,0,0,0,0,0,0,0,0,0,0,0],"id":16,"left_children":[1,3,5,7,9,11,13,15,17,19,21,23,25,27,29,-1,-1,-1,-1,-1,-1,-1,-1,-1,-1,-1,-1,-1,-1,-1,-1],"loss_changes":[5.1272416E0,4.040563E0,3.88792E0,7.030531E0,2.6589155E0,7.612807E0,4.7821565E0,4.6661315E0,3.941356E0,3.280754E0,3.990368E0,4.8549557E0,5.2305117E0,6.9056034E0,3.764605E0,0E0,0E0,0E0,0E0,0E0,0E0,0E0,0E0,0E0,0E0,0E0,0E0,0E0,0E0,0E0,0E0],"parents":[2147483647,0,0,1,1,2,2,3,3,4,4,5,5,6,6,7,7,8,8,9,9,10,10,11,11,12,12,13,13,14,14],"right_children":[2,4,6,8,10,12,14,16,18,20,22,24,26,28,30,-1,-1,-1,-1,-1,-1,-1,-1,-1,-1,-1,-1,-1,-1,-1,-1],"split_conditions":[8.0081046E-1,-6.4376235E-1,-1.2507635E0,-5.427581E-1,-2.4187127E-2,5.378879E-1,-1.2477661E0,-5.4556054E-1,1.1711469E0,-7.7597E-1,-6.4053357E-1,-5.1855457E-1,1.6668334E0,2.0034485E0,8.994724E-1,-8.662291E-3,-4.521975E-2,3.3284833E-3,-2.101038E-3,-2.7057447E-3,8.7035354E-4,-3.2738443E-2,-2.5323553E-3,1.967551E-2,-1.4331671E-2,7.118621E-2,1.6580623E-3,4.1629183E-3,2.3260511E-2,8.764994E-3,7.647641E-4],"split_indices":[3,12,7,4,3,4,7,4,7,3,12,4,3,3,3,0,0,0,0,0,0,0,0,0,0,0,0,0,0,0,0],"split_type":[0,0,0,0,0,0,0,0,0,0,0,0,0,0,0,0,0,0,0,0,0,0,0,0,0,0,0,0,0,0,0],"sum_hessian":[8.117E3,6.766E3,1.351E3,1.836E3,4.93E3,1.1E2,1.241E3,5.6E1,1.78E3,2.861E3,2.069E3,1E2,1E1,2.17E2,1.024E3,4.6E1,1E1,1.335E3,4.45E2,9.69E2,1.892E3,1E1,2.059E3,1.1E1,8.9E1,4E0,6E0,1.48E2,6.9E1,1.77E2,8.47E2],"tree_param":{"num_deleted":"0","num_feature":"18","num_nodes":"31","size_leaf_vector":"1"}},{"base_weights":[-5.5913734E-3,-4.1679582E-1,1.30980415E-2,-7.4902964E-1,-1.1118673E-1,4.6868518E-1,7.060078E-3,-1.6605651E-1,-1.0468981E0,-3.9537016E-1,5.111391E-2,2.9191802E0,2.2650088E-1,5.8551107E-2,-1.2891051E-2,3.8062204E-3,-7.465277E-2,-8.474536E-2,-4.194076E-2,-2.7476398E-2,6.5176683E-3,2.0393012E-2,-2.706948E-3,1.091282E-2,2.5181338E-1,5.385814E-2,3.7401894E-3,-3.2945347E-3,5.9842635E-3,-2.3540698E-2,-4.976913E-4],"categories":[],"categories_nodes":[],"categories_segments":[],"categories_sizes":[],"default_left":[0,0,0,0,0,0,0,0,0,0,0,0,0,0,0,0,0,0,0,0,0,0,0,0,0,0,0,0,0,0,0],"id":17,"left_children":[1,3,5,7,9,11,13,15,17,19,21,23,25,27,29,-1,-1,-1,-1,-1,-1,-1,-1,-1,-1,-1,-1,-1,-1,-1,-1],"loss_changes":[6.2047844E1,3.5555035E1,2.1241264E1,2.8999252E1,8.506869E0,5.9279415E1,7.8318944E0,1.8753336E1,1.3545479E1,5.501606E0,4.4528127E0,5.036364E1,1.1920419E1,1.6204563E1,7.386216E0,0E0,0E0,0E0,0E0,0E0,0E0,0E0,0E0,0E0,0E0,0E0,0E0,0E0,0E0,0E0,0E0],"parents":[2147483647,0,0,1,1,2,2,3,3,4,4,5,5,6,6,7,7,8,8,9,9,10,10,11,11,12,12,13,13,14,14],"right_children":[2,4,6,8,10,12,14,16,18,20,22,24,26,28,30,-1,-1,-1,-1,-1,-1,-1,-1,-1,-1,-1,-1,-1,-1,-1,-1],"split_conditions":[-2.743826E-1,-3.0654034E-1,-3.0433616E-1,-2.799805E-1,-3.2793912E-1,-1.241465E0,-2.4323907E-1,4.8162246E-1,-5.919639E-1,-2.3918258E-1,-7.148016E-1,8.1690477E-4,-2.7193826E-1,-2.5573093E-1,-2.635984E-1,3.8062204E-3,-7.465277E-2,-8.474536E-2,-4.194076E-2,-2.7476398E-2,6.5176683E-3,2.0393012E-2,-2.706948E-3,1.091282E-2,2.5181338E-1,5.385814E-2,3.7401894E-3,-3.2945347E-3,5.9842635E-3,-2.3540698E-2,-4.976913E-4],"split_indices":[0,1,1,0,3,7,1,6,3,1,7,6,0,0,0,0,0,0,0,0,0,0,0,0,0,0,0,0,0,0,0],"split_type":[0,0,0,0,0,0,0,0,0,0,0,0,0,0,0,0,0,0,0,0,0,0,0,0,0,0,0,0,0,0,0],"sum_hessian":[8.072E3,3.5E2,7.722E3,1.67E2,1.83E2,1E2,7.622E3,5.7E1,1.1E2,6.6E1,1.17E2,8E0,9.2E1,2.128E3,5.494E3,4.9E1,8E0,2.5E1,8.5E1,5.1E1,1.5E1,2.6E1,9.1E1,4E0,4E0,1.3E1,7.9E1,7.01E2,1.427E3,3.4E1,5.46E3],"tree_param":{"num_deleted":"0","num_feature":"18","num_nodes":"31","size_leaf_vector":"1"}},{"base_weights":[2.7879584E-3,-6.692045E-1,1.3591351E-2,-1.2007984E0,1.257678E-1,-1.7985577E-2,9.337466E-2,-7.9213226E-1,-1.6912256E-1,1.7069204E0,-1.5194936E-1,-1.5866086E-1,2.6752271E-3,5.767707E-1,6.405508E-2,-2.7670113E-2,-7.914182E-2,1.1526405E-1,-2.9387109E-3,-1.0378597E-1,4.0344363E-3,-5.5722464E-2,-7.0711314E-3,1.3369999E-2,-4.8298892E-4,1.8987146E-3,4.956382E-2,-2.8657455E-2,4.1878475E-3],"categories":[],"categories_nodes":[],"categories_segments":[],"categories_sizes":[],"default_left":[0,0,0,0,0,0,0,0,0,0,0,0,0,0,0,0,0,0,0,0,0,0,0,0,0,0,0,0,0],"id":18,"left_children":[1,3,5,7,9,11,13,15,-1,17,19,21,23,25,27,-1,-1,-1,-1,-1,-1,-1,-1,-1,-1,-1,-1,-1,-1],"loss_changes":[5.964834E1,5.508934E1,2.0372835E1,6.686293E1,2.3532366E1,1.6840479E1,3.2461674E1,1.1771294E1,0E0,8.587667E0,2.0754425E1,1.2067663E1,1.6502552E1,2.9219131E1,2.7202545E1,0E0,0E0,0E0,0E0,0E0,0E0,0E0,0E0,0E0,0E0,0E0,0E0,0E0,0E0],"parents":[2147483647,0,0,1,1,2,2,3,3,4,4,5,5,6,6,7,7,9,9,10,10,11,11,12,12,13,13,14,14],"right_children":[2,4,6,8,10,12,14,16,-1,18,20,22,24,26,28,-1,-1,-1,-1,-1,-1,-1,-1,-1,-1,-1,-1,-1,-1],"split_conditions":[-3.0887222E-1,1.1965607E0,5.580496E-1,-2.783152E-1,-2.799805E-1,-2.6182565E-1,-2.607208E-1,-3.0952242E-1,-1.6912256E-1,1.6945581E0,-2.7928197E-1,-5.670174E-1,-2.7545103E-1,-3.052016E-1,-2.9826248E-1,-2.7670113E-2,-7.914182E-2,1.1526405E-1,-2.9387109E-3,-1.0378597E-1,4.0344363E-3,-5.5722464E-2,-7.0711314E-3,1.3369999E-2,-4.8298892E-4,1.8987146E-3,4.956382E-2,-2.8657455E-2,4.1878475E-3],"split_indices":[1,2,2,0,0,0,0,1,0,2,0,5,1,1,1,0,0,0,0,0,0,0,0,0,0,0,0,0,0],"split_type":[0,0,0,0,0,0,0,0,0,0,0,0,0,0,0,0,0,0,0,0,0,0,0,0,0,0,0,0,0],"sum_hessian":[8.214E3,1.29E2,8.085E3,7.7E1,5.2E1,5.793E3,2.292E3,6.6E1,1.1E1,7E0,4.5E1,7.41E2,5.052E3,1.3E2,2.162E3,5.2E1,1.4E1,5E0,2E0,4E0,4.1E1,1.2E1,7.29E2,2.24E2,4.828E3,5.7E1,7.3E1,6.4E1,2.098E3],"tree_param":{"num_deleted":"0","num_feature":"18","num_nodes":"29","size_leaf_vector":"1"}},{"base_weights":[-4.4612824E-3,-4.3671018E-1,9.925535E-3,-4.1854437E-3,-7.053331E-1,3.275355E-1,4.4034617E-3,6.173151E-1,-2.510256E-1,-1.1988331E0,-2.8232932E-1,-3.4019584E-3,1.9248165E0,6.330237E-2,-1.228268E-2,5.2393347E-2,1.0100007E-2,-3.7005357E-2,-3.8753033E-3,-5.3915586E-2,-1.3231826E-1,-3.9695837E-2,-5.5065765E-3,-5.256744E-2,4.365923E-3,4.1773174E-2,2.147707E-1,-4.3225433E-3,8.018523E-3,-3.4523994E-4,-9.9024605E-3],"categories":[],"categories_nodes":[],"categories_segments":[],"categories_sizes":[],"default_left":[0,0,0,0,0,0,0,0,0,0,0,0,0,0,0,0,0,0,0,0,0,0,0,0,0,0,0,0,0,0,0],"id":19,"left_children":[1,3,5,7,9,11,13,15,17,19,21,23,25,27,29,-1,-1,-1,-1,-1,-1,-1,-1,-1,-1,-1,-1,-1,-1,-1,-1],"loss_changes":[5.038813E1,3.0321606E1,1.3752371E1,1.5649503E1,3.3270668E1,7.083897E1,7.5771475E0,4.973954E0,6.137797E0,1.005632E1,7.6648574E0,1.0739663E1,5.580694E1,2.4754581E1,6.000806E0,0E0,0E0,0E0,0E0,0E0,0E0,0E0,0E0,0E0,0E0,0E0,0E0,0E0,0E0,0E0,0E0],"parents":[2147483647,0,0,1,1,2,2,3,3,4,4,5,5,6,6,7,7,8,8,9,9,10,10,11,11,12,12,13,13,14,14],"right_children":[2,4,6,8,10,12,14,16,18,20,22,24,26,28,30,-1,-1,-1,-1,-1,-1,-1,-1,-1,-1,-1,-1,-1,-1,-1,-1],"split_conditions":[-2.759866E-1,-2.799805E-1,-3.0433616E-1,-8.586117E-3,-3.0654034E-1,-3.052016E-1,-2.5810307E-1,-3.0952242E-1,-5.2237505E-1,-2.764087E-1,-5.3986174E-1,-5.3159076E-1,1.9458294E0,-2.5635433E-1,1.4613857E0,5.2393347E-2,1.0100007E-2,-3.7005357E-2,-3.8753033E-3,-5.3915586E-2,-1.3231826E-1,-3.9695837E-2,-5.5065765E-3,-5.256744E-2,4.365923E-3,4.1773174E-2,2.147707E-1,-4.3225433E-3,8.018523E-3,-3.4523994E-4,-9.9024605E-3],"split_indices":[0,0,1,6,1,1,1,1,11,0,10,4,17,0,0,0,0,0,0,0,0,0,0,0,0,0,0,0,0,0,0],"split_type":[0,0,0,0,0,0,0,0,0,0,0,0,0,0,0,0,0,0,0,0,0,0,0,0,0,0,0,0,0,0,0],"sum_hessian":[8.101E3,2.6E2,7.841E3,1E2,1.6E2,1.33E2,7.708E3,2.8E1,7.2E1,7.3E1,8.7E1,1.11E2,2.2E1,1.701E3,6.007E3,1.3E1,1.5E1,1.8E1,5.4E1,6.9E1,4E0,2.1E1,6.6E1,8E0,1.03E2,1.6E1,6E0,6.69E2,1.032E3,5.839E3,1.68E2],"tree_param":{"num_deleted":"0","num_feature":"18","num_nodes":"31","size_leaf_vector":"1"}},{"base_weights":[-1.8207878E-3,-3.31036E-1,1.3272895E-2,-1.4509852E-1,-7.0961684E-1,3.488323E-1,8.938258E-3,-2.685393E-1,1.3543805E-1,-1.1363976E0,4.595318E-1,-5.9085977E-3,1.6667228E0,-9.148476E-2,1.9808022E-2,-6.0612995E-2,-7.6751276E-3,1.3908706E-2,-4.0294502E-2,-4.0032E-2,-1.1801676E-1,-4.9702387E-2,3.827649E-2,3.6343724E-2,-1.5074466E-2,3.6642134E-2,1.9396414E-1,-7.599022E-2,-3.8952527E-3,9.8054325E-3,9.49888E-5],"categories":[],"categories_nodes":[],"categories_segments":[],"categories_sizes":[],"default_left":[0,0,0,0,0,0,0,0,0,0,0,0,0,0,0,0,0,0,0,0,0,0,0,0,0,0,0,0,0,0,0],"id":20,"left_children":[1,3,5,7,9,11,13,15,17,19,21,23,25,27,29,-1,-1,-1,-1,-1,-1,-1,-1,-1,-1,-1,-1,-1,-1,-1,-1],"loss_changes":[4.035324E1,2.4956718E1,1.1291292E1,8.3474865E0,5.890172E1,4.6293304E1,8.370914E0,1.7943863E1,1.0166925E1,3.345159E1,1.4994331E1,1.7330273E1,4.054868E1,1.4409325E1,2.1844536E1,0E0,0E0,0E0,0E0,0E0,0E0,0E0,0E0,0E0,0E0,0E0,0E0,0E0,0E0,0E0,0E0],"parents":[2147483647,0,0,1,1,2,2,3,3,4,4,5,5,6,6,7,7,8,8,9,9,10,10,11,11,12,12,13,13,14,14],"right_children":[2,4,6,8,10,12,14,16,18,20,22,24,26,28,30,-1,-1,-1,-1,-1,-1,-1,-1,-1,-1,-1,-1,-1,-1,-1,-1],"split_conditions":[-2.743826E-1,-3.933949E-1,-3.0433616E-1,-1.2246279E0,1.1965607E0,-3.052016E-1,-2.5635433E-1,-3.0887222E-1,1.074242E0,8.6213523E-1,-5.0689423E-1,-5.6503586E-2,-2.0945793E-1,-5.690691E-1,-2.701447E-1,-6.0612995E-2,-7.6751276E-3,1.3908706E-2,-4.0294502E-2,-4.0032E-2,-1.1801676E-1,-4.9702387E-2,3.827649E-2,3.6343724E-2,-1.5074466E-2,3.6642134E-2,1.9396414E-1,-7.599022E-2,-3.8952527E-3,9.8054325E-3,9.49888E-5],"split_indices":[0,2,1,2,2,1,0,1,10,2,5,6,10,5,1,0,0,0,0,0,0,0,0,0,0,0,0,0,0,0,0],"split_type":[0,0,0,0,0,0,0,0,0,0,0,0,0,0,0,0,0,0,0,0,0,0,0,0,0,0,0,0,0,0,0],"sum_hessian":[8.119E3,3.55E2,7.764E3,2.39E2,1.16E2,9.8E1,7.666E3,1.66E2,7.3E1,8.5E1,3.1E1,7.8E1,2E1,7.48E2,6.918E3,1.7E1,1.49E2,6.4E1,9E0,6.8E1,1.7E1,5E0,2.6E1,2.2E1,5.6E1,1.5E1,5E0,6E0,7.42E2,6.37E2,6.281E3],"tree_param":{"num_deleted":"0","num_feature":"18","num_nodes":"31","size_leaf_vector":"1"}},{"base_weights":[8.622291E-3,-4.796205E-1,1.5855795E-2,1.8295367E-1,-7.050157E-1,5.3013787E-2,-7.25654E-4,-8.293631E-1,4.5908424E-1,-5.5752176E-1,-1.3954844E0,1.0338135E-1,-3.3286266E-2,-5.451206E-1,2.230468E-3,-7.590479E-2,3.335511E-3,3.4726944E-2,-3.1082103E-2,-5.172908E-2,-7.902809E-3,-1.203218E-2,-9.744203E-2,8.645714E-3,1.5683145E-3,7.256119E-5,-1.8827152E-2,-1.9814828E-2,-8.762192E-2,-2.5513538E-3,1.0411628E-3],"categories":[],"categories_nodes":[],"categories_segments":[],"categories_sizes":[],"default_left":[0,0,0,0,0,0,0,0,0,0,0,0,0,0,0,0,0,0,0,0,0,0,0,0,0,0,0,0,0,0,0],"id":21,"left_children":[1,3,5,7,9,11,13,15,17,19,21,23,25,27,29,-1,-1,-1,-1,-1,-1,-1,-1,-1,-1,-1,-1,-1,-1,-1,-1],"loss_changes":[2.8787474E1,1.7900574E1,4.948206E0,9.0462265E0,8.285744E0,1.077462E1,8.939256E0,4.4213567E0,6.7933044E0,1.412915E1,9.116596E0,7.831188E0,1.0898971E1,4.695853E0,5.471951E0,0E0,0E0,0E0,0E0,0E0,0E0,0E0,0E0,0E0,0E0,0E0,0E0,0E0,0E0,0E0,0E0],"parents":[2147483647,0,0,1,1,2,2,3,3,4,4,5,5,6,6,7,7,8,8,9,9,10,10,11,11,12,12,13,13,14,14],"right_children":[2,4,6,8,10,12,14,16,18,20,22,24,26,28,30,-1,-1,-1,-1,-1,-1,-1,-1,-1,-1,-1,-1,-1,-1,-1,-1],"split_conditions":[-3.0887222E-1,-3.1190172E-1,-2.4323907E-1,-4.081487E-1,7.906222E-1,-1.2630866E-1,-2.4237773E-1,2.8491206E0,1.3071495E0,-3.289565E-1,-3.1020474E-1,3.134353E-2,9.117483E-1,1.7621318E0,-1.9431959E-1,-7.590479E-2,3.335511E-3,3.4726944E-2,-3.1082103E-2,-5.172908E-2,-7.902809E-3,-1.203218E-2,-9.744203E-2,8.645714E-3,1.5683145E-3,7.256119E-5,-1.8827152E-2,-1.9814828E-2,-8.762192E-2,-2.5513538E-3,1.0411628E-3],"split_indices":[1,1,1,16,12,16,1,8,10,12,1,3,10,10,1,0,0,0,0,0,0,0,0,0,0,0,0,0,0,0,0],"split_type":[0,0,0,0,0,0,0,0,0,0,0,0,0,0,0,0,0,0,0,0,0,0,0,0,0,0,0,0,0,0,0],"sum_hessian":[8.148E3,1.18E2,8.03E3,3E1,8.8E1,2.477E3,5.553E3,6E0,2.4E1,7.4E1,1.4E1,1.564E3,9.13E2,2.9E1,5.524E3,3E0,3E0,2E1,4E0,3.3E1,4.1E1,5E0,9E0,7.95E2,7.69E2,8.3E2,8.3E1,2.7E1,2E0,1.429E3,4.095E3],"tree_param":{"num_deleted":"0","num_feature":"18","num_nodes":"31","size_leaf_vector":"1"}},{"base_weights":[7.7781826E-4,-3.0476153E-1,1.4592521E-2,-6.7241776E-1,-1.937471E-1,1.3888305E-2,1.3701795E-1,1.6125644E-2,-9.29436E-1,8.0341704E-2,-3.545028E-1,4.964423E-2,-8.881417E-3,9.584997E-3,-4.3288864E-2,-6.552294E-2,-1.9771403E-2,-1.7913224E-5,4.526573E-2,-1.2190449E-2,-4.812282E-2,3.1379987E-3,-7.882081E-3,-1.1588342E-2,-4.2400436E-5],"categories":[],"categories_nodes":[],"categories_segments":[],"categories_sizes":[],"default_left":[0,0,0,0,0,0,0,0,0,0,0,0,0,0,0,0,0,0,0,0,0,0,0,0,0],"id":22,"left_children":[1,3,5,7,9,11,-1,13,15,17,19,21,23,-1,-1,-1,-1,-1,-1,-1,-1,-1,-1,-1,-1],"loss_changes":[3.4248894E1,1.4195839E1,1.4863239E1,1.4349419E1,1.1969103E1,6.319893E0,0E0,3.7272775E0,1.1486488E1,6.7244277E0,1.1273081E1,8.220388E0,8.492286E0,0E0,0E0,0E0,0E0,0E0,0E0,0E0,0E0,0E0,0E0,0E0,0E0],"parents":[2147483647,0,0,1,1,2,2,3,3,4,4,5,5,7,7,8,8,9,9,10,10,11,11,12,12],"right_children":[2,4,6,8,10,12,-1,14,16,18,20,22,24,-1,-1,-1,-1,-1,-1,-1,-1,-1,-1,-1,-1],"split_conditions":[-2.743826E-1,-5.67087E-1,1.4069341E1,-2.799805E-1,2.2708774E-2,-2.030393E-1,1.3701795E-1,-7.0733964E-1,-2.764087E-1,6.009743E-1,8.3855146E-1,1.7621318E0,-1.9809146E-1,9.584997E-3,-4.3288864E-2,-6.552294E-2,-1.9771403E-2,-1.7913224E-5,4.526573E-2,-1.2190449E-2,-4.812282E-2,3.1379987E-3,-7.882081E-3,-1.1588342E-2,-4.2400436E-5],"split_indices":[0,3,13,0,3,0,0,3,0,5,11,10,0,0,0,0,0,0,0,0,0,0,0,0,0],"split_type":[0,0,0,0,0,0,0,0,0,0,0,0,0,0,0,0,0,0,0,0,0,0,0,0,0],"sum_hessian":[8.112E3,3.5E2,7.762E3,8E1,2.7E2,7.761E3,1E0,2.2E1,5.8E1,1E2,1.7E2,3.019E3,4.742E3,1.9E1,3E0,3.3E1,2.5E1,9.2E1,8E0,1.45E2,2.5E1,2.84E3,1.79E2,1.64E2,4.578E3],"tree_param":{"num_deleted":"0","num_feature":"18","num_nodes":"25","size_leaf_vector":"1"}},{"base_weights":[2.525888E-3,-5.3577197E-1,1.0951106E-2,-1.0212501E0,1.7474024E-1,-1.3513067E-2,7.219194E-2,-8.81399E-1,-1.6416295E-1,-1.4670832E0,4.6273685E-1,1.0143988E0,-1.583833E-2,2.295588E-1,1.3910052E-2,-2.802362E-2,-8.438923E-2,3.533734E-2,-9.392971E-2,5.430459E-2,-2.2371894E-2,6.314183E-2,-4.9171347E-2,-3.439797E-2,-5.441541E-4,1.910475E-1,9.119577E-3,4.651802E-3,-1.7980253E-3],"categories":[],"categories_nodes":[],"categories_segments":[],"categories_sizes":[],"default_left":[0,0,0,0,0,0,0,0,0,0,0,0,0,0,0,0,0,0,0,0,0,0,0,0,0,0,0,0,0],"id":23,"left_children":[1,3,5,7,9,11,13,15,-1,17,19,21,23,25,27,-1,-1,-1,-1,-1,-1,-1,-1,-1,-1,-1,-1,-1,-1],"loss_changes":[3.7081753E1,4.3640663E1,1.2061537E1,2.0831985E1,2.5266533E1,1.3766695E1,2.1073227E1,1.7686966E1,0E0,8.484129E0,2.6017246E1,7.6942663E0,1.911307E1,1.0449804E2,6.6248293E0,0E0,0E0,0E0,0E0,0E0,0E0,0E0,0E0,0E0,0E0,0E0,0E0,0E0,0E0],"parents":[2147483647,0,0,1,1,2,2,3,3,4,4,5,5,6,6,7,7,9,9,10,10,11,11,12,12,13,13,14,14],"right_children":[2,4,6,8,10,12,14,16,-1,18,20,22,24,26,28,-1,-1,-1,-1,-1,-1,-1,-1,-1,-1,-1,-1,-1,-1],"split_conditions":[-3.0887222E-1,1.1965607E0,5.580496E-1,1.0750924E0,-1.1801115E0,-3.0823362E-1,-2.701447E-1,-3.0952242E-1,-1.6416295E-1,1.4229261E0,2.584946E0,4.2802405E-1,-3.0654034E-1,5.659415E-1,7.66393E-1,-2.802362E-2,-8.438923E-2,3.533734E-2,-9.392971E-2,5.430459E-2,-2.2371894E-2,6.314183E-2,-4.9171347E-2,-3.439797E-2,-5.441541E-4,1.910475E-1,9.119577E-3,4.651802E-3,-1.7980253E-3],"split_indices":[1,2,2,2,7,1,1,1,0,2,2,11,1,2,2,0,0,0,0,0,0,0,0,0,0,0,0,0,0],"split_type":[0,0,0,0,0,0,0,0,0,0,0,0,0,0,0,0,0,0,0,0,0,0,0,0,0,0,0,0,0],"sum_hessian":[8.174E3,1.25E2,8.049E3,7.4E1,5.1E1,5.752E3,2.297E3,7.1E1,3E0,7E0,4.4E1,1.2E1,5.74E3,6.2E2,1.677E3,5.2E1,1.9E1,1E0,6E0,2.6E1,1.8E1,1.1E1,1E0,4.1E1,5.699E3,7E0,6.13E2,6.48E2,1.029E3],"tree_param":{"num_deleted":"0","num_feature":"18","num_nodes":"29","size_leaf_vector":"1"}},{"base_weights":[-3.818553E-3,-4.4532735E-3,1.288163E-1,2.6514754E-2,-3.2841407E-2,-5.7794616E-2,5.1179115E-2,1.7972468E-1,-4.0575337E-2,1.4856599E-2,-3.4046476E-3,-3.611599E-4,3.8463862E-3,-7.138293E-2,1.1695611E-2,-9.4622833E-4,-4.5026294E-3],"categories":[],"categories_nodes":[],"categories_segments":[],"categories_sizes":[],"default_left":[0,0,0,0,0,0,0,0,0,0,0,0,0,0,0,0,0],"id":24,"left_children":[1,3,-1,5,7,9,11,13,15,-1,-1,-1,-1,-1,-1,-1,-1],"loss_changes":[1.3317553E1,7.142878E0,0E0,8.083649E0,6.976086E0,3.2367659E0,4.522417E0,1.3311867E1,4.380659E0,0E0,0E0,0E0,0E0,0E0,0E0,0E0,0E0],"parents":[2147483647,0,0,1,1,3,3,4,4,5,5,6,6,7,7,8,8],"right_children":[2,4,-1,6,8,10,12,14,16,-1,-1,-1,-1,-1,-1,-1,-1],"split_conditions":[1.4069341E1,-4.0886876E-1,1.288163E-1,-4.5915744E-1,-6.91085E-1,-8.487897E-1,-6.348483E-1,-5.5397755E-1,5.842116E-2,1.4856599E-2,-3.4046476E-3,-3.611599E-4,3.8463862E-3,-7.138293E-2,1.1695611E-2,-9.4622833E-4,-4.5026294E-3],"split_indices":[13,12,0,5,11,12,11,5,4,0,0,0,0,0,0,0,0],"split_type":[0,0,0,0,0,0,0,0,0,0,0,0,0,0,0,0,0],"sum_hessian":[8.124E3,8.123E3,1E0,3.885E3,4.238E3,8.79E2,3.006E3,1.48E2,4.09E3,2.4E1,8.55E2,9.2E2,2.086E3,4E0,1.44E2,2.846E3,1.244E3],"tree_param":{"num_deleted":"0","num_feature":"18","num_nodes":"17","size_leaf_vector":"1"}},{"base_weights":[-4.7336207E-4,-3.1916827E-1,1.4259054E-2,-1.10863484E-1,-5.9890634E-1,5.1013356E-1,7.067788E-3,-1.869125E-1,8.086538E-1,-8.66716E-1,3.2875836E-1,2.5929313E0,2.5509652E-1,6.4124297E-3,1.2559591E-1,-4.666642E-2,-3.2190771E-3,5.926281E-2,7.7564227E-3,-3.197289E-2,-9.7983584E-2,6.28457E-2,-1.0507259E-2,2.477169E-1,9.922488E-3,2.0234583E-2,-2.2443766E-2,3.711501E-3,-6.203685E-4],"categories":[],"categories_nodes":[],"categories_segments":[],"categories_sizes":[],"default_left":[0,0,0,0,0,0,0,0,0,0,0,0,0,0,0,0,0,0,0,0,0,0,0,0,0,0,0,0,0],"id":25,"left_children":[1,3,5,7,9,11,13,15,17,19,21,23,25,27,-1,-1,-1,-1,-1,-1,-1,-1,-1,-1,-1,-1,-1,-1,-1],"loss_changes":[3.8147915E1,2.0852814E1,2.7689684E1,1.4626325E1,3.8295895E1,5.8300716E1,1.2551787E1,1.750005E1,3.7540398E0,2.8304482E1,1.7770657E1,6.686896E1,1.0712732E1,9.7711E0,0E0,0E0,0E0,0E0,0E0,0E0,0E0,0E0,0E0,0E0,0E0,0E0,0E0,0E0,0E0],"parents":[2147483647,0,0,1,1,2,2,3,3,4,4,5,5,6,6,7,7,8,8,9,9,10,10,11,11,12,12,13,13],"right_children":[2,4,6,8,10,12,14,16,18,20,22,24,26,28,-1,-1,-1,-1,-1,-1,-1,-1,-1,-1,-1,-1,-1,-1,-1],"split_conditions":[-2.743826E-1,-6.759769E-1,-3.0433616E-1,-8.7119675E-1,1.1965607E0,-1.241465E0,1.4069341E1,-3.0887222E-1,-2.764087E-1,8.6213523E-1,-2.799805E-1,9.8037654E-1,2.584946E0,-2.5810307E-1,1.2559591E-1,-4.666642E-2,-3.2190771E-3,5.926281E-2,7.7564227E-3,-3.197289E-2,-9.7983584E-2,6.28457E-2,-1.0507259E-2,2.477169E-1,9.922488E-3,2.0234583E-2,-2.2443766E-2,3.711501E-3,-6.203685E-4],"split_indices":[0,2,1,2,2,7,13,1,0,2,0,2,2,1,0,0,0,0,0,0,0,0,0,0,0,0,0,0,0],"split_type":[0,0,0,0,0,0,0,0,0,0,0,0,0,0,0,0,0,0,0,0,0,0,0,0,0,0,0,0,0],"sum_hessian":[8.123E3,3.58E2,7.765E3,2.06E2,1.52E2,1.1E2,7.655E3,1.91E2,1.5E1,1.18E2,3.4E1,1.1E1,9.9E1,7.654E3,1E0,2.6E1,1.65E2,9E0,6E0,9.9E1,1.9E1,1.2E1,2.2E1,5E0,6E0,8.2E1,1.7E1,1.662E3,5.992E3],"tree_param":{"num_deleted":"0","num_feature":"18","num_nodes":"29","size_leaf_vector":"1"}},{"base_weights":[2.4493018E-3,1.8468171E-3,1.2245601E-1,9.362804E-3,-1.1504508E-1,1.289509E-2,-1.4309007E-1,-1.2147064E0,-9.431631E-2,8.5847743E-4,-5.551507E-3,8.490633E-2,-8.183382E-3,-2.603248E-1,-3.2460361E-3,-3.457334E-3,-2.9735127E-2],"categories":[],"categories_nodes":[],"categories_segments":[],"categories_sizes":[],"default_left":[0,0,0,0,0,0,0,0,0,0,0,0,0,0,0,0,0],"id":26,"left_children":[1,3,-1,5,7,9,11,13,15,-1,-1,-1,-1,-1,-1,-1,-1],"loss_changes":[1.1975339E1,7.1402392E0,0E0,4.113886E0,1.1077595E1,3.9556856E0,6.8325143E0,4.0969307E1,6.04204E0,0E0,0E0,0E0,0E0,0E0,0E0,0E0,0E0],"parents":[2147483647,0,0,1,1,3,3,4,4,5,5,6,6,7,7,8,8],"right_children":[2,4,-1,6,8,10,12,14,16,-1,-1,-1,-1,-1,-1,-1,-1],"split_conditions":[9.159025E0,1.7621318E0,1.2245601E-1,3.9133112E0,-4.458321E-1,1.389459E0,-5.670174E-1,-5.617161E-1,1.6890584E0,8.5847743E-4,-5.551507E-3,8.490633E-2,-8.183382E-3,-2.603248E-1,-3.2460361E-3,-3.457334E-3,-2.9735127E-2],"split_indices":[13,10,0,9,16,6,5,4,7,0,0,0,0,0,0,0,0],"split_type":[0,0,0,0,0,0,0,0,0,0,0,0,0,0,0,0,0],"sum_hessian":[8.126E3,8.125E3,1E0,7.635E3,4.9E2,7.463E3,1.72E2,8E0,4.82E2,7.215E3,2.48E2,1E0,1.71E2,1E0,7E0,4.6E2,2.2E1],"tree_param":{"num_deleted":"0","num_feature":"18","num_nodes":"17","size_leaf_vector":"1"}},{"base_weights":[3.5351256E-3,-3.6947095E-1,9.548676E-3,-1.5765733E-1,-8.5966027E-1,8.957478E-3,1.19394615E-1,4.92973E-1,-4.0778765E-1,-2.200434E0,-4.4267243E-1,1.9101237E-1,5.1529687E-3,3.6610324E-2,-2.132531E-2,-4.3957806E-3,-4.2509194E-2,-1.3249242E-1,-2.0916086E-2,-3.2279998E-2,5.4424424E-2,-3.797667E-3,6.1092474E-2,-1.3447568E-2,3.67803E-4],"categories":[],"categories_nodes":[],"categories_segments":[],"categories_sizes":[],"default_left":[0,0,0,0,0,0,0,0,0,0,0,0,0,0,0,0,0,0,0,0,0,0,0,0,0],"id":27,"left_children":[1,3,5,7,9,11,-1,13,15,17,19,21,23,-1,-1,-1,-1,-1,-1,-1,-1,-1,-1,-1,-1],"loss_changes":[1.837893E1,1.3362209E1,1.13157625E1,1.5173327E1,2.0830294E1,5.582995E0,0E0,6.031515E0,9.406437E0,6.099678E0,1.0334884E1,4.55005E1,4.771397E0,0E0,0E0,0E0,0E0,0E0,0E0,0E0,0E0,0E0,0E0,0E0,0E0],"parents":[2147483647,0,0,1,1,2,2,3,3,4,4,5,5,7,7,8,8,9,9,10,10,11,11,12,12],"right_children":[2,4,6,8,10,12,-1,14,16,18,20,22,24,-1,-1,-1,-1,-1,-1,-1,-1,-1,-1,-1,-1],"split_conditions":[-3.0887222E-1,1.9458294E0,9.159025E0,-3.1190172E-1,-2.9657716E-2,-3.0433616E-1,1.19394615E-1,1.5590713E0,1.1874871E-1,1.9521749E0,1.7325997E0,-3.052016E-1,-3.0243134E-1,3.6610324E-2,-2.132531E-2,-4.3957806E-3,-4.2509194E-2,-1.3249242E-1,-2.0916086E-2,-3.2279998E-2,5.4424424E-2,-3.797667E-3,6.1092474E-2,-1.3447568E-2,3.67803E-4],"split_indices":[1,17,13,1,6,1,0,12,3,12,9,1,1,0,0,0,0,0,0,0,0,0,0,0,0],"split_type":[0,0,0,0,0,0,0,0,0,0,0,0,0,0,0,0,0,0,0,0,0,0,0,0,0],"sum_hessian":[8.191E3,1.29E2,8.062E3,9.1E1,3.8E1,8.061E3,1E0,2.5E1,6.6E1,8E0,3E1,1.64E2,7.897E3,2E1,5E0,3.9E1,2.7E1,6E0,2E0,2.7E1,3E0,1.31E2,3.3E1,6.2E1,7.835E3],"tree_param":{"num_deleted":"0","num_feature":"18","num_nodes":"25","size_leaf_vector":"1"}},{"base_weights":[-2.429662E-3,-2.9654104E-1,1.2480227E-2,-1.409798E-1,-6.077757E-1,-3.0039346E-2,3.7377615E-2,3.607774E-1,-2.1235809E-1,-9.6958727E-1,3.638875E-1,6.695748E-2,-4.5725323E-2,5.253828E-1,3.0453535E-2,6.256539E-3,3.568426E-2,-1.872437E-2,3.9649243E-3,-4.167128E-2,-1.6269062E-1,-6.0823E-2,3.2901146E-2,4.4498157E-2,2.602606E-3,-6.853556E-3,-1.0928082E-3,1.6934775E-2,2.2286879E-1,1.667188E-2,8.944172E-4],"categories":[],"categories_nodes":[],"categories_segments":[],"categories_sizes":[],"default_left":[0,0,0,0,0,0,0,0,0,0,0,0,0,0,0,0,0,0,0,0,0,0,0,0,0,0,0,0,0,0,0],"id":28,"left_children":[1,3,5,7,9,11,13,15,17,19,21,23,25,27,29,-1,-1,-1,-1,-1,-1,-1,-1,-1,-1,-1,-1,-1,-1,-1,-1],"loss_changes":[3.553672E1,1.8844994E1,8.166307E0,9.460033E0,4.6055485E1,4.3377867E0,1.642277E1,2.655027E0,1.0905495E1,2.6835464E1,1.7534561E1,4.8237534E0,5.345396E0,4.8405907E1,1.8260273E1,0E0,0E0,0E0,0E0,0E0,0E0,0E0,0E0,0E0,0E0,0E0,0E0,0E0,0E0,0E0,0E0],"parents":[2147483647,0,0,1,1,2,2,3,3,4,4,5,5,6,6,7,7,8,8,9,9,10,10,11,11,12,12,13,13,14,14],"right_children":[2,4,6,8,10,12,14,16,18,20,22,24,26,28,30,-1,-1,-1,-1,-1,-1,-1,-1,-1,-1,-1,-1,-1,-1,-1,-1],"split_conditions":[-2.7345058E-1,-3.933949E-1,-1.6235006E-1,-3.752024E0,1.1965607E0,-4.3877044E-1,-2.693627E-1,-1.0060029E-1,-1.2246279E0,1.0750924E0,-1.1505312E0,-2.7193826E-1,-2.533445E-1,1.8812321E0,-1.0319861E-1,6.256539E-3,3.568426E-2,-1.872437E-2,3.9649243E-3,-4.167128E-2,-1.6269062E-1,-6.0823E-2,3.2901146E-2,4.4498157E-2,2.602606E-3,-6.853556E-3,-1.0928082E-3,1.6934775E-2,2.2286879E-1,1.667188E-2,8.944172E-4],"split_indices":[0,2,2,2,2,16,0,11,2,2,3,0,0,3,2,0,0,0,0,0,0,0,0,0,0,0,0,0,0,0,0],"split_type":[0,0,0,0,0,0,0,0,0,0,0,0,0,0,0,0,0,0,0,0,0,0,0,0,0,0,0,0,0,0,0],"sum_hessian":[8.102E3,3.9E2,7.712E3,2.61E2,1.29E2,2.848E3,4.864E3,3.2E1,2.29E2,9.4E1,3.5E1,3.96E2,2.452E3,6.7E1,4.797E3,2E1,1.2E1,1.47E2,8.2E1,9E1,4E0,5E0,3E1,6E0,3.9E2,5.07E2,1.945E3,6.5E1,2E0,1.9E2,4.607E3],"tree_param":{"num_deleted":"0","num_feature":"18","num_nodes":"31","size_leaf_vector":"1"}},{"base_weights":[-5.0388533E-3,-4.2945936E-1,1.6199825E-3,-8.30303E-1,2.3085864E-1,-2.4876071E-2,3.538233E-2,-5.024822E-1,-2.5914443E0,7.1874166E-1,-5.516335E-1,-1.8486643E-2,-5.886929E-1,6.939156E-2,3.2278247E-2,1.6578915E-2,-3.2731287E-2,-1.3445798E-1,-3.7914444E-2,-6.80973E-4,4.9283694E-2,-1.0281831E-2,-2.9012134E-2,-1.4567046E-3,7.696654E-3,-1.791392E-2,-2.039547E-1,6.7594657E-3,1.097579E-4],"categories":[],"categories_nodes":[],"categories_segments":[],"categories_sizes":[],"default_left":[0,0,0,0,0,0,0,0,0,0,0,0,0,0,0,0,0,0,0,0,0,0,0,0,0,0,0,0,0],"id":29,"left_children":[1,3,5,7,9,11,13,15,17,19,21,23,25,-1,27,-1,-1,-1,-1,-1,-1,-1,-1,-1,-1,-1,-1,-1,-1],"loss_changes":[2.2869873E1,3.3277214E1,7.128806E0,4.3730278E1,1.8721184E1,1.6074135E1,1.4665386E1,8.719151E0,1.1035919E-1,5.878148E0,6.87561E-2,8.11151E0,3.8750504E1,0E0,1.0826004E1,0E0,0E0,0E0,0E0,0E0,0E0,0E0,0E0,0E0,0E0,0E0,0E0,0E0,0E0],"parents":[2147483647,0,0,1,1,2,2,3,3,4,4,5,5,6,6,7,7,8,8,9,9,10,10,11,11,12,12,14,14],"right_children":[2,4,6,8,10,12,14,16,18,20,22,24,26,-1,28,-1,-1,-1,-1,-1,-1,-1,-1,-1,-1,-1,-1,-1,-1],"split_conditions":[-3.0887222E-1,1.1965607E0,2.3803666E-1,-2.783152E-1,2.584946E0,1.4613857E0,-2.7558437E-1,-1.2305173E0,2.8491206E0,1.2968253E0,-2.8030437E-1,4.3208933E-1,2.089466E-1,6.939156E-2,-2.1816385E-1,1.6578915E-2,-3.2731287E-2,-1.3445798E-1,-3.7914444E-2,-6.80973E-4,4.9283694E-2,-1.0281831E-2,-2.9012134E-2,-1.4567046E-3,7.696654E-3,-1.791392E-2,-2.039547E-1,6.7594657E-3,1.097579E-4],"split_indices":[1,2,2,0,2,0,0,7,8,2,0,1,2,0,0,0,0,0,0,0,0,0,0,0,0,0,0,0,0],"split_type":[0,0,0,0,0,0,0,0,0,0,0,0,0,0,0,0,0,0,0,0,0,0,0,0,0,0,0,0,0],"sum_hessian":[8.091E3,1.24E2,7.967E3,7.7E1,4.7E1,4.464E3,3.503E3,6.6E1,1.1E1,2.9E1,1.8E1,4.415E3,4.9E1,7E0,3.496E3,1E1,5.6E1,1E1,1E0,8E0,2.1E1,2E0,1.6E1,4.159E3,2.56E2,4.7E1,2E0,7.9E2,2.706E3],"tree_param":{"num_deleted":"0","num_feature":"18","num_nodes":"29","size_leaf_vector":"1"}},{"base_weights":[3.1700793E-3,-2.555041E-1,1.51940975E-2,-5.5142034E-2,-5.6336784E-1,-1.207178E-2,8.050705E-2,-4.8162052E-1,4.4675957E-2,-7.4530476E-1,3.6979058E-1,-1.3115673E-1,5.427918E-3,2.8038707E-1,3.213859E-2,-3.3550475E-2,2.0357935E-2,-1.1606298E-3,4.2564914E-2,-2.8067326E-2,-7.288742E-2,-9.886034E-2,4.690252E-2,-5.762357E-3,-4.5465674E-2,6.393813E-4,-1.704871E-2,1.7892522E-1,1.0996074E-2,-1.6271388E-2,2.0305412E-3],"categories":[],"categories_nodes":[],"categories_segments":[],"categories_sizes":[],"default_left":[0,0,0,0,0,0,0,0,0,0,0,0,0,0,0,0,0,0,0,0,0,0,0,0,0,0,0,0,0,0,0],"id":30,"left_children":[1,3,5,7,9,11,13,15,17,19,21,23,25,27,29,-1,-1,-1,-1,-1,-1,-1,-1,-1,-1,-1,-1,-1,-1,-1,-1],"loss_changes":[2.5418167E1,2.2360306E1,1.3907355E1,9.429537E0,2.455357E1,1.1483281E1,2.2227135E1,7.3428555E0,9.876637E0,1.490889E1,3.3863617E1,8.635598E0,1.2254314E1,8.8554344E1,5.6266675E0,0E0,0E0,0E0,0E0,0E0,0E0,0E0,0E0,0E0,0E0,0E0,0E0,0E0,0E0,0E0,0E0],"parents":[2147483647,0,0,1,1,2,2,3,3,4,4,5,5,6,6,7,7,8,8,9,9,10,10,11,11,12,12,13,13,14,14],"right_children":[2,4,6,8,10,12,14,16,18,20,22,24,26,28,30,-1,-1,-1,-1,-1,-1,-1,-1,-1,-1,-1,-1,-1,-1,-1,-1],"split_conditions":[-2.743826E-1,-6.759769E-1,5.580496E-1,-5.66944E-1,1.2968253E0,-2.5635433E-1,-2.3016866E-1,-5.622357E-1,-8.7119675E-1,8.4408635E-1,-1.1505312E0,4.379527E-1,1.4613857E0,5.659415E-1,-2.2642556E-1,-3.3550475E-2,2.0357935E-2,-1.1606298E-3,4.2564914E-2,-2.8067326E-2,-7.288742E-2,-9.886034E-2,4.690252E-2,-5.762357E-3,-4.5465674E-2,6.393813E-4,-1.704871E-2,1.7892522E-1,1.0996074E-2,-1.6271388E-2,2.0305412E-3],"split_indices":[0,2,2,10,2,0,0,12,2,2,3,2,0,2,0,0,0,0,0,0,0,0,0,0,0,0,0,0,0,0,0],"split_type":[0,0,0,0,0,0,0,0,0,0,0,0,0,0,0,0,0,0,0,0,0,0,0,0,0,0,0,0,0,0,0],"sum_hessian":[8.17E3,3.62E2,7.808E3,2.2E2,1.42E2,5.509E3,2.299E3,4.1E1,1.79E2,1.19E2,2.3E1,7.05E2,4.804E3,4.47E2,1.852E3,3.4E1,7E0,1.66E2,1.3E1,9.6E1,2.3E1,4E0,1.9E1,6.92E2,1.3E1,4.705E3,9.9E1,7E0,4.4E2,4.2E1,1.81E3],"tree_param":{"num_deleted":"0","num_feature":"18","num_nodes":"31","size_leaf_vector":"1"}}]},"name":"gbtree"},"learner_model_param":{"base_score":"[-1.8067595E-2]","boost_from_average":"1","num_class":"0","num_feature":"18","num_target":"1"},"objective":{"name":"reg:squarederror","reg_loss_param":{"scale_pos_weight":"1"}}},"version":[3,1,2]}