{"learner":{"attributes":{"best_iteration":"491","best_score":"0.25642954739821955","scikit_learn":"{\"_estimator_type\": \"regressor\"}"},"feature_names":[],"feature_types":[],"gradient_booster":{"model":{"cats":{"enc":[],"feature_segments":[],"sorted_idx":[]},"gbtree_model_param":{"num_parallel_tree":"1","num_trees":"500"},"iteration_indptr":[0,1,2,3,4,5,6,7,8,9,10,11,12,13,14,15,16,17,18,19,20,21,22,23,24,25,26,27,28,29,30,31,32,33,34,35,36,37,38,39,40,41,42,43,44,45,46,47,48,49,50,51,52,53,54,55,56,57,58,59,60,61,62,63,64,65,66,67,68,69,70,71,72,73,74,75,76,77,78,79,80,81,82,83,84,85,86,87,88,89,90,91,92,93,94,95,96,97,98,99,100,101,102,103,104,105,106,107,108,109,110,111,112,113,114,115,116,117,118,119,120,121,122,123,124,125,126,127,128,129,130,131,132,133,134,135,136,137,138,139,140,141,142,143,144,145,146,147,148,149,150,151,152,153,154,155,156,157,158,159,160,161,162,163,164,165,166,167,168,169,170,171,172,173,174,175,176,177,178,179,180,181,182,183,184,185,186,187,188,189,190,191,192,193,194,195,196,197,198,199,200,201,202,203,204,205,206,207,208,209,210,211,212,213,214,215,216,217,218,219,220,221,222,223,224,225,226,227,228,229,230,231,232,233,234,235,236,237,238,239,240,241,242,243,244,245,246,247,248,249,250,251,252,253,254,255,256,257,258,259,260,261,262,263,264,265,266,267,268,269,270,271,272,273,274,275,276,277,278,279,280,281,282,283,284,285,286,287,288,289,290,291,292,293,294,295,296,297,298,299,300,301,302,303,304,305,306,307,308,309,310,311,312,313,314,315,316,317,318,319,320,321,322,323,324,325,326,327,328,329,330,331,332,333,334,335,336,337,338,339,340,341,342,343,344,345,346,347,348,349,350,351,352,353,354,355,356,357,358,359,360,361,362,363,364,365,366,367,368,369,370,371,372,373,374,375,376,377,378,379,380,381,382,383,384,385,386,387,388,389,390,391,392,393,394,395,396,397,398,399,400,401,402,403,404,405,406,407,408,409,410,411,412,413,414,415,416,417,418,419,420,421,422,423,424,425,426,427,428,429,430,431,432,433,434,435,436,437,438,439,440,441,442,443,444,445,446,447,448,449,450,451,452,453,454,455,456,457,458,459,460,461,462,463,464,465,466,467,468,469,470,471,472,473,474,475,476,477,478,479,480,481,482,483,484,485,486,487,488,489,490,491,492,493,494,495,496,497,498,499,500],"tree_info":[0,0,0,0,0,0,0,0,0,0,0,0,0,0,0,0,0,0,0,0,0,0,0,0,0,0,0,0,0,0,0,0,0,0,0,0,0,0,0,0,0,0,0,0,0,0,0,0,0,0,0,0,0,0,0,0,0,0,0,0,0,0,0,0,0,0,0,0,0,0,0,0,0,0,0,0,0,0,0,0,0,0,0,0,0,0,0,0,0,0,0,0,0,0,0,0,0,0,0,0,0,0,0,0,0,0,0,0,0,0,0,0,0,0,0,0,0,0,0,0,0,0,0,0,0,0,0,0,0,0,0,0,0,0,0,0,0,0,0,0,0,0,0,0,0,0,0,0,0,0,0,0,0,0,0,0,0,0,0,0,0,0,0,0,0,0,0,0,0,0,0,0,0,0,0,0,0,0,0,0,0,0,0,0,0,0,0,0,0,0,0,0,0,0,0,0,0,0,0,0,0,0,0,0,0,0,0,0,0,0,0,0,0,0,0,0,0,0,0,0,0,0,0,0,0,0,0,0,0,0,0,0,0,0,0,0,0,0,0,0,0,0,0,0,0,0,0,0,0,0,0,0,0,0,0,0,0,0,0,0,0,0,0,0,0,0,0,0,0,0,0,0,0,0,0,0,0,0,0,0,0,0,0,0,0,0,0,0,0,0,0,0,0,0,0,0,0,0,0,0,0,0,0,0,0,0,0,0,0,0,0,0,0,0,0,0,0,0,0,0,0,0,0,0,0,0,0,0,0,0,0,0,0,0,0,0,0,0,0,0,0,0,0,0,0,0,0,0,0,0,0,0,0,0,0,0,0,0,0,0,0,0,0,0,0,0,0,0,0,0,0,0,0,0,0,0,0,0,0,0,0,0,0,0,0,0,0,0,0,0,0,0,0,0,0,0,0,0,0,0,0,0,0,0,0,0,0,0,0,0,0,0,0,0,0,0,0,0,0,0,0,0,0,0,0,0,0,0,0,0,0,0,0,0,0,0,0,0,0,0,0,0,0,0,0,0,0,0,0,0,0,0,0,0,0,0,0,0,0,0,0,0,0,0,0,0,0,0,0,0,0,0,0,0,0,0,0,0,0,0,0,0,0,0,0,0,0,0,0,0,0,0,0,0,0,0,0,0,0,0],"trees":[{"base_weights":[1.9776404E-3,-4.1955695E-1,3.0020377E-1,-6.895389E-1,-2.4461299E-1,1.0699461E-1,5.3508747E-1,-8.0576056E-1,-5.866586E-1,-3.7985247E-1,-1.5880334E-1,1.672543E-2,2.0041156E-1,4.4682854E-1,7.991072E-1,-4.1829687E-2,-3.6293212E-2,-3.2061573E-2,-2.6359184E-2,-2.0576883E-2,-1.4785901E-2,-1.0160445E-2,-4.59599E-3,-1.415524E-3,2.9341632E-3,7.268909E-3,1.2623723E-2,1.9610517E-2,2.698618E-2,3.4202766E-2,4.8130173E-2],"categories":[],"categories_nodes":[],"categories_segments":[],"categories_sizes":[],"default_left":[0,0,0,0,0,0,0,0,0,0,0,0,0,0,0,0,0,0,0,0,0,0,0,0,0,0,0,0,0,0,0],"id":0,"left_children":[1,3,5,7,9,11,13,15,17,19,21,23,25,27,29,-1,-1,-1,-1,-1,-1,-1,-1,-1,-1,-1,-1,-1,-1,-1,-1],"loss_changes":[6.8023126E2,1.0572485E2,1.437573E2,1.006134E1,1.5745483E1,1.4669497E1,3.2964966E1,4.052124E-1,1.1906891E0,1.2858505E0,2.4612732E0,1.675855E0,2.4130363E0,5.2375336E0,6.056885E0,0E0,0E0,0E0,0E0,0E0,0E0,0E0,0E0,0E0,0E0,0E0,0E0,0E0,0E0,0E0,0E0],"parents":[2147483647,0,0,1,1,2,2,3,3,4,4,5,5,6,6,7,7,8,8,9,9,10,10,11,11,12,12,13,13,14,14],"right_children":[2,4,6,8,10,12,14,16,18,20,22,24,26,28,30,-1,-1,-1,-1,-1,-1,-1,-1,-1,-1,-1,-1,-1,-1,-1,-1],"split_conditions":[-3.4016028E-1,-4.8833558E-1,3.1623464E-2,-5.2293885E-1,-4.3815318E-1,-1.8991429E-1,1.0376105E0,-5.305614E-1,-5.06183E-1,-4.528584E-1,-3.8045028E-1,-2.7673906E-1,-9.710598E-2,4.3590844E-1,2.1977394E0,-4.1829687E-2,-3.6293212E-2,-3.2061573E-2,-2.6359184E-2,-2.0576883E-2,-1.4785901E-2,-1.0160445E-2,-4.59599E-3,-1.415524E-3,2.9341632E-3,7.268909E-3,1.2623723E-2,1.9610517E-2,2.698618E-2,3.4202766E-2,4.8130173E-2],"split_indices":[23,23,23,23,23,23,23,23,23,23,23,23,23,23,23,0,0,0,0,0,0,0,0,0,0,0,0,0,0,0,0],"split_type":[0,0,0,0,0,0,0,0,0,0,0,0,0,0,0,0,0,0,0,0,0,0,0,0,0,0,0,0,0,0,0],"sum_hessian":[5.409E3,2.241E3,3.168E3,8.8E2,1.361E3,1.739E3,1.429E3,4.1E2,4.7E2,5.27E2,8.34E2,8.85E2,8.54E2,1.073E3,3.56E2,2.89E2,1.21E2,2.4E2,2.3E2,3.8E2,1.47E2,5E2,3.34E2,4.27E2,4.58E2,4.17E2,4.37E2,6.79E2,3.94E2,2.12E2,1.44E2],"tree_param":{"num_deleted":"0","num_feature":"31","num_nodes":"31","size_leaf_vector":"1"}},{"base_weights":[-6.713998E-4,4.7306962E-2,-5.3746853E-2,2.4280919E-2,1.7285337E-1,-3.9794873E-2,-2.2040977E-1,2.8208062E-2,-2.7825904E-1,1.9675456E-1,-2.2859326E-2,-8.891618E-2,1.2247823E-2,-1.880471E-1,-5.3538734E-1,2.392516E-4,2.8510902E-3,-8.631143E-3,-3.0788993E-2,8.878472E-3,2.0062355E-2,-7.624487E-3,9.492303E-3,-5.5461377E-3,5.2313873E-4,-2.740507E-4,5.905993E-3,-7.22321E-3,-1.8039353E-2,-7.496039E-3,-3.0124297E-2],"categories":[],"categories_nodes":[],"categories_segments":[],"categories_sizes":[],"default_left":[0,0,0,0,0,0,0,0,0,0,0,0,0,0,0,0,0,0,0,0,0,0,0,0,0,0,0,0,0,0,0],"id":1,"left_children":[1,3,5,7,9,11,13,15,17,19,21,23,25,27,29,-1,-1,-1,-1,-1,-1,-1,-1,-1,-1,-1,-1,-1,-1,-1,-1],"loss_changes":[1.3832439E1,8.2433605E0,5.988121E0,2.8735902E0,2.072071E0,6.087889E0,1.9278316E0,1.6073512E0,9.989896E-1,1.4744949E0,1.3800309E0,2.6802244E0,2.1723225E0,1.318068E0,3.7523127E-1,0E0,0E0,0E0,0E0,0E0,0E0,0E0,0E0,0E0,0E0,0E0,0E0,0E0,0E0,0E0,0E0],"parents":[2147483647,0,0,1,1,2,2,3,3,4,4,5,5,6,6,7,7,8,8,9,9,10,10,11,11,12,12,13,13,14,14],"right_children":[2,4,6,8,10,12,14,16,18,20,22,24,26,28,30,-1,-1,-1,-1,-1,-1,-1,-1,-1,-1,-1,-1,-1,-1,-1,-1],"split_conditions":[-1.9361468E-1,1.7292372E0,1.2032459E0,2.178144E0,1.8259315E-1,3.3760786E-2,2.3392923E0,-5.8382595E-1,-2.775473E-1,6.4955447E-3,5.89856E-1,1.0294516E0,1.2644902E0,9.157392E-1,-6.9128394E-1,2.392516E-4,2.8510902E-3,-8.631143E-3,-3.0788993E-2,8.878472E-3,2.0062355E-2,-7.624487E-3,9.492303E-3,-5.5461377E-3,5.2313873E-4,-2.740507E-4,5.905993E-3,-7.22321E-3,-1.8039353E-2,-7.496039E-3,-3.0124297E-2],"split_indices":[5,20,2,2,10,2,2,10,10,10,16,20,20,18,26,0,0,0,0,0,0,0,0,0,0,0,0,0,0,0,0],"split_type":[0,0,0,0,0,0,0,0,0,0,0,0,0,0,0,0,0,0,0,0,0,0,0,0,0,0,0,0,0,0,0],"sum_hessian":[5.43E3,2.852E3,2.578E3,2.411E3,4.41E2,2.38E3,1.98E2,2.381E3,3E1,3.93E2,4.8E1,1.224E3,1.156E3,1.81E2,1.7E1,1.314E3,1.067E3,2.4E1,6E0,3.61E2,3.2E1,3E1,1.8E1,1.002E3,2.22E2,9.91E2,1.65E2,1.46E2,3.5E1,3E0,1.4E1],"tree_param":{"num_deleted":"0","num_feature":"31","num_nodes":"31","size_leaf_vector":"1"}},{"base_weights":[-6.8390374E-3,-4.1994008E-1,2.6801366E-1,-6.638142E-1,-2.5684634E-1,8.268653E-2,5.017079E-1,-7.6360166E-1,-5.6295955E-1,-3.91475E-1,-1.8837638E-1,4.19603E-3,1.746919E-1,4.1111445E-1,7.899857E-1,-3.958717E-2,-3.4744967E-2,-2.943978E-2,-2.3860775E-2,-2.1062E-2,-1.756498E-2,-1.1603091E-2,-6.8968134E-3,-1.8752376E-3,3.2558367E-3,8.926204E-3,-3.3351727E-2,1.806351E-2,2.4045657E-2,3.4612898E-2,4.913872E-2],"categories":[],"categories_nodes":[],"categories_segments":[],"categories_sizes":[],"default_left":[0,0,0,0,0,0,0,0,0,0,0,0,0,0,0,0,0,0,0,0,0,0,0,0,0,0,0,0,0,0,0],"id":2,"left_children":[1,3,5,7,9,11,13,15,17,19,21,23,25,27,29,-1,-1,-1,-1,-1,-1,-1,-1,-1,-1,-1,-1,-1,-1,-1,-1],"loss_changes":[6.152827E2,8.594098E1,1.4088887E2,8.295593E0,1.1900459E1,1.31136E1,3.7256287E1,2.869873E-1,6.826782E-1,3.7459564E-1,1.8696117E0,2.4946146E0,2.8157272E0,3.6427917E0,5.7820587E0,0E0,0E0,0E0,0E0,0E0,0E0,0E0,0E0,0E0,0E0,0E0,0E0,0E0,0E0,0E0,0E0],"parents":[2147483647,0,0,1,1,2,2,3,3,4,4,5,5,6,6,7,7,8,8,9,9,10,10,11,11,12,12,13,13,14,14],"right_children":[2,4,6,8,10,12,14,16,18,20,22,24,26,28,30,-1,-1,-1,-1,-1,-1,-1,-1,-1,-1,-1,-1,-1,-1,-1,-1],"split_conditions":[-3.5685208E-1,-4.9205855E-1,1.0995843E-2,-5.2293885E-1,-4.528584E-1,-2.0395286E-1,1.1375378E0,-5.305614E-1,-4.997666E-1,-4.709142E-1,-4.0580946E-1,-2.7673906E-1,4.203749E0,3.804236E-1,2.716628E0,-3.958717E-2,-3.4744967E-2,-2.943978E-2,-2.3860775E-2,-2.1062E-2,-1.756498E-2,-1.1603091E-2,-6.8968134E-3,-1.8752376E-3,3.2558367E-3,8.926204E-3,-3.3351727E-2,1.806351E-2,2.4045657E-2,3.4612898E-2,4.913872E-2],"split_indices":[23,23,23,23,23,23,23,23,23,23,23,23,29,23,23,0,0,0,0,0,0,0,0,0,0,0,0,0,0,0,0],"split_type":[0,0,0,0,0,0,0,0,0,0,0,0,0,0,0,0,0,0,0,0,0,0,0,0,0,0,0,0,0,0,0],"sum_hessian":[5.417E3,2.164E3,3.253E3,8.66E2,1.298E3,1.815E3,1.438E3,4.32E2,4.34E2,4.36E2,8.62E2,9.8E2,8.35E2,1.096E3,3.42E2,2.99E2,1.33E2,3.29E2,1.05E2,2.45E2,1.91E2,4.6E2,4.02E2,5.82E2,3.98E2,8.32E2,3E0,6.43E2,4.53E2,2.3E2,1.12E2],"tree_param":{"num_deleted":"0","num_feature":"31","num_nodes":"31","size_leaf_vector":"1"}},{"base_weights":[-3.9697243E-3,-1.9243345E-1,2.0014074E-1,-3.6820886E-1,-1.1058424E-1,1.3078769E-1,3.820472E-1,-4.2476028E-1,-2.8507495E-1,-1.5329255E-1,-3.9525762E-2,1.366031E-1,-4.2094737E-1,3.0246282E-1,5.055869E-1,-6.0500037E-3,-2.232598E-2,-1.2137372E-2,-2.1349091E-2,-8.996665E-3,-3.5894238E-3,-1.6802639E-3,-2.30332E-2,4.5031956E-3,9.76714E-3,3.822123E-3,-2.7503625E-2,1.6552066E-2,7.7870645E-4,2.6378253E-2,-1.5526466E-3],"categories":[],"categories_nodes":[],"categories_segments":[],"categories_sizes":[],"default_left":[0,0,0,0,0,0,0,0,0,0,0,0,0,0,0,0,0,0,0,0,0,0,0,0,0,0,0,0,0,0,0],"id":3,"left_children":[1,3,5,7,9,11,13,15,17,19,21,23,25,27,29,-1,-1,-1,-1,-1,-1,-1,-1,-1,-1,-1,-1,-1,-1,-1,-1],"loss_changes":[2.0945514E2,4.0689095E1,3.2927658E1,4.105423E0,5.8601856E0,6.1345367E0,6.935829E0,3.4688873E0,2.1007614E0,2.6078758E0,1.7971791E0,5.1080933E0,1.3265595E0,3.6105347E0,3.3305893E0,0E0,0E0,0E0,0E0,0E0,0E0,0E0,0E0,0E0,0E0,0E0,0E0,0E0,0E0,0E0,0E0],"parents":[2147483647,0,0,1,1,2,2,3,3,4,4,5,5,6,6,7,7,8,8,9,9,10,10,11,11,12,12,13,13,14,14],"right_children":[2,4,6,8,10,12,14,16,18,20,22,24,26,28,30,-1,-1,-1,-1,-1,-1,-1,-1,-1,-1,-1,-1,-1,-1,-1,-1],"split_conditions":[-1.8352237E-1,-3.2224506E-1,2.1016869E-1,-3.4020323E-1,-2.4683203E-1,3.7619116E0,7.6662546E-1,-3.657192E-1,9.8306066E-1,1.8915923E-1,3.2172556E0,-5.1519707E-2,-1.3882644E-1,1.2109777E0,2.2707176E0,-6.0500037E-3,-2.232598E-2,-1.2137372E-2,-2.1349091E-2,-8.996665E-3,-3.5894238E-3,-1.6802639E-3,-2.30332E-2,4.5031956E-3,9.76714E-3,3.822123E-3,-2.7503625E-2,1.6552066E-2,7.7870645E-4,2.6378253E-2,-1.5526466E-3],"split_indices":[0,0,0,0,0,28,0,0,30,19,28,0,13,30,28,0,0,0,0,0,0,0,0,0,0,0,0,0,0,0,0],"split_type":[0,0,0,0,0,0,0,0,0,0,0,0,0,0,0,0,0,0,0,0,0,0,0,0,0,0,0,0,0,0,0],"sum_hessian":[5.443E3,2.83E3,2.613E3,8.98E2,1.932E3,1.893E3,7.2E2,5.32E2,3.66E2,1.206E3,7.26E2,1.874E3,1.9E1,4.4E2,2.8E2,3.6E1,4.96E2,2.84E2,8.2E1,9.08E2,2.98E2,7.17E2,9E0,1.047E3,8.27E2,4E0,1.5E1,4E2,4E1,2.69E2,1.1E1],"tree_param":{"num_deleted":"0","num_feature":"31","num_nodes":"31","size_leaf_vector":"1"}},{"base_weights":[-2.6521983E-3,3.5518818E-2,-4.309826E-2,1.6167076E-2,1.176242E-1,-5.8292706E-2,5.3029517E-3,5.812468E-2,-1.0950593E-2,1.4069653E-1,-1.0708043E-2,6.0049843E-2,-6.728162E-2,1.9466218E-2,-3.1173098E-1,2.3079242E-3,8.598316E-3,-4.7286423E-3,6.109453E-4,6.188121E-3,2.0637201E-2,-5.002589E-3,1.3563006E-2,5.2432916E-3,-3.997761E-3,-2.136828E-3,-4.5982893E-3,-1.5155089E-3,4.385521E-3,2.7387908E-3,-2.4901373E-2],"categories":[],"categories_nodes":[],"categories_segments":[],"categories_sizes":[],"default_left":[0,0,0,0,0,0,0,0,0,0,0,0,0,0,0,0,0,0,0,0,0,0,0,0,0,0,0,0,0,0,0],"id":4,"left_children":[1,3,5,7,9,11,13,15,17,19,21,23,25,27,29,-1,-1,-1,-1,-1,-1,-1,-1,-1,-1,-1,-1,-1,-1,-1,-1],"loss_changes":[8.372379E0,4.431079E0,1.9366951E0,2.5709097E0,1.5767179E0,2.1358376E0,2.834917E0,1.2003796E0,2.6613233E0,2.0266228E0,2.0928912E0,8.9935875E-1,1.124814E0,2.0544164E0,1.8708112E0,0E0,0E0,0E0,0E0,0E0,0E0,0E0,0E0,0E0,0E0,0E0,0E0,0E0,0E0,0E0,0E0],"parents":[2147483647,0,0,1,1,2,2,3,3,4,4,5,5,6,6,7,7,8,8,9,9,10,10,11,11,12,12,13,13,14,14],"right_children":[2,4,6,8,10,12,14,16,18,20,22,24,26,28,30,-1,-1,-1,-1,-1,-1,-1,-1,-1,-1,-1,-1,-1,-1,-1,-1],"split_conditions":[-2.035084E-1,1.1084589E0,1.9075004E-2,-7.927351E-1,1.9922706E-1,-5.759155E-1,2.9063795E0,7.3387227E-3,-4.5537266E-1,3.0415103E-1,9.3058795E-1,3.1164017E-1,4.7476184E-1,7.130843E-1,6.6015077E-1,2.3079242E-3,8.598316E-3,-4.7286423E-3,6.109453E-4,6.188121E-3,2.0637201E-2,-5.002589E-3,1.3563006E-2,5.2432916E-3,-3.997761E-3,-2.136828E-3,-4.5982893E-3,-1.5155089E-3,4.385521E-3,2.7387908E-3,-2.4901373E-2],"split_indices":[5,22,4,5,13,13,29,4,13,12,13,29,5,8,16,0,0,0,0,0,0,0,0,0,0,0,0,0,0,0,0],"split_type":[0,0,0,0,0,0,0,0,0,0,0,0,0,0,0,0,0,0,0,0,0,0,0,0,0,0,0,0,0,0,0],"sum_hessian":[5.421E3,2.789E3,2.632E3,2.258E3,5.31E2,2.003E3,6.29E2,8.86E2,1.372E3,4.5E2,8.1E1,1.41E2,1.862E3,6.03E2,2.6E1,8.03E2,8.3E1,2.97E2,1.075E3,4.25E2,2.5E1,6.2E1,1.9E1,1.07E2,3.4E1,9.35E2,9.27E2,3.49E2,2.54E2,9E0,1.7E1],"tree_param":{"num_deleted":"0","num_feature":"31","num_nodes":"31","size_leaf_vector":"1"}},{"base_weights":[8.6372305E-4,3.0420603E-2,-9.853619E-2,1.1999677E-2,1.2983601E-1,2.8459325E-2,-1.2038468E-1,7.831103E-2,-5.780998E-3,-2.3490891E-1,1.3873784E-1,1.1178859E-1,-1.5449372E-1,-1.4382395E-1,-1.7659878E-2,4.0508686E-3,-2.2299845E-2,-6.9762097E-4,4.312226E-3,1.2993834E-2,-1.8454036E-2,8.511611E-3,2.7930357E-3,6.672974E-3,-2.2183636E-2,-3.2168354E-3,-2.0432737E-2,-6.078092E-3,-1.44170895E-2,-1.8054258E-2,7.1697583E-4],"categories":[],"categories_nodes":[],"categories_segments":[],"categories_sizes":[],"default_left":[0,0,0,0,0,0,0,0,0,0,0,0,0,0,0,0,0,0,0,0,0,0,0,0,0,0,0,0,0,0,0],"id":5,"left_children":[1,3,5,7,9,11,13,15,17,19,21,23,25,27,29,-1,-1,-1,-1,-1,-1,-1,-1,-1,-1,-1,-1,-1,-1,-1,-1],"loss_changes":[1.5997205E1,7.6845074E0,3.4662018E0,4.176686E0,2.1625595E0,2.822414E0,2.5617628E0,1.0989265E0,2.1022334E0,1.1580958E0,1.6636047E0,1.5879539E0,1.3027437E0,2.754322E0,2.1920683E0,0E0,0E0,0E0,0E0,0E0,0E0,0E0,0E0,0E0,0E0,0E0,0E0,0E0,0E0,0E0,0E0],"parents":[2147483647,0,0,1,1,2,2,3,3,4,4,5,5,6,6,7,7,8,8,9,9,10,10,11,11,12,12,13,13,14,14],"right_children":[2,4,6,8,10,12,14,16,18,20,22,24,26,28,30,-1,-1,-1,-1,-1,-1,-1,-1,-1,-1,-1,-1,-1,-1,-1,-1],"split_conditions":[5.6926984E-1,1.6069897E0,-7.927351E-1,-7.927351E-1,-1.2822818E0,8.61689E-3,1.1343526E0,3.2950777E-1,2.5898027E-1,-5.518893E-1,-4.4125166E-2,5.244423E-1,1.674608E0,2.4892578E0,-7.0918804E-1,4.0508686E-3,-2.2299845E-2,-6.9762097E-4,4.312226E-3,1.2993834E-2,-1.8454036E-2,8.511611E-3,2.7930357E-3,6.672974E-3,-2.2183636E-2,-3.2168354E-3,-2.0432737E-2,-6.078092E-3,-1.44170895E-2,-1.8054258E-2,7.1697583E-4],"split_indices":[30,20,5,5,30,3,20,9,3,6,9,11,30,30,5,0,0,0,0,0,0,0,0,0,0,0,0,0,0,0,0],"split_type":[0,0,0,0,0,0,0,0,0,0,0,0,0,0,0,0,0,0,0,0,0,0,0,0,0,0,0,0,0,0,0],"sum_hessian":[5.443E3,4.196E3,1.247E3,3.541E3,6.55E2,1.83E2,1.064E3,7.48E2,2.793E3,1.5E1,6.4E2,1.26E2,5.7E1,8.66E2,1.98E2,7.45E2,3E0,2.566E3,2.27E2,3E0,1.2E1,4.63E2,1.77E2,1.22E2,4E0,4.3E1,1.4E1,7.52E2,1.14E2,1.6E1,1.82E2],"tree_param":{"num_deleted":"0","num_feature":"31","num_nodes":"31","size_leaf_vector":"1"}},{"base_weights":[1.66318E-3,-2.1061492E-1,1.6322064E-1,-4.484517E-1,-1.315321E-1,8.917177E-2,3.6379614E-1,-5.190914E-1,-3.8281018E-1,-2.2785115E-1,-9.0044715E-2,9.3934685E-2,-4.73785E-1,2.9659826E-1,5.2816004E-1,4.3945415E-3,-2.6190415E-2,-1.1778018E-2,-1.9927634E-2,-7.7132094E-3,-1.2928796E-2,-2.5721118E-3,-7.368772E-3,2.6108853E-3,7.6462156E-3,1.3568024E-3,-3.2731187E-2,1.5966082E-2,-8.544857E-3,3.1730052E-2,1.7711772E-2],"categories":[],"categories_nodes":[],"categories_segments":[],"categories_sizes":[],"default_left":[0,0,0,0,0,0,0,0,0,0,0,0,0,0,0,0,0,0,0,0,0,0,0,0,0,0,0,0,0,0,0],"id":6,"left_children":[1,3,5,7,9,11,13,15,17,19,21,23,25,27,29,-1,-1,-1,-1,-1,-1,-1,-1,-1,-1,-1,-1,-1,-1,-1,-1],"loss_changes":[1.8553664E2,4.3916008E1,4.559411E1,2.504593E0,6.996502E0,6.0640545E0,8.988533E0,8.4197235E-1,6.15448E-1,1.1538906E0,2.712328E0,5.47237E0,1.7388959E0,6.322193E0,4.1997375E0,0E0,0E0,0E0,0E0,0E0,0E0,0E0,0E0,0E0,0E0,0E0,0E0,0E0,0E0,0E0,0E0],"parents":[2147483647,0,0,1,1,2,2,3,3,4,4,5,5,6,6,7,7,8,8,9,9,10,10,11,11,12,12,13,13,14,14],"right_children":[2,4,6,8,10,12,14,16,18,20,22,24,26,28,30,-1,-1,-1,-1,-1,-1,-1,-1,-1,-1,-1,-1,-1,-1,-1,-1],"split_conditions":[-2.2865081E-1,-3.4525716E-1,1.6007777E-1,-3.600417E-1,-3.126397E-1,3.7619116E0,9.4688314E-1,-1.0109485E0,-5.833436E-1,-5.6412977E-1,-8.217363E-2,-8.97203E-2,4.4137713E-1,2.582705E0,2.9916666E-2,4.3945415E-3,-2.6190415E-2,-1.1778018E-2,-1.9927634E-2,-7.7132094E-3,-1.2928796E-2,-2.5721118E-3,-7.368772E-3,2.6108853E-3,7.6462156E-3,1.3568024E-3,-3.2731187E-2,1.5966082E-2,-8.544857E-3,3.1730052E-2,1.7711772E-2],"split_indices":[1,1,1,1,1,28,1,9,11,9,7,1,29,28,9,0,0,0,0,0,0,0,0,0,0,0,0,0,0,0,0],"split_type":[0,0,0,0,0,0,0,0,0,0,0,0,0,0,0,0,0,0,0,0,0,0,0,0,0,0,0,0,0,0,0],"sum_hessian":[5.408E3,2.337E3,3.071E3,5.82E2,1.755E3,2.244E3,8.27E2,2.77E2,3.05E2,5.27E2,1.228E3,2.226E3,1.8E1,5.89E2,2.38E2,2E0,2.75E2,3.1E1,2.74E2,1.57E2,3.7E2,7.35E2,4.93E2,1.305E3,9.21E2,5E0,1.3E1,5.62E2,2.7E1,1.46E2,9.2E1],"tree_param":{"num_deleted":"0","num_feature":"31","num_nodes":"31","size_leaf_vector":"1"}},{"base_weights":[-2.398389E-3,-1.9100006E-1,1.6921417E-1,-3.8158366E-1,-1.0344016E-1,9.550269E-2,3.500433E-1,-4.5930648E-1,-3.031215E-1,-1.4161634E-1,-1.910298E-2,4.5399748E-2,1.7035586E-1,2.9052293E-1,4.9662325E-1,-2.5658447E-2,-1.9648666E-2,-1.3338141E-2,-1.7953444E-2,-8.170894E-3,-2.7965277E-3,-1.3678824E-3,1.4076988E-2,1.4267043E-3,7.658352E-3,7.683447E-3,1.4218815E-2,1.3219863E-2,2.0458907E-2,-2.4687668E-2,2.5355423E-2],"categories":[],"categories_nodes":[],"categories_segments":[],"categories_sizes":[],"default_left":[0,0,0,0,0,0,0,0,0,0,0,0,0,0,0,0,0,0,0,0,0,0,0,0,0,0,0,0,0,0,0],"id":7,"left_children":[1,3,5,7,9,11,13,15,17,19,21,23,25,27,29,-1,-1,-1,-1,-1,-1,-1,-1,-1,-1,-1,-1,-1,-1,-1,-1],"loss_changes":[1.7704425E2,4.3448105E1,3.814135E1,4.8613815E0,5.750847E0,7.628008E0,7.0883255E0,1.2632141E0,7.4025726E-1,2.2886028E0,1.3924941E0,2.2148783E0,1.5088634E0,1.7269783E0,2.7218437E0,0E0,0E0,0E0,0E0,0E0,0E0,0E0,0E0,0E0,0E0,0E0,0E0,0E0,0E0,0E0,0E0],"parents":[2147483647,0,0,1,1,2,2,3,3,4,4,5,5,6,6,7,7,8,8,9,9,10,10,11,11,12,12,13,13,14,14],"right_children":[2,4,6,8,10,12,14,16,18,20,22,24,26,28,30,-1,-1,-1,-1,-1,-1,-1,-1,-1,-1,-1,-1,-1,-1,-1,-1],"split_conditions":[-2.1273896E-1,-3.3206946E-1,1.6007777E-1,-3.5341E-1,-2.3223725E-1,-4.8808943E-2,9.4688314E-1,-3.5099044E-1,-7.458484E-2,-2.5953153E-1,4.877166E-2,9.84685E-1,1.7951852E-1,7.6662546E-1,-1.2919227E0,-2.5658447E-2,-1.9648666E-2,-1.3338141E-2,-1.7953444E-2,-8.170894E-3,-2.7965277E-3,-1.3678824E-3,1.4076988E-2,1.4267043E-3,7.658352E-3,7.683447E-3,1.4218815E-2,1.3219863E-2,2.0458907E-2,-2.4687668E-2,2.5355423E-2],"split_indices":[1,1,1,1,0,0,1,0,11,1,0,19,3,0,3,0,0,0,0,0,0,0,0,0,0,0,0,0,0,0,0],"split_type":[0,0,0,0,0,0,0,0,0,0,0,0,0,0,0,0,0,0,0,0,0,0,0,0,0,0,0,0,0,0,0],"sum_hessian":[5.468E3,2.605E3,2.863E3,8.19E2,1.786E3,2.035E3,8.28E2,4.09E2,4.1E2,1.229E3,5.57E2,1.22E3,8.15E2,5.91E2,2.37E2,2.22E2,1.87E2,2.52E2,1.58E2,9.79E2,2.5E2,5.43E2,1.4E1,1.056E3,1.64E2,7.13E2,1.02E2,4.87E2,1.04E2,2E0,2.35E2],"tree_param":{"num_deleted":"0","num_feature":"31","num_nodes":"31","size_leaf_vector":"1"}},{"base_weights":[3.7356042E-3,-3.88663E-1,2.3477937E-1,-5.9278905E-1,-2.4213205E-1,5.7969138E-2,4.335728E-1,-6.807921E-1,-4.9729374E-1,-3.4841955E-1,-1.7586273E-1,-3.4192784E-3,1.4463489E-1,3.587755E-1,6.9405144E-1,-3.5740964E-2,-3.14452E-2,-2.67739E-2,-2.2555403E-2,-1.8744355E-2,-1.5894411E-2,-1.01482775E-2,-6.2903874E-3,-1.7014627E-3,2.543725E-3,7.4712965E-3,-1.9365013E-2,1.8196063E-2,-3.0568032E-2,3.7498903E-2,2.2184463E-2],"categories":[],"categories_nodes":[],"categories_segments":[],"categories_sizes":[],"default_left":[0,0,0,0,0,0,0,0,0,0,0,0,0,0,0,0,0,0,0,0,0,0,0,0,0,0,0,0,0,0,0],"id":8,"left_children":[1,3,5,7,9,11,13,15,17,19,21,23,25,27,29,-1,-1,-1,-1,-1,-1,-1,-1,-1,-1,-1,-1,-1,-1,-1,-1],"loss_changes":[4.9392307E2,6.0246338E1,1.204998E2,6.745941E0,8.229042E0,9.662109E0,3.1196716E1,3.2025146E-1,4.7797394E-1,2.452774E-1,9.607372E-1,1.770026E0,1.9769125E0,6.492523E0,4.693924E0,0E0,0E0,0E0,0E0,0E0,0E0,0E0,0E0,0E0,0E0,0E0,0E0,0E0,0E0,0E0,0E0],"parents":[2147483647,0,0,1,1,2,2,3,3,4,4,5,5,6,6,7,7,8,8,9,9,10,10,11,11,12,12,13,13,14,14],"right_children":[2,4,6,8,10,12,14,16,18,20,22,24,26,28,30,-1,-1,-1,-1,-1,-1,-1,-1,-1,-1,-1,-1,-1,-1,-1,-1],"split_conditions":[-3.707339E-1,-4.9205855E-1,-2.2219865E-2,-5.2139956E-1,-4.5016822E-1,-2.0638552E-1,1.1375378E0,-5.326251E-1,-5.06183E-1,-4.709142E-1,-4.0176803E-1,-2.7673906E-1,3.7619116E0,4.4546294E0,7.425079E-1,-3.5740964E-2,-3.14452E-2,-2.67739E-2,-2.2555403E-2,-1.8744355E-2,-1.5894411E-2,-1.01482775E-2,-6.2903874E-3,-1.7014627E-3,2.543725E-3,7.4712965E-3,-1.9365013E-2,1.8196063E-2,-3.0568032E-2,3.7498903E-2,2.2184463E-2],"split_indices":[23,23,23,23,23,23,23,23,23,23,23,23,28,28,28,0,0,0,0,0,0,0,0,0,0,0,0,0,0,0,0],"split_type":[0,0,0,0,0,0,0,0,0,0,0,0,0,0,0,0,0,0,0,0,0,0,0,0,0,0,0,0,0,0,0],"sum_hessian":[5.446E3,2.018E3,3.428E3,8.42E2,1.176E3,1.815E3,1.613E3,4.35E2,4.07E2,4.5E2,7.26E2,1.063E3,7.52E2,1.255E3,3.58E2,2.55E2,1.8E2,2.17E2,1.9E2,2.35E2,2.15E2,4.69E2,2.57E2,6.8E2,3.83E2,7.46E2,6E0,1.249E3,6E0,2.91E2,6.7E1],"tree_param":{"num_deleted":"0","num_feature":"31","num_nodes":"31","size_leaf_vector":"1"}},{"base_weights":[3.0875162E-3,-2.0935545E-2,6.637546E-2,-1.8358164E-2,-3.4742135E-1,6.962118E-2,-2.842675E-1,-5.0390437E-2,1.1361468E-2,-2.3991564E-1,-4.4609976E-1,6.462939E-2,3.7225962E-1,1.6142966E-1,-6.387191E-1,1.1967809E-4,-4.265203E-3,7.483523E-4,-1.4621558E-2,-2.4619902E-2,-4.684074E-3,-2.328589E-2,-4.286179E-3,4.1011306E-3,7.8083796E-4,1.2404767E-2,3.9723244E-2,2.3081832E-2,-8.956737E-3,-1.2802556E-3,-3.6132447E-2],"categories":[],"categories_nodes":[],"categories_segments":[],"categories_sizes":[],"default_left":[0,0,0,0,0,0,0,0,0,0,0,0,0,0,0,0,0,0,0,0,0,0,0,0,0,0,0,0,0,0,0],"id":9,"left_children":[1,3,5,7,9,11,13,15,17,19,21,23,25,27,29,-1,-1,-1,-1,-1,-1,-1,-1,-1,-1,-1,-1,-1,-1,-1,-1],"loss_changes":[8.316293E0,3.3300843E0,1.7326188E0,3.7466433E0,2.2183657E-1,2.229918E0,2.3148007E0,3.4906201E0,2.241077E0,5.815377E-1,6.6125154E-2,1.2510228E0,1.0610449E0,7.9837376E-1,3.931651E-1,0E0,0E0,0E0,0E0,0E0,0E0,0E0,0E0,0E0,0E0,0E0,0E0,0E0,0E0,0E0,0E0],"parents":[2147483647,0,0,1,1,2,2,3,3,4,4,5,5,6,6,7,7,8,8,9,9,10,10,11,11,12,12,13,13,14,14],"right_children":[2,4,6,8,10,12,14,16,18,20,22,24,26,28,30,-1,-1,-1,-1,-1,-1,-1,-1,-1,-1,-1,-1,-1,-1,-1,-1],"split_conditions":[-1.9052352E-1,2.3392923E0,3.540453E0,7.9471655E-2,-1.6330543E-1,2.7766426E0,-2.0755914E-1,-3.882618E-1,2.8898213E0,-4.6678165E-1,2.0237257E-1,-6.742239E-2,7.982336E-1,4.2025164E-1,-4.9599075E-1,1.1967809E-4,-4.265203E-3,7.483523E-4,-1.4621558E-2,-2.4619902E-2,-4.684074E-3,-2.328589E-2,-4.286179E-3,4.1011306E-3,7.8083796E-4,1.2404767E-2,3.9723244E-2,2.3081832E-2,-8.956737E-3,-1.2802556E-3,-3.6132447E-2],"split_indices":[19,2,27,2,7,29,7,7,14,29,21,7,19,21,14,0,0,0,0,0,0,0,0,0,0,0,0,0,0,0,0],"split_type":[0,0,0,0,0,0,0,0,0,0,0,0,0,0,0,0,0,0,0,0,0,0,0,0,0,0,0,0,0,0,0],"sum_hessian":[5.468E3,3.964E3,1.504E3,3.934E3,3E1,1.491E3,1.3E1,1.893E3,2.041E3,1.6E1,1.4E1,1.468E3,2.3E1,6E0,7E0,7.54E2,1.139E3,2.018E3,2.3E1,5E0,1.1E1,1.3E1,1E0,1.083E3,3.85E2,1.9E1,4E0,3E0,3E0,1E0,6E0],"tree_param":{"num_deleted":"0","num_feature":"31","num_nodes":"31","size_leaf_vector":"1"}},{"base_weights":[6.9491635E-3,-3.3457842E-1,2.4696857E-1,-5.433616E-1,-1.8617786E-1,1.227561E-1,4.8394668E-1,-6.4160115E-1,-4.5057347E-1,-2.96448E-1,-1.2711261E-1,4.6809096E-2,2.2140996E-1,4.2584252E-1,7.4695617E-1,-3.366564E-2,-2.9074028E-2,-2.4383595E-2,-1.9672815E-2,-1.6006745E-2,-1.2011594E-2,-8.421507E-3,-3.5510946E-3,-1.9446148E-4,4.462461E-3,9.382304E-3,1.4151013E-2,2.2429977E-2,1.2560892E-2,3.9846998E-2,1.588388E-2],"categories":[],"categories_nodes":[],"categories_segments":[],"categories_sizes":[],"default_left":[0,0,0,0,0,0,0,0,0,0,0,0,0,0,0,0,0,0,0,0,0,0,0,0,0,0,0,0,0,0,0],"id":10,"left_children":[1,3,5,7,9,11,13,15,17,19,21,23,25,27,29,-1,-1,-1,-1,-1,-1,-1,-1,-1,-1,-1,-1,-1,-1,-1,-1],"loss_changes":[4.405249E2,6.862036E1,9.283946E1,8.106232E0,8.416367E0,1.5514023E1,1.6262817E1,4.5689392E-1,8.188629E-1,5.249672E-1,1.950985E0,2.5220723E0,1.8211555E0,3.42807E0,3.9309464E0,0E0,0E0,0E0,0E0,0E0,0E0,0E0,0E0,0E0,0E0,0E0,0E0,0E0,0E0,0E0,0E0],"parents":[2147483647,0,0,1,1,2,2,3,3,4,4,5,5,6,6,7,7,8,8,9,9,10,10,11,11,12,12,13,13,14,14],"right_children":[2,4,6,8,10,12,14,16,18,20,22,24,26,28,30,-1,-1,-1,-1,-1,-1,-1,-1,-1,-1,-1,-1,-1,-1,-1,-1],"split_conditions":[-3.4016028E-1,-4.825973E-1,1.7268692E-1,-5.198294E-1,-4.3815318E-1,-1.3030183E-1,1.8304942E0,-5.305614E-1,-4.997666E-1,-4.528584E-1,-3.838789E-1,-2.5942343E-1,3.1623464E-2,2.2501582E-1,9.29697E-1,-3.366564E-2,-2.9074028E-2,-2.4383595E-2,-1.9672815E-2,-1.6006745E-2,-1.2011594E-2,-8.421507E-3,-3.5510946E-3,-1.9446148E-4,4.462461E-3,9.382304E-3,1.4151013E-2,2.2429977E-2,1.2560892E-2,3.9846998E-2,1.588388E-2],"split_indices":[23,23,23,23,23,23,23,23,23,23,23,23,23,4,14,0,0,0,0,0,0,0,0,0,0,0,0,0,0,0,0],"split_type":[0,0,0,0,0,0,0,0,0,0,0,0,0,0,0,0,0,0,0,0,0,0,0,0,0,0,0,0,0,0,0],"sum_hessian":[5.372E3,2.217E3,3.155E3,9.2E2,1.297E3,2.071E3,1.084E3,4.44E2,4.76E2,4.51E2,8.46E2,1.171E3,9E2,8.9E2,1.94E2,2.84E2,1.6E2,2.84E2,1.92E2,3.14E2,1.37E2,4.86E2,3.6E2,5.34E2,6.37E2,5.84E2,3.16E2,7.86E2,1.04E2,1.73E2,2.1E1],"tree_param":{"num_deleted":"0","num_feature":"31","num_nodes":"31","size_leaf_vector":"1"}},{"base_weights":[-3.5468927E-3,-1.7985395E-1,1.2642457E-1,-3.1610587E-1,-1.0152362E-1,8.19541E-2,3.3717808E-1,-3.8159975E-1,-2.5187457E-1,-1.4591013E-1,-5.7965215E-2,4.8339587E-2,1.579855E-1,4.259295E-1,2.3924346E-1,-1.9395612E-2,1.9068466E-3,-1.2809167E-2,4.5500672E-3,-4.366186E-3,-8.945305E-3,-2.404699E-3,-1.1413778E-2,-8.231876E-4,3.502518E-3,8.946153E-3,-9.934441E-3,2.2392252E-2,-3.1001838E-3,1.4699781E-2,-2.53213E-3],"categories":[],"categories_nodes":[],"categories_segments":[],"categories_sizes":[],"default_left":[0,0,0,0,0,0,0,0,0,0,0,0,0,0,0,0,0,0,0,0,0,0,0,0,0,0,0,0,0,0,0],"id":11,"left_children":[1,3,5,7,9,11,13,15,17,19,21,23,25,27,29,-1,-1,-1,-1,-1,-1,-1,-1,-1,-1,-1,-1,-1,-1,-1,-1],"loss_changes":[1.23442314E2,2.43656E1,2.9035892E1,3.412323E0,2.8007803E0,6.5402164E0,4.5916862E0,1.1037712E0,6.4972305E-1,1.3742867E0,1.2246838E0,2.502676E0,5.89785E0,3.0432854E0,4.1257076E0,0E0,0E0,0E0,0E0,0E0,0E0,0E0,0E0,0E0,0E0,0E0,0E0,0E0,0E0,0E0,0E0],"parents":[2147483647,0,0,1,1,2,2,3,3,4,4,5,5,6,6,7,7,8,8,9,9,10,10,11,11,12,12,13,13,14,14],"right_children":[2,4,6,8,10,12,14,16,18,20,22,24,26,28,30,-1,-1,-1,-1,-1,-1,-1,-1,-1,-1,-1,-1,-1,-1,-1,-1],"split_conditions":[-2.3374796E-1,-3.3086684E-1,3.3343312E-1,-3.5341E-1,1.3784304E-1,-1.6151514E-2,-2.3479351E-1,3.6459816E0,5.83939E-1,-1.6437241E-1,1.2457643E0,-5.206551E-1,1.9217147E0,5.530277E-1,9.1700935E-1,-1.9395612E-2,1.9068466E-3,-1.2809167E-2,4.5500672E-3,-4.366186E-3,-8.945305E-3,-2.404699E-3,-1.1413778E-2,-8.231876E-4,3.502518E-3,8.946153E-3,-9.934441E-3,2.2392252E-2,-3.1001838E-3,1.4699781E-2,-2.53213E-3],"split_indices":[1,1,1,1,2,1,9,9,3,4,12,2,28,4,28,0,0,0,0,0,0,0,0,0,0,0,0,0,0,0,0],"split_type":[0,0,0,0,0,0,0,0,0,0,0,0,0,0,0,0,0,0,0,0,0,0,0,0,0,0,0,0,0,0,0],"sum_hessian":[5.385E3,2.285E3,3.1E3,8.33E2,1.452E3,2.561E3,5.39E2,4.1E2,4.23E2,7.18E2,7.34E2,1.777E3,7.84E2,2.81E2,2.58E2,4.04E2,6E0,4.18E2,5E0,2.6E2,4.58E2,6.95E2,3.9E1,4.46E2,1.331E3,7.41E2,4.3E1,2.69E2,1.2E1,2.17E2,4.1E1],"tree_param":{"num_deleted":"0","num_feature":"31","num_nodes":"31","size_leaf_vector":"1"}},{"base_weights":[-1.430583E-3,-3.0529314E-1,2.3454298E-1,-4.85348E-1,-1.478594E-1,1.0535798E-1,4.2298722E-1,-5.915096E-1,-3.8856733E-1,-2.4879684E-1,-1.02906644E-1,2.6299397E-2,1.7150693E-1,3.44906E-1,6.2768394E-1,-3.1209493E-2,-2.6496792E-2,-2.221414E-2,-1.747773E-2,-1.4054127E-2,-1.0914492E-2,-7.150285E-3,-3.1103222E-3,-4.0894537E-4,2.493109E-3,5.7954732E-3,1.0409478E-2,1.4412238E-2,1.9224757E-2,2.8711764E-2,4.1541625E-2],"categories":[],"categories_nodes":[],"categories_segments":[],"categories_sizes":[],"default_left":[0,0,0,0,0,0,0,0,0,0,0,0,0,0,0,0,0,0,0,0,0,0,0,0,0,0,0,0,0,0,0],"id":12,"left_children":[1,3,5,7,9,11,13,15,17,19,21,23,25,27,29,-1,-1,-1,-1,-1,-1,-1,-1,-1,-1,-1,-1,-1,-1,-1,-1],"loss_changes":[3.8942178E2,6.722333E1,7.437555E1,1.1143921E1,5.7278404E0,9.487289E0,1.9650345E1,7.2766113E-1,1.1097412E0,3.2277107E-1,1.4256668E0,6.730791E-1,1.9908562E0,1.9125137E0,3.2363586E0,0E0,0E0,0E0,0E0,0E0,0E0,0E0,0E0,0E0,0E0,0E0,0E0,0E0,0E0,0E0,0E0],"parents":[2147483647,0,0,1,1,2,2,3,3,4,4,5,5,6,6,7,7,8,8,9,9,10,10,11,11,12,12,13,13,14,14],"right_children":[2,4,6,8,10,12,14,16,18,20,22,24,26,28,30,-1,-1,-1,-1,-1,-1,-1,-1,-1,-1,-1,-1,-1,-1,-1,-1],"split_conditions":[-3.2378212E-1,-4.709142E-1,1.0069468E-1,-5.173362E-1,-4.3262827E-1,-1.8516806E-1,1.1375378E0,-5.2906346E-1,-4.997666E-1,-4.528584E-1,-3.8045028E-1,-2.7673906E-1,-9.710598E-2,3.182059E-1,3.6735504E0,-3.1209493E-2,-2.6496792E-2,-2.221414E-2,-1.747773E-2,-1.4054127E-2,-1.0914492E-2,-7.150285E-3,-3.1103222E-3,-4.0894537E-4,2.493109E-3,5.7954732E-3,1.0409478E-2,1.4412238E-2,1.9224757E-2,2.8711764E-2,4.1541625E-2],"split_indices":[23,23,23,23,23,23,23,23,23,23,23,23,23,23,23,0,0,0,0,0,0,0,0,0,0,0,0,0,0,0,0],"split_type":[0,0,0,0,0,0,0,0,0,0,0,0,0,0,0,0,0,0,0,0,0,0,0,0,0,0,0,0,0,0,0],"sum_hessian":[5.429E3,2.373E3,3.056E3,1.106E3,1.267E3,1.814E3,1.242E3,5.25E2,5.81E2,3.89E2,8.78E2,8.27E2,9.87E2,9.01E2,3.41E2,3.37E2,1.88E2,2.35E2,3.46E2,1.85E2,2.04E2,4.41E2,4.37E2,3.36E2,4.91E2,3.94E2,5.93E2,3.74E2,5.27E2,2.73E2,6.8E1],"tree_param":{"num_deleted":"0","num_feature":"31","num_nodes":"31","size_leaf_vector":"1"}},{"base_weights":[-7.353511E-4,-1.2766366E-1,1.3642313E-1,-2.4173047E-1,-6.0712107E-2,8.586635E-2,2.8477126E-1,-2.8924444E-1,-1.9025658E-1,-3.7623957E-2,-1.1615761E-1,1.0454334E-1,1.4464589E-3,3.389913E-1,1.8211496E-1,-1.1985724E-2,-1.8032437E-2,-8.535817E-3,-1.4832637E-2,-1.32202525E-2,-1.4507064E-3,-6.6946144E-3,1.5745569E-3,3.6996126E-3,7.842886E-3,-3.9941557E-3,2.8664798E-3,1.3516421E-2,2.4138493E-2,1.0079065E-2,-8.066216E-3],"categories":[],"categories_nodes":[],"categories_segments":[],"categories_sizes":[],"default_left":[0,0,0,0,0,0,0,0,0,0,0,0,0,0,0,0,0,0,0,0,0,0,0,0,0,0,0,0,0,0,0],"id":13,"left_children":[1,3,5,7,9,11,13,15,17,19,21,23,25,27,29,-1,-1,-1,-1,-1,-1,-1,-1,-1,-1,-1,-1,-1,-1,-1,-1],"loss_changes":[9.482842E1,2.1590256E1,1.9610558E1,2.5032043E0,2.2793899E0,3.08074E0,3.6396713E0,1.83041E0,9.9925613E-1,2.4544897E0,1.3763099E0,2.5456123E0,1.6180373E0,4.1540527E0,1.5835576E0,0E0,0E0,0E0,0E0,0E0,0E0,0E0,0E0,0E0,0E0,0E0,0E0,0E0,0E0,0E0,0E0],"parents":[2147483647,0,0,1,1,2,2,3,3,4,4,5,5,6,6,7,7,8,8,9,9,10,10,11,11,12,12,13,13,14,14],"right_children":[2,4,6,8,10,12,14,16,18,20,22,24,26,28,30,-1,-1,-1,-1,-1,-1,-1,-1,-1,-1,-1,-1,-1,-1,-1,-1],"split_conditions":[-1.8352237E-1,-3.1368494E-1,2.623529E-1,-3.4020323E-1,3.7774384E-1,6.74781E-1,1.08144134E-1,-1.1679504E-1,1.3250053E0,-1.2268317E0,2.103393E0,-1.458927E-2,-3.5758007E-1,9.993906E-1,2.3544617E0,-1.1985724E-2,-1.8032437E-2,-8.535817E-3,-1.4832637E-2,-1.32202525E-2,-1.4507064E-3,-6.6946144E-3,1.5745569E-3,3.6996126E-3,7.842886E-3,-3.9941557E-3,2.8664798E-3,1.3516421E-2,2.4138493E-2,1.0079065E-2,-8.066216E-3],"split_indices":[0,0,0,0,30,30,5,11,30,30,19,0,15,0,10,0,0,0,0,0,0,0,0,0,0,0,0,0,0,0,0],"split_type":[0,0,0,0,0,0,0,0,0,0,0,0,0,0,0,0,0,0,0,0,0,0,0,0,0,0,0,0,0,0,0],"sum_hessian":[5.445E3,2.828E3,2.617E3,1.045E3,1.783E3,1.953E3,6.64E2,5.41E2,5.04E2,1.26E3,5.23E2,1.599E3,3.54E2,4.33E2,2.31E2,3.22E2,2.19E2,4.28E2,7.6E1,4.5E1,1.215E3,4.67E2,5.6E1,1.011E3,5.88E2,1.44E2,2.1E2,2.95E2,1.38E2,2.19E2,1.2E1],"tree_param":{"num_deleted":"0","num_feature":"31","num_nodes":"31","size_leaf_vector":"1"}},{"base_weights":[-4.467112E-4,-1.8238184E-1,9.0720795E-2,-3.1381696E-1,-1.2379883E-1,4.233404E-2,2.5257537E-1,-4.0446496E-1,-2.8132674E-1,-1.7221437E-1,-9.005981E-2,-8.305173E-3,7.3006384E-2,2.0259546E-1,3.8621026E-1,-1.22855725E-2,-2.1385692E-2,-1.2054197E-2,-1.6862385E-2,-1.0287092E-2,-6.001001E-3,-2.2339625E-3,-6.949088E-3,9.056179E-4,-3.3879827E-3,3.756469E-3,-3.4083556E-2,1.0839752E-2,-2.3417722E-2,2.3353597E-2,1.22814365E-2],"categories":[],"categories_nodes":[],"categories_segments":[],"categories_sizes":[],"default_left":[0,0,0,0,0,0,0,0,0,0,0,0,0,0,0,0,0,0,0,0,0,0,0,0,0,0,0,0,0,0,0],"id":14,"left_children":[1,3,5,7,9,11,13,15,17,19,21,23,25,27,29,-1,-1,-1,-1,-1,-1,-1,-1,-1,-1,-1,-1,-1,-1,-1,-1],"loss_changes":[9.067875E1,1.4013405E1,2.8512054E1,1.5414009E0,2.0492268E0,4.357398E0,5.5188103E0,4.3376732E-1,8.571167E-1,8.8177776E-1,1.6522088E0,1.6645358E0,2.8502169E0,5.93219E0,2.4657326E0,0E0,0E0,0E0,0E0,0E0,0E0,0E0,0E0,0E0,0E0,0E0,0E0,0E0,0E0,0E0,0E0],"parents":[2147483647,0,0,1,1,2,2,3,3,4,4,5,5,6,6,7,7,8,8,9,9,10,10,11,11,12,12,13,13,14,14],"right_children":[2,4,6,8,10,12,14,16,18,20,22,24,26,28,30,-1,-1,-1,-1,-1,-1,-1,-1,-1,-1,-1,-1,-1,-1,-1,-1],"split_conditions":[-2.666547E-1,-3.4525716E-1,1.6007777E-1,-3.675164E-1,-3.126397E-1,-1.7958437E-1,9.4688314E-1,-3.7547553E-1,-1.59478E-1,2.0018005E-1,-4.022957E-1,1.5609886E-1,4.5227356E0,2.7546268E0,1.5871209E-1,-1.22855725E-2,-2.1385692E-2,-1.2054197E-2,-1.6862385E-2,-1.0287092E-2,-6.001001E-3,-2.2339625E-3,-6.949088E-3,9.056179E-4,-3.3879827E-3,3.756469E-3,-3.4083556E-2,1.0839752E-2,-2.3417722E-2,2.3353597E-2,1.22814365E-2],"split_indices":[1,1,1,1,1,1,1,1,27,15,10,10,27,27,5,0,0,0,0,0,0,0,0,0,0,0,0,0,0,0,0],"split_type":[0,0,0,0,0,0,0,0,0,0,0,0,0,0,0,0,0,0,0,0,0,0,0,0,0,0,0,0,0,0,0],"sum_hessian":[5.465E3,1.824E3,3.641E3,5.61E2,1.263E3,2.804E3,8.37E2,1.45E2,4.16E2,5.17E2,7.46E2,1.058E3,1.746E3,6.11E2,2.26E2,2E1,1.25E2,2.45E2,1.71E2,3.13E2,2.04E2,3.88E2,3.58E2,7.33E2,3.25E2,1.742E3,4E0,5.99E2,1.2E1,1.42E2,8.4E1],"tree_param":{"num_deleted":"0","num_feature":"31","num_nodes":"31","size_leaf_vector":"1"}},{"base_weights":[2.8252339E-3,-1.373418E-1,1.154427E-1,-2.577715E-1,-7.756362E-2,7.511202E-2,2.919264E-1,-3.201574E-1,-1.9628727E-1,-5.2551746E-2,-1.3771343E-1,3.832926E-2,1.2937342E-1,3.2614E-1,1.0758343E-1,-1.6337598E-2,-1.6466862E-3,-1.219507E-3,-1.0073042E-2,-4.5106015E-3,1.0914644E-3,-1.0369042E-2,-5.094482E-3,3.6356244E-3,-9.6319825E-5,4.4487566E-3,1.08785825E-2,1.3367744E-2,2.1202153E-2,2.4682915E-2,1.7524402E-3],"categories":[],"categories_nodes":[],"categories_segments":[],"categories_sizes":[],"default_left":[0,0,0,0,0,0,0,0,0,0,0,0,0,0,0,0,0,0,0,0,0,0,0,0,0,0,0,0,0,0,0],"id":15,"left_children":[1,3,5,7,9,11,13,15,17,19,21,23,25,27,29,-1,-1,-1,-1,-1,-1,-1,-1,-1,-1,-1,-1,-1,-1,-1,-1],"loss_changes":[8.560351E1,1.7372952E1,2.138102E1,3.0095978E0,2.4239693E0,4.882962E0,3.4905434E0,7.392998E-1,3.5614872E-1,3.2037528E0,1.1618567E0,2.0223384E0,3.5045052E0,2.5973473E0,2.4750361E0,0E0,0E0,0E0,0E0,0E0,0E0,0E0,0E0,0E0,0E0,0E0,0E0,0E0,0E0,0E0,0E0],"parents":[2147483647,0,0,1,1,2,2,3,3,4,4,5,5,6,6,7,7,8,8,9,9,10,10,11,11,12,12,13,13,14,14],"right_children":[2,4,6,8,10,12,14,16,18,20,22,24,26,28,30,-1,-1,-1,-1,-1,-1,-1,-1,-1,-1,-1,-1,-1,-1,-1,-1],"split_conditions":[-2.2470629E-1,-3.3206946E-1,3.3343312E-1,-3.5341E-1,6.8119186E-1,2.534788E-1,5.7108724E-1,2.869045E0,-1.5413533E0,-2.666547E-1,-3.36707E-1,-2.803473E-1,-1.6151514E-2,1.0155984E0,-1.4036678E0,-1.6337598E-2,-1.6466862E-3,-1.219507E-3,-1.0073042E-2,-4.5106015E-3,1.0914644E-3,-1.0369042E-2,-5.094482E-3,3.6356244E-3,-9.6319825E-5,4.4487566E-3,1.08785825E-2,1.3367744E-2,2.1202153E-2,2.4682915E-2,1.7524402E-3],"split_indices":[1,1,1,1,16,2,14,5,2,1,2,8,1,1,2,0,0,0,0,0,0,0,0,0,0,0,0,0,0,0,0],"split_type":[0,0,0,0,0,0,0,0,0,0,0,0,0,0,0,0,0,0,0,0,0,0,0,0,0,0,0,0,0,0,0],"sum_hessian":[5.421E3,2.415E3,3.006E3,8E2,1.615E3,2.448E3,5.58E2,3.95E2,4.05E2,1.142E3,4.73E2,1.46E3,9.88E2,4.7E2,8.8E1,3.86E2,9E0,1.2E1,3.93E2,7.58E2,3.84E2,1.59E2,3.14E2,7.87E2,6.73E2,6.79E2,3.09E2,2.96E2,1.74E2,1.3E1,7.5E1],"tree_param":{"num_deleted":"0","num_feature":"31","num_nodes":"31","size_leaf_vector":"1"}},{"base_weights":[-1.2343543E-3,-2.8537786E-1,2.11439E-1,-4.4367626E-1,-1.4639689E-1,1.0664844E-1,4.1007012E-1,-5.442168E-1,-3.6163568E-1,-2.3279123E-1,-9.936414E-2,4.748206E-2,2.0170888E-1,3.5649452E-1,6.553246E-1,-2.8544297E-2,-2.4699954E-2,-2.0384628E-2,-1.6009571E-2,-1.3036804E-2,-1.0156089E-2,-6.615934E-3,-3.0750071E-3,5.106415E-5,3.9960747E-3,-8.854855E-3,1.0318022E-2,1.4561306E-2,1.9585473E-2,2.8691018E-2,3.7408162E-2],"categories":[],"categories_nodes":[],"categories_segments":[],"categories_sizes":[],"default_left":[0,0,0,0,0,0,0,0,0,0,0,0,0,0,0,0,0,0,0,0,0,0,0,0,0,0,0,0,0,0,0],"id":16,"left_children":[1,3,5,7,9,11,13,15,17,19,21,23,25,27,29,-1,-1,-1,-1,-1,-1,-1,-1,-1,-1,-1,-1,-1,-1,-1,-1],"loss_changes":[3.2807303E2,5.1064133E1,6.45858E1,8.760956E0,5.0113754E0,1.1430418E1,1.3852112E1,3.688507E-1,1.0166473E0,3.085308E-1,9.950857E-1,1.8914053E0,1.4109325E0,1.9131241E0,1.0159302E0,0E0,0E0,0E0,0E0,0E0,0E0,0E0,0E0,0E0,0E0,0E0,0E0,0E0,0E0,0E0,0E0],"parents":[2147483647,0,0,1,1,2,2,3,3,4,4,5,5,6,6,7,7,8,8,9,9,10,10,11,11,12,12,13,13,14,14],"right_children":[2,4,6,8,10,12,14,16,18,20,22,24,26,28,30,-1,-1,-1,-1,-1,-1,-1,-1,-1,-1,-1,-1,-1,-1,-1,-1],"split_conditions":[-3.3689088E-1,-4.7315422E-1,1.7268692E-1,-5.198294E-1,-4.3262827E-1,-1.0092881E-1,1.8304942E0,-5.305614E-1,-4.997666E-1,-4.528584E-1,-3.838789E-1,-2.5942343E-1,-1.0344173E0,4.165123E-1,3.1583247E0,-2.8544297E-2,-2.4699954E-2,-2.0384628E-2,-1.6009571E-2,-1.3036804E-2,-1.0156089E-2,-6.615934E-3,-3.0750071E-3,5.106415E-5,3.9960747E-3,-8.854855E-3,1.0318022E-2,1.4561306E-2,1.9585473E-2,2.8691018E-2,3.7408162E-2],"split_indices":[23,23,23,23,23,23,23,23,23,23,23,23,3,23,23,0,0,0,0,0,0,0,0,0,0,0,0,0,0,0,0],"split_type":[0,0,0,0,0,0,0,0,0,0,0,0,0,0,0,0,0,0,0,0,0,0,0,0,0,0,0,0,0,0,0],"sum_hessian":[5.427E3,2.323E3,3.104E3,1.085E3,1.238E3,2.033E3,1.071E3,4.85E2,6E2,4.35E2,8.03E2,1.254E3,7.79E2,8.81E2,1.9E2,3.1E2,1.75E2,2.8E2,3.2E2,2.2E2,2.15E2,4.28E2,3.75E2,5.16E2,7.38E2,9E0,7.7E2,3.12E2,5.69E2,1.05E2,8.5E1],"tree_param":{"num_deleted":"0","num_feature":"31","num_nodes":"31","size_leaf_vector":"1"}},{"base_weights":[4.109959E-4,3.646396E-3,-3.7525603E-1,-1.4533107E-2,5.3519633E-2,-5.6148935E-2,-5.7839096E-1,-5.5934995E-2,1.39548E-2,5.694872E-2,-3.2384047E-1,-2.2127827E-1,1.5191457E-1,-1.2799685E-1,-6.4812344E-1,-1.3546824E-3,-7.282994E-3,1.0723387E-3,-3.19306E-3,4.0603876E-3,7.133319E-4,-2.2824544E-2,1.3524555E-2,-6.0830284E-3,-2.2318598E-2,1.319844E-2,-8.009176E-3,-1.0168285E-3,-1.3965949E-2,-1.8203644E-2,-3.612904E-2],"categories":[],"categories_nodes":[],"categories_segments":[],"categories_sizes":[],"default_left":[0,0,0,0,0,0,0,0,0,0,0,0,0,0,0,0,0,0,0,0,0,0,0,0,0,0,0,0,0,0,0],"id":17,"left_children":[1,3,5,7,9,11,13,15,17,19,21,23,25,27,29,-1,-1,-1,-1,-1,-1,-1,-1,-1,-1,-1,-1,-1,-1,-1,-1],"loss_changes":[6.5476904E0,4.843306E0,2.949327E0,4.6183395E0,1.8649826E0,6.864058E-1,7.964411E-1,4.12616E0,1.3539189E0,1.4639688E0,1.1483748E0,1.9235057E-1,3.5703063E-1,7.5776525E-2,2.4451923E-1,0E0,0E0,0E0,0E0,0E0,0E0,0E0,0E0,0E0,0E0,0E0,0E0,0E0,0E0,0E0,0E0],"parents":[2147483647,0,0,1,1,2,2,3,3,4,4,5,5,6,6,7,7,8,8,9,9,10,10,11,11,12,12,13,13,14,14],"right_children":[2,4,6,8,10,12,14,16,18,20,22,24,26,28,30,-1,-1,-1,-1,-1,-1,-1,-1,-1,-1,-1,-1,-1,-1,-1,-1],"split_conditions":[4.4546294E0,-9.722199E-3,-2.6700217E-1,-3.8381967E-1,3.2172556E0,-5.2709126E-1,5.711141E-1,-7.7570744E-2,6.4620006E-1,1.0811511E0,2.6469057E0,-5.9786534E-1,2.9063795E0,1.541384E-1,-1.4299019E-1,-1.3546824E-3,-7.282994E-3,1.0723387E-3,-3.19306E-3,4.0603876E-3,7.133319E-4,-2.2824544E-2,1.3524555E-2,-6.0830284E-3,-2.2318598E-2,1.319844E-2,-8.009176E-3,-1.0168285E-3,-1.3965949E-2,-1.8203644E-2,-3.612904E-2],"split_indices":[28,19,8,28,28,8,29,29,21,21,29,8,29,4,9,0,0,0,0,0,0,0,0,0,0,0,0,0,0,0,0],"split_type":[0,0,0,0,0,0,0,0,0,0,0,0,0,0,0,0,0,0,0,0,0,0,0,0,0,0,0,0,0,0,0],"sum_hessian":[5.385E3,5.34E3,4.5E1,3.914E3,1.426E3,1.8E1,2.7E1,1.595E3,2.319E3,1.414E3,1.2E1,1E1,8E0,4E0,2.3E1,1.208E3,3.87E2,2.116E3,2.03E2,9.01E2,5.13E2,1E1,2E0,8E0,2E0,6E0,2E0,3E0,1E0,6E0,1.7E1],"tree_param":{"num_deleted":"0","num_feature":"31","num_nodes":"31","size_leaf_vector":"1"}},{"base_weights":[-2.309903E-3,5.304289E-4,-3.509727E-1,-3.4268875E-2,2.4104334E-2,-1.7234114E-1,-5.9942156E-1,-2.1668091E-2,-1.6042183E-1,6.915089E-2,1.6954513E-3,-2.682754E-1,-8.411741E-3,-4.0675557E-1,-3.7344627E-2,-2.0233819E-3,2.0460698E-3,-9.897393E-3,-1.7823918E-3,3.6391162E-3,-2.9347671E-2,5.5019854E-4,-4.536841E-3,3.6748964E-3,-1.8954506E-2,5.3810226E-3,-1.1918659E-2,-2.6097918E-2,1.8018484E-3],"categories":[],"categories_nodes":[],"categories_segments":[],"categories_sizes":[],"default_left":[0,0,0,0,0,0,0,0,0,0,0,0,0,0,0,0,0,0,0,0,0,0,0,0,0,0,0,0,0],"id":18,"left_children":[1,3,5,7,9,11,13,15,17,19,21,23,25,27,-1,-1,-1,-1,-1,-1,-1,-1,-1,-1,-1,-1,-1,-1,-1],"loss_changes":[5.392468E0,4.432387E0,1.8494511E0,3.4650881E0,3.2512987E0,4.2235732E-1,2.0762444E-1,2.3373144E0,9.2003345E-1,2.5920997E0,1.8525956E0,6.7171204E-1,3.1916606E-1,5.28919E-1,0E0,0E0,0E0,0E0,0E0,0E0,0E0,0E0,0E0,0E0,0E0,0E0,0E0,0E0,0E0],"parents":[2147483647,0,0,1,1,2,2,3,3,4,4,5,5,6,6,7,7,8,8,9,9,10,10,11,11,12,12,13,13],"right_children":[2,4,6,8,10,12,14,16,18,20,22,24,26,28,-1,-1,-1,-1,-1,-1,-1,-1,-1,-1,-1,-1,-1,-1,-1],"split_conditions":[4.4546294E0,-4.155472E-1,-5.8851417E-2,1.0246402E-1,-6.1249737E-2,5.949871E-1,-8.598318E-2,7.982336E-1,-4.2869102E-2,1.5938634E0,1.6266689E0,-7.474573E-1,5.7607465E0,-1.4591035E-1,-3.7344627E-2,-2.0233819E-3,2.0460698E-3,-9.897393E-3,-1.7823918E-3,3.6391162E-3,-2.9347671E-2,5.5019854E-4,-4.536841E-3,3.6748964E-3,-1.8954506E-2,5.3810226E-3,-1.1918659E-2,-2.6097918E-2,1.8018484E-3],"split_indices":[28,28,8,27,27,25,15,19,19,28,8,15,28,15,0,0,0,0,0,0,0,0,0,0,0,0,0,0,0],"split_type":[0,0,0,0,0,0,0,0,0,0,0,0,0,0,0,0,0,0,0,0,0,0,0,0,0,0,0,0,0],"sum_hessian":[5.444E3,5.401E3,4.3E1,2.181E3,3.22E3,2.6E1,1.7E1,1.984E3,1.97E2,1.069E3,2.151E3,1.6E1,1E1,9E0,8E0,1.526E3,4.58E2,1.51E2,4.6E1,1.064E3,5E0,1.955E3,1.96E2,4E0,1.2E1,7E0,3E0,7E0,2E0],"tree_param":{"num_deleted":"0","num_feature":"31","num_nodes":"29","size_leaf_vector":"1"}},{"base_weights":[-2.1825079E-4,-2.7905303E-1,1.8716292E-1,-4.465787E-1,-1.6360623E-1,7.0028484E-2,3.4211645E-1,-5.1791257E-1,-3.7076423E-1,-2.4331991E-1,-1.0776973E-1,3.150283E-2,1.558479E-1,2.8361E-1,5.2004284E-1,-2.8264392E-2,-2.460197E-2,-2.1204675E-2,-1.7487168E-2,-1.4405175E-2,-1.0917033E-2,-7.1803066E-3,-3.9701066E-3,-5.1773974E-4,3.0917663E-3,6.9426084E-3,9.761053E-3,1.2454557E-2,1.7090127E-2,2.2454994E-2,2.9988099E-2],"categories":[],"categories_nodes":[],"categories_segments":[],"categories_sizes":[],"default_left":[0,0,0,0,0,0,0,0,0,0,0,0,0,0,0,0,0,0,0,0,0,0,0,0,0,0,0,0,0,0,0],"id":19,"left_children":[1,3,5,7,9,11,13,15,17,19,21,23,25,27,29,-1,-1,-1,-1,-1,-1,-1,-1,-1,-1,-1,-1,-1,-1,-1,-1],"loss_changes":[2.8313403E2,4.205011E1,5.8801468E1,4.6104126E0,5.7199287E0,6.101733E0,1.4374237E1,2.7957916E-1,3.3820724E-1,5.3110695E-1,7.622242E-1,1.6207086E0,3.556614E-1,2.0280533E0,1.6761475E0,0E0,0E0,0E0,0E0,0E0,0E0,0E0,0E0,0E0,0E0,0E0,0E0,0E0,0E0,0E0,0E0],"parents":[2147483647,0,0,1,1,2,2,3,3,4,4,5,5,6,6,7,7,8,8,9,9,10,10,11,11,12,12,13,13,14,14],"right_children":[2,4,6,8,10,12,14,16,18,20,22,24,26,28,30,-1,-1,-1,-1,-1,-1,-1,-1,-1,-1,-1,-1,-1,-1,-1,-1],"split_conditions":[-3.4873912E-1,-4.8833558E-1,3.1623464E-2,-5.2139956E-1,-4.3815318E-1,-1.3030183E-1,1.0376105E0,-5.364798E-1,-5.126662E-1,-4.709142E-1,-4.0176803E-1,-2.7673906E-1,-2.2219865E-2,4.3590844E-1,2.037532E0,-2.8264392E-2,-2.460197E-2,-2.1204675E-2,-1.7487168E-2,-1.4405175E-2,-1.0917033E-2,-7.1803066E-3,-3.9701066E-3,-5.1773974E-4,3.0917663E-3,6.9426084E-3,9.761053E-3,1.2454557E-2,1.7090127E-2,2.2454994E-2,2.9988099E-2],"split_indices":[23,23,23,23,23,23,23,23,23,23,23,23,23,23,23,0,0,0,0,0,0,0,0,0,0,0,0,0,0,0,0],"split_type":[0,0,0,0,0,0,0,0,0,0,0,0,0,0,0,0,0,0,0,0,0,0,0,0,0,0,0,0,0,0,0],"sum_hessian":[5.417E3,2.177E3,3.24E3,8.87E2,1.29E3,1.846E3,1.394E3,4.54E2,4.33E2,5.3E2,7.6E2,1.275E3,5.71E2,1.051E3,3.43E2,1.53E2,3.01E2,1.17E2,3.16E2,1.86E2,3.44E2,3.34E2,4.26E2,5.36E2,7.39E2,4.02E2,1.69E2,6.63E2,3.88E2,1.85E2,1.58E2],"tree_param":{"num_deleted":"0","num_feature":"31","num_nodes":"31","size_leaf_vector":"1"}},{"base_weights":[-2.0565253E-3,-1.2043091E-1,8.6058825E-2,-2.1862479E-1,-6.971284E-2,4.2508718E-2,1.9760416E-1,-2.91705E-1,-1.7187285E-1,-5.201977E-2,-1.3555843E-1,7.403401E-3,9.4304174E-2,2.2253025E-1,3.3021685E-2,1.9642545E-3,-1.5093366E-2,-3.4519907E-3,-9.4422465E-3,-3.6036277E-3,6.221078E-4,-7.7699805E-3,2.1756263E-3,4.6671214E-4,-3.1870883E-2,8.615445E-3,3.3792537E-3,8.007123E-3,1.3811285E-2,-1.6811527E-2,7.716592E-3],"categories":[],"categories_nodes":[],"categories_segments":[],"categories_sizes":[],"default_left":[0,0,0,0,0,0,0,0,0,0,0,0,0,0,0,0,0,0,0,0,0,0,0,0,0,0,0,0,0,0,0],"id":20,"left_children":[1,3,5,7,9,11,13,15,17,19,21,23,25,27,29,-1,-1,-1,-1,-1,-1,-1,-1,-1,-1,-1,-1,-1,-1,-1,-1],"loss_changes":[5.6585938E1,1.1513931E1,1.5099392E1,2.6421776E0,1.7730832E0,4.068649E0,3.5740433E0,1.0411224E0,8.2993793E-1,1.5598216E0,1.1543741E0,1.6680878E0,1.8724852E0,2.4950218E0,5.2479997E0,0E0,0E0,0E0,0E0,0E0,0E0,0E0,0E0,0E0,0E0,0E0,0E0,0E0,0E0,0E0,0E0],"parents":[2147483647,0,0,1,1,2,2,3,3,4,4,5,5,6,6,7,7,8,8,9,9,10,10,11,11,12,12,13,13,14,14],"right_children":[2,4,6,8,10,12,14,16,18,20,22,24,26,28,30,-1,-1,-1,-1,-1,-1,-1,-1,-1,-1,-1,-1,-1,-1,-1,-1],"split_conditions":[-2.3003943E-1,-3.3206946E-1,1.3831276E-1,-3.4670708E-1,6.9859034E-1,-7.4448556E-2,1.2157176E0,-3.657192E-1,-1.1417606E0,-2.277301E-1,-1.7685959E-1,5.0466194E0,-6.178765E-1,4.1698644E-1,-9.8353016E-1,1.9642545E-3,-1.5093366E-2,-3.4519907E-3,-9.4422465E-3,-3.6036277E-3,6.221078E-4,-7.7699805E-3,2.1756263E-3,4.6671214E-4,-3.1870883E-2,8.615445E-3,3.3792537E-3,8.007123E-3,1.3811285E-2,-1.6811527E-2,7.716592E-3],"split_indices":[1,1,1,0,30,0,27,0,27,0,0,27,27,1,30,0,0,0,0,0,0,0,0,0,0,0,0,0,0,0,0],"split_type":[0,0,0,0,0,0,0,0,0,0,0,0,0,0,0,0,0,0,0,0,0,0,0,0,0,0,0,0,0,0,0],"sum_hessian":[5.423E3,2.314E3,3.109E3,7.87E2,1.527E3,2.237E3,8.72E2,3.05E2,4.82E2,1.205E3,3.22E2,1.334E3,9.03E2,7.57E2,1.15E2,9E0,2.96E2,6.9E1,4.13E2,9.19E2,2.86E2,2.9E2,3.2E1,1.331E3,3E0,2.29E2,6.74E2,3.52E2,4.05E2,2.8E1,8.7E1],"tree_param":{"num_deleted":"0","num_feature":"31","num_nodes":"31","size_leaf_vector":"1"}},{"base_weights":[1.2327365E-3,1.8475246E-2,-2.1845084E-2,-1.1304269E-3,3.9709974E-2,-1.8158833E-2,-3.442608E-1,-1.3514536E-2,3.8417604E-2,8.073876E-2,1.8842146E-2,-1.5183625E-2,-2.4079329E-1,-2.0303676E-1,-2.9422885E-2,-8.53261E-5,-5.2057146E-3,1.1527906E-2,1.3317215E-3,4.3839663E-3,-1.1757037E-2,2.5754934E-4,6.6638626E-3,-1.9200154E-3,4.2103892E-4,-3.8466726E-3,-1.7287955E-2,-2.0458147E-2,-1.7334458E-3],"categories":[],"categories_nodes":[],"categories_segments":[],"categories_sizes":[],"default_left":[0,0,0,0,0,0,0,0,0,0,0,0,0,0,0,0,0,0,0,0,0,0,0,0,0,0,0,0,0],"id":21,"left_children":[1,3,5,7,9,11,13,15,17,19,21,23,25,27,-1,-1,-1,-1,-1,-1,-1,-1,-1,-1,-1,-1,-1,-1,-1],"loss_changes":[2.1447918E0,1.2843955E0,2.733254E0,7.865954E-1,1.2664838E0,1.5065788E0,7.771697E-1,1.3081917E0,8.609808E-1,1.1146152E0,1.539428E0,1.2339072E0,4.8939002E-1,6.1050516E-1,0E0,0E0,0E0,0E0,0E0,0E0,0E0,0E0,0E0,0E0,0E0,0E0,0E0,0E0,0E0],"parents":[2147483647,0,0,1,1,2,2,3,3,4,4,5,5,6,6,7,7,8,8,9,9,10,10,11,11,12,12,13,13],"right_children":[2,4,6,8,10,12,14,16,18,20,22,24,26,28,-1,-1,-1,-1,-1,-1,-1,-1,-1,-1,-1,-1,-1,-1,-1],"split_conditions":[-1.6330543E-1,1.8942226E-1,3.2955904E0,7.9620755E-1,-5.965186E-1,2.0357106E0,1.602489E0,6.837698E-2,-1.5687965E-1,2.3392923E0,3.0761838E-1,9.5737614E-2,-6.364625E-1,3.6848013E0,-2.9422885E-2,-8.53261E-5,-5.2057146E-3,1.1527906E-2,1.3317215E-3,4.3839663E-3,-1.1757037E-2,2.5754934E-4,6.6638626E-3,-1.9200154E-3,4.2103892E-4,-3.8466726E-3,-1.7287955E-2,-2.0458147E-2,-1.7334458E-3],"split_indices":[7,2,29,22,29,2,6,6,4,2,6,2,15,29,0,0,0,0,0,0,0,0,0,0,0,0,0,0,0],"split_type":[0,0,0,0,0,0,0,0,0,0,0,0,0,0,0,0,0,0,0,0,0,0,0,0,0,0,0,0,0],"sum_hessian":[5.388E3,3.084E3,2.304E3,1.604E3,1.48E3,2.279E3,2.5E1,1.222E3,3.82E2,4.98E2,9.82E2,2.25E3,2.9E1,1.7E1,8E0,1.082E3,1.4E2,2.1E1,3.61E2,4.88E2,1E1,8.78E2,1.04E2,1.134E3,1.116E3,1.2E1,1.7E1,7E0,1E1],"tree_param":{"num_deleted":"0","num_feature":"31","num_nodes":"29","size_leaf_vector":"1"}},{"base_weights":[6.385755E-4,-1.4060275E-1,7.206627E-2,-2.3408322E-1,-9.845412E-2,3.235451E-2,2.0476821E-1,-2.873278E-1,-2.0553313E-1,-9.359601E-2,-2.8074443E-1,-1.26117775E-2,5.6895502E-2,2.1932213E-1,-1.0280583E-1,-1.0217263E-2,-1.5813837E-2,-1.0677586E-2,6.8111817E-4,-6.3558035E-3,-3.5047547E-3,-1.5235436E-2,-4.5197727E-3,1.4064531E-3,-2.0717976E-3,3.0400127E-3,-1.7661734E-2,9.189735E-3,1.5948804E-2,6.9689616E-3,-1.8982183E-2],"categories":[],"categories_nodes":[],"categories_segments":[],"categories_sizes":[],"default_left":[0,0,0,0,0,0,0,0,0,0,0,0,0,0,0,0,0,0,0,0,0,0,0,0,0,0,0,0,0,0,0],"id":22,"left_children":[1,3,5,7,9,11,13,15,17,19,21,23,25,27,29,-1,-1,-1,-1,-1,-1,-1,-1,-1,-1,-1,-1,-1,-1,-1,-1],"loss_changes":[5.4488266E1,7.1242447E0,1.8896244E1,7.9677963E-1,1.0824757E0,3.0486317E0,3.7200623E0,4.0140915E-1,6.5311813E-1,9.529362E-1,1.1842632E-1,1.1473029E0,2.8832808E0,2.734787E0,2.6006618E0,0E0,0E0,0E0,0E0,0E0,0E0,0E0,0E0,0E0,0E0,0E0,0E0,0E0,0E0,0E0,0E0],"parents":[2147483647,0,0,1,1,2,2,3,3,4,4,5,5,6,6,7,7,8,8,9,9,10,10,11,11,12,12,13,13,14,14],"right_children":[2,4,6,8,10,12,14,16,18,20,22,24,26,28,30,-1,-1,-1,-1,-1,-1,-1,-1,-1,-1,-1,-1,-1,-1,-1,-1],"split_conditions":[-2.6787493E-1,-3.4525716E-1,1.6007777E-1,-3.648691E-1,1.788664E0,-1.8637599E-1,2.2707176E0,-5.357742E-1,3.174162E0,-3.139933E-1,5.6516504E-1,-3.4742972E-1,3.7619116E0,1.0155984E0,-4.2869102E-2,-1.0217263E-2,-1.5813837E-2,-1.0677586E-2,6.8111817E-4,-6.3558035E-3,-3.5047547E-3,-1.5235436E-2,-4.5197727E-3,1.4064531E-3,-2.0717976E-3,3.0400127E-3,-1.7661734E-2,9.189735E-3,1.5948804E-2,6.9689616E-3,-1.8982183E-2],"split_indices":[1,1,1,1,22,1,28,7,7,1,12,12,28,1,19,0,0,0,0,0,0,0,0,0,0,0,0,0,0,0,0],"split_type":[0,0,0,0,0,0,0,0,0,0,0,0,0,0,0,0,0,0,0,0,0,0,0,0,0,0,0,0,0,0,0],"sum_hessian":[5.399E3,1.813E3,3.586E3,5.62E2,1.251E3,2.761E3,8.25E2,1.93E2,3.69E2,1.22E3,3.1E1,9.75E2,1.786E3,7.88E2,3.7E1,5.2E1,1.41E2,3.56E2,1.3E1,5.01E2,7.19E2,2.7E1,4E0,4.04E2,5.71E2,1.77E3,1.6E1,5.83E2,2.05E2,2E1,1.7E1],"tree_param":{"num_deleted":"0","num_feature":"31","num_nodes":"31","size_leaf_vector":"1"}},{"base_weights":[-7.696974E-4,-2.779734E-1,1.6186856E-1,-4.21056E-1,-1.7784663E-1,5.3072684E-2,3.146183E-1,-4.885074E-1,-3.5625798E-1,-2.2991458E-1,-1.1362471E-1,3.996685E-3,1.2225796E-1,2.8059417E-1,5.360005E-1,-2.208872E-2,-2.8060028E-2,-1.583986E-2,-2.1411987E-2,-1.0284945E-2,-1.4993183E-2,-4.117026E-3,-8.349713E-3,-1.5544428E-3,1.7327592E-3,-1.617225E-2,6.294355E-3,1.1760618E-2,1.6473822E-2,3.0891573E-2,1.5718102E-2],"categories":[],"categories_nodes":[],"categories_segments":[],"categories_sizes":[],"default_left":[0,0,0,0,0,0,0,0,0,0,0,0,0,0,0,0,0,0,0,0,0,0,0,0,0,0,0,0,0,0,0],"id":23,"left_children":[1,3,5,7,9,11,13,15,17,19,21,23,25,27,29,-1,-1,-1,-1,-1,-1,-1,-1,-1,-1,-1,-1,-1,-1,-1,-1],"loss_changes":[2.4543681E2,2.876416E1,5.700152E1,3.4449158E0,3.9397469E0,6.807162E0,1.0598236E1,1.1211395E0,1.0743675E0,1.0461044E0,8.7615824E-1,1.2639139E0,1.3864899E0,2.6710587E0,3.2336464E0,0E0,0E0,0E0,0E0,0E0,0E0,0E0,0E0,0E0,0E0,0E0,0E0,0E0,0E0,0E0,0E0],"parents":[2147483647,0,0,1,1,2,2,3,3,4,4,5,5,6,6,7,7,8,8,9,9,10,10,11,11,12,12,13,13,14,14],"right_children":[2,4,6,8,10,12,14,16,18,20,22,24,26,28,30,-1,-1,-1,-1,-1,-1,-1,-1,-1,-1,-1,-1,-1,-1,-1,-1],"split_conditions":[-3.707339E-1,-4.9534145E-1,3.1623464E-2,-5.2591896E-1,-4.3492156E-1,-1.8516806E-1,1.8304942E0,-3.0655944E-1,-2.8639147E-1,-1.9984518E-1,-2.030195E-1,-2.9737958E-1,-1.2919227E0,4.165123E-1,2.1356894E-2,-2.208872E-2,-2.8060028E-2,-1.583986E-2,-2.1411987E-2,-1.0284945E-2,-1.4993183E-2,-4.117026E-3,-8.349713E-3,-1.5544428E-3,1.7327592E-3,-1.617225E-2,6.294355E-3,1.1760618E-2,1.6473822E-2,3.0891573E-2,1.5718102E-2],"split_indices":[23,23,23,23,23,23,23,0,0,0,0,23,3,23,9,0,0,0,0,0,0,0,0,0,0,0,0,0,0,0,0],"split_type":[0,0,0,0,0,0,0,0,0,0,0,0,0,0,0,0,0,0,0,0,0,0,0,0,0,0,0,0,0,0,0],"sum_hessian":[5.442E3,2.012E3,3.43E3,8.27E2,1.185E3,2.004E3,1.426E3,4.02E2,4.25E2,6.53E2,5.32E2,1.173E3,8.31E2,1.238E3,1.88E2,2.49E2,1.53E2,2.78E2,1.47E2,4.88E2,1.65E2,3.37E2,1.95E2,5.47E2,6.26E2,6E0,8.25E2,6.45E2,5.93E2,1.36E2,5.2E1],"tree_param":{"num_deleted":"0","num_feature":"31","num_nodes":"31","size_leaf_vector":"1"}},{"base_weights":[-3.403305E-3,-1.8599692E-4,-3.7828562E-1,-3.0756645E-2,2.2620106E-2,-1.5866557E-1,-5.5641985E-1,-1.08806025E-2,-1.0193087E-1,7.7637464E-2,8.246683E-3,-3.7017217E-1,-3.5284344E-2,-1.7948149E-1,-6.416803E-1,-1.8380781E-3,1.8166812E-3,-5.311525E-3,1.724892E-2,2.4580953E-3,7.964587E-3,4.7465187E-4,-2.4905441E-2,-2.0514047E-2,-2.235268E-3,-4.486956E-3,1.8177062E-2,-1.4351979E-2,8.957723E-3,-4.531012E-3,-3.3295702E-2],"categories":[],"categories_nodes":[],"categories_segments":[],"categories_sizes":[],"default_left":[0,0,0,0,0,0,0,0,0,0,0,0,0,0,0,0,0,0,0,0,0,0,0,0,0,0,0,0,0,0,0],"id":24,"left_children":[1,3,5,7,9,11,13,15,17,19,21,23,25,27,29,-1,-1,-1,-1,-1,-1,-1,-1,-1,-1,-1,-1,-1,-1,-1,-1],"loss_changes":[6.52017E0,3.738371E0,1.7113209E0,3.2398813E0,2.4278688E0,5.6104934E-1,6.882787E-1,2.1910694E0,9.974189E-1,1.4709647E0,1.5420839E0,8.609092E-2,3.5839325E-1,2.8286958E-1,2.0673847E-1,0E0,0E0,0E0,0E0,0E0,0E0,0E0,0E0,0E0,0E0,0E0,0E0,0E0,0E0,0E0,0E0],"parents":[2147483647,0,0,1,1,2,2,3,3,4,4,5,5,6,6,7,7,8,8,9,9,10,10,11,11,12,12,13,13,14,14],"right_children":[2,4,6,8,10,12,14,16,18,20,22,24,26,28,30,-1,-1,-1,-1,-1,-1,-1,-1,-1,-1,-1,-1,-1,-1,-1,-1],"split_conditions":[4.4546294E0,-3.8381967E-1,1.0008171E-1,-2.249635E-1,-2.90449E-1,-2.3199987E-1,-7.6440763E-1,-6.3763994E-1,5.83939E-1,8.581145E-2,5.0466194E0,8.786305E-2,4.247736E-1,3.3138465E-2,1.6707423E-1,-1.8380781E-3,1.8166812E-3,-5.311525E-3,1.724892E-2,2.4580953E-3,7.964587E-3,4.7465187E-4,-2.4905441E-2,-2.0514047E-2,-2.235268E-3,-4.486956E-3,1.8177062E-2,-1.4351979E-2,8.957723E-3,-4.531012E-3,-3.3295702E-2],"split_indices":[28,28,12,27,27,25,17,28,3,3,27,3,3,3,16,0,0,0,0,0,0,0,0,0,0,0,0,0,0,0,0],"split_type":[0,0,0,0,0,0,0,0,0,0,0,0,0,0,0,0,0,0,0,0,0,0,0,0,0,0,0,0,0,0,0],"sum_hessian":[5.405E3,5.36E3,4.5E1,2.29E3,3.07E3,2.1E1,2.4E1,1.791E3,4.99E2,6.35E2,2.435E3,7E0,1.4E1,5E0,1.9E1,1.157E3,6.34E2,4.95E2,4E0,4.72E2,1.63E2,2.43E3,5E0,6E0,1E0,1.3E1,1E0,4E0,1E0,1E0,1.8E1],"tree_param":{"num_deleted":"0","num_feature":"31","num_nodes":"31","size_leaf_vector":"1"}},{"base_weights":[1.5539617E-3,-2.3322448E-1,1.7234899E-1,-3.6685336E-1,-1.21304095E-1,6.958663E-2,2.9845685E-1,-4.510576E-1,-2.9835796E-1,-1.6483395E-1,-6.322741E-2,1.8446913E-2,1.2514032E-1,2.4333814E-1,4.477551E-1,-2.4374789E-2,-2.1182256E-2,-1.6588084E-2,-1.3476066E-2,-9.4842175E-3,-6.3621337E-3,-2.2168036E-3,-4.8509734E-3,-1.9600896E-2,1.0354646E-3,6.3503864E-3,-2.1598568E-2,1.2708999E-2,4.977269E-3,2.6091069E-2,1.6431293E-2],"categories":[],"categories_nodes":[],"categories_segments":[],"categories_sizes":[],"default_left":[0,0,0,0,0,0,0,0,0,0,0,0,0,0,0,0,0,0,0,0,0,0,0,0,0,0,0,0,0,0,0],"id":25,"left_children":[1,3,5,7,9,11,13,15,17,19,21,23,25,27,29,-1,-1,-1,-1,-1,-1,-1,-1,-1,-1,-1,-1,-1,-1,-1,-1],"loss_changes":[2.1757722E2,3.412948E1,4.0683884E1,5.869507E0,3.1370258E0,4.9183035E0,1.149411E1,2.579422E-1,4.6637726E-1,6.400509E-1,3.3723044E-1,8.46668E-1,9.183483E-1,1.5835648E0,3.1726074E0,0E0,0E0,0E0,0E0,0E0,0E0,0E0,0E0,0E0,0E0,0E0,0E0,0E0,0E0,0E0,0E0],"parents":[2147483647,0,0,1,1,2,2,3,3,4,4,5,5,6,6,7,7,8,8,9,9,10,10,11,11,12,12,13,13,14,14],"right_children":[2,4,6,8,10,12,14,16,18,20,22,24,26,28,30,-1,-1,-1,-1,-1,-1,-1,-1,-1,-1,-1,-1,-1,-1,-1,-1],"split_conditions":[-3.3689088E-1,-4.7315422E-1,3.1623464E-2,-5.198294E-1,-4.0176803E-1,-1.8516806E-1,9.946243E-1,-5.3478634E-1,-4.997666E-1,-4.3262827E-1,-9.188479E-2,-1.5046774E0,4.203749E0,1.2052001E0,-1.1099047E-1,-2.4374789E-2,-2.1182256E-2,-1.6588084E-2,-1.3476066E-2,-9.4842175E-3,-6.3621337E-3,-2.2168036E-3,-4.8509734E-3,-1.9600896E-2,1.0354646E-3,6.3503864E-3,-2.1598568E-2,1.2708999E-2,4.977269E-3,2.6091069E-2,1.6431293E-2],"split_indices":[23,23,23,23,23,23,23,23,23,23,8,29,29,12,12,0,0,0,0,0,0,0,0,0,0,0,0,0,0,0,0],"split_type":[0,0,0,0,0,0,0,0,0,0,0,0,0,0,0,0,0,0,0,0,0,0,0,0,0,0,0,0,0,0,0],"sum_hessian":[5.424E3,2.284E3,3.14E3,1.04E3,1.244E3,1.731E3,1.409E3,4.64E2,5.76E2,7.1E2,5.34E2,9.02E2,8.29E2,1.031E3,3.78E2,1.92E2,2.72E2,2.62E2,3.14E2,4.25E2,2.85E2,3.44E2,1.9E2,4E0,8.98E2,8.27E2,2E0,9.58E2,7.3E1,2.31E2,1.47E2],"tree_param":{"num_deleted":"0","num_feature":"31","num_nodes":"31","size_leaf_vector":"1"}},{"base_weights":[3.4706125E-3,-9.024014E-2,7.121079E-2,-1.6530572E-1,-6.018608E-2,4.3345045E-2,1.6392174E-1,-3.7040476E-2,-1.7711978E-1,-5.7878263E-2,-3.6537933E-1,4.6582643E-2,-3.284222E-1,1.7161822E-1,-5.482898E-1,-5.106281E-3,1.0505776E-2,-1.28231E-2,-8.140715E-3,-3.7391018E-3,-1.2715416E-3,-2.2837594E-2,3.049452E-3,8.959745E-4,3.712217E-3,-4.380739E-3,-2.3493588E-2,9.03131E-3,-5.441172E-3,1.8243292E-2,-3.6543217E-2],"categories":[],"categories_nodes":[],"categories_segments":[],"categories_sizes":[],"default_left":[0,0,0,0,0,0,0,0,0,0,0,0,0,0,0,0,0,0,0,0,0,0,0,0,0,0,0,0,0,0,0],"id":26,"left_children":[1,3,5,7,9,11,13,15,17,19,21,23,25,27,29,-1,-1,-1,-1,-1,-1,-1,-1,-1,-1,-1,-1,-1,-1,-1,-1],"loss_changes":[3.437441E1,5.1157417E0,8.112709E0,9.7688866E-1,1.1226835E0,2.9256854E0,4.073683E0,9.2228454E-1,6.32452E-1,8.828025E-1,4.953575E-1,1.8999758E0,6.7413616E-1,1.8359985E0,1.6004186E0,0E0,0E0,0E0,0E0,0E0,0E0,0E0,0E0,0E0,0E0,0E0,0E0,0E0,0E0,0E0,0E0],"parents":[2147483647,0,0,1,1,2,2,3,3,4,4,5,5,6,6,7,7,8,8,9,9,10,10,11,11,12,12,13,13,14,14],"right_children":[2,4,6,8,10,12,14,16,18,20,22,24,26,28,30,-1,-1,-1,-1,-1,-1,-1,-1,-1,-1,-1,-1,-1,-1,-1,-1],"split_conditions":[-2.3223725E-1,-3.338659E-1,2.1016869E-1,-3.6521363E-1,4.4546294E0,4.4546294E0,3.5077102E0,1.1970722E-1,-3.604767E-1,-2.7196276E-1,-2.1357793E-1,-1.0991153E-1,-1.9617014E-1,2.6791246E0,4.0278327E-1,-5.106281E-3,1.0505776E-2,-1.28231E-2,-8.140715E-3,-3.7391018E-3,-1.2715416E-3,-2.2837594E-2,3.049452E-3,8.959745E-4,3.712217E-3,-4.380739E-3,-2.3493588E-2,9.03131E-3,-5.441172E-3,1.8243292E-2,-3.6543217E-2],"split_indices":[0,0,0,0,28,28,27,3,0,0,26,0,10,22,0,0,0,0,0,0,0,0,0,0,0,0,0,0,0,0,0],"split_type":[0,0,0,0,0,0,0,0,0,0,0,0,0,0,0,0,0,0,0,0,0,0,0,0,0,0,0,0,0,0,0],"sum_hessian":[5.413E3,2.271E3,3.142E3,6.48E2,1.623E3,2.417E3,7.25E2,5.5E1,5.93E2,1.612E3,1.1E1,2.397E3,2E1,7.18E2,7E0,4.4E1,1.1E1,8.8E1,5.05E2,1.059E3,5.53E2,9E0,2E0,1.178E3,1.219E3,8E0,1.2E1,6.96E2,2.2E1,1E0,6E0],"tree_param":{"num_deleted":"0","num_feature":"31","num_nodes":"31","size_leaf_vector":"1"}},{"base_weights":[-2.359288E-3,-1.13695644E-1,5.4148603E-2,-1.9725598E-1,-8.6020514E-2,1.749477E-2,1.488625E-1,-1.669328E-1,-2.3724777E-1,-7.034087E-2,-1.3611549E-1,1.9789789E-2,-2.3272204E-1,1.637557E-1,-1.2004134E-1,-7.3273755E-3,-1.1937513E-2,-9.594581E-3,-1.3409455E-2,-5.104362E-3,-2.1194878E-3,-8.155056E-3,-3.2650866E-3,-3.6714025E-4,2.0038001E-3,-2.9125132E-3,-2.5851805E-2,1.1013854E-2,4.4943998E-3,3.4207285E-3,-2.0972209E-2],"categories":[],"categories_nodes":[],"categories_segments":[],"categories_sizes":[],"default_left":[0,0,0,0,0,0,0,0,0,0,0,0,0,0,0,0,0,0,0,0,0,0,0,0,0,0,0,0,0,0,0],"id":27,"left_children":[1,3,5,7,9,11,13,15,17,19,21,23,25,27,29,-1,-1,-1,-1,-1,-1,-1,-1,-1,-1,-1,-1,-1,-1,-1,-1],"loss_changes":[3.460876E1,4.2658615E0,1.2665362E1,5.182266E-1,1.0845871E0,1.5160387E0,4.0965843E0,3.5297728E-1,2.2359943E-1,9.389219E-1,6.218748E-1,1.4363338E0,1.1603972E0,4.0091763E0,3.0756044E0,0E0,0E0,0E0,0E0,0E0,0E0,0E0,0E0,0E0,0E0,0E0,0E0,0E0,0E0,0E0,0E0],"parents":[2147483647,0,0,1,1,2,2,3,3,4,4,5,5,6,6,7,7,8,8,9,9,10,10,11,11,12,12,13,13,14,14],"right_children":[2,4,6,8,10,12,14,16,18,20,22,24,26,28,30,-1,-1,-1,-1,-1,-1,-1,-1,-1,-1,-1,-1,-1,-1,-1,-1],"split_conditions":[-2.6787493E-1,-3.5156903E-1,8.3139166E-2,-1.3177669E-1,6.9859034E-1,3.7619116E0,2.1120799E0,-1.8953E-2,-1.0338436E-1,-3.126397E-1,-2.1689038E-1,-1.750031E-1,2.0804985E-1,-1.589898E-1,2.0804985E-1,-7.3273755E-3,-1.1937513E-2,-9.594581E-3,-1.3409455E-2,-5.104362E-3,-2.1194878E-3,-8.155056E-3,-3.2650866E-3,-3.6714025E-4,2.0038001E-3,-2.9125132E-3,-2.5851805E-2,1.1013854E-2,4.4943998E-3,3.4207285E-3,-2.0972209E-2],"split_indices":[1,1,1,4,30,28,28,28,8,1,19,1,12,30,12,0,0,0,0,0,0,0,0,0,0,0,0,0,0,0,0],"split_type":[0,0,0,0,0,0,0,0,0,0,0,0,0,0,0,0,0,0,0,0,0,0,0,0,0,0,0,0,0,0,0],"sum_hessian":[5.499E3,1.851E3,3.648E3,4.59E2,1.392E3,2.631E3,1.017E3,2.64E2,1.95E2,1.062E3,3.3E2,2.608E3,2.3E1,9.64E2,5.3E1,2.08E2,5.6E1,8.2E1,1.13E2,4.96E2,5.66E2,2.38E2,9.2E1,1.116E3,1.492E3,1.5E1,8E0,5.45E2,4.19E2,3.3E1,2E1],"tree_param":{"num_deleted":"0","num_feature":"31","num_nodes":"31","size_leaf_vector":"1"}},{"base_weights":[4.5363116E-3,-6.8687E-2,8.239159E-2,-1.4257137E-1,-2.2023942E-2,5.5100307E-2,2.0197089E-1,-1.9340211E-1,-1.0588935E-1,-2.5991805E-2,3.1674242E-1,5.8078032E-2,-3.7260064E-1,2.1770938E-1,-2.7788866E-1,-9.985599E-3,3.943441E-3,-4.9535916E-3,-1.1980954E-2,-5.689165E-4,-3.6842995E-3,-1.1405243E-2,1.9497676E-2,2.2342817E-3,6.0835364E-3,1.3185285E-3,-2.8736165E-2,1.0158832E-2,2.5385825E-2,2.1839598E-3,-3.4878645E-2],"categories":[],"categories_nodes":[],"categories_segments":[],"categories_sizes":[],"default_left":[0,0,0,0,0,0,0,0,0,0,0,0,0,0,0,0,0,0,0,0,0,0,0,0,0,0,0,0,0,0,0],"id":28,"left_children":[1,3,5,7,9,11,13,15,17,19,21,23,25,27,29,-1,-1,-1,-1,-1,-1,-1,-1,-1,-1,-1,-1,-1,-1,-1,-1],"loss_changes":[3.104093E1,9.671023E0,8.601173E0,2.004448E0,2.3215637E0,2.7598248E0,3.7611084E0,7.9571915E-1,5.5337E-1,1.1854179E0,8.867276E-1,1.8137059E0,1.2247725E0,1.8987789E0,2.1897807E0,0E0,0E0,0E0,0E0,0E0,0E0,0E0,0E0,0E0,0E0,0E0,0E0,0E0,0E0,0E0,0E0],"parents":[2147483647,0,0,1,1,2,2,3,3,4,4,5,5,6,6,7,7,8,8,9,9,10,10,11,11,12,12,13,13,14,14],"right_children":[2,4,6,8,10,12,14,16,18,20,22,24,26,28,30,-1,-1,-1,-1,-1,-1,-1,-1,-1,-1,-1,-1,-1,-1,-1,-1],"split_conditions":[-1.8352237E-1,-3.126397E-1,3.769482E-1,-3.5156903E-1,4.4499305E-1,4.4546294E0,2.582705E0,3.6459816E0,1.8240395E0,4.4508064E-1,-9.549153E-1,1.8633655E-1,-2.9449773E-1,5.914825E0,9.9613017E-1,-9.985599E-3,3.943441E-3,-4.9535916E-3,-1.1980954E-2,-5.689165E-4,-3.6842995E-3,-1.1405243E-2,1.9497676E-2,2.2342817E-3,6.0835364E-3,1.3185285E-3,-2.8736165E-2,1.0158832E-2,2.5385825E-2,2.1839598E-3,-3.4878645E-2],"split_indices":[0,1,1,1,1,28,28,9,9,5,28,0,9,0,22,0,0,0,0,0,0,0,0,0,0,0,0,0,0,0,0],"split_type":[0,0,0,0,0,0,0,0,0,0,0,0,0,0,0,0,0,0,0,0,0,0,0,0,0,0,0,0,0,0,0],"sum_hessian":[5.443E3,2.805E3,2.638E3,1.085E3,1.72E3,2.149E3,4.89E2,4.53E2,6.32E2,1.701E3,1.9E1,2.135E3,1.4E1,4.74E2,1.5E1,4.43E2,1E1,6.03E2,2.9E1,1.303E3,3.98E2,2E0,1.7E1,1.765E3,3.7E2,5E0,9E0,4.53E2,2.1E1,9E0,6E0],"tree_param":{"num_deleted":"0","num_feature":"31","num_nodes":"31","size_leaf_vector":"1"}},{"base_weights":[7.002678E-4,-6.6847965E-2,8.04286E-2,-1.5461442E-1,-3.372438E-2,6.444978E-2,2.3065402E-1,-2.1634826E-1,-1.3519038E-1,-3.9102368E-2,1.3285443E-1,4.344903E-2,1.0570232E-1,2.6525152E-1,7.9728544E-2,-8.929712E-5,-1.1164869E-2,-8.759987E-3,-5.6310794E-3,-3.3548835E-3,-7.069667E-4,1.723418E-2,3.256067E-3,-5.624257E-5,3.0879737E-3,4.2092158E-3,9.132846E-3,8.062141E-3,1.6689919E-2,6.7399926E-3,-2.6611013E-2],"categories":[],"categories_nodes":[],"categories_segments":[],"categories_sizes":[],"default_left":[0,0,0,0,0,0,0,0,0,0,0,0,0,0,0,0,0,0,0,0,0,0,0,0,0,0,0,0,0,0,0],"id":29,"left_children":[1,3,5,7,9,11,13,15,17,19,21,23,25,27,29,-1,-1,-1,-1,-1,-1,-1,-1,-1,-1,-1,-1,-1,-1,-1,-1],"loss_changes":[2.9237911E1,8.538867E0,5.9621925E0,9.360428E-1,1.9178536E0,1.946392E0,1.2268248E0,2.8438663E-1,5.355911E-1,1.444967E0,9.3885934E-1,1.219424E0,1.2414589E0,1.3292942E0,1.621981E0,0E0,0E0,0E0,0E0,0E0,0E0,0E0,0E0,0E0,0E0,0E0,0E0,0E0,0E0,0E0,0E0],"parents":[2147483647,0,0,1,1,2,2,3,3,4,4,5,5,6,6,7,7,8,8,9,9,10,10,11,11,12,12,13,13,14,14],"right_children":[2,4,6,8,10,12,14,16,18,20,22,24,26,28,30,-1,-1,-1,-1,-1,-1,-1,-1,-1,-1,-1,-1,-1,-1,-1,-1],"split_conditions":[-1.750031E-1,-3.3206946E-1,9.4688314E-1,-3.648691E-1,1.6504768E0,8.3139166E-2,3.3790395E-1,-2.2658565E0,-3.959296E-2,-2.6787493E-1,-4.2484197E-1,-3.97566E-1,5.233932E-1,-3.552424E-1,1.2239044E0,-8.929712E-5,-1.1164869E-2,-8.759987E-3,-5.6310794E-3,-3.3548835E-3,-7.069667E-4,1.723418E-2,3.256067E-3,-5.624257E-5,3.0879737E-3,4.2092158E-3,9.132846E-3,8.062141E-3,1.6689919E-2,6.7399926E-3,-2.6611013E-2],"split_indices":[1,1,1,1,2,1,11,2,2,1,13,2,2,13,17,0,0,0,0,0,0,0,0,0,0,0,0,0,0,0,0],"split_type":[0,0,0,0,0,0,0,0,0,0,0,0,0,0,0,0,0,0,0,0,0,0,0,0,0,0,0,0,0,0,0],"sum_hessian":[5.427E3,2.938E3,2.489E3,8.04E2,2.134E3,2.251E3,2.38E2,1.9E2,6.14E2,2.068E3,6.6E1,1.493E3,7.58E2,1.93E2,4.5E1,6E0,1.84E2,2.19E2,3.95E2,9.74E2,1.094E3,1.5E1,5.1E1,4.35E2,1.058E3,5.94E2,1.64E2,7.8E1,1.15E2,4.2E1,3E0],"tree_param":{"num_deleted":"0","num_feature":"31","num_nodes":"31","size_leaf_vector":"1"}},{"base_weights":[6.716352E-4,4.1160425E-3,-2.1104962E-1,-1.8315315E-2,2.1083882E-2,-1.1542816E-1,-5.7649815E-1,-4.227816E-3,-6.325596E-2,4.5216825E-2,1.1559956E-3,-1.7312352E-1,1.8266764E-1,-1.02377245E-2,-6.10169E-1,-4.2703265E-4,6.540082E-3,1.5776597E-3,-5.20196E-3,2.6276582E-3,-3.5840794E-4,1.1237093E-2,-8.2981365E-5,-1.0945107E-2,5.530556E-3,1.2491743E-2,-7.062726E-4,-3.1698015E-2,-6.332505E-3],"categories":[],"categories_nodes":[],"categories_segments":[],"categories_sizes":[],"default_left":[0,0,0,0,0,0,0,0,0,0,0,0,0,0,0,0,0,0,0,0,0,0,0,0,0,0,0,0,0],"id":30,"left_children":[1,3,5,7,9,11,13,15,17,19,21,23,25,-1,27,-1,-1,-1,-1,-1,-1,-1,-1,-1,-1,-1,-1,-1,-1],"loss_changes":[4.0088496E0,2.0591147E0,3.0085912E0,1.4748586E0,1.4811769E0,1.2527349E0,1.0036993E-1,1.034806E0,2.1531262E0,5.3572583E-1,1.0630257E0,8.035518E-1,1.6214547E-1,0E0,1.0376501E-1,0E0,0E0,0E0,0E0,0E0,0E0,0E0,0E0,0E0,0E0,0E0,0E0,0E0,0E0],"parents":[2147483647,0,0,1,1,2,2,3,3,4,4,5,5,6,6,7,7,8,8,9,9,10,10,11,11,12,12,14,14],"right_children":[2,4,6,8,10,12,14,16,18,20,22,24,26,-1,28,-1,-1,-1,-1,-1,-1,-1,-1,-1,-1,-1,-1,-1,-1],"split_conditions":[3.2172556E0,-3.8381967E-1,1.2756281E0,1.19267695E-1,1.1221236E-1,1.1875813E0,-1.3502972E0,1.7643539E0,-3.5284233E-1,1.1510539E0,-3.732438E-1,7.535579E-1,-3.6350736E-1,-1.02377245E-2,2.53992E0,-4.2703265E-4,6.540082E-3,1.5776597E-3,-5.20196E-3,2.6276582E-3,-3.5840794E-4,1.1237093E-2,-8.2981365E-5,-1.0945107E-2,5.530556E-3,1.2491743E-2,-7.062726E-4,-3.1698015E-2,-6.332505E-3],"split_indices":[28,28,6,6,18,18,15,16,13,21,28,8,21,0,6,0,0,0,0,0,0,0,0,0,0,0,0,0,0],"split_type":[0,0,0,0,0,0,0,0,0,0,0,0,0,0,0,0,0,0,0,0,0,0,0,0,0,0,0,0,0],"sum_hessian":[5.495E3,5.408E3,8.7E1,2.329E3,3.079E3,7E1,1.7E1,1.774E3,5.55E2,1.392E3,1.687E3,5.9E1,1.1E1,2E0,1.5E1,1.72E3,5.4E1,1.67E2,3.88E2,1.221E3,1.71E2,2E1,1.667E3,5.1E1,8E0,8E0,3E0,1.4E1,1E0],"tree_param":{"num_deleted":"0","num_feature":"31","num_nodes":"29","size_leaf_vector":"1"}},{"base_weights":[1.4562833E-3,-2.096391E-1,1.5733133E-1,-3.331397E-1,-1.0525103E-1,6.423368E-2,2.7012792E-1,-3.9278516E-1,-2.5935048E-1,-1.6969624E-1,-7.313279E-2,3.454481E-2,1.2288642E-1,2.4319202E-1,4.9068248E-1,-1.7248936E-2,-2.454299E-2,-1.0611836E-2,-1.7110458E-2,-6.161777E-3,-9.54356E-3,-1.9937386E-3,-7.714126E-3,3.2270362E-3,-1.3976081E-3,9.281223E-3,4.2984327E-3,1.2486444E-2,-2.3172174E-2,2.5943015E-2,-1.4542324E-2],"categories":[],"categories_nodes":[],"categories_segments":[],"categories_sizes":[],"default_left":[0,0,0,0,0,0,0,0,0,0,0,0,0,0,0,0,0,0,0,0,0,0,0,0,0,0,0,0,0,0,0],"id":31,"left_children":[1,3,5,7,9,11,13,15,17,19,21,23,25,27,29,-1,-1,-1,-1,-1,-1,-1,-1,-1,-1,-1,-1,-1,-1,-1,-1],"loss_changes":[1.8018517E2,2.9951698E1,3.3061096E1,4.5854034E0,2.599762E0,3.0030384E0,8.340416E0,2.5828705E0,1.7972832E0,3.886919E-1,2.2717018E0,2.153906E0,1.3274088E0,5.986702E0,3.5422554E0,0E0,0E0,0E0,0E0,0E0,0E0,0E0,0E0,0E0,0E0,0E0,0E0,0E0,0E0,0E0,0E0],"parents":[2147483647,0,0,1,1,2,2,3,3,4,4,5,5,6,6,7,7,8,8,9,9,10,10,11,11,12,12,13,13,14,14],"right_children":[2,4,6,8,10,12,14,16,18,20,22,24,26,28,30,-1,-1,-1,-1,-1,-1,-1,-1,-1,-1,-1,-1,-1,-1,-1,-1],"split_conditions":[-3.3378062E-1,-4.7315422E-1,3.1623464E-2,-5.126662E-1,-4.3262827E-1,-1.3030183E-1,2.1977394E0,-2.8083566E-1,-2.6182187E-1,-3.0522335E-1,-1.6273597E-1,-1.1839551E-1,-1.8619102E-1,3.5077102E0,2.2962284E0,-1.7248936E-2,-2.454299E-2,-1.0611836E-2,-1.7110458E-2,-6.161777E-3,-9.54356E-3,-1.9937386E-3,-7.714126E-3,3.2270362E-3,-1.3976081E-3,9.281223E-3,4.2984327E-3,1.2486444E-2,-2.3172174E-2,2.5943015E-2,-1.4542324E-2],"split_indices":[23,23,23,23,23,23,23,0,0,0,0,0,0,27,27,0,0,0,0,0,0,0,0,0,0,0,0,0,0,0,0],"split_type":[0,0,0,0,0,0,0,0,0,0,0,0,0,0,0,0,0,0,0,0,0,0,0,0,0,0,0,0,0,0,0],"sum_hessian":[5.474E3,2.325E3,3.149E3,1.064E3,1.261E3,1.726E3,1.423E3,5.86E2,4.78E2,4.18E2,8.43E2,1.147E3,5.79E2,1.27E3,1.53E2,3.97E2,1.89E2,3.07E2,1.71E2,1.33E2,2.85E2,5.99E2,2.44E2,7.75E2,3.72E2,2.13E2,3.66E2,1.259E3,1.1E1,1.48E2,5E0],"tree_param":{"num_deleted":"0","num_feature":"31","num_nodes":"31","size_leaf_vector":"1"}},{"base_weights":[-2.2411684E-3,9.080674E-3,-4.433122E-2,-2.7243486E-1,1.0270557E-2,2.600261E-2,-5.786991E-2,-2.8677179E-2,-4.6457332E-1,2.371472E-2,-8.514619E-3,6.74179E-2,-1.1759785E-1,-6.550652E-2,4.523311E-2,-1.0939489E-2,2.8448196E-3,-3.9129492E-2,-6.1065345E-3,1.5319356E-3,-1.3813348E-3,-7.537896E-4,4.0621595E-3,-2.778829E-3,5.137001E-3,-8.959741E-3,4.8715984E-3,-2.0298103E-3,-4.4384445E-3,1.2897335E-2,-2.2169955E-3],"categories":[],"categories_nodes":[],"categories_segments":[],"categories_sizes":[],"default_left":[0,0,0,0,0,0,0,0,0,0,0,0,0,0,0,0,0,0,0,0,0,0,0,0,0,0,0,0,0,0,0],"id":32,"left_children":[1,3,5,7,9,11,13,15,17,19,21,23,25,27,29,-1,-1,-1,-1,-1,-1,-1,-1,-1,-1,-1,-1,-1,-1,-1,-1],"loss_changes":[2.58085E0,1.4324543E0,1.0946629E0,8.2971144E-1,1.073796E0,1.1141175E0,7.611873E-1,1.5886587E-1,9.9344563E-1,8.81745E-1,1.0459627E0,6.356517E-1,5.737572E-1,5.1618385E-1,1.2880149E0,0E0,0E0,0E0,0E0,0E0,0E0,0E0,0E0,0E0,0E0,0E0,0E0,0E0,0E0,0E0,0E0],"parents":[2147483647,0,0,1,1,2,2,3,3,4,4,5,5,6,6,7,7,8,8,9,9,10,10,11,11,12,12,13,13,14,14],"right_children":[2,4,6,8,10,12,14,16,18,20,22,24,26,28,30,-1,-1,-1,-1,-1,-1,-1,-1,-1,-1,-1,-1,-1,-1,-1,-1],"split_conditions":[6.4508766E-1,-1.2919227E0,-7.927351E-1,-4.6654865E-1,-1.4772987E-1,3.3138465E-2,1.4304686E0,-8.93871E-1,6.171522E-1,1.0093589E0,2.686142E-1,-8.8768816E-1,-8.268135E-1,-2.0860054E-1,-2.3875503E-1,-1.0939489E-2,2.8448196E-3,-3.9129492E-2,-6.1065345E-3,1.5319356E-3,-1.3813348E-3,-7.537896E-4,4.0621595E-3,-2.778829E-3,5.137001E-3,-8.959741E-3,4.8715984E-3,-2.0298103E-3,-4.4384445E-3,1.2897335E-2,-2.2169955E-3],"split_indices":[30,3,5,9,6,3,16,5,16,16,3,9,5,16,18,0,0,0,0,0,0,0,0,0,0,0,0,0,0,0,0],"split_type":[0,0,0,0,0,0,0,0,0,0,0,0,0,0,0,0,0,0,0,0,0,0,0,0,0,0,0,0,0,0,0],"sum_hessian":[5.414E3,4.267E3,1.147E3,1.7E1,4.25E3,1.85E2,9.62E2,8E0,9E0,2.477E3,1.773E3,1.44E2,4.1E1,8.96E2,6.6E1,2E0,6E0,4E0,5E0,2.183E3,2.94E2,1.653E3,1.2E2,3.2E1,1.12E2,3.2E1,9E0,4.34E2,4.62E2,1.9E1,4.7E1],"tree_param":{"num_deleted":"0","num_feature":"31","num_nodes":"31","size_leaf_vector":"1"}},{"base_weights":[-3.094777E-3,-2.3213412E-1,1.2551495E-1,-3.424884E-1,-1.5214875E-1,1.5089581E-2,2.2781785E-1,-3.0582058E-1,-4.715713E-1,-2.0967917E-1,-1.1070214E-1,4.9149014E-2,-5.085252E-2,1.8701473E-1,3.957021E-1,-1.7482586E-2,-1.2037343E-2,-2.694419E-2,-2.0420924E-2,-7.667174E-3,-1.3606037E-2,-2.001742E-3,-7.145961E-3,7.873064E-4,5.7418975E-3,-3.952805E-3,-4.1317558E-4,1.2900907E-2,7.5897E-3,2.2242852E-2,8.118608E-3],"categories":[],"categories_nodes":[],"categories_segments":[],"categories_sizes":[],"default_left":[0,0,0,0,0,0,0,0,0,0,0,0,0,0,0,0,0,0,0,0,0,0,0,0,0,0,0,0,0,0,0],"id":33,"left_children":[1,3,5,7,9,11,13,15,17,19,21,23,25,27,29,-1,-1,-1,-1,-1,-1,-1,-1,-1,-1,-1,-1,-1,-1,-1,-1],"loss_changes":[1.6039134E2,1.7230629E1,3.938863E1,3.74646E0,2.6878986E0,3.7712045E0,1.232486E1,1.7498283E0,5.450821E-1,1.6291733E0,1.503726E0,2.427171E0,6.864116E-1,3.606987E0,3.9764404E0,0E0,0E0,0E0,0E0,0E0,0E0,0E0,0E0,0E0,0E0,0E0,0E0,0E0,0E0,0E0,0E0],"parents":[2147483647,0,0,1,1,2,2,3,3,4,4,5,5,6,6,7,7,8,8,9,9,10,10,11,11,12,12,13,13,14,14],"right_children":[2,4,6,8,10,12,14,16,18,20,22,24,26,28,30,-1,-1,-1,-1,-1,-1,-1,-1,-1,-1,-1,-1,-1,-1,-1,-1],"split_conditions":[-3.8045028E-1,-4.9534145E-1,-9.710598E-2,-2.5315204E-1,-4.528584E-1,-1.3838996E-1,1.0376105E0,-5.198294E-1,-5.2591896E-1,-2.8128415E-1,-2.9839104E-1,-2.3394471E-1,-2.1015422E-1,-1.4592035E-1,8.5355425E-1,-1.7482586E-2,-1.2037343E-2,-2.694419E-2,-2.0420924E-2,-7.667174E-3,-1.3606037E-2,-2.001742E-3,-7.145961E-3,7.873064E-4,5.7418975E-3,-3.952805E-3,-4.1317558E-4,1.2900907E-2,7.5897E-3,2.2242852E-2,8.118608E-3],"split_indices":[23,23,23,1,23,1,23,23,23,1,1,23,23,1,28,0,0,0,0,0,0,0,0,0,0,0,0,0,0,0,0],"split_type":[0,0,0,0,0,0,0,0,0,0,0,0,0,0,0,0,0,0,0,0,0,0,0,0,0,0,0,0,0,0,0],"sum_hessian":[5.443E3,1.957E3,3.486E3,8.21E2,1.136E3,1.677E3,1.809E3,6.42E2,1.79E2,4.74E2,6.62E2,1.106E3,5.71E2,1.457E3,3.52E2,3.81E2,2.61E2,8.3E1,9.6E1,2.51E2,2.23E2,2.08E2,4.54E2,7.34E2,3.72E2,3.43E2,2.28E2,4.81E2,9.76E2,2.9E2,6.2E1],"tree_param":{"num_deleted":"0","num_feature":"31","num_nodes":"31","size_leaf_vector":"1"}},{"base_weights":[2.744561E-4,-1.2927381E-3,1.2499095E-1,1.3050684E-2,-1.3760454E-2,2.6486522E-1,7.213639E-2,-6.902103E-2,1.7180016E-2,-2.8110627E-2,1.0539518E-2,3.0060974E-1,-8.569787E-3,2.223298E-3,2.709488E-1,-4.0712985E-3,1.1504835E-2,2.117062E-3,1.8861999E-4,-1.4839023E-2,-1.2915381E-3,1.0496558E-3,-4.0429165E-3,2.8429218E-3,1.7439043E-2,6.0143867E-3,-2.8447215E-3,-1.3692902E-2,1.6958544E-2],"categories":[],"categories_nodes":[],"categories_segments":[],"categories_sizes":[],"default_left":[0,0,0,0,0,0,0,0,0,0,0,0,0,0,0,0,0,0,0,0,0,0,0,0,0,0,0,0,0],"id":34,"left_children":[1,3,5,7,9,11,13,15,17,19,21,23,-1,25,27,-1,-1,-1,-1,-1,-1,-1,-1,-1,-1,-1,-1,-1,-1],"loss_changes":[1.0552274E0,9.536995E-1,4.7622406E-1,8.4166133E-1,9.9516255E-1,3.3221412E-1,6.9437706E-1,4.602896E-1,7.966657E-1,1.0912143E0,1.01446E0,1.7977893E-1,0E0,2.720723E-1,5.7606673E-1,0E0,0E0,0E0,0E0,0E0,0E0,0E0,0E0,0E0,0E0,0E0,0E0,0E0,0E0],"parents":[2147483647,0,0,1,1,2,2,3,3,4,4,5,5,6,6,7,7,8,8,9,9,10,10,11,11,13,13,14,14],"right_children":[2,4,6,8,10,12,14,16,18,20,22,24,-1,26,28,-1,-1,-1,-1,-1,-1,-1,-1,-1,-1,-1,-1,-1,-1],"split_conditions":[3.0613637E0,-2.0860054E-1,-4.331121E-1,-9.156185E-1,6.2122922E-3,6.3379437E-1,6.574347E-1,9.6032506E-1,-7.0918804E-1,-1.9912827E-1,5.7470584E-1,-8.5599256E-1,-8.569787E-3,-3.3184803E-1,-3.9724758E-1,-4.0712985E-3,1.1504835E-2,2.117062E-3,1.8861999E-4,-1.4839023E-2,-1.2915381E-3,1.0496558E-3,-4.0429165E-3,2.8429218E-3,1.7439043E-2,6.0143867E-3,-2.8447215E-3,-1.3692902E-2,1.6958544E-2],"split_indices":[18,16,11,7,4,5,2,29,5,16,11,29,0,11,11,0,0,0,0,0,0,0,0,0,0,0,0,0,0],"split_type":[0,0,0,0,0,0,0,0,0,0,0,0,0,0,0,0,0,0,0,0,0,0,0,0,0,0,0,0,0],"sum_hessian":[5.397E3,5.331E3,6.6E1,2.479E3,2.852E3,1.7E1,4.9E1,1.18E2,2.361E3,1.793E3,1.059E3,1.6E1,1E0,3.7E1,1.2E1,1.14E2,4E0,8.2E2,1.541E3,1.4E1,1.779E3,9.51E2,1.08E2,3E0,1.3E1,1.2E1,2.5E1,1E0,1.1E1],"tree_param":{"num_deleted":"0","num_feature":"31","num_nodes":"29","size_leaf_vector":"1"}},{"base_weights":[-1.9749622E-3,-5.5086385E-2,5.9349913E-2,-1.1166921E-1,-2.2351062E-2,4.5995343E-2,1.3709842E-1,-4.8334427E-2,-1.2525277E-1,1.5269258E-2,-4.2158864E-2,4.9976055E-2,-1.4802405E-1,1.9052424E-1,4.4739064E-2,-5.228386E-3,6.962659E-4,-8.721199E-3,-5.096258E-3,1.1444489E-2,4.2044857E-4,-2.2326438E-3,6.86246E-3,1.3089752E-3,4.078182E-3,-3.0628636E-3,-2.184527E-2,-1.612158E-2,1.0380605E-2,-8.089316E-3,5.304277E-3],"categories":[],"categories_nodes":[],"categories_segments":[],"categories_sizes":[],"default_left":[0,0,0,0,0,0,0,0,0,0,0,0,0,0,0,0,0,0,0,0,0,0,0,0,0,0,0,0,0,0,0],"id":35,"left_children":[1,3,5,7,9,11,13,15,17,19,21,23,25,27,29,-1,-1,-1,-1,-1,-1,-1,-1,-1,-1,-1,-1,-1,-1,-1,-1],"loss_changes":[1.7881224E1,5.446844E0,2.6392765E0,9.213619E-1,1.3903967E0,1.6879992E0,1.8319974E0,6.736616E-1,9.996519E-1,9.418559E-1,5.5290747E-1,1.6011882E0,1.0761096E0,2.1355553E0,1.7655685E0,0E0,0E0,0E0,0E0,0E0,0E0,0E0,0E0,0E0,0E0,0E0,0E0,0E0,0E0,0E0,0E0],"parents":[2147483647,0,0,1,1,2,2,3,3,4,4,5,5,6,6,7,7,8,8,9,9,10,10,11,11,12,12,13,13,14,14],"right_children":[2,4,6,8,10,12,14,16,18,20,22,24,26,28,30,-1,-1,-1,-1,-1,-1,-1,-1,-1,-1,-1,-1,-1,-1,-1,-1],"split_conditions":[-1.7443177E-1,-3.1001332E-1,5.6635517E-1,-1.4774704E0,-3.97566E-1,4.9188372E-1,3.1164017E-1,5.216623E-2,-3.4670708E-1,-2.04254E0,2.7121556E0,-6.772971E-5,9.286357E-1,-4.929324E-1,5.711141E-1,-5.228386E-3,6.962659E-4,-8.721199E-3,-5.096258E-3,1.1444489E-2,4.2044857E-4,-2.2326438E-3,6.86246E-3,1.3089752E-3,4.078182E-3,-3.0628636E-3,-2.184527E-2,-1.612158E-2,1.0380605E-2,-8.089316E-3,5.304277E-3],"split_indices":[0,0,0,2,2,0,29,29,0,2,18,0,21,3,29,0,0,0,0,0,0,0,0,0,0,0,0,0,0,0,0],"split_type":[0,0,0,0,0,0,0,0,0,0,0,0,0,0,0,0,0,0,0,0,0,0,0,0,0,0,0,0,0,0,0],"sum_hessian":[5.488E3,2.941E3,2.547E3,1.077E3,1.864E3,2.175E3,3.72E2,1.91E2,8.86E2,6.43E2,1.221E3,2.132E3,4.3E1,2.35E2,1.37E2,1E2,9.1E1,2.83E2,6.03E2,1.9E1,6.24E2,1.205E3,1.6E1,1.217E3,9.15E2,3.4E1,9E0,7E0,2.28E2,3.1E1,1.06E2],"tree_param":{"num_deleted":"0","num_feature":"31","num_nodes":"31","size_leaf_vector":"1"}},{"base_weights":[-4.3796177E-4,-1.6326049E-1,1.6083005E-1,-2.758934E-1,-6.177591E-2,1.0713198E-1,2.996388E-1,-3.5056046E-1,-2.1354315E-1,-1.149507E-1,-3.3722825E-2,6.022972E-2,1.7159939E-1,3.234765E-1,-1.2570083E-1,-1.9057263E-2,-1.5714033E-2,-1.2341935E-2,-9.587786E-3,-6.81485E-3,-4.9294434E-3,-3.1243202E-3,-1.1622312E-3,2.1009345E-3,4.6565323E-3,8.731901E-3,-1.8143846E-2,1.5392795E-2,4.021859E-2,2.8061168E-4,-2.6666626E-2],"categories":[],"categories_nodes":[],"categories_segments":[],"categories_sizes":[],"default_left":[0,0,0,0,0,0,0,0,0,0,0,0,0,0,0,0,0,0,0,0,0,0,0,0,0,0,0,0,0,0,0],"id":36,"left_children":[1,3,5,7,9,11,13,15,17,19,21,23,25,27,29,-1,-1,-1,-1,-1,-1,-1,-1,-1,-1,-1,-1,-1,-1,-1,-1],"loss_changes":[1.423187E2,3.081102E1,2.0264488E1,5.874878E0,2.1143618E0,5.931175E0,7.736244E0,5.2378845E-1,4.5973969E-1,1.5770149E-1,2.7914214E-1,6.785302E-1,1.4064751E0,5.153404E0,2.1976151E0,0E0,0E0,0E0,0E0,0E0,0E0,0E0,0E0,0E0,0E0,0E0,0E0,0E0,0E0,0E0,0E0],"parents":[2147483647,0,0,1,1,2,2,3,3,4,4,5,5,6,6,7,7,8,8,9,9,10,10,11,11,12,12,13,13,14,14],"right_children":[2,4,6,8,10,12,14,16,18,20,22,24,26,28,30,-1,-1,-1,-1,-1,-1,-1,-1,-1,-1,-1,-1,-1,-1,-1,-1],"split_conditions":[-2.7673906E-1,-4.528584E-1,4.165123E-1,-5.126662E-1,-4.0176803E-1,-2.2219865E-2,2.2707176E0,-5.305614E-1,-4.9205855E-1,-4.3262827E-1,-3.707339E-1,-1.3030183E-1,4.4546294E0,6.074158E0,1.2644902E0,-1.9057263E-2,-1.5714033E-2,-1.2341935E-2,-9.587786E-3,-6.81485E-3,-4.9294434E-3,-3.1243202E-3,-1.1622312E-3,2.1009345E-3,4.6565323E-3,8.731901E-3,-1.8143846E-2,1.5392795E-2,4.021859E-2,2.8061168E-4,-2.6666626E-2],"split_indices":[23,23,23,23,23,23,28,23,23,23,23,23,28,23,20,0,0,0,0,0,0,0,0,0,0,0,0,0,0,0,0],"split_type":[0,0,0,0,0,0,0,0,0,0,0,0,0,0,0,0,0,0,0,0,0,0,0,0,0,0,0,0,0,0,0],"sum_hessian":[5.418E3,2.696E3,2.722E3,1.277E3,1.419E3,1.964E3,7.58E2,5.79E2,6.98E2,4.89E2,9.3E2,1.138E3,8.26E2,7.18E2,4E1,3.09E2,2.7E2,2.72E2,4.26E2,2.09E2,2.8E2,2.47E2,6.83E2,7.34E2,4.04E2,8.22E2,4E0,6.97E2,2.1E1,3.1E1,9E0],"tree_param":{"num_deleted":"0","num_feature":"31","num_nodes":"31","size_leaf_vector":"1"}},{"base_weights":[-1.1836657E-3,-1.7115474E-1,1.367618E-1,-2.614673E-1,-7.079823E-2,4.4619936E-2,2.2119161E-1,-3.3025292E-1,-2.0616741E-1,-1.66278E-2,-1.1273794E-1,1.106628E-1,6.530683E-3,1.9217424E-1,4.129876E-1,-1.4786835E-2,-2.288556E-2,-7.431283E-3,-1.2932097E-2,-2.5323627E-3,1.4221147E-3,-4.531534E-3,-8.819147E-3,2.8483777E-3,9.0763E-3,1.4525501E-3,-3.3770488E-3,1.4588865E-2,8.453165E-3,2.272304E-2,5.578822E-3],"categories":[],"categories_nodes":[],"categories_segments":[],"categories_sizes":[],"default_left":[0,0,0,0,0,0,0,0,0,0,0,0,0,0,0,0,0,0,0,0,0,0,0,0,0,0,0,0,0,0,0],"id":37,"left_children":[1,3,5,7,9,11,13,15,17,19,21,23,25,27,29,-1,-1,-1,-1,-1,-1,-1,-1,-1,-1,-1,-1,-1,-1,-1,-1],"loss_changes":[1.2691715E2,2.196035E1,2.3235336E1,4.785614E0,2.6108017E0,3.596476E0,8.597122E0,2.359085E0,2.1053886E0,7.7267027E-1,8.9576054E-1,1.9796824E0,1.5166125E0,3.072075E0,2.4993896E0,0E0,0E0,0E0,0E0,0E0,0E0,0E0,0E0,0E0,0E0,0E0,0E0,0E0,0E0,0E0,0E0],"parents":[2147483647,0,0,1,1,2,2,3,3,4,4,5,5,6,6,7,7,8,8,9,9,10,10,11,11,12,12,13,13,14,14],"right_children":[2,4,6,8,10,12,14,16,18,20,22,24,26,28,30,-1,-1,-1,-1,-1,-1,-1,-1,-1,-1,-1,-1,-1,-1,-1,-1],"split_conditions":[-3.1536436E-1,-4.528584E-1,-2.2219865E-2,-5.126662E-1,-2.5953153E-1,-2.2470629E-1,1.8304942E0,-2.51638E-1,-3.0230442E-1,-3.8628766E-1,-5.475062E-2,-2.0395286E-1,2.7081752E-2,-2.0372203E-1,9.29697E-1,-1.4786835E-2,-2.288556E-2,-7.431283E-3,-1.2932097E-2,-2.5323627E-3,1.4221147E-3,-4.531534E-3,-8.819147E-3,2.8483777E-3,9.0763E-3,1.4525501E-3,-3.3770488E-3,1.4588865E-2,8.453165E-3,2.272304E-2,5.578822E-3],"split_indices":[23,23,23,23,1,1,23,1,1,23,1,23,1,1,14,0,0,0,0,0,0,0,0,0,0,0,0,0,0,0,0],"split_type":[0,0,0,0,0,0,0,0,0,0,0,0,0,0,0,0,0,0,0,0,0,0,0,0,0,0,0,0,0,0,0],"sum_hessian":[5.411E3,2.424E3,2.987E3,1.275E3,1.149E3,1.429E3,1.558E3,5.66E2,7.09E2,5.02E2,6.47E2,5.22E2,9.07E2,1.355E3,2.03E2,4.48E2,1.18E2,3.4E2,3.69E2,2.86E2,2.16E2,4.82E2,1.65E2,2.98E2,2.24E2,6.96E2,2.11E2,2.53E2,1.102E3,1.78E2,2.5E1],"tree_param":{"num_deleted":"0","num_feature":"31","num_nodes":"31","size_leaf_vector":"1"}},{"base_weights":[-6.6794886E-4,-4.766825E-2,5.0371554E-2,-9.080049E-2,-2.0163175E-2,3.2457773E-2,1.0436769E-1,-1.1883514E-1,-6.788985E-2,-1.7685505E-2,-1.426521E-1,3.3666126E-2,-2.2216277E-2,1.3993911E-1,3.037E-2,-4.676887E-3,-7.734507E-3,-3.7309544E-3,2.56077E-3,-7.0587695E-3,-7.947961E-4,-3.4936965E-3,-1.8522346E-2,3.4474235E-3,1.0676316E-3,6.744541E-3,2.7406199E-2,-2.5516829E-2,1.8993014E-3],"categories":[],"categories_nodes":[],"categories_segments":[],"categories_sizes":[],"default_left":[0,0,0,0,0,0,0,0,0,0,0,0,0,0,0,0,0,0,0,0,0,0,0,0,0,0,0,0,0],"id":38,"left_children":[1,3,5,7,9,11,13,15,17,19,21,23,-1,25,27,-1,-1,-1,-1,-1,-1,-1,-1,-1,-1,-1,-1,-1,-1],"loss_changes":[1.2985095E1,3.341319E0,2.506691E0,6.965265E-1,5.200823E-1,1.1383996E0,1.6961536E0,4.317937E-1,4.8952293E-1,3.710168E-1,5.37784E-1,8.4396553E-1,0E0,8.2450104E-1,8.8829124E-1,0E0,0E0,0E0,0E0,0E0,0E0,0E0,0E0,0E0,0E0,0E0,0E0,0E0,0E0],"parents":[2147483647,0,0,1,1,2,2,3,3,4,4,5,5,6,6,7,7,8,8,9,9,10,10,11,11,13,13,14,14],"right_children":[2,4,6,8,10,12,14,16,18,20,22,24,-1,26,28,-1,-1,-1,-1,-1,-1,-1,-1,-1,-1,-1,-1,-1,-1],"split_conditions":[-1.8352237E-1,-3.1001332E-1,2.623529E-1,-3.41433E-1,2.6469057E0,4.203749E0,1.1611212E-2,-1.2230308E-1,3.981231E-1,-1.3749405E0,1.1088417E0,-5.965186E-1,-2.2216277E-2,2.9063795E0,-1.2919227E0,-4.676887E-3,-7.734507E-3,-3.7309544E-3,2.56077E-3,-7.0587695E-3,-7.947961E-4,-3.4936965E-3,-1.8522346E-2,3.4474235E-3,1.0676316E-3,6.744541E-3,2.7406199E-2,-2.5516829E-2,1.8993014E-3],"split_indices":[0,0,0,0,29,29,8,11,3,29,6,29,0,29,3,0,0,0,0,0,0,0,0,0,0,0,0,0,0],"split_type":[0,0,0,0,0,0,0,0,0,0,0,0,0,0,0,0,0,0,0,0,0,0,0,0,0,0,0,0,0],"sum_hessian":[5.411E3,2.817E3,2.594E3,1.096E3,1.721E3,1.949E3,6.45E2,4.91E2,6.05E2,1.688E3,3.3E1,1.945E3,4E0,4.35E2,2.1E2,2.9E2,2.01E2,5.73E2,3.2E1,2.3E1,1.665E3,2.6E1,7E0,5.02E2,1.443E3,4.31E2,4E0,2E0,2.08E2],"tree_param":{"num_deleted":"0","num_feature":"31","num_nodes":"29","size_leaf_vector":"1"}},{"base_weights":[7.3005765E-4,2.9803177E-3,-2.752316E-1,1.8743051E-2,-2.9845865E-2,-9.8790705E-2,-5.668012E-1,2.1744391E-2,-1.0735826E-1,-4.0359586E-2,2.2680044E-2,-1.9254163E-1,2.4194332E-2,-1.011981E-3,-6.018894E-1,8.488884E-4,2.682477E-3,-1.0831531E-2,3.2385252E-3,-6.4704375E-4,-3.3613592E-3,4.8068995E-4,1.742311E-2,-3.0106695E-3,-1.3295862E-2,5.074985E-3,-5.989709E-3,-4.9550254E-3,-3.1536214E-2],"categories":[],"categories_nodes":[],"categories_segments":[],"categories_sizes":[],"default_left":[0,0,0,0,0,0,0,0,0,0,0,0,0,0,0,0,0,0,0,0,0,0,0,0,0,0,0,0,0],"id":39,"left_children":[1,3,5,7,9,11,13,15,17,19,21,23,25,-1,27,-1,-1,-1,-1,-1,-1,-1,-1,-1,-1,-1,-1,-1,-1],"loss_changes":[3.3013582E0,2.7289698E0,2.1561317E0,1.3508337E0,9.458027E-1,3.274973E-1,2.9466295E-1,5.28479E-1,1.5751717E0,1.0496285E0,1.2140803E0,1.3934284E-1,1.5686315E-1,0E0,1.5496302E-1,0E0,0E0,0E0,0E0,0E0,0E0,0E0,0E0,0E0,0E0,0E0,0E0,0E0,0E0],"parents":[2147483647,0,0,1,1,2,2,3,3,4,4,5,5,6,6,7,7,8,8,9,9,10,10,11,11,12,12,14,14],"right_children":[2,4,6,8,10,12,14,16,18,20,22,24,26,-1,28,-1,-1,-1,-1,-1,-1,-1,-1,-1,-1,-1,-1,-1,-1],"split_conditions":[4.4546294E0,2.2789465E-1,2.6288882E-1,2.3944566E0,1.3220252E0,-3.112905E-1,-1.330565E0,1.7292372E0,-5.960142E-1,-1.5687965E-1,1.7723444E0,-4.2067832E-1,-1.004631E0,-1.011981E-3,-1.6461973E-1,8.488884E-4,2.682477E-3,-1.0831531E-2,3.2385252E-3,-6.4704375E-4,-3.3613592E-3,4.8068995E-4,1.742311E-2,-3.0106695E-3,-1.3295862E-2,5.074985E-3,-5.989709E-3,-4.9550254E-3,-3.1536214E-2],"split_indices":[28,30,6,27,20,26,30,20,30,4,27,2,30,0,4,0,0,0,0,0,0,0,0,0,0,0,0,0,0],"split_type":[0,0,0,0,0,0,0,0,0,0,0,0,0,0,0,0,0,0,0,0,0,0,0,0,0,0,0,0,0],"sum_hessian":[5.314E3,5.272E3,4.2E1,3.562E3,1.71E3,2.7E1,1.5E1,3.48E3,8.2E1,1.425E3,2.85E2,1.5E1,1.2E1,1E0,1.4E1,3.029E3,4.51E2,5E1,3.2E1,7.06E2,7.19E2,2.75E2,1E1,6E0,9E0,8E0,4E0,1E0,1.3E1],"tree_param":{"num_deleted":"0","num_feature":"31","num_nodes":"29","size_leaf_vector":"1"}},{"base_weights":[-2.553814E-3,-6.592562E-2,2.9511794E-2,-9.617361E-2,-4.27136E-2,1.5505221E-2,1.1638324E-1,-9.2949905E-2,-2.5632018E-1,-2.4862707E-2,-9.169692E-2,1.720205E-2,-2.024763E-1,1.2803032E-1,-4.1196248E-1,-6.3858517E-3,-4.0640472E-3,3.216535E-4,-1.3777389E-2,5.6115437E-6,-2.7665498E-3,-7.979901E-3,-3.6406384E-3,-9.482478E-3,9.445957E-4,2.8656023E-3,-2.5735453E-2,5.5425726E-3,1.4753254E-2,-3.172552E-2,-9.001476E-4],"categories":[],"categories_nodes":[],"categories_segments":[],"categories_sizes":[],"default_left":[0,0,0,0,0,0,0,0,0,0,0,0,0,0,0,0,0,0,0,0,0,0,0,0,0,0,0,0,0,0,0],"id":40,"left_children":[1,3,5,7,9,11,13,15,17,19,21,23,25,27,29,-1,-1,-1,-1,-1,-1,-1,-1,-1,-1,-1,-1,-1,-1,-1,-1],"loss_changes":[1.1001462E1,1.2730427E0,4.3724885E0,3.835082E-1,8.992226E-1,1.1489928E0,3.1234307E0,3.0403376E-1,7.7554286E-2,5.760405E-1,3.409989E-1,1.0781035E0,1.9762452E0,1.3704615E0,9.530004E-1,0E0,0E0,0E0,0E0,0E0,0E0,0E0,0E0,0E0,0E0,0E0,0E0,0E0,0E0,0E0,0E0],"parents":[2147483647,0,0,1,1,2,2,3,3,4,4,5,5,6,6,7,7,8,8,9,9,10,10,11,11,12,12,13,13,14,14],"right_children":[2,4,6,8,10,12,14,16,18,20,22,24,26,28,30,-1,-1,-1,-1,-1,-1,-1,-1,-1,-1,-1,-1,-1,-1,-1,-1],"split_conditions":[-2.6787493E-1,-3.3206946E-1,3.769482E-1,1.8742518E0,1.8410456E-1,3.7041667E0,2.6236558E0,-3.648691E-1,-1.2072461E0,-2.249635E-1,-3.370447E-1,-9.6724784E-1,-2.5944948E-1,4.287089E0,-2.131926E-1,-6.3858517E-3,-4.0640472E-3,3.216535E-4,-1.3777389E-2,5.6115437E-6,-2.7665498E-3,-7.979901E-3,-3.6406384E-3,-9.482478E-3,9.445957E-4,2.8656023E-3,-2.5735453E-2,5.5425726E-3,1.4753254E-2,-3.172552E-2,-9.001476E-4],"split_indices":[1,1,1,22,8,27,27,1,27,27,29,7,8,1,17,0,0,0,0,0,0,0,0,0,0,0,0,0,0,0,0],"split_type":[0,0,0,0,0,0,0,0,0,0,0,0,0,0,0,0,0,0,0,0,0,0,0,0,0,0,0,0,0,0,0],"sum_hessian":[5.412E3,1.818E3,3.594E3,7.88E2,1.03E3,3.096E3,4.98E2,7.74E2,1.4E1,7.56E2,2.74E2,3.073E3,2.3E1,4.88E2,1E1,1.92E2,5.82E2,1E0,1.3E1,4.16E2,3.4E2,5.8E1,2.16E2,2.4E1,3.049E3,1.3E1,1E1,4.44E2,4.4E1,6E0,4E0],"tree_param":{"num_deleted":"0","num_feature":"31","num_nodes":"31","size_leaf_vector":"1"}},{"base_weights":[1.707525E-3,-5.1846765E-2,4.142526E-2,-8.49831E-2,-2.2379957E-2,3.133112E-2,1.6957623E-1,-1.14241205E-1,-6.4023025E-2,-7.890107E-3,-6.045152E-2,1.3079386E-2,5.8634248E-2,-2.843668E-2,1.7866668E-1,-5.95981E-3,3.1127187E-3,-9.941559E-4,-4.148318E-3,-4.561861E-3,-1.0281725E-4,-3.313863E-3,1.1182933E-2,-1.1417988E-2,7.236938E-4,3.5065752E-3,6.8780815E-4,1.1541647E-2,2.8690097E-3],"categories":[],"categories_nodes":[],"categories_segments":[],"categories_sizes":[],"default_left":[0,0,0,0,0,0,0,0,0,0,0,0,0,0,0,0,0,0,0,0,0,0,0,0,0,0,0,0,0],"id":41,"left_children":[1,3,5,7,9,11,13,15,17,19,21,23,25,-1,27,-1,-1,-1,-1,-1,-1,-1,-1,-1,-1,-1,-1,-1,-1],"loss_changes":[1.152866E1,2.25168E0,4.020289E0,6.586771E-1,6.741924E-1,1.4374118E0,1.6251411E0,4.027109E-1,5.2930975E-1,4.310959E-1,5.7260966E-1,5.8610606E-1,5.955019E-1,0E0,1.4103436E0,0E0,0E0,0E0,0E0,0E0,0E0,0E0,0E0,0E0,0E0,0E0,0E0,0E0,0E0],"parents":[2147483647,0,0,1,1,2,2,3,3,4,4,5,5,6,6,7,7,8,8,9,9,10,10,11,11,12,12,14,14],"right_children":[2,4,6,8,10,12,14,16,18,20,22,24,26,-1,28,-1,-1,-1,-1,-1,-1,-1,-1,-1,-1,-1,-1,-1,-1],"split_conditions":[-2.3178557E-1,-3.139933E-1,9.4688314E-1,-3.5156903E-1,-6.101998E-2,-2.0190649E-2,-1.2919227E0,2.2435596E0,-3.9264157E-1,-5.976035E-1,6.426343E-1,-1.2919227E0,2.6842794E-1,-2.843668E-2,3.967113E-1,-5.95981E-3,3.1127187E-3,-9.941559E-4,-4.148318E-3,-4.561861E-3,-1.0281725E-4,-3.313863E-3,1.1182933E-2,-1.1417988E-2,7.236938E-4,3.5065752E-3,6.8780815E-4,1.1541647E-2,2.8690097E-3],"split_indices":[1,1,1,1,14,1,3,15,13,13,3,3,12,0,5,0,0,0,0,0,0,0,0,0,0,0,0,0,0],"split_type":[0,0,0,0,0,0,0,0,0,0,0,0,0,0,0,0,0,0,0,0,0,0,0,0,0,0,0,0,0],"sum_hessian":[5.418E3,2.307E3,3.111E3,1.085E3,1.222E3,2.885E3,2.26E2,4.51E2,6.34E2,8.86E2,3.36E2,1.73E3,1.155E3,2E0,2.24E2,4.39E2,1.2E1,1.91E2,4.43E2,5.7E1,8.29E2,3.3E2,6E0,9E0,1.721E3,9.19E2,2.36E2,1.56E2,6.8E1],"tree_param":{"num_deleted":"0","num_feature":"31","num_nodes":"29","size_leaf_vector":"1"}},{"base_weights":[-2.6976378E-3,7.8068194E-3,-4.2844974E-2,1.579405E-2,-2.349006E-2,-1.40810395E-2,-6.639447E-2,1.2961541E-2,7.899048E-2,-8.274653E-2,-7.91193E-3,-2.661232E-2,8.8931486E-2,-7.426806E-2,4.0069688E-2,6.681959E-4,-3.248973E-2,2.0686617E-2,3.4537346E-3,-2.8426116E-2,-2.7011333E-3,1.373389E-3,-2.285214E-3,-5.1470586E-5,-3.256155E-3,-5.906183E-3,6.079397E-3,-3.414774E-3,-1.7389743E-2,7.712507E-3,-7.275091E-4],"categories":[],"categories_nodes":[],"categories_segments":[],"categories_sizes":[],"default_left":[0,0,0,0,0,0,0,0,0,0,0,0,0,0,0,0,0,0,0,0,0,0,0,0,0,0,0,0,0,0,0],"id":42,"left_children":[1,3,5,7,9,11,13,15,17,19,21,23,25,27,29,-1,-1,-1,-1,-1,-1,-1,-1,-1,-1,-1,-1,-1,-1,-1,-1],"loss_changes":[2.2755458E0,1.0695157E0,7.570491E-1,6.0902315E-1,8.024466E-1,6.542606E-1,5.185025E-1,8.7885135E-1,4.5602912E-1,2.494845E0,9.2384225E-1,4.4426605E-1,3.862552E-1,9.1233444E-1,2.704148E-1,0E0,0E0,0E0,0E0,0E0,0E0,0E0,0E0,0E0,0E0,0E0,0E0,0E0,0E0,0E0,0E0],"parents":[2147483647,0,0,1,1,2,2,3,3,4,4,5,5,6,6,7,7,8,8,9,9,10,10,11,11,12,12,13,13,14,14],"right_children":[2,4,6,8,10,12,14,16,18,20,22,24,26,28,30,-1,-1,-1,-1,-1,-1,-1,-1,-1,-1,-1,-1,-1,-1,-1,-1],"split_conditions":[6.4508766E-1,5.287108E-1,-4.7363928E-1,6.325874E-1,9.8529026E-2,-4.9436933E-1,2.30843E0,2.7626407E0,-1.2268317E0,-1.262907E0,7.2650236E-1,-7.7570744E-2,7.2226053E-1,1.7701077E0,5.216623E-2,6.681959E-4,-3.248973E-2,2.0686617E-2,3.4537346E-3,-2.8426116E-2,-2.7011333E-3,1.373389E-3,-2.285214E-3,-5.1470586E-5,-3.256155E-3,-5.906183E-3,6.079397E-3,-3.414774E-3,-1.7389743E-2,7.712507E-3,-7.275091E-4],"split_indices":[30,10,10,8,7,8,8,6,30,30,5,29,30,5,29,0,0,0,0,0,0,0,0,0,0,0,0,0,0,0,0],"split_type":[0,0,0,0,0,0,0,0,0,0,0,0,0,0,0,0,0,0,0,0,0,0,0,0,0,0,0,0,0,0,0],"sum_hessian":[5.394E3,4.276E3,1.118E3,3.407E3,8.69E2,5.04E2,6.14E2,3.262E3,1.45E2,1.8E2,6.89E2,4.5E2,5.4E1,5.72E2,4.2E1,3.261E3,1E0,3E0,1.42E2,9E0,1.71E2,3.56E2,3.33E2,2.71E2,1.79E2,7E0,4.7E1,5.61E2,1.1E1,1.3E1,2.9E1],"tree_param":{"num_deleted":"0","num_feature":"31","num_nodes":"31","size_leaf_vector":"1"}},{"base_weights":[1.0821681E-3,-5.0619327E-2,3.8628917E-2,-1.03899516E-1,-3.954659E-2,2.679162E-2,1.3240787E-1,-4.037979E-2,-1.1835411E-1,-3.6895804E-2,-1.6413918E-1,3.6626053E-1,2.5189927E-2,1.4924946E-1,-1.3935272E-1,1.4523126E-3,-1.1464121E-2,1.37974145E-2,-6.14927E-3,6.0408004E-3,-1.9387355E-3,-1.0654803E-2,1.1363868E-3,1.1188901E-2,2.1366993E-2,1.4925317E-3,-3.948362E-3,1.01207355E-2,4.2654364E-3,-4.552422E-2,1.9875849E-3],"categories":[],"categories_nodes":[],"categories_segments":[],"categories_sizes":[],"default_left":[0,0,0,0,0,0,0,0,0,0,0,0,0,0,0,0,0,0,0,0,0,0,0,0,0,0,0,0,0,0,0],"id":43,"left_children":[1,3,5,7,9,11,13,15,17,19,21,23,25,27,29,-1,-1,-1,-1,-1,-1,-1,-1,-1,-1,-1,-1,-1,-1,-1,-1],"loss_changes":[1.0502031E1,1.338634E0,3.4754739E0,3.54218E-1,6.168306E-1,1.5045023E0,1.6272831E0,9.7715217E-1,6.1464596E-1,5.5229473E-1,3.616315E-1,1.7506242E-2,1.3480134E0,1.1079416E0,2.9365683E0,0E0,0E0,0E0,0E0,0E0,0E0,0E0,0E0,0E0,0E0,0E0,0E0,0E0,0E0,0E0,0E0],"parents":[2147483647,0,0,1,1,2,2,3,3,4,4,5,5,6,6,7,7,8,8,9,9,10,10,11,11,12,12,13,13,14,14],"right_children":[2,4,6,8,10,12,14,16,18,20,22,24,26,28,30,-1,-1,-1,-1,-1,-1,-1,-1,-1,-1,-1,-1,-1,-1,-1,-1],"split_conditions":[-2.3223725E-1,-3.4670708E-1,5.9578955E-1,-2.126296E0,2.6469057E0,-2.126296E0,1.472383E0,2.4231696E-1,-3.657192E-1,-2.126296E0,4.0740123E0,2.0237257E-1,1.5443504E0,-7.7570744E-2,1.8266231E0,1.4523126E-3,-1.1464121E-2,1.37974145E-2,-6.14927E-3,6.0408004E-3,-1.9387355E-3,-1.0654803E-2,1.1363868E-3,1.1188901E-2,2.1366993E-2,1.4925317E-3,-3.948362E-3,1.01207355E-2,4.2654364E-3,-4.552422E-2,1.9875849E-3],"split_indices":[0,0,0,2,29,2,12,21,0,2,29,21,12,29,12,0,0,0,0,0,0,0,0,0,0,0,0,0,0,0,0],"split_type":[0,0,0,0,0,0,0,0,0,0,0,0,0,0,0,0,0,0,0,0,0,0,0,0,0,0,0,0,0,0,0],"sum_hessian":[5.408E3,2.275E3,3.133E3,3.9E2,1.885E3,2.783E3,3.5E2,7.3E1,3.17E2,1.847E3,3.8E1,1.2E1,2.771E3,3.3E2,2E1,5.4E1,1.9E1,3E0,3.14E2,2.1E1,1.826E3,3E1,8E0,5E0,7E0,2.653E3,1.18E2,1.79E2,1.51E2,3E0,1.7E1],"tree_param":{"num_deleted":"0","num_feature":"31","num_nodes":"31","size_leaf_vector":"1"}},{"base_weights":[8.4852235E-4,-3.1914998E-2,5.5346638E-2,-9.72927E-2,-1.9142041E-2,6.1951075E-2,-1.0474E-1,-1.2918636E-1,-7.51852E-2,-4.696953E-3,-4.6750642E-2,3.50106E-2,9.375347E-2,-6.2703824E-1,-4.685992E-2,-8.358333E-3,-4.845133E-3,2.0465956E-3,-4.7825943E-3,-1.416491E-3,6.8920734E-4,-2.1517437E-3,-1.405977E-2,-1.3895984E-2,1.897737E-3,4.216732E-3,1.12971915E-2,7.892143E-3,-4.574862E-2,5.5437215E-4,-3.0154144E-2],"categories":[],"categories_nodes":[],"categories_segments":[],"categories_sizes":[],"default_left":[0,0,0,0,0,0,0,0,0,0,0,0,0,0,0,0,0,0,0,0,0,0,0,0,0,0,0,0,0,0,0],"id":44,"left_children":[1,3,5,7,9,11,13,15,17,19,21,23,25,27,29,-1,-1,-1,-1,-1,-1,-1,-1,-1,-1,-1,-1,-1,-1,-1,-1],"loss_changes":[9.677662E0,2.824838E0,2.1580572E0,3.8020086E-1,1.1296052E0,1.6717067E0,2.4193006E0,2.596841E-1,7.8579414E-1,8.132034E-1,8.3552074E-1,9.8713803E-1,1.0965357E0,1.9523747E0,2.3918295E0,0E0,0E0,0E0,0E0,0E0,0E0,0E0,0E0,0E0,0E0,0E0,0E0,0E0,0E0,0E0,0E0],"parents":[2147483647,0,0,1,1,2,2,3,3,4,4,5,5,6,6,7,7,8,8,9,9,10,10,11,11,12,12,13,13,14,14],"right_children":[2,4,6,8,10,12,14,16,18,20,22,24,26,28,30,-1,-1,-1,-1,-1,-1,-1,-1,-1,-1,-1,-1,-1,-1,-1,-1],"split_conditions":[-1.2433853E-1,-3.4648383E-1,2.2707176E0,1.5496181E-1,5.187385E-1,1.1153599E-1,-7.9023296E-1,-5.480489E-1,3.761335E-1,-2.6918057E-1,4.4546294E0,-9.6724784E-1,8.9378583E-1,1.5496181E-1,1.6999158E0,-8.358333E-3,-4.845133E-3,2.0465956E-3,-4.7825943E-3,-1.416491E-3,6.8920734E-4,-2.1517437E-3,-1.405977E-2,-1.3895984E-2,1.897737E-3,4.216732E-3,1.12971915E-2,7.892143E-3,-4.574862E-2,5.5437215E-4,-3.0154144E-2],"split_indices":[1,1,28,2,16,1,7,10,2,1,28,7,2,2,6,0,0,0,0,0,0,0,0,0,0,0,0,0,0,0,0],"split_type":[0,0,0,0,0,0,0,0,0,0,0,0,0,0,0,0,0,0,0,0,0,0,0,0,0,0,0,0,0,0,0],"sum_hessian":[5.418E3,3.384E3,2.034E3,5.52E2,2.832E3,1.954E3,8E1,2.24E2,3.28E2,1.86E3,9.72E2,1.059E3,8.95E2,7E0,7.3E1,1.01E2,1.23E2,4.9E1,2.79E2,8.16E2,1.044E3,9.58E2,1.4E1,9E0,1.05E3,8.37E2,5.8E1,2E0,5E0,6.7E1,6E0],"tree_param":{"num_deleted":"0","num_feature":"31","num_nodes":"31","size_leaf_vector":"1"}},{"base_weights":[-1.2068689E-3,6.624176E-3,-3.128175E-2,-1.8281949E-1,7.5493315E-3,-8.48345E-2,-1.7014034E-2,1.3278311E-1,-2.4279676E-1,-8.660071E-2,9.357688E-3,-2.0306094E-3,-1.571075E-1,-1.0685531E-2,-2.1100782E-1,-3.4589096E-4,9.082803E-3,-2.2660878E-2,-4.990912E-3,-1.1377109E-3,-8.288839E-3,4.690804E-3,3.7874895E-4,3.6514022E-3,-3.0188668E-3,-5.456958E-3,-1.644746E-2,1.3465298E-3,-1.9409364E-3,-3.0553186E-2,-5.943542E-3],"categories":[],"categories_nodes":[],"categories_segments":[],"categories_sizes":[],"default_left":[0,0,0,0,0,0,0,0,0,0,0,0,0,0,0,0,0,0,0,0,0,0,0,0,0,0,0,0,0,0,0],"id":45,"left_children":[1,3,5,7,9,11,13,15,17,19,21,23,25,27,29,-1,-1,-1,-1,-1,-1,-1,-1,-1,-1,-1,-1,-1,-1,-1,-1],"loss_changes":[1.2802463E0,7.5729746E-1,8.566133E-1,4.2974794E-1,7.317229E-1,1.4120196E0,1.087934E0,2.8567038E-2,4.9630237E-1,4.0569216E-1,6.336185E-1,4.905256E-1,1.002712E0,9.122089E-1,9.594408E-1,0E0,0E0,0E0,0E0,0E0,0E0,0E0,0E0,0E0,0E0,0E0,0E0,0E0,0E0,0E0,0E0],"parents":[2147483647,0,0,1,1,2,2,3,3,4,4,5,5,6,6,7,7,8,8,9,9,10,10,11,11,12,12,13,13,14,14],"right_children":[2,4,6,8,10,12,14,16,18,20,22,24,26,28,30,-1,-1,-1,-1,-1,-1,-1,-1,-1,-1,-1,-1,-1,-1,-1,-1],"split_conditions":[5.287108E-1,-1.2919227E0,9.8529026E-2,-1.1323093E0,-9.3774533E-1,-1.3011515E-1,2.6791246E0,-1.5094151E0,-1.926463E-1,3.7101424E-1,-2.126296E0,-2.1891508E-1,1.8590999E-1,-1.1189337E-3,-1.3471217E-1,-3.4589096E-4,9.082803E-3,-2.2660878E-2,-4.990912E-3,-1.1377109E-3,-8.288839E-3,4.690804E-3,3.7874895E-4,3.6514022E-3,-3.0188668E-3,-5.456958E-3,-1.644746E-2,1.3465298E-3,-1.9409364E-3,-3.0553186E-2,-5.943542E-3],"split_indices":[10,3,7,2,7,7,22,2,2,2,2,13,11,3,4,0,0,0,0,0,0,0,0,0,0,0,0,0,0,0,0],"split_type":[0,0,0,0,0,0,0,0,0,0,0,0,0,0,0,0,0,0,0,0,0,0,0,0,0,0,0,0,0,0,0],"sum_hessian":[5.434E3,4.312E3,1.122E3,2E1,4.292E3,2.35E2,8.87E2,3E0,1.7E1,8E1,4.212E3,1.1E2,1.25E2,8.6E2,2.7E1,1E0,2E0,6E0,1.1E1,4.5E1,3.5E1,8.6E1,4.126E3,4.8E1,6.2E1,9.9E1,2.6E1,3.68E2,4.92E2,4E0,2.3E1],"tree_param":{"num_deleted":"0","num_feature":"31","num_nodes":"31","size_leaf_vector":"1"}},{"base_weights":[-6.221882E-4,-1.3957869E-1,1.3640389E-1,-2.566727E-1,-6.8989076E-2,7.398976E-2,2.3197924E-1,-3.1135455E-1,-2.0941898E-1,-1.1934742E-1,-3.0423025E-2,5.1844522E-2,1.2508585E-1,2.4135116E-1,-3.6823773E-1,-1.7559474E-2,-1.4698942E-2,-1.0621256E-2,-3.4797525E-3,-6.224163E-3,-8.441036E-4,-1.8800061E-2,-1.4287058E-3,2.7644827E-3,-1.7442038E-2,5.294114E-3,9.154237E-3,1.0746413E-2,2.0433575E-2,-2.391804E-2,1.5256179E-2],"categories":[],"categories_nodes":[],"categories_segments":[],"categories_sizes":[],"default_left":[0,0,0,0,0,0,0,0,0,0,0,0,0,0,0,0,0,0,0,0,0,0,0,0,0,0,0,0,0,0,0],"id":46,"left_children":[1,3,5,7,9,11,13,15,17,19,21,23,25,27,29,-1,-1,-1,-1,-1,-1,-1,-1,-1,-1,-1,-1,-1,-1,-1,-1],"loss_changes":[1.0342888E2,2.227467E1,1.6297806E1,2.5548935E0,3.266903E0,1.8673372E0,6.1640625E0,2.2068787E-1,2.1513748E-1,3.8205814E-1,5.994468E-1,1.6164243E0,5.3750753E-1,4.6161995E0,1.4065535E0,0E0,0E0,0E0,0E0,0E0,0E0,0E0,0E0,0E0,0E0,0E0,0E0,0E0,0E0,0E0,0E0],"parents":[2147483647,0,0,1,1,2,2,3,3,4,4,5,5,6,6,7,7,8,8,9,9,10,10,11,11,12,12,13,13,14,14],"right_children":[2,4,6,8,10,12,14,16,18,20,22,24,26,28,30,-1,-1,-1,-1,-1,-1,-1,-1,-1,-1,-1,-1,-1,-1,-1,-1],"split_conditions":[-2.7673906E-1,-4.7681513E-1,1.7268692E-1,-5.198294E-1,-4.0176803E-1,-2.2219865E-2,2.7546268E0,-5.3695947E-1,1.8165578E0,1.4989858E0,-4.863166E0,3.7041667E0,9.7586714E-2,2.1977394E0,2.66502E-1,-1.7559474E-2,-1.4698942E-2,-1.0621256E-2,-3.4797525E-3,-6.224163E-3,-8.441036E-4,-1.8800061E-2,-1.4287058E-3,2.7644827E-3,-1.7442038E-2,5.294114E-3,9.154237E-3,1.0746413E-2,2.0433575E-2,-2.391804E-2,1.5256179E-2],"split_indices":[23,23,23,23,23,23,27,23,2,2,2,27,3,23,19,0,0,0,0,0,0,0,0,0,0,0,0,0,0,0,0],"split_type":[0,0,0,0,0,0,0,0,0,0,0,0,0,0,0,0,0,0,0,0,0,0,0,0,0,0,0,0,0,0,0],"sum_hessian":[5.43E3,2.696E3,2.734E3,1.013E3,1.683E3,1.655E3,1.079E3,4.67E2,5.46E2,7.29E2,9.54E2,1.156E3,4.99E2,1.063E3,1.6E1,1.36E2,3.31E2,5.34E2,1.2E1,6.94E2,3.5E1,4E0,9.5E2,1.147E3,9E0,3.77E2,1.22E2,9.2E2,1.43E2,1.4E1,2E0],