{"learner":{"attributes":{"best_iteration":"324","best_score":"0.19095164011833465","scikit_learn":"{\"_estimator_type\": \"regressor\"}"},"feature_names":[],"feature_types":[],"gradient_booster":{"model":{"cats":{"enc":[],"feature_segments":[],"sorted_idx":[]},"gbtree_model_param":{"num_parallel_tree":"1","num_trees":"355"},"iteration_indptr":[0,1,2,3,4,5,6,7,8,9,10,11,12,13,14,15,16,17,18,19,20,21,22,23,24,25,26,27,28,29,30,31,32,33,34,35,36,37,38,39,40,41,42,43,44,45,46,47,48,49,50,51,52,53,54,55,56,57,58,59,60,61,62,63,64,65,66,67,68,69,70,71,72,73,74,75,76,77,78,79,80,81,82,83,84,85,86,87,88,89,90,91,92,93,94,95,96,97,98,99,100,101,102,103,104,105,106,107,108,109,110,111,112,113,114,115,116,117,118,119,120,121,122,123,124,125,126,127,128,129,130,131,132,133,134,135,136,137,138,139,140,141,142,143,144,145,146,147,148,149,150,151,152,153,154,155,156,157,158,159,160,161,162,163,164,165,166,167,168,169,170,171,172,173,174,175,176,177,178,179,180,181,182,183,184,185,186,187,188,189,190,191,192,193,194,195,196,197,198,199,200,201,202,203,204,205,206,207,208,209,210,211,212,213,214,215,216,217,218,219,220,221,222,223,224,225,226,227,228,229,230,231,232,233,234,235,236,237,238,239,240,241,242,243,244,245,246,247,248,249,250,251,252,253,254,255,256,257,258,259,260,261,262,263,264,265,266,267,268,269,270,271,272,273,274,275,276,277,278,279,280,281,282,283,284,285,286,287,288,289,290,291,292,293,294,295,296,297,298,299,300,301,302,303,304,305,306,307,308,309,310,311,312,313,314,315,316,317,318,319,320,321,322,323,324,325,326,327,328,329,330,331,332,333,334,335,336,337,338,339,340,341,342,343,344,345,346,347,348,349,350,351,352,353,354,355],"tree_info":[0,0,0,0,0,0,0,0,0,0,0,0,0,0,0,0,0,0,0,0,0,0,0,0,0,0,0,0,0,0,0,0,0,0,0,0,0,0,0,0,0,0,0,0,0,0,0,0,0,0,0,0,0,0,0,0,0,0,0,0,0,0,0,0,0,0,0,0,0,0,0,0,0,0,0,0,0,0,0,0,0,0,0,0,0,0,0,0,0,0,0,0,0,0,0,0,0,0,0,0,0,0,0,0,0,0,0,0,0,0,0,0,0,0,0,0,0,0,0,0,0,0,0,0,0,0,0,0,0,0,0,0,0,0,0,0,0,0,0,0,0,0,0,0,0,0,0,0,0,0,0,0,0,0,0,0,0,0,0,0,0,0,0,0,0,0,0,0,0,0,0,0,0,0,0,0,0,0,0,0,0,0,0,0,0,0,0,0,0,0,0,0,0,0,0,0,0,0,0,0,0,0,0,0,0,0,0,0,0,0,0,0,0,0,0,0,0,0,0,0,0,0,0,0,0,0,0,0,0,0,0,0,0,0,0,0,0,0,0,0,0,0,0,0,0,0,0,0,0,0,0,0,0,0,0,0,0,0,0,0,0,0,0,0,0,0,0,0,0,0,0,0,0,0,0,0,0,0,0,0,0,0,0,0,0,0,0,0,0,0,0,0,0,0,0,0,0,0,0,0,0,0,0,0,0,0,0,0,0,0,0,0,0,0,0,0,0,0,0,0,0,0,0,0,0,0,0,0,0,0,0,0,0,0,0,0,0,0,0,0,0,0,0,0,0,0,0,0,0,0,0,0,0,0,0],"trees":[{"base_weights":[-2.5859694E-3,-3.762023E-1,3.3425593E-1,-6.355395E-1,-1.9657071E-1,1.9510348E-1,6.889856E-1,-8.107564E-1,-5.3605187E-1,-3.0594462E-1,-1.13798246E-1,9.545756E-2,3.2851556E-1,5.587776E-1,9.473992E-1,-4.4331513E-2,-3.7518606E-2,-3.047668E-2,-2.3553358E-2,-1.760118E-2,-1.3652342E-2,-8.475346E-3,-4.2580212E-3,2.3672143E-3,7.8362785E-3,1.4185036E-2,1.9066922E-2,2.8072119E-2,-6.016587E-3,4.1958414E-2,6.207321E-2],"categories":[],"categories_nodes":[],"categories_segments":[],"categories_sizes":[],"default_left":[0,0,0,0,0,0,0,0,0,0,0,0,0,0,0,0,0,0,0,0,0,0,0,0,0,0,0,0,0,0,0],"id":0,"left_children":[1,3,5,7,9,11,13,15,17,19,21,23,25,27,29,-1,-1,-1,-1,-1,-1,-1,-1,-1,-1,-1,-1,-1,-1,-1,-1],"loss_changes":[3.8170184E2,6.686453E1,7.85972E1,9.815353E0,7.6694145E0,1.5216824E1,1.4578339E1,3.0142212E-1,1.5178986E0,4.5869827E-1,7.609172E-1,1.9322352E0,1.0517654E0,6.122818E-1,3.7004242E0,0E0,0E0,0E0,0E0,0E0,0E0,0E0,0E0,0E0,0E0,0E0,0E0,0E0,0E0,0E0,0E0],"parents":[2147483647,0,0,1,1,2,2,3,3,4,4,5,5,6,6,7,7,8,8,9,9,10,10,11,11,12,12,13,13,14,14],"right_children":[2,4,6,8,10,12,14,16,18,20,22,24,26,28,30,-1,-1,-1,-1,-1,-1,-1,-1,-1,-1,-1,-1,-1,-1,-1,-1],"split_conditions":[-3.0730143E-1,-4.8097602E-1,3.695593E-1,-5.3489685E-1,-4.1428047E-1,-6.382534E-2,1.3881629E0,-5.514943E-1,-5.1266915E-1,-4.529633E-1,-3.7898785E-1,-1.8888453E-1,1.1595229E-1,2.4339542E0,3.4423728E0,-4.4331513E-2,-3.7518606E-2,-3.047668E-2,-2.3553358E-2,-1.760118E-2,-1.3652342E-2,-8.475346E-3,-4.2580212E-3,2.3672143E-3,7.8362785E-3,1.4185036E-2,1.9066922E-2,2.8072119E-2,-6.016587E-3,4.1958414E-2,6.207321E-2],"split_indices":[23,23,23,23,23,23,23,23,23,23,23,23,23,3,23,0,0,0,0,0,0,0,0,0,0,0,0,0,0,0,0],"split_type":[0,0,0,0,0,0,0,0,0,0,0,0,0,0,0,0,0,0,0,0,0,0,0,0,0,0,0,0,0,0,0],"sum_hessian":[3.031E3,1.437E3,1.594E3,5.87E2,8.5E2,1.146E3,4.48E2,2.1E2,3.77E2,3.65E2,4.85E2,6.57E2,4.89E2,3E2,1.48E2,8.7E1,1.23E2,1.73E2,2.04E2,1.48E2,2.17E2,1.63E2,3.22E2,3.69E2,2.88E2,2.68E2,2.21E2,2.99E2,1E0,1.11E2,3.7E1],"tree_param":{"num_deleted":"0","num_feature":"31","num_nodes":"31","size_leaf_vector":"1"}},{"base_weights":[-1.1232751E-3,-1.898699E-2,9.4703816E-2,-1.5107019E-2,-3.9476314E-1,1.8990743E-1,4.9748093E-2,-5.2358717E-2,2.3539905E-2,-4.5342615E-1,-5.769322E-2,9.366108E-2,2.8747156E-1,-1.4168812E-1,7.121264E-2,-1.6586808E-3,-7.6343315E-3,3.1988968E-3,-2.51485E-3,-1.5370234E-2,-2.9895574E-2,4.905151E-3,-9.71292E-3,1.0631824E-2,-4.0621977E-4,1.1837121E-2,2.298694E-2,-4.0158085E-3,-2.3465391E-2,7.317123E-3,1.6544948E-3],"categories":[],"categories_nodes":[],"categories_segments":[],"categories_sizes":[],"default_left":[0,0,0,0,0,0,0,0,0,0,0,0,0,0,0,0,0,0,0,0,0,0,0,0,0,0,0,0,0,0,0],"id":1,"left_children":[1,3,5,7,9,11,13,15,17,19,21,23,25,27,29,-1,-1,-1,-1,-1,-1,-1,-1,-1,-1,-1,-1,-1,-1,-1,-1],"loss_changes":[5.174942E0,3.709022E0,2.0235276E0,3.633503E0,4.8795223E-1,1.400384E0,1.3414356E0,2.468304E0,3.7026472E0,2.803545E-1,1.2543905E-1,9.46305E-1,5.465832E-1,6.258267E-1,8.31491E-1,0E0,0E0,0E0,0E0,0E0,0E0,0E0,0E0,0E0,0E0,0E0,0E0,0E0,0E0,0E0,0E0],"parents":[2147483647,0,0,1,1,2,2,3,3,4,4,5,5,6,6,7,7,8,8,9,9,10,10,11,11,12,12,13,13,14,14],"right_children":[2,4,6,8,10,12,14,16,18,20,22,24,26,28,30,-1,-1,-1,-1,-1,-1,-1,-1,-1,-1,-1,-1,-1,-1,-1,-1],"split_conditions":[1.491373E0,2.3871293E0,-4.1510177E-1,1.1725312E-1,5.985403E-1,4.171342E-1,-6.812317E-1,7.9868275E-1,7.994278E-1,-3.4175825E-1,-6.8486583E-1,-7.7716625E-1,6.986337E-1,1.2245584E0,2.5366014E-1,-1.6586808E-3,-7.6343315E-3,3.1988968E-3,-2.51485E-3,-1.5370234E-2,-2.9895574E-2,4.905151E-3,-9.71292E-3,1.0631824E-2,-4.0621977E-4,1.1837121E-2,2.298694E-2,-4.0158085E-3,-2.3465391E-2,7.317123E-3,1.6544948E-3],"split_indices":[20,2,10,2,18,18,16,5,2,16,5,5,2,5,18,0,0,0,0,0,0,0,0,0,0,0,0,0,0,0,0],"split_type":[0,0,0,0,0,0,0,0,0,0,0,0,0,0,0,0,0,0,0,0,0,0,0,0,0,0,0,0,0,0,0],"sum_hessian":[3.021E3,2.547E3,4.74E2,2.522E3,2.5E1,1.51E2,3.23E2,1.284E3,1.238E3,2.1E1,4E0,7.7E1,7.4E1,3.2E1,2.91E2,1.079E3,2.05E2,8E2,4.38E2,1.2E1,9E0,2E0,2E0,3.5E1,4.2E1,5.9E1,1.5E1,2.8E1,4E0,9.7E1,1.94E2],"tree_param":{"num_deleted":"0","num_feature":"31","num_nodes":"31","size_leaf_vector":"1"}},{"base_weights":[2.5026104E-3,-3.525883E-1,3.1835783E-1,-6.316888E-1,-2.009547E-1,1.5756723E-1,5.933855E-1,-7.5937027E-1,-5.3714895E-1,-3.106729E-1,-1.13088734E-1,6.6064686E-2,2.6203E-1,5.048434E-1,8.994583E-1,-4.1386746E-2,-3.5002984E-2,-2.9446114E-2,-2.3431413E-2,-1.915594E-2,-1.3666217E-2,-8.732692E-3,-3.6590563E-3,1.4157597E-3,5.816491E-3,1.0034005E-2,1.4793961E-2,2.2248624E-2,2.924229E-2,4.0414866E-2,6.120183E-2],"categories":[],"categories_nodes":[],"categories_segments":[],"categories_sizes":[],"default_left":[0,0,0,0,0,0,0,0,0,0,0,0,0,0,0,0,0,0,0,0,0,0,0,0,0,0,0,0,0,0,0],"id":2,"left_children":[1,3,5,7,9,11,13,15,17,19,21,23,25,27,29,-1,-1,-1,-1,-1,-1,-1,-1,-1,-1,-1,-1,-1,-1,-1,-1],"loss_changes":[3.4140695E2,6.051906E1,7.114792E1,5.675888E0,8.930523E0,9.713354E0,1.5643509E1,2.8014374E-1,7.634506E-1,1.0127602E0,1.259901E0,1.0289369E0,9.2702866E-1,1.9574509E0,2.9163513E0,0E0,0E0,0E0,0E0,0E0,0E0,0E0,0E0,0E0,0E0,0E0,0E0,0E0,0E0,0E0,0E0],"parents":[2147483647,0,0,1,1,2,2,3,3,4,4,5,5,6,6,7,7,8,8,9,9,10,10,11,11,12,12,13,13,14,14],"right_children":[2,4,6,8,10,12,14,16,18,20,22,24,26,28,30,-1,-1,-1,-1,-1,-1,-1,-1,-1,-1,-1,-1,-1,-1,-1,-1],"split_conditions":[-3.0730143E-1,-4.926008E-1,2.2446771E-1,-5.3489685E-1,-4.203492E-1,-1.221798E-1,1.6251719E0,-5.496683E-1,-5.1266915E-1,-4.7179005E-1,-3.7898785E-1,-2.0719421E-1,-3.0833198E-2,6.644133E-1,4.138476E0,-4.1386746E-2,-3.5002984E-2,-2.9446114E-2,-2.3431413E-2,-1.915594E-2,-1.3666217E-2,-8.732692E-3,-3.6590563E-3,1.4157597E-3,5.816491E-3,1.0034005E-2,1.4793961E-2,2.2248624E-2,2.924229E-2,4.0414866E-2,6.120183E-2],"split_indices":[23,23,23,23,23,23,23,23,23,23,23,23,23,23,23,0,0,0,0,0,0,0,0,0,0,0,0,0,0,0,0],"split_type":[0,0,0,0,0,0,0,0,0,0,0,0,0,0,0,0,0,0,0,0,0,0,0,0,0,0,0,0,0,0,0],"sum_hessian":[3.042E3,1.432E3,1.61E3,5.03E2,9.29E2,1.017E3,5.93E2,2.11E2,2.92E2,4.12E2,5.17E2,5.43E2,4.74E2,4.62E2,1.31E2,9.2E1,1.19E2,1.62E2,1.3E2,1.37E2,2.75E2,2.02E2,3.15E2,3.11E2,2.32E2,1.71E2,3.03E2,2.68E2,1.94E2,1.05E2,2.6E1],"tree_param":{"num_deleted":"0","num_feature":"31","num_nodes":"31","size_leaf_vector":"1"}},{"base_weights":[1.5198378E-3,-1.8632509E-1,1.8764718E-1,-3.1586546E-1,-1.0247635E-1,1.12242036E-1,4.0221298E-1,-3.285885E-1,-1.2572916E-1,-6.867558E-2,-2.0402096E-1,5.8202215E-2,1.7043114E-1,3.3728176E-1,5.262102E-1,-1.7723246E-2,-1.1291284E-2,-1.1317302E-2,3.5055696E-3,-6.008241E-3,-4.235533E-4,-1.9460361E-3,-1.2367501E-2,4.073959E-3,-1.6822442E-3,1.0682906E-2,6.646366E-3,1.9445252E-2,1.0792508E-2,3.3877563E-2,1.9218815E-2],"categories":[],"categories_nodes":[],"categories_segments":[],"categories_sizes":[],"default_left":[0,0,0,0,0,0,0,0,0,0,0,0,0,0,0,0,0,0,0,0,0,0,0,0,0,0,0,0,0,0,0],"id":3,"left_children":[1,3,5,7,9,11,13,15,17,19,21,23,25,27,29,-1,-1,-1,-1,-1,-1,-1,-1,-1,-1,-1,-1,-1,-1,-1,-1],"loss_changes":[1.0663738E2,1.6455841E1,2.4741638E1,1.4004745E0,3.153988E0,3.5591202E0,3.0269318E0,1.4037476E0,7.8435904E-1,2.150302E0,1.6357107E0,1.2641152E0,8.567629E-1,1.5709896E0,2.6373787E0,0E0,0E0,0E0,0E0,0E0,0E0,0E0,0E0,0E0,0E0,0E0,0E0,0E0,0E0,0E0,0E0],"parents":[2147483647,0,0,1,1,2,2,3,3,4,4,5,5,6,6,7,7,8,8,9,9,10,10,11,11,12,12,13,13,14,14],"right_children":[2,4,6,8,10,12,14,16,18,20,22,24,26,28,30,-1,-1,-1,-1,-1,-1,-1,-1,-1,-1,-1,-1,-1,-1,-1,-1],"split_conditions":[-1.7846693E-1,-2.5825927E-1,1.5885022E-1,1.1472107E0,5.088132E-1,-8.428223E-2,7.659472E-1,3.7872657E-1,-2.7401757E-1,-2.1817718E-1,-9.6684235E-1,7.076427E-1,-3.279633E-1,1.570377E-1,-2.3756891E-1,-1.7723246E-2,-1.1291284E-2,-1.1317302E-2,3.5055696E-3,-6.008241E-3,-4.235533E-4,-1.9460361E-3,-1.2367501E-2,4.073959E-3,-1.6822442E-3,1.0682906E-2,6.646366E-3,1.9445252E-2,1.0792508E-2,3.3877563E-2,1.9218815E-2],"split_indices":[0,0,0,4,30,0,0,19,0,0,28,30,30,30,30,0,0,0,0,0,0,0,0,0,0,0,0,0,0,0,0],"split_type":[0,0,0,0,0,0,0,0,0,0,0,0,0,0,0,0,0,0,0,0,0,0,0,0,0,0,0,0,0,0,0],"sum_hessian":[3.048E3,1.517E3,1.531E3,5.95E2,9.22E2,1.134E3,3.97E2,5.57E2,3.8E1,6.93E2,2.29E2,5.89E2,5.45E2,2.63E2,1.34E2,4.43E2,1.14E2,2.5E1,1.3E1,3.73E2,3.2E2,4.8E1,1.81E2,4.7E2,1.19E2,2.51E2,2.94E2,1.83E2,8E1,6.3E1,7.1E1],"tree_param":{"num_deleted":"0","num_feature":"31","num_nodes":"31","size_leaf_vector":"1"}},{"base_weights":[-4.3634186E-3,2.7705992E-2,-3.8734518E-2,8.653946E-2,4.0751067E-3,-6.778375E-2,-1.1758422E-2,4.7484532E-2,1.9959143E-1,1.1580657E-2,-1.5812628E-1,-8.98304E-2,2.424895E-2,-4.856066E-2,2.3847226E-2,4.4111563E-3,-1.3629546E-3,7.2114505E-3,2.3732007E-2,3.94654E-4,1.6955862E-2,-1.068258E-2,8.004404E-3,-3.611392E-3,-1.0663533E-2,-8.970616E-3,2.4344919E-3,4.6097445E-3,-4.1910894E-3,-8.4982824E-4,5.5800406E-3],"categories":[],"categories_nodes":[],"categories_segments":[],"categories_sizes":[],"default_left":[0,0,0,0,0,0,0,0,0,0,0,0,0,0,0,0,0,0,0,0,0,0,0,0,0,0,0,0,0,0,0],"id":4,"left_children":[1,3,5,7,9,11,13,15,17,19,21,23,25,27,29,-1,-1,-1,-1,-1,-1,-1,-1,-1,-1,-1,-1,-1,-1,-1,-1],"loss_changes":[3.3684802E0,2.1976914E0,1.1550646E0,1.9906244E0,1.3762877E0,1.4427774E0,1.0048995E0,1.031598E0,1.697917E0,1.3017647E0,9.176507E-1,1.2296476E0,6.95653E-1,1.8788539E0,1.3997306E0,0E0,0E0,0E0,0E0,0E0,0E0,0E0,0E0,0E0,0E0,0E0,0E0,0E0,0E0,0E0,0E0],"parents":[2147483647,0,0,1,1,2,2,3,3,4,4,5,5,6,6,7,7,8,8,9,9,10,10,11,11,12,12,13,13,14,14],"right_children":[2,4,6,8,10,12,14,16,18,20,22,24,26,28,30,-1,-1,-1,-1,-1,-1,-1,-1,-1,-1,-1,-1,-1,-1,-1,-1],"split_conditions":[-1.9520915E-1,-6.276159E-1,1.9184184E-1,-3.3289355E-1,1.8869151E0,1.5547622E0,-1.578557E-1,-7.003556E-1,-3.8090327E-1,3.3770795E0,5.6794775E-1,1.1595017E0,-6.9071674E-1,-3.4115964E-1,9.319408E-1,4.4111563E-3,-1.3629546E-3,7.2114505E-3,2.3732007E-2,3.94654E-4,1.6955862E-2,-1.068258E-2,8.004404E-3,-3.611392E-3,-1.0663533E-2,-8.970616E-3,2.4344919E-3,4.6097445E-3,-4.1910894E-3,-8.4982824E-4,5.5800406E-3],"split_indices":[5,29,16,12,29,5,13,5,5,22,4,5,13,12,22,0,0,0,0,0,0,0,0,0,0,0,0,0,0,0,0],"split_type":[0,0,0,0,0,0,0,0,0,0,0,0,0,0,0,0,0,0,0,0,0,0,0,0,0,0,0,0,0,0,0],"sum_hessian":[3.054E3,1.58E3,1.474E3,4.52E2,1.128E3,7.09E2,7.65E2,3.37E2,1.15E2,1.079E3,4.9E1,5.72E2,1.37E2,3.76E2,3.89E2,2.18E2,1.19E2,9.7E1,1.8E1,1.068E3,1.1E1,4.2E1,7E0,5.02E2,7E1,1.4E1,1.23E2,7.5E1,3.01E2,2.66E2,1.23E2],"tree_param":{"num_deleted":"0","num_feature":"31","num_nodes":"31","size_leaf_vector":"1"}},{"base_weights":[3.4366047E-3,3.595615E-2,-9.735244E-2,5.0010115E-2,-5.7747424E-2,-2.8202506E-2,-1.3257022E-1,7.741546E-2,4.2197504E-3,3.9168105E-1,-6.973956E-2,-1.6038786E-1,-6.2443623E-3,2.903855E-2,-1.4726116E-1,5.6821574E-4,4.601273E-3,-3.6268277E-4,8.848171E-3,-4.791683E-3,2.3750827E-2,-5.1783333E-3,3.2238015E-3,-5.4985983E-5,-1.4388169E-2,-4.803727E-3,1.3459771E-3,7.479548E-3,-4.9318615E-3,-6.9227587E-3,-2.2967165E-2],"categories":[],"categories_nodes":[],"categories_segments":[],"categories_sizes":[],"default_left":[0,0,0,0,0,0,0,0,0,0,0,0,0,0,0,0,0,0,0,0,0,0,0,0,0,0,0,0,0,0,0],"id":5,"left_children":[1,3,5,7,9,11,13,15,17,19,21,23,25,27,29,-1,-1,-1,-1,-1,-1,-1,-1,-1,-1,-1,-1,-1,-1,-1,-1],"loss_changes":[1.0023166E1,3.0475764E0,1.8130012E0,2.5232792E0,1.6549772E0,7.333424E-1,1.1771231E0,1.2129316E0,1.4956801E0,3.7054074E-1,1.346014E0,7.3010224E-1,6.520342E-1,6.612034E-1,1.1813326E0,0E0,0E0,0E0,0E0,0E0,0E0,0E0,0E0,0E0,0E0,0E0,0E0,0E0,0E0,0E0,0E0],"parents":[2147483647,0,0,1,1,2,2,3,3,4,4,5,5,6,6,7,7,8,8,9,9,10,10,11,11,12,12,13,13,14,14],"right_children":[2,4,6,8,10,12,14,16,18,20,22,24,26,28,30,-1,-1,-1,-1,-1,-1,-1,-1,-1,-1,-1,-1,-1,-1,-1,-1],"split_conditions":[5.088132E-1,9.403002E-1,-2.532972E-3,-3.107718E-1,-2.835915E-1,6.4377695E-1,-8.438247E-1,-5.3653395E-1,2.5368044E0,-1.2758783E-1,2.4338481E0,-2.6892984E-1,-4.247052E-1,4.291706E-2,3.365883E0,5.6821574E-4,4.601273E-3,-3.6268277E-4,8.848171E-3,-4.791683E-3,2.3750827E-2,-5.1783333E-3,3.2238015E-3,-5.4985983E-5,-1.4388169E-2,-4.803727E-3,1.3459771E-3,7.479548E-3,-4.9318615E-3,-6.9227587E-3,-2.2967165E-2],"split_indices":[30,9,3,30,5,30,9,11,20,3,5,11,3,3,30,0,0,0,0,0,0,0,0,0,0,0,0,0,0,0,0],"split_type":[0,0,0,0,0,0,0,0,0,0,0,0,0,0,0,0,0,0,0,0,0,0,0,0,0,0,0,0,0,0,0],"sum_hessian":[3.056E3,2.311E3,7.45E2,2.01E3,3.01E2,2.52E2,4.93E2,1.257E3,7.53E2,7E0,2.94E2,3.5E1,2.17E2,4.1E1,4.52E2,2.28E2,1.029E3,7.07E2,4.6E1,1E0,6E0,2.35E2,5.9E1,1.6E1,1.9E1,5.8E1,1.59E2,2.1E1,2E1,4.41E2,1.1E1],"tree_param":{"num_deleted":"0","num_feature":"31","num_nodes":"31","size_leaf_vector":"1"}},{"base_weights":[7.489178E-3,-2.2389439E-1,1.4631537E-1,-4.4989145E-1,-1.7386305E-1,6.7857005E-2,3.8154763E-1,-4.622679E-1,3.9702695E-2,-2.2612493E-1,-1.2490643E-1,2.282769E-2,1.5939997E-1,3.110778E-1,5.336422E-1,-2.3328125E-2,9.916234E-3,-4.6750098E-3,1.0203616E-2,-1.3401277E-2,-7.374485E-3,-4.3259203E-3,-8.537664E-3,1.8182378E-3,-2.9579885E-3,6.438594E-3,1.3571811E-2,1.1686269E-2,1.961681E-2,3.2173667E-2,1.9667555E-2],"categories":[],"categories_nodes":[],"categories_segments":[],"categories_sizes":[],"default_left":[0,0,0,0,0,0,0,0,0,0,0,0,0,0,0,0,0,0,0,0,0,0,0,0,0,0,0,0,0,0,0],"id":6,"left_children":[1,3,5,7,9,11,13,15,17,19,21,23,25,27,29,-1,-1,-1,-1,-1,-1,-1,-1,-1,-1,-1,-1,-1,-1,-1,-1],"loss_changes":[9.7651825E1,1.2811684E1,3.504039E1,1.2665977E0,2.3640156E0,5.8745E0,4.925087E0,6.627617E-1,1.5044785E-1,1.4464512E0,8.388119E-1,1.0642965E0,1.5778313E0,1.9636707E0,2.0427284E0,0E0,0E0,0E0,0E0,0E0,0E0,0E0,0E0,0E0,0E0,0E0,0E0,0E0,0E0,0E0,0E0],"parents":[2147483647,0,0,1,1,2,2,3,3,4,4,5,5,6,6,7,7,8,8,9,9,10,10,11,11,12,12,13,13,14,14],"right_children":[2,4,6,8,10,12,14,16,18,20,22,24,26,28,30,-1,-1,-1,-1,-1,-1,-1,-1,-1,-1,-1,-1,-1,-1,-1,-1],"split_conditions":[-2.4444953E-1,-3.25145E-1,1.0635167E-1,3.6114125E0,-2.872375E-1,-1.0264574E-1,8.161176E-1,2.6481576E0,-4.952722E-1,2.5632456E-1,1.0405118E-2,8.579678E-1,5.488696E-1,5.7314564E-2,-9.824098E-2,-2.3328125E-2,9.916234E-3,-4.6750098E-3,1.0203616E-2,-1.3401277E-2,-7.374485E-3,-4.3259203E-3,-8.537664E-3,1.8182378E-3,-2.9579885E-3,6.438594E-3,1.3571811E-2,1.1686269E-2,1.961681E-2,3.2173667E-2,1.9667555E-2],"split_indices":[1,1,1,7,1,1,1,18,29,15,18,9,28,15,29,0,0,0,0,0,0,0,0,0,0,0,0,0,0,0,0],"split_type":[0,0,0,0,0,0,0,0,0,0,0,0,0,0,0,0,0,0,0,0,0,0,0,0,0,0,0,0,0,0,0],"sum_hessian":[3.038E3,1.139E3,1.899E3,2.05E2,9.34E2,1.425E3,4.74E2,2E2,5E0,4.5E2,4.84E2,9.56E2,4.69E2,3.26E2,1.48E2,1.99E2,1E0,3E0,2E0,2.92E2,1.58E2,2.65E2,2.19E2,8.21E2,1.35E2,3.7E2,9.9E1,1.69E2,1.57E2,8.1E1,6.7E1],"tree_param":{"num_deleted":"0","num_feature":"31","num_nodes":"31","size_leaf_vector":"1"}},{"base_weights":[-3.8499413E-3,-1.7993075E-1,1.6514508E-1,-3.9042926E-1,-1.285937E-1,9.9734075E-2,4.2032498E-1,-4.31974E-1,-3.0160153E-1,-1.6471562E-1,-3.8021617E-2,2.6807819E-2,1.5991503E-1,3.3248812E-1,5.274703E-1,-1.4863958E-2,-2.295362E-2,-4.1611134E-3,-1.8042406E-2,-9.170575E-3,-3.6884807E-3,-1.2956864E-3,-9.969472E-3,1.9959037E-4,7.1281143E-3,6.585195E-3,1.3779369E-2,2.3242606E-2,1.323192E-2,2.7996732E-2,9.532913E-3],"categories":[],"categories_nodes":[],"categories_segments":[],"categories_sizes":[],"default_left":[0,0,0,0,0,0,0,0,0,0,0,0,0,0,0,0,0,0,0,0,0,0,0,0,0,0,0,0,0,0,0],"id":7,"left_children":[1,3,5,7,9,11,13,15,17,19,21,23,25,27,29,-1,-1,-1,-1,-1,-1,-1,-1,-1,-1,-1,-1,-1,-1,-1,-1],"loss_changes":[9.126401E1,1.6180962E1,2.6080395E1,9.5467377E-1,3.9491482E0,5.4685106E0,2.826828E0,5.8623123E-1,1.2249775E0,1.4555416E0,6.708561E-1,1.4916272E0,2.192503E0,1.4755745E0,1.4459267E0,0E0,0E0,0E0,0E0,0E0,0E0,0E0,0E0,0E0,0E0,0E0,0E0,0E0,0E0,0E0,0E0],"parents":[2147483647,0,0,1,1,2,2,3,3,4,4,5,5,6,6,7,7,8,8,9,9,10,10,11,11,12,12,13,13,14,14],"right_children":[2,4,6,8,10,12,14,16,18,20,22,24,26,28,30,-1,-1,-1,-1,-1,-1,-1,-1,-1,-1,-1,-1,-1,-1,-1,-1],"split_conditions":[-2.0828657E-1,-3.1854105E-1,2.5071853E-1,-3.25145E-1,-2.0305684E-1,-1.0077507E-1,8.161176E-1,-2.5993294E-1,-5.617173E-1,-2.4639957E-1,9.608601E-1,3.329996E-1,1.5885022E-1,-3.7195122E-1,8.136702E-1,-1.4863958E-2,-2.295362E-2,-4.1611134E-3,-1.8042406E-2,-9.170575E-3,-3.6884807E-3,-1.2956864E-3,-9.969472E-3,1.9959037E-4,7.1281143E-3,6.585195E-3,1.3779369E-2,2.3242606E-2,1.323192E-2,2.7996732E-2,9.532913E-3],"split_indices":[1,1,1,1,0,0,1,3,11,1,12,3,0,11,11,0,0,0,0,0,0,0,0,0,0,0,0,0,0,0,0],"split_type":[0,0,0,0,0,0,0,0,0,0,0,0,0,0,0,0,0,0,0,0,0,0,0,0,0,0,0,0,0,0,0],"sum_hessian":[3.065E3,1.501E3,1.564E3,2.93E2,1.208E3,1.246E3,3.18E2,1.97E2,9.6E1,8.63E2,3.45E2,5.64E2,6.82E2,1.77E2,1.41E2,3.5E1,1.62E2,2.1E1,7.5E1,7.15E2,1.48E2,3.22E2,2.3E1,4.72E2,9.2E1,5.5E2,1.32E2,5.8E1,1.19E2,1.28E2,1.3E1],"tree_param":{"num_deleted":"0","num_feature":"31","num_nodes":"31","size_leaf_vector":"1"}},{"base_weights":[-4.3782503E-3,-3.1567156E-1,2.765241E-1,-5.279978E-1,-1.5301195E-1,1.6579217E-1,5.8142567E-1,-6.886595E-1,-4.428989E-1,-2.5063524E-1,-9.291586E-2,5.5421416E-2,2.6093E-1,4.966354E-1,8.1339294E-1,-3.6840033E-2,-3.0584252E-2,-2.5334572E-2,-1.910383E-2,-1.0326351E-2,-1.3232194E-2,-7.116095E-3,-3.2458503E-3,1.4580673E-3,5.561312E-3,1.0489228E-2,1.5415288E-2,2.5307406E-2,1.0673421E-2,3.6702853E-2,5.4596104E-2],"categories":[],"categories_nodes":[],"categories_segments":[],"categories_sizes":[],"default_left":[0,0,0,0,0,0,0,0,0,0,0,0,0,0,0,0,0,0,0,0,0,0,0,0,0,0,0,0,0,0,0],"id":8,"left_children":[1,3,5,7,9,11,13,15,17,19,21,23,25,27,29,-1,-1,-1,-1,-1,-1,-1,-1,-1,-1,-1,-1,-1,-1,-1,-1],"loss_changes":[2.6748804E2,5.003224E1,5.4193443E1,8.294769E0,4.805071E0,1.2386555E1,8.014206E0,3.4973145E-1,1.4127274E0,1.3874435E-1,6.9763374E-1,7.9981697E-1,1.4715385E0,7.431488E-1,1.6954651E0,0E0,0E0,0E0,0E0,0E0,0E0,0E0,0E0,0E0,0E0,0E0,0E0,0E0,0E0,0E0,0E0],"parents":[2147483647,0,0,1,1,2,2,3,3,4,4,5,5,6,6,7,7,8,8,9,9,10,10,11,11,12,12,13,13,14,14],"right_children":[2,4,6,8,10,12,14,16,18,20,22,24,26,28,30,-1,-1,-1,-1,-1,-1,-1,-1,-1,-1,-1,-1,-1,-1,-1,-1],"split_conditions":[-3.0730143E-1,-4.7441435E-1,4.0398344E-1,-5.3489685E-1,-4.1596073E-1,-1.221798E-1,1.7657726E0,-5.4552275E-1,-5.0786316E-1,-2.9482973E-1,-3.7898785E-1,-1.8888453E-1,6.1947767E-2,2.8209844E0,4.138476E0,-3.6840033E-2,-3.0584252E-2,-2.5334572E-2,-1.910383E-2,-1.0326351E-2,-1.3232194E-2,-7.116095E-3,-3.2458503E-3,1.4580673E-3,5.561312E-3,1.0489228E-2,1.5415288E-2,2.5307406E-2,1.0673421E-2,3.6702853E-2,5.4596104E-2],"split_indices":[23,23,23,23,23,23,23,23,23,1,23,23,23,1,23,0,0,0,0,0,0,0,0,0,0,0,0,0,0,0,0],"split_type":[0,0,0,0,0,0,0,0,0,0,0,0,0,0,0,0,0,0,0,0,0,0,0,0,0,0,0,0,0,0,0],"sum_hessian":[3.057E3,1.45E3,1.607E3,6.28E2,8.22E2,1.18E3,4.27E2,2.15E2,4.13E2,3.12E2,5.1E2,5.47E2,6.33E2,3.15E2,1.12E2,1.27E2,8.8E1,1.98E2,2.15E2,7.9E1,2.33E2,1.83E2,3.27E2,3.73E2,1.74E2,3.07E2,3.26E2,3.04E2,1.1E1,9E1,2.2E1],"tree_param":{"num_deleted":"0","num_feature":"31","num_nodes":"31","size_leaf_vector":"1"}},{"base_weights":[3.974904E-3,-1.438572E-2,6.373792E-2,-2.6795696E-3,-1.075726E-1,1.0684728E-1,4.0345546E-3,-3.9961122E-2,4.689193E-2,-8.688111E-2,-3.2652727E-1,2.6376542E-1,9.12049E-2,-1.5112017E-1,3.4925796E-2,1.0919925E-2,-2.3682963E-3,6.2003196E-3,1.4337864E-3,4.7752584E-4,-6.3968087E-3,1.0492617E-2,-1.8103106E-2,1.5389285E-2,-8.8174E-3,-2.7373373E-3,5.312877E-3,4.8064403E-4,-1.2091647E-2,3.398173E-2,1.219322E-3],"categories":[],"categories_nodes":[],"categories_segments":[],"categories_sizes":[],"default_left":[0,0,0,0,0,0,0,0,0,0,0,0,0,0,0,0,0,0,0,0,0,0,0,0,0,0,0,0,0,0,0],"id":9,"left_children":[1,3,5,7,9,11,13,15,17,19,21,23,25,27,29,-1,-1,-1,-1,-1,-1,-1,-1,-1,-1,-1,-1,-1,-1,-1,-1],"loss_changes":[3.3289864E0,2.5315967E0,1.8346696E0,3.8145094E0,1.14503E0,9.9213696E-1,1.4431547E0,2.2639792E0,1.2410375E0,9.4346535E-1,4.953034E-1,7.711115E-1,8.3626676E-1,7.313515E-1,1.688925E0,0E0,0E0,0E0,0E0,0E0,0E0,0E0,0E0,0E0,0E0,0E0,0E0,0E0,0E0,0E0,0E0],"parents":[2147483647,0,0,1,1,2,2,3,3,4,4,5,5,6,6,7,7,8,8,9,9,10,10,11,11,12,12,13,13,14,14],"right_children":[2,4,6,8,10,12,14,16,18,20,22,24,26,28,30,-1,-1,-1,-1,-1,-1,-1,-1,-1,-1,-1,-1,-1,-1,-1,-1],"split_conditions":[3.7872657E-1,1.0435109E0,-4.252818E-1,1.1725312E-1,2.3871293E0,-1.6069593E0,-4.8423538E-1,-2.2798345E0,-2.866857E-1,-8.105368E-2,-1.4216784E0,-4.677579E-1,-3.2811433E-1,-7.599597E-1,-4.820737E-1,1.0919925E-2,-2.3682963E-3,6.2003196E-3,1.4337864E-3,4.7752584E-4,-6.3968087E-3,1.0492617E-2,-1.8103106E-2,1.5389285E-2,-8.8174E-3,-2.7373373E-3,5.312877E-3,4.8064403E-4,-1.2091647E-2,3.398173E-2,1.219322E-3],"split_indices":[19,2,7,2,2,2,14,2,3,3,29,7,3,29,14,0,0,0,0,0,0,0,0,0,0,0,0,0,0,0,0],"split_type":[0,0,0,0,0,0,0,0,0,0,0,0,0,0,0,0,0,0,0,0,0,0,0,0,0,0,0,0,0,0,0],"sum_hessian":[3.032E3,2.32E3,7.12E2,2.062E3,2.58E2,4.13E2,2.99E2,1.177E3,8.85E2,2.37E2,2.1E1,3.6E1,3.77E2,4.9E1,2.5E2,3.2E1,1.145E3,1.68E2,7.17E2,7.1E1,1.66E2,1E0,2E1,3.3E1,3E0,3.5E1,3.42E2,1.8E1,3.1E1,3E0,2.47E2],"tree_param":{"num_deleted":"0","num_feature":"31","num_nodes":"31","size_leaf_vector":"1"}},{"base_weights":[5.1483046E-3,-2.937785E-1,2.7177578E-1,-5.1261646E-1,-1.4941636E-1,1.3158405E-1,4.8507637E-1,-6.540596E-1,-4.3126735E-1,-2.396925E-1,-9.073599E-2,7.447507E-2,2.2561656E-1,4.1411772E-1,7.7186596E-1,-3.420376E-2,-2.801535E-2,-2.4858274E-2,-1.8846793E-2,-1.565079E-2,-1.1480295E-2,-6.9653443E-3,-3.234443E-3,1.556082E-3,5.680041E-3,9.940929E-3,1.26634585E-2,1.7546568E-2,2.4052255E-2,-4.5247367E-3,3.933724E-2],"categories":[],"categories_nodes":[],"categories_segments":[],"categories_sizes":[],"default_left":[0,0,0,0,0,0,0,0,0,0,0,0,0,0,0,0,0,0,0,0,0,0,0,0,0,0,0,0,0,0,0],"id":10,"left_children":[1,3,5,7,9,11,13,15,17,19,21,23,25,27,29,-1,-1,-1,-1,-1,-1,-1,-1,-1,-1,-1,-1,-1,-1,-1,-1],"loss_changes":[2.4006287E2,4.4783936E1,4.754171E1,6.2074585E0,4.518152E0,5.149233E0,1.2521347E1,1.9076538E-1,1.1051025E0,1.7737007E-1,6.5012264E-1,1.0142055E0,2.1864128E-1,1.9794617E0,1.6622162E0,0E0,0E0,0E0,0E0,0E0,0E0,0E0,0E0,0E0,0E0,0E0,0E0,0E0,0E0,0E0,0E0],"parents":[2147483647,0,0,1,1,2,2,3,3,4,4,5,5,6,6,7,7,8,8,9,9,10,10,11,11,12,12,13,13,14,14],"right_children":[2,4,6,8,10,12,14,16,18,20,22,24,26,28,30,-1,-1,-1,-1,-1,-1,-1,-1,-1,-1,-1,-1,-1,-1,-1,-1],"split_conditions":[-3.0345482E-1,-4.7942916E-1,1.669344E-1,-5.3489685E-1,-4.1596073E-1,-8.37268E-2,1.7657726E0,-5.4237777E-1,-5.1266915E-1,-4.7441435E-1,-3.7898785E-1,-2.0719421E-1,-2.915158E-1,5.50009E-1,-1.4022626E0,-3.420376E-2,-2.801535E-2,-2.4858274E-2,-1.8846793E-2,-1.565079E-2,-1.1480295E-2,-6.9653443E-3,-3.234443E-3,1.556082E-3,5.680041E-3,9.940929E-3,1.26634585E-2,1.7546568E-2,2.4052255E-2,-4.5247367E-3,3.933724E-2],"split_indices":[23,23,23,23,23,23,23,23,23,23,23,23,14,23,30,0,0,0,0,0,0,0,0,0,0,0,0,0,0,0,0],"split_type":[0,0,0,0,0,0,0,0,0,0,0,0,0,0,0,0,0,0,0,0,0,0,0,0,0,0,0,0,0,0,0],"sum_hessian":[3.01E3,1.419E3,1.591E3,5.63E2,8.56E2,9.61E2,6.3E2,2.03E2,3.6E2,3.36E2,5.2E2,5.99E2,3.62E2,5.07E2,1.23E2,1.49E2,5.4E1,1.59E2,2.01E2,3.7E1,2.99E2,1.8E2,3.4E2,2.85E2,3.14E2,1.88E2,1.74E2,2.64E2,2.43E2,2E0,1.21E2],"tree_param":{"num_deleted":"0","num_feature":"31","num_nodes":"31","size_leaf_vector":"1"}},{"base_weights":[-1.8973039E-3,-1.5418287E-1,1.4312376E-1,-3.5337216E-1,-1.17160484E-1,6.6159904E-2,3.0147505E-1,-2.5670803E-1,-4.019232E-1,-1.582598E-1,-3.3480436E-2,4.077491E-2,1.4629899E-1,2.4663496E-1,4.6025744E-1,-8.3723245E-3,-1.8938197E-2,4.7255532E-4,-2.0513467E-2,-8.335799E-3,5.0643533E-3,-4.067637E-3,6.703397E-4,2.7121801E-3,-2.1795714E-3,9.02826E-3,2.4749914E-3,8.643821E-3,1.49009405E-2,1.5021138E-2,2.7563268E-2],"categories":[],"categories_nodes":[],"categories_segments":[],"categories_sizes":[],"default_left":[0,0,0,0,0,0,0,0,0,0,0,0,0,0,0,0,0,0,0,0,0,0,0,0,0,0,0,0,0,0,0],"id":11,"left_children":[1,3,5,7,9,11,13,15,17,19,21,23,25,27,29,-1,-1,-1,-1,-1,-1,-1,-1,-1,-1,-1,-1,-1,-1,-1,-1],"loss_changes":[6.68722E1,1.08506775E1,1.8882597E1,9.809418E-1,4.283373E0,2.1199093E0,4.301258E0,8.081689E-1,5.257511E-1,1.8517189E0,9.2586565E-1,9.057263E-1,8.236141E-1,1.3848877E0,1.7108498E0,0E0,0E0,0E0,0E0,0E0,0E0,0E0,0E0,0E0,0E0,0E0,0E0,0E0,0E0,0E0,0E0],"parents":[2147483647,0,0,1,1,2,2,3,3,4,4,5,5,6,6,7,7,8,8,9,9,10,10,11,11,12,12,13,13,14,14],"right_children":[2,4,6,8,10,12,14,16,18,20,22,24,26,28,30,-1,-1,-1,-1,-1,-1,-1,-1,-1,-1,-1,-1,-1,-1,-1,-1],"split_conditions":[-2.0828657E-1,-3.2363725E-1,7.2771184E-2,-6.2862563E-1,-2.5207543E-1,-4.9280632E-2,8.623547E-1,7.837244E-2,-7.477729E-1,1.737366E0,3.4313455E-2,9.0028816E-1,-3.465113E-2,-3.279885E-1,-4.0941107E-1,-8.3723245E-3,-1.8938197E-2,4.7255532E-4,-2.0513467E-2,-8.335799E-3,5.0643533E-3,-4.067637E-3,6.703397E-4,2.7121801E-3,-2.1795714E-3,9.02826E-3,2.4749914E-3,8.643821E-3,1.49009405E-2,1.5021138E-2,2.7563268E-2],"split_indices":[1,1,1,28,1,1,1,3,11,2,2,9,12,28,28,0,0,0,0,0,0,0,0,0,0,0,0,0,0,0,0],"split_type":[0,0,0,0,0,0,0,0,0,0,0,0,0,0,0,0,0,0,0,0,0,0,0,0,0,0,0,0,0,0,0],"sum_hessian":[3.026E3,1.476E3,1.55E3,2.3E2,1.246E3,1.044E3,5.06E2,7.9E1,1.51E2,8.35E2,4.11E2,7.94E2,2.5E2,3.78E2,1.28E2,4.7E1,3.2E1,3E0,1.48E2,8.09E2,2.6E1,2.03E2,2.08E2,6.85E2,1.09E2,1.84E2,6.6E1,1.57E2,2.21E2,4.8E1,8E1],"tree_param":{"num_deleted":"0","num_feature":"31","num_nodes":"31","size_leaf_vector":"1"}},{"base_weights":[-1.3471975E-3,-2.798059E-1,2.5289097E-1,-4.8072502E-1,-1.4049128E-1,1.551376E-1,5.189016E-1,-6.1118746E-1,-4.024181E-1,-2.2045769E-1,-8.390647E-2,7.0903406E-2,2.4899219E-1,4.3202987E-1,7.4958104E-1,-3.296623E-2,-2.7349517E-2,-2.3162993E-2,-1.7658334E-2,-1.2172595E-2,-9.410378E-3,-5.7032234E-3,-2.2181177E-3,1.4830922E-3,5.448454E-3,9.730389E-3,1.4534242E-2,1.950941E-2,2.5004283E-2,3.31533E-2,5.1177688E-2],"categories":[],"categories_nodes":[],"categories_segments":[],"categories_sizes":[],"default_left":[0,0,0,0,0,0,0,0,0,0,0,0,0,0,0,0,0,0,0,0,0,0,0,0,0,0,0,0,0,0,0],"id":12,"left_children":[1,3,5,7,9,11,13,15,17,19,21,23,25,27,29,-1,-1,-1,-1,-1,-1,-1,-1,-1,-1,-1,-1,-1,-1,-1,-1],"loss_changes":[2.1641977E2,4.077128E1,4.1473E1,5.853058E0,3.8864746E0,9.232092E0,8.273117E0,3.2539368E-1,9.630966E-1,2.1892166E-1,5.995734E-1,9.669583E-1,1.1973152E0,6.9900894E-1,2.070839E0,0E0,0E0,0E0,0E0,0E0,0E0,0E0,0E0,0E0,0E0,0E0,0E0,0E0,0E0,0E0,0E0],"parents":[2147483647,0,0,1,1,2,2,3,3,4,4,5,5,6,6,7,7,8,8,9,9,10,10,11,11,12,12,13,13,14,14],"right_children":[2,4,6,8,10,12,14,16,18,20,22,24,26,28,30,-1,-1,-1,-1,-1,-1,-1,-1,-1,-1,-1,-1,-1,-1,-1,-1],"split_conditions":[-3.0345482E-1,-4.7942916E-1,4.0398344E-1,-5.3489685E-1,-4.1428047E-1,-8.37268E-2,1.7657726E0,-5.4702044E-1,-5.1266915E-1,-4.4327798E-1,-3.5489509E-1,-2.0719421E-1,7.098832E-2,9.454109E-1,4.138476E0,-3.296623E-2,-2.7349517E-2,-2.3162993E-2,-1.7658334E-2,-1.2172595E-2,-9.410378E-3,-5.7032234E-3,-2.2181177E-3,1.4830922E-3,5.448454E-3,9.730389E-3,1.4534242E-2,1.950941E-2,2.5004283E-2,3.31533E-2,5.1177688E-2],"split_indices":[23,23,23,23,23,23,23,23,23,23,23,23,23,23,23,0,0,0,0,0,0,0,0,0,0,0,0,0,0,0,0],"split_type":[0,0,0,0,0,0,0,0,0,0,0,0,0,0,0,0,0,0,0,0,0,0,0,0,0,0,0,0,0,0,0],"sum_hessian":[3.055E3,1.458E3,1.597E3,5.96E2,8.62E2,1.169E3,4.28E2,2.21E2,3.75E2,3.56E2,5.06E2,6.17E2,5.52E2,3.13E2,1.15E2,1.21E2,1E2,1.64E2,2.11E2,2.04E2,1.52E2,2.86E2,2.2E2,2.97E2,3.2E2,2.42E2,3.1E2,1.98E2,1.15E2,9E1,2.5E1],"tree_param":{"num_deleted":"0","num_feature":"31","num_nodes":"31","size_leaf_vector":"1"}},{"base_weights":[-5.7157506E-3,-1.2767646E-1,1.2896718E-1,-2.2753088E-1,-6.618401E-2,7.856054E-2,2.6038164E-1,-2.746854E-1,-1.9113556E-1,-4.3656673E-2,-1.3349915E-1,9.87384E-2,5.96487E-3,3.4530026E-1,1.7331192E-1,-1.1597898E-2,-1.6789107E-2,-1.5383029E-2,-8.682068E-3,-1.2146445E-3,-4.5285528E-3,-9.379139E-3,-2.8405215E-3,3.5525921E-3,7.4954364E-3,1.3676143E-2,-7.7087636E-4,1.6096056E-2,3.8099367E-2,4.274595E-3,1.4093985E-2],"categories":[],"categories_nodes":[],"categories_segments":[],"categories_sizes":[],"default_left":[0,0,0,0,0,0,0,0,0,0,0,0,0,0,0,0,0,0,0,0,0,0,0,0,0,0,0,0,0,0,0],"id":13,"left_children":[1,3,5,7,9,11,13,15,17,19,21,23,25,27,29,-1,-1,-1,-1,-1,-1,-1,-1,-1,-1,-1,-1,-1,-1,-1,-1],"loss_changes":[5.0050137E1,9.80327E0,9.571331E0,9.9266434E-1,1.4969544E0,1.5345483E0,2.9050846E0,6.08675E-1,6.5394115E-1,6.736791E-1,1.0179496E0,1.1510663E0,1.3143331E0,1.7225399E0,1.8827858E0,0E0,0E0,0E0,0E0,0E0,0E0,0E0,0E0,0E0,0E0,0E0,0E0,0E0,0E0,0E0,0E0],"parents":[2147483647,0,0,1,1,2,2,3,3,4,4,5,5,6,6,7,7,8,8,9,9,10,10,11,11,12,12,13,13,14,14],"right_children":[2,4,6,8,10,12,14,16,18,20,22,24,26,28,30,-1,-1,-1,-1,-1,-1,-1,-1,-1,-1,-1,-1,-1,-1,-1,-1],"split_conditions":[-1.655814E-1,-2.5825927E-1,1.5885022E-1,-2.8152135E-1,4.4506517E-1,6.061127E-1,-1.6924112E-1,-1.9897562E-1,-1.3816893E0,2.6128137E-1,-5.926544E-2,-3.750943E-2,-6.562009E-1,3.5988376E0,-2.2698455E-2,-1.1597898E-2,-1.6789107E-2,-1.5383029E-2,-8.682068E-3,-1.2146445E-3,-4.5285528E-3,-9.379139E-3,-2.8405215E-3,3.5525921E-3,7.4954364E-3,1.3676143E-2,-7.7087636E-4,1.6096056E-2,3.8099367E-2,4.274595E-3,1.4093985E-2],"split_indices":[0,0,0,0,30,30,5,8,15,5,15,0,11,0,15,0,0,0,0,0,0,0,0,0,0,0,0,0,0,0,0],"split_type":[0,0,0,0,0,0,0,0,0,0,0,0,0,0,0,0,0,0,0,0,0,0,0,0,0,0,0,0,0,0,0],"sum_hessian":[3.045E3,1.598E3,1.447E3,6.08E2,9.9E2,1.047E3,4E2,2.62E2,3.46E2,7.43E2,2.47E2,8.19E2,2.28E2,2.01E2,1.99E2,1.57E2,1.05E2,4.3E1,3.03E2,5.27E2,2.16E2,1.44E2,1.03E2,5.33E2,2.86E2,1.6E1,2.12E2,1.92E2,9E0,1.11E2,8.8E1],"tree_param":{"num_deleted":"0","num_feature":"31","num_nodes":"31","size_leaf_vector":"1"}},{"base_weights":[-5.399502E-3,-1.1608566E-1,1.3477404E-1,-2.882216E-1,-8.428308E-2,8.018563E-2,2.9510248E-1,-3.0086473E-1,-7.265881E-2,-1.291032E-1,-1.9085446E-2,3.7076842E-2,1.4053173E-1,3.12421E-1,-1.3172425E-1,-1.7116895E-2,-1.1419752E-2,3.8942948E-3,-1.3867142E-2,-4.683742E-3,-8.24906E-3,2.1367902E-3,-1.7782756E-3,5.0356896E-3,5.660473E-4,6.331743E-3,1.5496671E-2,1.5939338E-2,-2.4173202E-2,-1.6589686E-2,1.4737979E-2],"categories":[],"categories_nodes":[],"categories_segments":[],"categories_sizes":[],"default_left":[0,0,0,0,0,0,0,0,0,0,0,0,0,0,0,0,0,0,0,0,0,0,0,0,0,0,0,0,0,0,0],"id":14,"left_children":[1,3,5,7,9,11,13,15,17,19,21,23,25,27,29,-1,-1,-1,-1,-1,-1,-1,-1,-1,-1,-1,-1,-1,-1,-1,-1],"loss_changes":[4.7259647E1,9.293076E0,1.1739128E1,7.00367E-1,4.1996098E0,2.6066437E0,2.561823E0,6.731987E-1,5.146267E-1,1.067522E0,5.995662E-1,9.609684E-1,9.44787E-1,1.8159065E0,1.292369E0,0E0,0E0,0E0,0E0,0E0,0E0,0E0,0E0,0E0,0E0,0E0,0E0,0E0,0E0,0E0,0E0],"parents":[2147483647,0,0,1,1,2,2,3,3,4,4,5,5,6,6,7,7,8,8,9,9,10,10,11,11,12,12,13,13,14,14],"right_children":[2,4,6,8,10,12,14,16,18,20,22,24,26,28,30,-1,-1,-1,-1,-1,-1,-1,-1,-1,-1,-1,-1,-1,-1,-1,-1],"split_conditions":[-1.7595701E-1,-3.2028687E-1,2.2198035E-1,1.9548666E0,-2.4639957E-1,-4.9280632E-2,2.4139845E0,-3.2829887E-1,-7.559665E-1,-2.9873917E-1,-7.8883004E-1,-4.3942448E-1,2.5368044E0,2.9721942E0,8.161176E-1,-1.7116895E-2,-1.1419752E-2,3.8942948E-3,-1.3867142E-2,-4.683742E-3,-8.24906E-3,2.1367902E-3,-1.7782756E-3,5.0356896E-3,5.660473E-4,6.331743E-3,1.5496671E-2,1.5939338E-2,-2.4173202E-2,-1.6589686E-2,1.4737979E-2],"split_indices":[1,1,1,15,1,1,10,1,27,27,15,27,20,27,1,0,0,0,0,0,0,0,0,0,0,0,0,0,0,0,0],"split_type":[0,0,0,0,0,0,0,0,0,0,0,0,0,0,0,0,0,0,0,0,0,0,0,0,0,0,0,0,0,0,0],"sum_hessian":[3.044E3,1.701E3,1.343E3,2.64E2,1.437E3,1.003E3,3.4E2,2.49E2,1.5E1,8.51E2,5.86E2,5.86E2,4.17E2,3.27E2,1.3E1,1.56E2,9.3E1,9E0,6E0,4.3E2,4.21E2,1.23E2,4.63E2,1.68E2,4.18E2,3.87E2,3E1,3.25E2,2E0,9E0,4E0],"tree_param":{"num_deleted":"0","num_feature":"31","num_nodes":"31","size_leaf_vector":"1"}},{"base_weights":[-1.7668367E-3,-1.5676112E-1,8.800562E-2,-2.806593E-1,-1.0936125E-1,3.6549617E-2,2.502624E-1,-3.244214E-1,-2.1092214E-1,-1.3415475E-1,-5.890688E-2,7.3800315E-3,1.0424331E-1,1.963518E-1,3.3847794E-1,-1.6415076E-2,1.002905E-2,-7.757994E-3,-1.4150143E-2,2.4871693E-3,-6.991619E-3,-3.436188E-3,1.01111345E-2,-1.0078773E-3,1.750529E-3,6.807802E-3,1.7215222E-3,1.1096462E-2,3.2750752E-3,1.860231E-2,2.1641795E-3],"categories":[],"categories_nodes":[],"categories_segments":[],"categories_sizes":[],"default_left":[0,0,0,0,0,0,0,0,0,0,0,0,0,0,0,0,0,0,0,0,0,0,0,0,0,0,0,0,0,0,0],"id":15,"left_children":[1,3,5,7,9,11,13,15,17,19,21,23,25,27,29,-1,-1,-1,-1,-1,-1,-1,-1,-1,-1,-1,-1,-1,-1,-1,-1],"loss_changes":[4.245216E1,6.540924E0,1.6121286E1,8.745918E-1,1.0066109E0,2.8979392E0,2.1449642E0,4.488201E-1,4.4645405E-1,5.73905E-1,7.034731E-1,7.821278E-1,9.800525E-1,9.593849E-1,1.7180004E0,0E0,0E0,0E0,0E0,0E0,0E0,0E0,0E0,0E0,0E0,0E0,0E0,0E0,0E0,0E0,0E0],"parents":[2147483647,0,0,1,1,2,2,3,3,4,4,5,5,6,6,7,7,8,8,9,9,10,10,11,11,12,12,13,13,14,14],"right_children":[2,4,6,8,10,12,14,16,18,20,22,24,26,28,30,-1,-1,-1,-1,-1,-1,-1,-1,-1,-1,-1,-1,-1,-1,-1,-1],"split_conditions":[-2.4639957E-1,-3.1782857E-1,1.0635167E-1,-3.2609436E-1,5.5677706E-1,-9.6939154E-2,6.2042844E-1,2.1924472E0,1.9039127E-1,-2.0325954E0,1.7680569E0,5.5022117E-2,8.405874E-4,1.4128762E0,7.2247785E-1,-1.6415076E-2,1.002905E-2,-7.757994E-3,-1.4150143E-2,2.4871693E-3,-6.991619E-3,-3.436188E-3,1.01111345E-2,-1.0078773E-3,1.750529E-3,6.807802E-3,1.7215222E-3,1.1096462E-2,3.2750752E-3,1.860231E-2,2.1641795E-3],"split_indices":[1,1,1,1,2,1,1,18,18,2,16,2,8,25,2,0,0,0,0,0,0,0,0,0,0,0,0,0,0,0,0],"split_type":[0,0,0,0,0,0,0,0,0,0,0,0,0,0,0,0,0,0,0,0,0,0,0,0,0,0,0,0,0,0,0],"sum_hessian":[3.049E3,1.118E3,1.931E3,3.08E2,8.1E2,1.467E3,4.64E2,1.87E2,1.21E2,5.42E2,2.68E2,1.026E3,4.41E2,2.9E2,1.74E2,1.86E2,1E0,7E1,5.1E1,1.6E1,5.26E2,2.59E2,9E0,5.14E2,5.12E2,3.02E2,1.39E2,2.42E2,4.8E1,1.56E2,1.8E1],"tree_param":{"num_deleted":"0","num_feature":"31","num_nodes":"31","size_leaf_vector":"1"}},{"base_weights":[-2.263982E-3,-2.574412E-1,2.2892638E-1,-4.295791E-1,-1.21210955E-1,1.3436775E-1,4.5570052E-1,-2.9100835E-2,-3.7337407E-1,-2.0229791E-1,-7.140588E-2,6.2295105E-2,2.1622463E-1,3.8518184E-1,6.4293194E-1,-2.1640582E-2,-1.6059091E-2,-1.1284182E-2,-8.693221E-3,-5.5224737E-3,-2.5893594E-3,1.1859097E-3,4.9086767E-3,9.00973E-3,1.2889302E-2,1.787012E-2,2.2252513E-2,2.8757904E-2,4.4073965E-2],"categories":[],"categories_nodes":[],"categories_segments":[],"categories_sizes":[],"default_left":[0,0,0,0,0,0,0,0,0,0,0,0,0,0,0,0,0,0,0,0,0,0,0,0,0,0,0,0,0],"id":16,"left_children":[1,3,5,7,9,11,13,-1,15,17,19,21,23,25,27,-1,-1,-1,-1,-1,-1,-1,-1,-1,-1,-1,-1,-1,-1],"loss_changes":[1.7822238E2,3.362268E1,3.392663E1,5.214653E0,3.2285042E0,6.5941277E0,5.905098E0,0E0,1.3066025E0,1.635685E-1,3.765061E-1,8.2396674E-1,7.382183E-1,4.0805817E-1,1.5300903E0,0E0,0E0,0E0,0E0,0E0,0E0,0E0,0E0,0E0,0E0,0E0,0E0,0E0,0E0],"parents":[2147483647,0,0,1,1,2,2,3,3,4,4,5,5,6,6,8,8,9,9,10,10,11,11,12,12,13,13,14,14],"right_children":[2,4,6,8,10,12,14,-1,16,18,20,22,24,26,28,-1,-1,-1,-1,-1,-1,-1,-1,-1,-1,-1,-1,-1,-1],"split_conditions":[-2.990174E-1,-4.7441435E-1,3.845788E-1,-5.4054624E-1,-4.1596073E-1,-8.37268E-2,1.7657726E0,-2.9100835E-2,-5.1266915E-1,-4.4327798E-1,-3.7898785E-1,-2.0719421E-1,1.0705751E-1,5.043304E-1,4.138476E0,-2.1640582E-2,-1.6059091E-2,-1.1284182E-2,-8.693221E-3,-5.5224737E-3,-2.5893594E-3,1.1859097E-3,4.9086767E-3,9.00973E-3,1.2889302E-2,1.787012E-2,2.2252513E-2,2.8757904E-2,4.4073965E-2],"split_indices":[23,23,23,23,23,23,23,0,23,23,23,23,23,17,23,0,0,0,0,0,0,0,0,0,0,0,0,0,0],"split_type":[0,0,0,0,0,0,0,0,0,0,0,0,0,0,0,0,0,0,0,0,0,0,0,0,0,0,0,0,0],"sum_hessian":[3.019E3,1.435E3,1.584E3,6.33E2,8.02E2,1.119E3,4.65E2,1.68E2,4.65E2,3.04E2,4.98E2,5.96E2,5.23E2,3.4E2,1.25E2,2.14E2,2.51E2,1.63E2,1.41E2,1.65E2,3.33E2,2.88E2,3.08E2,2.83E2,2.4E2,2.37E2,1.03E2,1E2,2.5E1],"tree_param":{"num_deleted":"0","num_feature":"31","num_nodes":"29","size_leaf_vector":"1"}},{"base_weights":[-4.771542E-3,-1.9950919E-2,4.6611734E-2,-5.677463E-2,1.3252145E-3,6.677086E-2,-1.0764743E-2,-8.832082E-3,-1.3175732E-1,8.38029E-3,-6.621141E-2,8.9981385E-2,-6.2068985E-3,-8.995018E-2,6.427916E-2,-6.773045E-4,1.3068574E-2,-6.0746456E-3,-1.3566819E-2,6.917014E-4,-4.8551494E-3,-4.1214786E-3,6.5738535E-3,2.6470688E-3,8.225796E-3,1.800565E-3,-7.287483E-3,-1.0133841E-2,-2.7986085E-3,4.3085357E-3,-1.0849209E-2],"categories":[],"categories_nodes":[],"categories_segments":[],"categories_sizes":[],"default_left":[0,0,0,0,0,0,0,0,0,0,0,0,0,0,0,0,0,0,0,0,0,0,0,0,0,0,0,0,0,0,0],"id":17,"left_children":[1,3,5,7,9,11,13,15,17,19,21,23,25,27,29,-1,-1,-1,-1,-1,-1,-1,-1,-1,-1,-1,-1,-1,-1,-1,-1],"loss_changes":[2.3564274E0,1.8271184E0,7.9765725E-1,3.0688474E0,7.052629E-1,8.644228E-1,1.0754113E0,6.684336E-1,4.441228E-1,7.7221614E-1,4.5969796E-1,1.0597045E0,7.3576295E-1,3.2571566E-1,5.9132546E-1,0E0,0E0,0E0,0E0,0E0,0E0,0E0,0E0,0E0,0E0,0E0,0E0,0E0,0E0,0E0,0E0],"parents":[2147483647,0,0,1,1,2,2,3,3,4,4,5,5,6,6,7,7,8,8,9,9,10,10,11,11,12,12,13,13,14,14],"right_children":[2,4,6,8,10,12,14,16,18,20,22,24,26,28,30,-1,-1,-1,-1,-1,-1,-1,-1,-1,-1,-1,-1,-1,-1,-1,-1],"split_conditions":[3.7872657E-1,-4.344642E-1,2.9879025E-1,-3.6292845E-1,5.8981097E-1,-1.5259169E-1,9.165075E-2,1.5121119E0,1.0928526E0,2.41629E0,1.7326282E0,-4.6685487E-1,1.614113E0,-6.0357255E-1,3.3861322E0,-6.773045E-4,1.3068574E-2,-6.0746456E-3,-1.3566819E-2,6.917014E-4,-4.8551494E-3,-4.1214786E-3,6.5738535E-3,2.6470688E-3,8.225796E-3,1.800565E-3,-7.287483E-3,-1.0133841E-2,-2.7986085E-3,4.3085357E-3,-1.0849209E-2],"split_indices":[19,28,29,29,21,9,28,4,29,29,28,8,19,28,28,0,0,0,0,0,0,0,0,0,0,0,0,0,0,0,0],"split_type":[0,0,0,0,0,0,0,0,0,0,0,0,0,0,0,0,0,0,0,0,0,0,0,0,0,0,0,0,0,0,0],"sum_hessian":[3.019E3,2.331E3,6.88E2,8.53E2,1.478E3,5.09E2,1.79E2,5.21E2,3.32E2,1.339E3,1.39E2,3.86E2,1.23E2,8.7E1,9.2E1,5.13E2,8E0,3.11E2,2.1E1,1.274E3,6.5E1,1.29E2,1E1,2.59E2,1.27E2,9.5E1,2.8E1,1.9E1,6.8E1,8.6E1,6E0],"tree_param":{"num_deleted":"0","num_feature":"31","num_nodes":"31","size_leaf_vector":"1"}},{"base_weights":[1.6029886E-3,-1.243604E-2,4.87446E-2,-2.441076E-2,2.963695E-2,5.2117854E-3,8.529391E-2,-5.946166E-3,-4.696393E-2,3.580703E-2,-2.355753E-1,-3.5610536E-1,1.0894353E-2,9.522614E-3,1.3835897E-1,-1.597897E-3,2.113662E-3,-3.7278626E-3,-1.0597495E-3,7.127048E-4,5.852562E-3,-1.4549861E-2,1.3844719E-3,-2.3139345E-2,-6.5361033E-3,1.287774E-3,-4.633141E-3,1.6099662E-3,-3.1467695E-3,1.6460037E-2,6.0547814E-3],"categories":[],"categories_nodes":[],"categories_segments":[],"categories_sizes":[],"default_left":[0,0,0,0,0,0,0,0,0,0,0,0,0,0,0,0,0,0,0,0,0,0,0,0,0,0,0,0,0,0,0],"id":18,"left_children":[1,3,5,7,9,11,13,15,17,19,21,23,25,27,29,-1,-1,-1,-1,-1,-1,-1,-1,-1,-1,-1,-1,-1,-1,-1,-1],"loss_changes":[2.0218117E0,1.1866977E0,1.1149129E0,7.630464E-1,8.626258E-1,6.629597E-1,1.5306101E0,1.2669117E0,5.850365E-1,8.931185E-1,1.831451E-1,5.972469E-2,4.9024206E-1,2.616377E-1,6.9811773E-1,0E0,0E0,0E0,0E0,0E0,0E0,0E0,0E0,0E0,0E0,0E0,0E0,0E0,0E0,0E0,0E0],"parents":[2147483647,0,0,1,1,2,2,3,3,4,4,5,5,6,6,7,7,8,8,9,9,10,10,11,11,12,12,13,13,14,14],"right_children":[2,4,6,8,10,12,14,16,18,20,22,24,26,28,30,-1,-1,-1,-1,-1,-1,-1,-1,-1,-1,-1,-1,-1,-1,-1,-1],"split_conditions":[3.7872657E-1,5.488696E-1,-2.2698455E-2,-1.932252E-1,4.1680193E0,-1.7011364E0,-5.5616474E-1,-4.6578053E-1,-1.2130052E-1,6.8757886E-1,-3.609237E-1,1.9798503E0,-1.8892357E-1,-6.650963E-1,1.0504026E-1,-1.597897E-3,2.113662E-3,-3.7278626E-3,-1.0597495E-3,7.127048E-4,5.852562E-3,-1.4549861E-2,1.3844719E-3,-2.3139345E-2,-6.5361033E-3,1.287774E-3,-4.633141E-3,1.6099662E-3,-3.1467695E-3,1.6460037E-2,6.0547814E-3],"split_indices":[19,28,15,27,27,15,8,28,28,15,21,17,15,8,15,0,0,0,0,0,0,0,0,0,0,0,0,0,0,0,0],"split_type":[0,0,0,0,0,0,0,0,0,0,0,0,0,0,0,0,0,0,0,0,0,0,0,0,0,0,0,0,0,0,0],"sum_hessian":[3.053E3,2.353E3,7E2,1.832E3,5.21E2,3.2E2,3.8E2,1.008E3,8.24E2,5.1E2,1.1E1,4E0,3.16E2,1.57E2,2.23E2,6.55E2,3.53E2,3.97E2,4.27E2,4.04E2,1.06E2,9E0,2E0,2E0,2E0,2.77E2,3.9E1,1.2E2,3.7E1,1.7E1,2.06E2],"tree_param":{"num_deleted":"0","num_feature":"31","num_nodes":"31","size_leaf_vector":"1"}},{"base_weights":[-2.4346854E-4,-2.2862005E-1,2.327069E-1,-4.0769798E-1,-1.1740267E-1,1.4704672E-1,4.4034633E-1,-5.262841E-1,-3.3736742E-1,-1.9523984E-1,-6.799714E-2,8.251547E-2,2.2511894E-1,4.164676E-1,4.359276E-2,-2.8270317E-2,-2.302857E-2,-1.909936E-2,-1.5096681E-2,-1.0326636E-2,-6.648904E-3,-4.694337E-3,-1.6159769E-3,3.1921815E-3,6.6830977E-3,1.1362861E-2,-1.9978104E-2,1.7196007E-2,2.3826193E-2],"categories":[],"categories_nodes":[],"categories_segments":[],"categories_sizes":[],"default_left":[0,0,0,0,0,0,0,0,0,0,0,0,0,0,0,0,0,0,0,0,0,0,0,0,0,0,0,0,0],"id":19,"left_children":[1,3,5,7,9,11,13,15,17,19,21,23,25,27,-1,-1,-1,-1,-1,-1,-1,-1,-1,-1,-1,-1,-1,-1,-1],"loss_changes":[1.6098444E2,3.0384666E1,2.6579315E1,4.701477E0,3.6169577E0,5.3318825E0,4.139702E0,2.9489136E-1,4.696579E-1,2.2987556E-1,5.3177595E-1,5.4823136E-1,7.31966E-1,1.6485901E0,0E0,0E0,0E0,0E0,0E0,0E0,0E0,0E0,0E0,0E0,0E0,0E0,0E0,0E0,0E0],"parents":[2147483647,0,0,1,1,2,2,3,3,4,4,5,5,6,6,7,7,8,8,9,9,10,10,11,11,12,12,13,13],"right_children":[2,4,6,8,10,12,14,16,18,20,22,24,26,28,-1,-1,-1,-1,-1,-1,-1,-1,-1,-1,-1,-1,-1,-1,-1],"split_conditions":[-2.8325087E-1,-4.7942916E-1,4.0398344E-1,-5.3489685E-1,-4.1428047E-1,-4.626613E-2,4.138476E0,-5.4552275E-1,-5.1266915E-1,5.8682114E-1,-3.452308E-1,-1.221798E-1,2.7189558E0,8.907068E-1,4.359276E-2,-2.8270317E-2,-2.302857E-2,-1.909936E-2,-1.5096681E-2,-1.0326636E-2,-6.648904E-3,-4.694337E-3,-1.6159769E-3,3.1921815E-3,6.6830977E-3,1.1362861E-2,-1.9978104E-2,1.7196007E-2,2.3826193E-2],"split_indices":[23,23,23,23,23,23,23,23,23,7,23,23,2,23,0,0,0,0,0,0,0,0,0,0,0,0,0,0,0],"split_type":[0,0,0,0,0,0,0,0,0,0,0,0,0,0,0,0,0,0,0,0,0,0,0,0,0,0,0,0,0],"sum_hessian":[3.024E3,1.527E3,1.497E3,5.84E2,9.43E2,1.061E3,4.36E2,2.15E2,3.69E2,3.65E2,5.78E2,5.82E2,4.79E2,4.15E2,2.1E1,1.3E2,8.5E1,1.59E2,2.1E2,3.07E2,5.8E1,3.34E2,2.44E2,4.28E2,1.54E2,4.78E2,1E0,1.91E2,2.24E2],"tree_param":{"num_deleted":"0","num_feature":"31","num_nodes":"29","size_leaf_vector":"1"}},{"base_weights":[3.960156E-3,-1.0856352E-1,9.551724E-2,-2.194789E-1,-7.4592635E-2,5.5727035E-2,2.2312507E-1,-2.8869632E-1,-1.8335234E-1,-1.0617989E-1,-3.0874614E-2,2.2704562E-2,1.0632533E-1,1.7853078E-1,3.0900925E-1,-1.6349321E-2,-9.974585E-3,-1.0347697E-2,-5.006784E-3,-4.1838083E-3,-1.0849784E-2,6.096859E-3,-2.0764992E-3,5.453199E-3,5.7581643E-4,-7.4132048E-3,5.587855E-3,1.4862485E-2,6.325451E-3,1.8660668E-2,1.1485455E-2],"categories":[],"categories_nodes":[],"categories_segments":[],"categories_sizes":[],"default_left":[0,0,0,0,0,0,0,0,0,0,0,0,0,0,0,0,0,0,0,0,0,0,0,0,0,0,0,0,0,0,0],"id":20,"left_children":[1,3,5,7,9,11,13,15,17,19,21,23,25,27,29,-1,-1,-1,-1,-1,-1,-1,-1,-1,-1,-1,-1,-1,-1,-1,-1],"loss_changes":[3.1391296E1,5.1343403E0,8.517836E0,7.472553E-1,1.4439392E0,2.139655E0,1.4729805E0,3.036604E-1,3.976183E-1,1.4980536E0,7.231293E-1,7.494886E-1,7.163024E-1,1.5990257E0,6.0160923E-1,0E0,0E0,0E0,0E0,0E0,0E0,0E0,0E0,0E0,0E0,0E0,0E0,0E0,0E0,0E0,0E0],"parents":[2147483647,0,0,1,1,2,2,3,3,4,4,5,5,6,6,7,7,8,8,9,9,10,10,11,11,12,12,13,13,14,14],"right_children":[2,4,6,8,10,12,14,16,18,20,22,24,26,28,30,-1,-1,-1,-1,-1,-1,-1,-1,-1,-1,-1,-1,-1,-1,-1,-1],"split_conditions":[-2.2019784E-1,-3.1782857E-1,1.5885022E-1,-3.3295643E-1,-2.266517E-1,-8.9454256E-2,7.659472E-1,7.323391E-1,2.632E-1,1.0731509E0,-1.248365E0,-8.966518E-1,-1.6286633E0,-4.3942448E-1,-2.3756891E-1,-1.6349321E-2,-9.974585E-3,-1.0347697E-2,-5.006784E-3,-4.1838083E-3,-1.0849784E-2,6.096859E-3,-2.0764992E-3,5.453199E-3,5.7581643E-4,-7.4132048E-3,5.587855E-3,1.4862485E-2,6.325451E-3,1.8660668E-2,1.1485455E-2],"split_indices":[1,1,0,1,0,1,0,30,3,30,27,27,3,27,30,0,0,0,0,0,0,0,0,0,0,0,0,0,0,0,0],"split_type":[0,0,0,0,0,0,0,0,0,0,0,0,0,0,0,0,0,0,0,0,0,0,0,0,0,0,0,0,0,0,0],"sum_hessian":[3.045E3,1.366E3,1.679E3,3.19E2,1.047E3,1.281E3,3.98E2,1.07E2,2.12E2,6.07E2,4.4E2,7.76E2,5.05E2,2.64E2,1.34E2,7.3E1,3.4E1,1.64E2,4.8E1,5.06E2,1.01E2,2.8E1,4.12E2,8.8E1,6.88E2,1E1,4.95E2,7.9E1,1.85E2,7.2E1,6.2E1],"tree_param":{"num_deleted":"0","num_feature":"31","num_nodes":"31","size_leaf_vector":"1"}},{"base_weights":[-8.522975E-4,8.5727595E-2,-6.801871E-3,1.3726607E-1,-6.544854E-2,-2.7595308E-2,1.1608609E-2,1.0915638E-1,3.4249455E-1,2.9823145E-2,-9.1129646E-2,-4.9163762E-2,-6.211839E-3,3.9976325E-2,-2.658833E-2,-2.5840397E-3,6.8703587E-3,1.9562854E-2,-1.09426305E-2,-8.7916E-3,6.6592842E-3,-1.1267323E-2,-2.1510532E-3,-1.0741329E-3,2.8217135E-3,3.5090705E-3,-2.1186567E-4,-5.190218E-3,-5.079409E-4],"categories":[],"categories_nodes":[],"categories_segments":[],"categories_sizes":[],"default_left":[0,0,0,0,0,0,0,0,0,0,0,0,0,0,0,0,0,0,0,0,0,0,0,0,0,0,0,0,0],"id":21,"left_children":[1,3,5,7,9,11,13,15,17,-1,19,21,23,25,27,-1,-1,-1,-1,-1,-1,-1,-1,-1,-1,-1,-1,-1,-1],"loss_changes":[1.5541652E0,1.5205129E0,1.0810132E0,7.991061E-1,9.0428644E-1,6.1125696E-1,1.6242356E0,5.932486E-1,5.509635E-1,0E0,9.5442015E-1,7.045816E-1,6.3930273E-1,1.1488072E0,8.0959487E-1,0E0,0E0,0E0,0E0,0E0,0E0,0E0,0E0,0E0,0E0,0E0,0E0,0E0,0E0],"parents":[2147483647,0,0,1,1,2,2,3,3,4,4,5,5,6,6,7,7,8,8,10,10,11,11,12,12,13,13,14,14],"right_children":[2,4,6,8,10,12,14,16,18,-1,20,22,24,26,28,-1,-1,-1,-1,-1,-1,-1,-1,-1,-1,-1,-1,-1,-1],"split_conditions":[-1.5670944E0,4.0114713E-1,1.1725312E-1,1.6791894E-1,-4.689407E-1,-2.2698455E-2,7.2247785E-1,-1.1042192E0,4.321789E0,2.9823145E-2,1.3059596E0,-8.851955E-1,7.79346E-1,1.9039127E-1,-1.085123E0,-2.5840397E-3,6.8703587E-3,1.9562854E-2,-1.09426305E-2,-8.7916E-3,6.6592842E-3,-1.1267323E-2,-2.1510532E-3,-1.0741329E-3,2.8217135E-3,3.5090705E-3,-2.1186567E-4,-5.190218E-3,-5.079409E-4],"split_indices":[2,6,2,7,4,15,2,15,7,0,22,7,18,18,15,0,0,0,0,0,0,0,0,0,0,0,0,0,0],"split_type":[0,0,0,0,0,0,0,0,0,0,0,0,0,0,0,0,0,0,0,0,0,0,0,0,0,0,0,0,0],"sum_hessian":[3.015E3,1.93E2,2.822E3,1.44E2,4.9E1,1.325E3,1.497E3,1.28E2,1.6E1,1E0,4.8E1,6.59E2,6.66E2,8.59E2,6.38E2,1.9E1,1.09E2,1.5E1,1E0,3.5E1,1.3E1,2.1E1,6.38E2,5.36E2,1.3E2,5.1E2,3.49E2,1.11E2,5.27E2],"tree_param":{"num_deleted":"0","num_feature":"31","num_nodes":"29","size_leaf_vector":"1"}},{"base_weights":[-1.1135925E-3,-9.371554E-2,9.3166E-2,-2.1352519E-1,-6.1661497E-2,5.864506E-2,2.1586855E-1,-1.2911245E-1,-2.4753961E-1,-9.064385E-2,-2.6480895E-2,3.4934927E-2,1.032205E-1,2.9538345E-1,1.719245E-1,-7.331954E-3,1.0609464E-2,-1.5806017E-2,-1.0366309E-2,-4.924943E-3,3.6607682E-5,-5.2609947E-4,-5.0339974E-3,2.7978823E-3,-8.06438E-4,3.997489E-3,9.009006E-3,1.711527E-2,2.3782904E-4,2.4012302E-3,1.11821145E-2],"categories":[],"categories_nodes":[],"categories_segments":[],"categories_sizes":[],"default_left":[0,0,0,0,0,0,0,0,0,0,0,0,0,0,0,0,0,0,0,0,0,0,0,0,0,0,0,0,0,0,0],"id":22,"left_children":[1,3,5,7,9,11,13,15,17,19,21,23,25,27,29,-1,-1,-1,-1,-1,-1,-1,-1,-1,-1,-1,-1,-1,-1,-1,-1],"loss_changes":[2.6269997E1,5.816538E0,6.302931E0,8.868389E-1,1.2201204E0,1.2276702E0,1.0918207E0,5.9341085E-1,5.6049633E-1,4.716406E-1,6.4192617E-1,8.189076E-1,7.091212E-1,1.5666018E0,1.3541279E0,0E0,0E0,0E0,0E0,0E0,0E0,0E0,0E0,0E0,0E0,0E0,0E0,0E0,0E0,0E0,0E0],"parents":[2147483647,0,0,1,1,2,2,3,3,4,4,5,5,6,6,7,7,8,8,9,9,10,10,11,11,12,12,13,13,14,14],"right_children":[2,4,6,8,10,12,14,16,18,20,22,24,26,28,30,-1,-1,-1,-1,-1,-1,-1,-1,-1,-1,-1,-1,-1,-1,-1,-1],"split_conditions":[-1.9810209E-1,-3.1782857E-1,2.3391521E-1,-7.1631145E-1,-2.5847206E-1,-3.9272815E-2,-3.6004E-1,2.1851676E0,-3.3295643E-1,9.428677E-1,2.1443325E-1,7.052159E-1,5.488696E-1,1.6661248E0,-4.1567436E-1,-7.331954E-3,1.0609464E-2,-1.5806017E-2,-1.0366309E-2,-4.924943E-3,3.6607682E-5,-5.2609947E-4,-5.0339974E-3,2.7978823E-3,-8.06438E-4,3.997489E-3,9.009006E-3,1.711527E-2,2.3782904E-4,2.4012302E-3,1.11821145E-2],"split_indices":[1,1,1,28,1,1,11,7,1,11,4,24,28,22,28,0,0,0,0,0,0,0,0,0,0,0,0,0,0,0,0],"split_type":[0,0,0,0,0,0,0,0,0,0,0,0,0,0,0,0,0,0,0,0,0,0,0,0,0,0,0,0,0,0,0],"sum_hessian":[3.007E3,1.517E3,1.49E3,3.19E2,1.198E3,1.164E3,3.26E2,9.3E1,2.26E2,6.56E2,5.42E2,7.61E2,4.03E2,1.14E2,2.12E2,8.9E1,4E0,8.1E1,1.45E2,6.04E2,5.2E1,4.47E2,9.5E1,5.39E2,2.22E2,3.11E2,9.2E1,9.8E1,1.6E1,6.3E1,1.49E2],"tree_param":{"num_deleted":"0","num_feature":"31","num_nodes":"31","size_leaf_vector":"1"}},{"base_weights":[1.6782789E-3,-2.38548E-1,1.8690369E-1,-3.929732E-1,-1.3695899E-1,9.484926E-2,3.6206454E-1,-5.164743E-1,-3.3720243E-1,-1.9363222E-1,-8.008753E-2,4.5361914E-2,1.822749E-1,3.0930343E-1,5.6495166E-1,-2.3132453E-2,-2.7964354E-2,-1.4783204E-2,-1.9682046E-2,-5.9061632E-3,-1.061011E-2,-2.271936E-3,-8.4067285E-3,4.2452477E-3,-3.669312E-4,1.1452096E-2,5.2577383E-3,1.2161938E-2,1.6861267E-2,2.5478065E-2,3.8494866E-2],"categories":[],"categories_nodes":[],"categories_segments":[],"categories_sizes":[],"default_left":[0,0,0,0,0,0,0,0,0,0,0,0,0,0,0,0,0,0,0,0,0,0,0,0,0,0,0,0,0,0,0],"id":23,"left_children":[1,3,5,7,9,11,13,15,17,19,21,23,25,27,29,-1,-1,-1,-1,-1,-1,-1,-1,-1,-1,-1,-1,-1,-1,-1,-1],"loss_changes":[1.3664732E2,2.0920906E1,2.7925255E1,3.4763489E0,2.58875E0,4.915247E0,6.2158813E0,1.1686325E-1,7.463417E-1,5.4142284E-1,1.2279038E0,1.5177312E0,1.4582586E0,7.9602814E-1,9.926338E-1,0E0,0E0,0E0,0E0,0E0,0E0,0E0,0E0,0E0,0E0,0E0,0E0,0E0,0E0,0E0,0E0],"parents":[2147483647,0,0,1,1,2,2,3,3,4,4,5,5,6,6,7,7,8,8,9,9,10,10,11,11,12,12,13,13,14,14],"right_children":[2,4,6,8,10,12,14,16,18,20,22,24,26,28,30,-1,-1,-1,-1,-1,-1,-1,-1,-1,-1,-1,-1,-1,-1,-1,-1],"split_conditions":[-3.30477E-1,-4.8899722E-1,2.2446771E-1,-5.4237777E-1,-4.1596073E-1,-8.37268E-2,1.7657726E0,-2.7401757E-1,-2.4117245E-1,-2.6891884E-1,-1.3727391E-1,-1.4302659E-1,-6.2329423E-2,4.0398344E-1,4.138476E0,-2.3132453E-2,-2.7964354E-2,-1.4783204E-2,-1.9682046E-2,-5.9061632E-3,-1.061011E-2,-2.271936E-3,-8.4067285E-3,4.2452477E-3,-3.669312E-4,1.1452096E-2,5.2577383E-3,1.2161938E-2,1.6861267E-2,2.5478065E-2,3.8494866E-2],"split_indices":[23,23,23,23,23,23,23,0,0,0,0,0,0,23,23,0,0,0,0,0,0,0,0,0,0,0,0,0,0,0,0],"split_type":[0,0,0,0,0,0,0,0,0,0,0,0,0,0,0,0,0,0,0,0,0,0,0,0,0,0,0,0,0,0,0],"sum_hessian":[3.069E3,1.336E3,1.733E3,5.29E2,8.07E2,1.137E3,5.96E2,1.62E2,3.67E2,4.03E2,4.04E2,7.27E2,4.1E2,4.75E2,1.21E2,7.7E1,8.5E1,2.15E2,1.52E2,8.1E1,3.22E2,2.91E2,1.13E2,4.15E2,3.12E2,2.54E2,1.56E2,1.44E2,3.31E2,9.8E1,2.3E1],"tree_param":{"num_deleted":"0","num_feature":"31","num_nodes":"31","size_leaf_vector":"1"}},{"base_weights":[1.5302831E-3,-2.2528933E-2,1.6194139E-2,-1.7495109E-2,-1.696391E-1,9.1534056E-2,2.3142833E-3,-3.8717642E-2,1.2144683E-2,-3.2253203E-1,-7.7233486E-2,6.88507E-2,2.751024E-1,-6.6265967E-3,6.339895E-2,-1.0457794E-3,-4.6107243E-3,1.1427066E-3,-6.943516E-3,-2.0344345E-2,-7.1122237E-3,6.5637636E-4,-1.3544579E-2,7.5313165E-3,1.581422E-3,1.6837824E-2,3.4006368E-4,5.478871E-4,-1.6223366E-3,5.9838346E-3,7.5845805E-4],"categories":[],"categories_nodes":[],"categories_segments":[],"categories_sizes":[],"default_left":[0,0,0,0,0,0,0,0,0,0,0,0,0,0,0,0,0,0,0,0,0,0,0,0,0,0,0,0,0,0,0],"id":24,"left_children":[1,3,5,7,9,11,13,15,17,19,21,23,25,27,29,-1,-1,-1,-1,-1,-1,-1,-1,-1,-1,-1,-1,-1,-1,-1,-1],"loss_changes":[1.0732323E0,8.5011905E-1,1.9761746E0,7.0184034E-1,5.1196E-1,1.2052588E0,8.726227E-1,6.171011E-1,7.5682974E-1,1.5503633E-1,4.4103473E-1,7.957747E-1,5.2704906E-1,6.332733E-1,5.518943E-1,0E0,0E0,0E0,0E0,0E0,0E0,0E0,0E0,0E0,0E0,0E0,0E0,0E0,0E0,0E0,0E0],"parents":[2147483647,0,0,1,1,2,2,3,3,4,4,5,5,6,6,7,7,8,8,9,9,10,10,11,11,12,12,13,13,14,14],"right_children":[2,4,6,8,10,12,14,16,18,20,22,24,26,28,30,-1,-1,-1,-1,-1,-1,-1,-1,-1,-1,-1,-1,-1,-1,-1,-1],"split_conditions":[-4.6578053E-1,1.9903641E0,-4.3942448E-1,-1.07601285E-2,-8.415769E-1,-4.7459581E-1,4.82143E-1,1.484563E-1,1.2331676E-1,6.6294305E-2,5.236506E-1,-7.911378E-1,7.5329274E-1,2.4735892E-2,-2.7594742E-1,-1.0457794E-3,-4.6107243E-3,1.1427066E-3,-6.943516E-3,-2.0344345E-2,-7.1122237E-3,6.5637636E-4,-1.3544579E-2,7.5313165E-3,1.581422E-3,1.6837824E-2,3.4006368E-4,5.478871E-4,-1.6223366E-3,5.9838346E-3,7.5845805E-4],"split_indices":[28,11,27,17,28,27,3,3,27,3,3,27,22,3,11,0,0,0,0,0,0,0,0,0,0,0,0,0,0,0,0],"split_type":[0,0,0,0,0,0,0,0,0,0,0,0,0,0,0,0,0,0,0,0,0,0,0,0,0,0,0,0,0,0,0],"sum_hessian":[3.04E3,1.151E3,1.889E3,1.114E3,3.7E1,2.93E2,1.596E3,6.49E2,4.65E2,1.3E1,2.4E1,2.62E2,3.1E1,1.393E3,2.03E2,4.88E2,1.61E2,4.35E2,3E1,8E0,5E0,1.7E1,7E0,8.1E1,1.81E2,2.5E1,6E0,8.29E2,5.64E2,9.3E1,1.1E2],"tree_param":{"num_deleted":"0","num_feature":"31","num_nodes":"31","size_leaf_vector":"1"}},{"base_weights":[-1.7163234E-3,-2.0277858E-1,2.0345308E-1,-3.4957746E-1,-9.737255E-2,1.2860076E-1,3.8025755E-1,-4.6306443E-1,-2.9281294E-1,-1.4374587E-1,-4.2495627E-2,6.5787874E-2,1.8808417E-1,3.5175073E-1,3.7756603E-2,-2.5748512E-2,-2.1379031E-2,-1.6479334E-2,-1.2028684E-2,-8.216283E-3,-5.225683E-3,-7.4873655E-4,-3.2283447E-3,1.9827147E-3,4.76467E-3,7.759212E-3,1.1144436E-2,1.4343552E-2,2.0629015E-2],"categories":[],"categories_nodes":[],"categories_segments":[],"categories_sizes":[],"default_left":[0,0,0,0,0,0,0,0,0,0,0,0,0,0,0,0,0,0,0,0,0,0,0,0,0,0,0,0,0],"id":25,"left_children":[1,3,5,7,9,11,13,15,17,19,21,23,25,27,-1,-1,-1,-1,-1,-1,-1,-1,-1,-1,-1,-1,-1,-1,-1],"loss_changes":[1.2651935E2,2.3934383E1,2.0040646E1,4.0324097E0,2.2918682E0,3.9780216E0,4.5539856E0,1.7395782E-1,7.544365E-1,3.7764072E-1,2.5111282E-1,3.979566E-1,5.9290695E-1,1.5431595E0,0E0,0E0,0E0,0E0,0E0,0E0,0E0,0E0,0E0,0E0,0E0,0E0,0E0,0E0,0E0],"parents":[2147483647,0,0,1,1,2,2,3,3,4,4,5,5,6,6,7,7,8,8,9,9,10,10,11,11,12,12,13,13],"right_children":[2,4,6,8,10,12,14,16,18,20,22,24,26,28,-1,-1,-1,-1,-1,-1,-1,-1,-1,-1,-1,-1,-1,-1,-1],"split_conditions":[-2.8325087E-1,-4.7179005E-1,4.0398344E-1,-5.3489685E-1,-3.7898785E-1,-8.37268E-2,4.138476E0,-5.514943E-1,-5.0033253E-1,-4.1428047E-1,-2.3058473E-1,-1.8888453E-1,1.0705751E-1,9.454109E-1,3.7756603E-2,-2.5748512E-2,-2.1379031E-2,-1.6479334E-2,-1.2028684E-2,-8.216283E-3,-5.225683E-3,-7.4873655E-4,-3.2283447E-3,1.9827147E-3,4.76467E-3,7.759212E-3,1.1144436E-2,1.4343552E-2,2.0629015E-2],"split_indices":[23,23,23,23,23,23,23,23,23,23,29,23,23,23,0,0,0,0,0,0,0,0,0,0,0,0,0,0,0],"split_type":[0,0,0,0,0,0,0,0,0,0,0,0,0,0,0,0,0,0,0,0,0,0,0,0,0,0,0,0,0],"sum_hessian":[3.065E3,1.548E3,1.517E3,6.46E2,9.02E2,1.067E3,4.5E2,2.13E2,4.33E2,4.88E2,4.14E2,5.2E2,5.47E2,4.2E2,3E1,8.1E1,1.32E2,2.51E2,1.82E2,3.18E2,1.7E2,1.85E2,2.29E2,2.77E2,2.43E2,2.84E2,2.63E2,2.06E2,2.14E2],"tree_param":{"num_deleted":"0","num_feature":"31","num_nodes":"29","size_leaf_vector":"1"}},{"base_weights":[-8.6587237E-4,-8.036271E-2,7.660646E-2,-1.303478E-1,-4.7706094E-2,3.942661E-2,1.695935E-1,-1.3583054E-1,1.2302784E-1,-1.9685095E-2,-7.252705E-2,7.79937E-2,1.8065998E-2,1.777909E-1,-7.287962E-2,-7.3515894E-3,-4.5023845E-3,1.4875362E-3,1.6273184E-2,-1.4169862E-3,6.0134362E-3,-4.706176E-3,-1.1065786E-3,2.3605595E-3,6.9597783E-3,-2.259474E-3,1.6550232E-3,8.530457E-3,2.1563543E-2,9.374653E-3,-1.3364698E-2],"categories":[],"categories_nodes":[],"categories_segments":[],"categories_sizes":[],"default_left":[0,0,0,0,0,0,0,0,0,0,0,0,0,0,0,0,0,0,0,0,0,0,0,0,0,0,0,0,0,0,0],"id":26,"left_children":[1,3,5,7,9,11,13,15,17,19,21,23,25,27,29,-1,-1,-1,-1,-1,-1,-1,-1,-1,-1,-1,-1,-1,-1,-1,-1],"loss_changes":[1.8618065E1,2.4292393E0,5.286355E0,8.349428E-1,6.2731147E-1,9.0067005E-1,8.815613E-1,2.8266048E-1,2.357914E-1,5.194001E-1,5.192435E-1,7.281678E-1,6.7291033E-1,6.9646454E-1,8.094185E-1,0E0,0E0,0E0,0E0,0E0,0E0,0E0,0E0,0E0,0E0,0E0,0E0,0E0,0E0,0E0,0E0],"parents":[2147483647,0,0,1,1,2,2,3,3,4,4,5,5,6,6,7,7,8,8,9,9,10,10,11,11,12,12,13,13,14,14],"right_children":[2,4,6,8,10,12,14,16,18,20,22,24,26,28,30,-1,-1,-1,-1,-1,-1,-1,-1,-1,-1,-1,-1,-1,-1,-1,-1],"split_conditions":[-1.7846693E-1,-2.5825927E-1,1.13082744E-1,1.6758089E0,-2.2839653E-1,-3.6908183E-1,2.4139845E0,3.3869135E-1,-3.8546622E-1,2.5449583E-1,7.618209E-1,-4.720438E-1,-3.780947E-1,5.469196E0,-2.2839653E-1,-7.3515894E-3,-4.5023845E-3,1.4875362E-3,1.6273184E-2,-1.4169862E-3,6.0134362E-3,-4.706176E-3,-1.1065786E-3,2.3605595E-3,6.9597783E-3,-2.259474E-3,1.6550232E-3,8.530457E-3,2.1563543E-2,9.374653E-3,-1.3364698E-2],"split_indices":[0,0,0,3,27,27,10,3,10,28,28,28,28,0,27,0,0,0,0,0,0,0,0,0,0,0,0,0,0,0,0],"split_type":[0,0,0,0,0,0,0,0,0,0,0,0,0,0,0,0,0,0,0,0,0,0,0,0,0,0,0,0,0,0,0],"sum_hessian":[3.021E3,1.491E3,1.53E3,5.88E2,9.03E2,1.094E3,4.36E2,5.76E2,1.2E1,4.25E2,4.78E2,3.89E2,7.05E2,4.22E2,1.4E1,4.61E2,1.15E2,9E0,3E0,4.01E2,2.4E1,3.34E2,1.44E2,2.6E2,1.29E2,1.35E2,5.7E2,4.12E2,1E1,6E0,8E0],"tree_param":{"num_deleted":"0","num_feature":"31","num_nodes":"31","size_leaf_vector":"1"}},{"base_weights":[4.772079E-3,-5.0484877E-2,1.0795836E-1,-9.709189E-2,8.3542336E-4,7.088154E-2,1.7969628E-1,-1.8520024E-1,-7.6669835E-2,1.39349485E-2,-4.7179025E-2,9.319359E-2,2.8146075E-2,2.4730493E-1,1.00757085E-1,-1.0038782E-2,-4.3755006E-3,-2.8497155E-3,-7.305874E-3,7.83588E-5,3.3200604E-3,-3.326481E-4,-5.4190606E-3,2.1961904E-3,5.8608935E-3,-1.8113738E-2,1.641549E-3,-6.9967597E-3,1.3221823E-2,1.0996281E-2,2.5545822E-3],"categories":[],"categories_nodes":[],"categories_segments":[],"categories_sizes":[],"default_left":[0,0,0,0,0,0,0,0,0,0,0,0,0,0,0,0,0,0,0,0,0,0,0,0,0,0,0,0,0,0,0],"id":27,"left_children":[1,3,5,7,9,11,13,15,17,19,21,23,25,27,29,-1,-1,-1,-1,-1,-1,-1,-1,-1,-1,-1,-1,-1,-1,-1,-1],"loss_changes":[1.7640993E1,4.8197317E0,2.8572016E0,1.8859186E0,6.0446525E-1,6.7723393E-1,1.9337511E0,2.837E-1,1.1654258E0,4.8980844E-1,5.1021737E-1,5.4880905E-1,4.6184847E-1,1.3439045E0,1.0008371E0,0E0,0E0,0E0,0E0,0E0,0E0,0E0,0E0,0E0,0E0,0E0,0E0,0E0,0E0,0E0,0E0],"parents":[2147483647,0,0,1,1,2,2,3,3,4,4,5,5,6,6,7,7,8,8,9,9,10,10,11,11,12,12,13,13,14,14],"right_children":[2,4,6,8,10,12,14,16,18,20,22,24,26,28,30,-1,-1,-1,-1,-1,-1,-1,-1,-1,-1,-1,-1,-1,-1,-1,-1],"split_conditions":[-1.24921486E-1,-2.5207543E-1,2.2198035E-1,-3.25145E-1,2.052064E-1,-3.0744795E-2,-2.18072E-1,3.7941173E-1,6.4377695E-1,5.047865E-1,6.9582146E-1,-5.7225615E-1,-4.689407E-1,-1.3716503E0,-3.6292845E-1,-1.0038782E-2,-4.3755006E-3,-2.8497155E-3,-7.305874E-3,7.83588E-5,3.3200604E-3,-3.326481E-4,-5.4190606E-3,2.1961904E-3,5.8608935E-3,-1.8113738E-2,1.641549E-3,-6.9967597E-3,1.3221823E-2,1.0996281E-2,2.5545822E-3],"split_indices":[1,1,1,1,4,8,30,4,30,19,29,28,4,30,29,0,0,0,0,0,0,0,0,0,0,0,0,0,0,0,0],"split_type":[0,0,0,0,0,0,0,0,0,0,0,0,0,0,0,0,0,0,0,0,0,0,0,0,0,0,0,0,0,0,0],"sum_hessian":[3.092E3,2.014E3,1.078E3,1.055E3,9.59E2,7.12E2,3.66E2,1.97E2,8.58E2,7.54E2,2.05E2,4.67E2,2.45E2,1.96E2,1.7E2,1.69E2,2.8E1,6.7E2,1.88E2,6.11E2,1.43E2,1.24E2,8.1E1,1.54E2,3.13E2,2E0,2.43E2,8E0,1.88E2,4.9E1,1.21E2],"tree_param":{"num_deleted":"0","num_feature":"31","num_nodes":"31","size_leaf_vector":"1"}},{"base_weights":[5.444544E-4,-4.9103178E-2,9.5429234E-2,-1.2191023E-1,-1.8499719E-2,7.445149E-2,2.3306924E-1,-1.9442755E-1,-9.295771E-2,-4.006371E-2,1.7707242E-2,8.672391E-2,-2.6959201E-2,3.614212E-1,1.9091186E-1,-1.02015E-2,7.970913E-3,7.7079027E-4,-5.166602E-3,-1.7405049E-3,-8.1424285E-3,4.2997045E-4,3.952933E-3,2.2536002E-3,5.5201645E-3,2.5047201E-3,-6.6362335E-3,9.592416E-3,2.2459216E-2,-1.0045904E-2,1.0614934E-2],"categories":[],"categories_nodes":[],"categories_segments":[],"categories_sizes":[],"default_left":[0,0,0,0,0,0,0,0,0,0,0,0,0,0,0,0,0,0,0,0,0,0,0,0,0,0,0,0,0,0,0],"id":28,"left_children":[1,3,5,7,9,11,13,15,17,19,21,23,25,27,29,-1,-1,-1,-1,-1,-1,-1,-1,-1,-1,-1,-1,-1,-1,-1,-1],"loss_changes":[1.4358508E1,4.456269E0,3.0057316E0,1.2248659E0,1.1015904E0,1.1348834E0,6.777153E-1,6.0335445E-1,4.7942162E-1,5.645679E-1,2.9379642E-1,7.958927E-1,8.134602E-1,4.0493917E-1,9.3093395E-1,0E0,0E0,0E0,0E0,0E0,0E0,0E0,0E0,0E0,0E0,0E0,0E0,0E0,0E0,0E0,0E0],"parents":[2147483647,0,0,1,1,2,2,3,3,4,4,5,5,6,6,7,7,8,8,9,9,10,10,11,11,12,12,13,13,14,14],"right_children":[2,4,6,8,10,12,14,16,18,20,22,24,26,28,30,-1,-1,-1,-1,-1,-1,-1,-1,-1,-1,-1,-1,-1,-1,-1,-1],"split_conditions":[-1.2659808E-1,-2.921243E-1,7.659472E-1,-3.2829887E-1,-1.7091657E-1,9.403002E-1,-6.407658E-1,3.3087027E0,-1.0169486E0,-1.5059952E-1,1.1751969E0,-4.219376E-1,1.95447E-1,8.623547E-1,-6.7903167E-1,-1.02015E-2,7.970913E-3,7.7079027E-4,-5.166602E-3,-1.7405049E-3,-8.1424285E-3,4.2997045E-4,3.952933E-3,2.2536002E-3,5.5201645E-3,2.5047201E-3,-6.6362335E-3,9.592416E-3,2.2459216E-2,-1.0045904E-2,1.0614934E-2],"split_indices":[1,1,0,1,0,9,5,9,28,1,28,28,18,1,9,0,0,0,0,0,0,0,0,0,0,0,0,0,0,0,0],"split_type":[0,0,0,0,0,0,0,0,0,0,0,0,0,0,0,0,0,0,0,0,0,0,0,0,0,0,0,0,0,0,0],"sum_hessian":[3.046E3,2E3,1.046E3,5.91E2,1.409E3,9.09E2,1.37E2,1.67E2,4.24E2,8.83E2,5.26E2,8.11E2,9.8E1,3.2E1,1.05E2,1.63E2,4E0,3.7E1,3.87E2,8.48E2,3.5E1,4.59E2,6.7E1,2.95E2,5.16E2,5.7E1,4.1E1,1.2E1,2E1,5E0,1E2],"tree_param":{"num_deleted":"0","num_feature":"31","num_nodes":"31","size_leaf_vector":"1"}},{"base_weights":[-4.008868E-3,-8.8333145E-2,4.837585E-2,-1.5596598E-1,-6.344156E-2,1.6548216E-2,1.3552016E-1,-1.632991E-1,-9.638764E-3,-8.424811E-2,-6.962211E-3,3.0264028E-3,4.7852885E-2,3.4769073E-1,1.2507132E-1,-1.0220788E-2,-6.959746E-3,-1.162853E-2,7.36887E-3,-4.8007383E-3,2.637668E-3,-7.0614326E-3,6.5064075E-4,-9.628137E-4,1.1827055E-3,-6.262293E-4,3.4969903E-3,1.8740414E-2,2.0985464E-3,3.1537474E-3,7.694295E-3],"categories":[],"categories_nodes":[],"categories_segments":[],"categories_sizes":[],"default_left":[0,0,0,0,0,0,0,0,0,0,0,0,0,0,0,0,0,0,0,0,0,0,0,0,0,0,0,0,0,0,0],"id":29,"left_children":[1,3,5,7,9,11,13,15,17,19,21,23,25,27,29,-1,-1,-1,-1,-1,-1,-1,-1,-1,-1,-1,-1,-1,-1,-1,-1],"loss_changes":[1.3441709E1,1.9530525E0,5.2037997E0,3.3428574E-1,1.0029833E0,5.823103E-1,1.069416E0,2.6689005E-1,5.9433806E-1,1.0109835E0,6.2137413E-1,4.4262964E-1,5.5430025E-1,1.7494774E-1,8.4776545E-1,0E0,0E0,0E0,0E0,0E0,0E0,0E0,0E0,0E0,0E0,0E0,0E0,0E0,0E0,0E0,0E0],"parents":[2147483647,0,0,1,1,2,2,3,3,4,4,5,5,6,6,7,7,8,8,9,9,10,10,11,11,12,12,13,13,14,14],"right_children":[2,4,6,8,10,12,14,16,18,20,22,24,26,28,30,-1,-1,-1,-1,-1,-1,-1,-1,-1,-1,-1,-1,-1,-1,-1,-1],"split_conditions":[-2.4444953E-1,-3.1782857E-1,7.2771184E-2,2.1228864E0,1.0452193E0,5.751554E-1,-1.6509495E0,-3.3295643E-1,1.2493154E-1,1.2458872E0,-6.234291E-1,-7.60898E-2,-2.0828657E-1,1.4100456E0,-3.2957947E-1,-1.0220788E-2,-6.959746E-3,-1.162853E-2,7.36887E-3,-4.8007383E-3,2.637668E-3,-7.0614326E-3,6.5064075E-4,-9.628137E-4,1.1827055E-3,-6.262293E-4,3.4969903E-3,1.8740414E-2,2.0985464E-3,3.1537474E-3,7.694295E-3],"split_indices":[1,1,1,15,26,17,15,1,2,2,13,15,1,1,15,0,0,0,0,0,0,0,0,0,0,0,0,0,0,0,0],"split_type":[0,0,0,0,0,0,0,0,0,0,0,0,0,0,0,0,0,0,0,0,0,0,0,0,0,0,0,0,0,0,0],"sum_hessian":[3.041E3,1.165E3,1.876E3,3.12E2,8.53E2,1.375E3,5.01E2,2.97E2,1.5E1,6.23E2,2.3E2,9.61E2,4.14E2,2.2E1,4.79E2,1.07E2,1.9E2,6E0,9E0,5.74E2,4.9E1,2.9E1,2.01E2,4.62E2,4.99E2,1.11E2,3.03E2,2E1,2E0,1.53E2,3.26E2],"tree_param":{"num_deleted":"0","num_feature":"31","num_nodes":"31","size_leaf_vector":"1"}},{"base_weights":[3.4855995E-3,-1.165495E-2,1.8673044E-2,-1.634585E-2,5.7774395E-2,-5.0988137E-3,3.4526467E-2,-3.4576975E-2,6.08956E-3,7.0138134E-2,-3.571234E-1,9.941878E-3,-8.682946E-2,1.18950665E-1,2.3789994E-2,-8.2657667E-4,-3.5855377E-3,2.8404274E-3,-6.3579896E-4,8.21451E-3,1.6410185E-3,-1.3860554E-3,-2.53982E-2,3.0190172E-3,-3.729185E-4,-1.05022825E-2,-2.3679582E-3,9.015465E-4,7.98102E-3,1.3157432E-3,-1.0346656E-2],"categories":[],"categories_nodes":[],"categories_segments":[],"categories_sizes":[],"default_left":[0,0,0,0,0,0,0,0,0,0,0,0,0,0,0,0,0,0,0,0,0,0,0,0,0,0,0,0,0,0,0],"id":30,"left_children":[1,3,5,7,9,11,13,15,17,19,21,23,25,27,29,-1,-1,-1,-1,-1,-1,-1,-1,-1,-1,-1,-1,-1,-1,-1,-1],"loss_changes":[7.093719E-1,5.0412923E-1,5.805486E-1,5.9247553E-1,5.277574E-1,7.5933236E-1,8.3470047E-1,5.3422076E-1,6.20691E-1,3.3190814E-1,1.3498038E-1,4.585793E-1,4.5693678E-1,4.2397738E-1,4.8371527E-1,0E0,0E0,0E0,0E0,0E0,0E0,0E0,0E0,0E0,0E0,0E0,0E0,0E0,0E0,0E0,0E0],"parents":[2147483647,0,0,1,1,2,2,3,3,4,4,5,5,6,6,7,7,8,8,9,9,10,10,11,11,12,12,13,13,14,14],"right_children":[2,4,6,8,10,12,14,16,18,20,22,24,26,28,30,-1,-1,-1,-1,-1,-1,-1,-1,-1,-1,-1,-1,-1,-1,-1,-1],"split_conditions":[-2.2698455E-2,1.4570441E0,-5.686078E-1,-1.578557E-1,-3.9466925E-2,-6.540505E-1,-5.58049E-1,3.1263128E-1,2.703912E-2,1.7326282E0,-1.2244018E-1,-8.415769E-1,-6.837842E-1,-5.158867E-1,2.6610548E0,-8.2657667E-4,-3.5855377E-3,2.8404274E-3,-6.3579896E-4,8.21451E-3,1.6410185E-3,-1.3860554E-3,-2.53982E-2,3.0190172E-3,-3.729185E-4,-1.05022825E-2,-2.3679582E-3,9.015465E-4,7.98102E-3,1.3157432E-3,-1.0346656E-2],"split_indices":[15,28,8,13,15,8,6,16,13,28,6,28,6,28,21,0,0,0,0,0,0,0,0,0,0,0,0,0,0,0,0],"split_type":[0,0,0,0,0,0,0,0,0,0,0,0,0,0,0,0,0,0,0,0,0,0,0,0,0,0,0,0,0,0,0],"sum_hessian":[3.083E3,1.544E3,1.539E3,1.447E3,9.7E1,6.16E2,9.23E2,7.98E2,6.49E2,9.5E1,2E0,5.21E2,9.5E1,1.03E2,8.2E2,5.38E2,2.6E2,1.75E2,4.74E2,2.6E1,6.9E1,1E0,1E0,1.33E2,3.88E2,2.2E1,7.3E1,3E1,7.3E1,8.12E2,8E0],"tree_param":{"num_deleted":"0","num_feature":"31","num_nodes":"31","size_leaf_vector":"1"}},{"base_weights":[9.689937E-4,-1.9217083E-1,1.7380896E-1,-3.2725802E-1,-1.01064906E-1,7.5071126E-2,2.996465E-1,-4.4800627E-1,-2.850624E-1,-1.5551417E-1,-5.6798767E-2,3.5435244E-2,1.3132946E-1,2.5857332E-1,4.679887E-1,-2.0297864E-2,-2.6575942E-2,-1.0910386E-2,-1.6280254E-2,-3.744737E-3,-8.755389E-3,-1.0245013E-3,-7.2674737E-3,4.380965E-3,-1.09523244E-4,1.1172521E-2,3.9208513E-3,1.652038E-2,1.0979428E-2,2.1086505E-2,3.474155E-2],"categories":[],"categories_nodes":[],"categories_segments":[],"categories_sizes":[],"default_left":[0,0,0,0,0,0,0,0,0,0,0,0,0,0,0,0,0,0,0,0,0,0,0,0,0,0,0,0,0,0,0],"id":31,"left_children":[1,3,5,7,9,11,13,15,17,19,21,23,25,27,29,-1,-1,-1,-1,-1,-1,-1,-1,-1,-1,-1,-1,-1,-1,-1,-1],"loss_changes":[1.02917595E2,1.788628E1,2.019286E1,2.8579826E0,2.0905018E0,2.031198E0,4.8227463E0,3.109665E-1,1.1134224E0,6.029396E-1,1.5467311E0,1.0545709E0,1.8201051E0,1.5433006E0,1.165554E0,0E0,0E0,0E0,0E0,0E0,0E0,0E0,0E0,0E0,0E0,0E0,0E0,0E0,0E0,0E0,0E0],"parents":[2147483647,0,0,1,1,2,2,3,3,4,4,5,5,6,6,7,7,8,8,9,9,10,10,11,11,12,12,13,13,14,14],"right_children":[2,4,6,8,10,12,14,16,18,20,22,24,26,28,30,-1,-1,-1,-1,-1,-1,-1,-1,-1,-1,-1,-1,-1,-1,-1,-1],"split_conditions":[-3.0730143E-1,-4.8097602E-1,1.0705751E-1,-5.4237777E-1,-4.1428047E-1,-1.221798E-1,1.6251719E0,-2.3743817E-1,-2.6833174E-1,-2.6696742E-1,-1.3727391E-1,-1.890339E-1,-1.5952338E-1,-1.13893025E-1,4.138476E0,-2.0297864E-2,-2.6575942E-2,-1.0910386E-2,-1.6280254E-2,-3.744737E-3,-8.755389E-3,-1.0245013E-3,-7.2674737E-3,4.380965E-3,-1.09523244E-4,1.1172521E-2,3.9208513E-3,1.652038E-2,1.0979428E-2,2.1086505E-2,3.474155E-2],"split_indices":[23,23,23,23,23,23,23,0,0,0,0,0,0,0,23,0,0,0,0,0,0,0,0,0,0,0,0,0,0,0,0],"split_type":[0,0,0,0,0,0,0,0,0,0,0,0,0,0,0,0,0,0,0,0,0,0,0,0,0,0,0,0,0,0,0],"sum_hessian":[3.081E3,1.455E3,1.626E3,5.85E2,8.7E2,9.12E2,7.14E2,1.49E2,4.36E2,3.89E2,4.81E2,5.36E2,3.76E2,5.76E2,1.38E2,1.03E2,4.6E1,1.67E2,2.69E2,7.7E1,3.12E2,3.42E2,1.39E2,2.24E2,3.12E2,1.36E2,2.4E2,2E2,3.76E2,1.17E2,2.1E1],"tree_param":{"num_deleted":"0","num_feature":"31","num_nodes":"31","size_leaf_vector":"1"}},{"base_weights":[-2.453365E-3,1.2789611E-2,-5.0076608E-2,2.0692883E-2,-4.2522855E-2,-4.423292E-2,-1.9688484E-1,1.38867255E-2,6.99739E-2,1.3094291E-1,-5.521468E-2,3.3281237E-2,-5.437489E-2,8.979398E-3,-2.3275152E-1,5.1401043E-4,4.322641E-3,4.4125416E-3,-1.155871E-3,-3.524343E-3,1.1115237E-2,-3.3478916E-3,3.1273253E-3,4.139063E-3,-4.5927763E-3,-3.2444533E-3,5.133113E-4,-8.310766E-3,-1.8084053E-2],"categories":[],"categories_nodes":[],"categories_segments":[],"categories_sizes":[],"default_left":[0,0,0,0,0,0,0,0,0,0,0,0,0,0,0,0,0,0,0,0,0,0,0,0,0,0,0,0,0],"id":32,"left_children":[1,3,5,7,9,11,13,15,17,19,21,23,25,-1,27,-1,-1,-1,-1,-1,-1,-1,-1,-1,-1,-1,-1,-1,-1],"loss_changes":[2.2125185E0,1.0102581E0,6.252805E-1,6.769006E-1,6.434915E-1,5.6154597E-1,4.198786E-1,4.6417138E-1,4.1888893E-1,3.8372937E-1,3.775676E-1,5.217285E-1,4.288442E-1,0E0,1.6292346E-1,0E0,0E0,0E0,0E0,0E0,0E0,0E0,0E0,0E0,0E0,0E0,0E0,0E0,0E0],"parents":[2147483647,0,0,1,1,2,2,3,3,4,4,5,5,6,6,7,7,8,8,9,9,10,10,11,11,12,12,14,14],"right_children":[2,4,6,8,10,12,14,16,18,20,22,24,26,-1,28,-1,-1,-1,-1,-1,-1,-1,-1,-1,-1,-1,-1,-1,-1],"split_conditions":[4.9726912E-1,9.403002E-1,3.365883E0,4.82143E-1,-6.774058E-1,-6.214131E-1,-1.0147053E0,6.906099E-1,2.2315204E-2,1.4696897E0,1.4571136E0,9.549728E-2,9.803679E-1,8.979398E-3,1.5658203E-1,5.1401043E-4,4.322641E-3,4.4125416E-3,-1.155871E-3,-3.524343E-3,1.1115237E-2,-3.3478916E-3,3.1273253E-3,4.139063E-3,-4.5927763E-3,-3.2444533E-3,5.133113E-4,-8.310766E-3,-1.8084053E-2],"split_indices":[30,9,30,3,3,11,5,9,30,9,11,3,5,0,16,0,0,0,0,0,0,0,0,0,0,0,0,0,0],"split_type":[0,0,0,0,0,0,0,0,0,0,0,0,0,0,0,0,0,0,0,0,0,0,0,0,0,0,0,0,0],"sum_hessian":[3.046E3,2.308E3,7.38E2,2.02E3,2.88E2,7.11E2,2.7E1,1.776E3,2.44E2,1.9E1,2.69E2,8.2E1,6.29E2,2E0,2.5E1,1.693E3,8.3E1,2.04E2,4E1,6E0,1.3E1,2.45E2,2.4E1,5.9E1,2.3E1,5.41E2,8.8E1,1.8E1,7E0],"tree_param":{"num_deleted":"0","num_feature":"31","num_nodes":"29","size_leaf_vector":"1"}},{"base_weights":[-1.8148535E-3,-1.9557996E-1,1.5103407E-1,-3.3557487E-1,-1.20937556E-1,7.5174935E-2,2.9311255E-1,-3.988348E-1,-2.8225464E-1,-1.6838509E-1,-6.1532173E-2,3.0599454E-2,1.3516659E-1,2.5306642E-1,4.3674484E-1,-1.64272E-2,-2.247819E-2,-1.0406255E-2,-1.673673E-2,-6.5252865E-3,-1.1421091E-2,-6.93687E-4,-6.96409E-3,3.2628071E-3,-1.2754159E-3,1.008715E-2,4.112286E-3,1.641197E-2,9.447216E-3,-1.2237733E-2,2.2470215E-2],"categories":[],"categories_nodes":[],"categories_segments":[],"categories_sizes":[],"default_left":[0,0,0,0,0,0,0,0,0,0,0,0,0,0,0,0,0,0,0,0,0,0,0,0,0,0,0,0,0,0,0],"id":33,"left_children":[1,3,5,7,9,11,13,15,17,19,21,23,25,27,29,-1,-1,-1,-1,-1,-1,-1,-1,-1,-1,-1,-1,-1,-1,-1,-1],"loss_changes":[9.107155E1,1.4129013E1,1.8505264E1,1.4761238E0,2.4869528E0,2.9962673E0,3.3291206E0,6.118088E-1,9.3792534E-1,1.0890732E0,1.4617107E0,1.2558732E0,1.6675367E0,2.203497E0,1.2229328E0,0E0,0E0,0E0,0E0,0E0,0E0,0E0,0E0,0E0,0E0,0E0,0E0,0E0,0E0,0E0,0E0],"parents":[2147483647,0,0,1,1,2,2,3,3,4,4,5,5,6,6,7,7,8,8,9,9,10,10,11,11,12,12,13,13,14,14],"right_children":[2,4,6,8,10,12,14,16,18,20,22,24,26,28,30,-1,-1,-1,-1,-1,-1,-1,-1,-1,-1,-1,-1,-1,-1,-1,-1],"split_conditions":[-3.30477E-1,-5.0033253E-1,2.0464121E-1,-5.3489685E-1,-4.1428047E-1,-1.221798E-1,1.6251719E0,-3.1854105E-1,-3.0655658E-1,-2.2559959E-1,-2.045385E-1,-1.6176529E-1,-1.5218373E-1,-3.3272333E-2,-1.4022626E0,-1.64272E-2,-2.247819E-2,-1.0406255E-2,-1.673673E-2,-6.5252865E-3,-1.1421091E-2,-6.93687E-4,-6.96409E-3,3.2628071E-3,-1.2754159E-3,1.008715E-2,4.112286E-3,1.641197E-2,9.447216E-3,-1.2237733E-2,2.2470215E-2],"split_indices":[23,23,23,23,23,23,23,1,1,1,1,1,1,1,30,0,0,0,0,0,0,0,0,0,0,0,0,0,0,0,0],"split_type":[0,0,0,0,0,0,0,0,0,0,0,0,0,0,0,0,0,0,0,0,0,0,0,0,0,0,0,0,0,0,0],"sum_hessian":[3.073E3,1.355E3,1.718E3,4.7E2,8.85E2,1.121E3,5.97E2,2.12E2,2.58E2,4.91E2,3.94E2,6.44E2,4.77E2,4.69E2,1.28E2,9.2E1,1.2E2,1.09E2,1.49E2,3.03E2,1.88E2,2.45E2,1.49E2,3.98E2,2.46E2,2.1E2,2.67E2,2.14E2,2.55E2,2E0,1.26E2],"tree_param":{"num_deleted":"0","num_feature":"31","num_nodes":"31","size_leaf_vector":"1"}},{"base_weights":[-5.490151E-4,1.926823E-2,-1.6381327E-2,2.1341292E-2,-1.4417389E-1,2.6791582E-2,-2.2642441E-2,2.28193E-2,-1.9829689E-1,-2.8473943E-1,-6.1876614E-2,3.339116E-2,-2.2425449E-2,-3.9403923E-2,4.8166644E-4,3.6902972E-3,8.78926E-4,-1.2970917E-2,-2.852025E-3,-1.5761212E-2,-3.3078894E-3,1.2038382E-3,-9.351335E-3,2.7651265E-3,-4.579426E-3,-8.1657583E-4,-3.5509511E-3,1.3121562E-2,-2.1214019E-4],"categories":[],"categories_nodes":[],"categories_segments":[],"categories_sizes":[],"default_left":[0,0,0,0,0,0,0,0,0,0,0,0,0,0,0,0,0,0,0,0,0,0,0,0,0,0,0,0,0],"id":34,"left_children":[1,3,5,7,9,11,13,15,17,19,21,23,-1,25,27,-1,-1,-1,-1,-1,-1,-1,-1,-1,-1,-1,-1,-1,-1],"loss_changes":[9.516141E-1,4.594754E-1,4.563502E-1,4.3660307E-1,1.7904004E-1,6.862476E-1,5.7094544E-1,3.52221E-1,6.29068E-2,1.9125968E-2,1.3358785E-1,5.8562195E-1,0E0,6.2177885E-1,7.684088E-1,0E0,0E0,0E0,0E0,0E0,0E0,0E0,0E0,0E0,0E0,0E0,0E0,0E0,0E0],"parents":[2147483647,0,0,1,1,2,2,3,3,4,4,5,5,6,6,7,7,8,8,9,9,10,10,11,11,13,13,14,14],"right_children":[2,4,6,8,10,12,14,16,18,20,22,24,-1,26,28,-1,-1,-1,-1,-1,-1,-1,-1,-1,-1,-1,-1,-1,-1],"split_conditions":[-2.3058473E-1,4.321789E0,-8.244554E-1,6.058037E0,5.281163E0,1.8045341E0,5.464927E-2,-1.1899536E0,-6.276159E-1,4.7118917E-1,-3.7195122E-1,5.012335E-2,-2.2425449E-2,-2.6974195E-1,-3.4205148E-1,3.6902972E-3,8.78926E-4,-1.2970917E-2,-2.852025E-3,-1.5761212E-2,-3.3078894E-3,1.2038382E-3,-9.351335E-3,2.7651265E-3,-4.579426E-3,-8.1657583E-4,-3.5509511E-3,1.3121562E-2,-2.1214019E-4],"split_indices":[29,7,5,11,7,2,7,2,29,2,11,11,0,5,5,0,0,0,0,0,0,0,0,0,0,0,0,0,0],"split_type":[0,0,0,0,0,0,0,0,0,0,0,0,0,0,0,0,0,0,0,0,0,0,0,0,0,0,0,0,0],"sum_hessian":[3.031E3,1.346E3,1.685E3,1.33E3,1.6E1,2.13E2,1.472E3,1.322E3,8E0,5E0,1.1E1,2.11E2,2E0,8.53E2,6.19E2,1.22E2,1.2E3,5E0,3E0,4E0,1E0,7E0,4E0,1.8E2,3.1E1,4.94E2,3.59E2,1E1,6.09E2],"tree_param":{"num_deleted":"0","num_feature":"31","num_nodes":"29","size_leaf_vector":"1"}},{"base_weights":[3.5996432E-3,-4.894866E-2,6.221981E-2,-9.5672525E-2,-2.3072813E-2,3.5928912E-2,1.21838E-1,4.4933688E-2,-1.11951426E-1,-2.068745E-2,-2.4671733E-1,5.73532E-2,8.528974E-3,-1.9801654E-2,1.2505548E-1,7.387476E-4,1.8987827E-2,-2.8522627E-3,-6.1489223E-3,3.3003248E-3,-1.2981683E-3,-6.672951E-3,-2.0577732E-2,1.1935221E-2,2.601086E-3,1.1717494E-3,-5.9414664E-3,2.2560868E-2,5.864394E-3],"categories":[],"categories_nodes":[],"categories_segments":[],"categories_sizes":[],"default_left":[0,0,0,0,0,0,0,0,0,0,0,0,0,0,0,0,0,0,0,0,0,0,0,0,0,0,0,0,0],"id":35,"left_children":[1,3,5,7,9,11,13,15,17,19,21,23,25,-1,27,-1,-1,-1,-1,-1,-1,-1,-1,-1,-1,-1,-1,-1,-1],"loss_changes":[9.527612E0,1.9697037E0,2.2871842E0,1.3348899E0,5.5557644E-1,5.9592724E-1,7.9433393E-1,6.1035705E-1,3.0842495E-1,4.778567E-1,1.5043545E-1,5.386987E-1,8.513716E-1,0E0,1.0744829E0,0E0,0E0,0E0,0E0,0E0,0E0,0E0,0E0,0E0,0E0,0E0,0E0,0E0,0E0],"parents":[2147483647,0,0,1,1,2,2,3,3,4,4,5,5,6,6,7,7,8,8,9,9,10,10,11,11,12,12,14,14],"right_children":[2,4,6,8,10,12,14,16,18,20,22,24,26,-1,28,-1,-1,-1,-1,-1,-1,-1,-1,-1,-1,-1,-1,-1,-1],"split_conditions":[-1.6462554E-1,-2.6092118E-1,1.13082744E-1,-2.0325954E0,2.0809858E0,3.410276E-2,-2.0325954E0,1.5150115E0,-2.7954647E-1,-1.156991E0,-6.636471E-2,-1.6519E0,1.1840204E0,-1.9801654E-2,-1.4346173E0,7.387476E-4,1.8987827E-2,-2.8522627E-3,-6.1489223E-3,3.3003248E-3,-1.2981683E-3,-6.672951E-3,-2.0577732E-2,1.1935221E-2,2.601086E-3,1.1717494E-3,-5.9414664E-3,2.2560868E-2,5.864394E-3],"split_indices":[0,0,0,2,2,29,2,3,3,29,3,2,21,0,2,0,0,0,0,0,0,0,0,0,0,0,0,0,0],"split_type":[0,0,0,0,0,0,0,0,0,0,0,0,0,0,0,0,0,0,0,0,0,0,0,0,0,0,0,0,0],"sum_hessian":[3.091E3,1.63E3,1.461E3,5.8E2,1.05E3,1.015E3,4.46E2,6E1,5.2E2,1.04E3,1E1,5.69E2,4.46E2,2E0,4.44E2,5.6E1,4E0,8.8E1,4.32E2,5.9E1,9.81E2,7E0,3E0,1.5E1,5.54E2,4E2,4.6E1,9E0,4.35E2],"tree_param":{"num_deleted":"0","num_feature":"31","num_nodes":"29","size_leaf_vector":"1"}},{"base_weights":[2.3999393E-3,-1.5615481E-1,1.6591123E-1,-2.890546E-1,-7.3727116E-2,1.0458737E-1,3.147818E-1,-3.725762E-1,-2.4329929E-1,-1.19531736E-1,-2.8244687E-2,4.9235344E-2,1.4281633E-1,2.9621258E-1,6.0969687E-1,-2.0749992E-2,-1.7083677E-2,-1.3687174E-2,-1.061952E-2,-7.539622E-3,-5.0039063E-3,-2.8092747E-3,-1.782136E-4,1.7071835E-3,3.6833638E-3,5.6400793E-3,8.453925E-3,1.2482841E-2,1.7652525E-2,3.1354662E-2,4.8046173E-3],"categories":[],"categories_nodes":[],"categories_segments":[],"categories_sizes":[],"default_left":[0,0,0,0,0,0,0,0,0,0,0,0,0,0,0,0,0,0,0,0,0,0,0,0,0,0,0,0,0,0,0],"id":36,"left_children":[1,3,5,7,9,11,13,15,17,19,21,23,25,27,29,-1,-1,-1,-1,-1,-1,-1,-1,-1,-1,-1,-1,-1,-1,-1,-1],"loss_changes":[7.9150505E1,1.6958355E1,1.3688442E1,2.1755333E0,1.9924302E0,2.2486782E0,2.2180367E0,1.3089561E-1,3.0508614E-1,2.7498865E-1,3.321825E-1,1.5861475E-1,4.7752666E-1,1.0073586E0,1.6311264E-1,0E0,0E0,0E0,0E0,0E0,0E0,0E0,0E0,0E0,0E0,0E0,0E0,0E0,0E0,0E0,0E0],"parents":[2147483647,0,0,1,1,2,2,3,3,4,4,5,5,6,6,7,7,8,8,9,9,10,10,11,11,12,12,13,13,14,14],"right_children":[2,4,6,8,10,12,14,16,18,20,22,24,26,28,30,-1,-1,-1,-1,-1,-1,-1,-1,-1,-1,-1,-1,-1,-1,-1,-1],"split_conditions":[-2.8325087E-1,-4.7942916E-1,4.0398344E-1,-5.3489685E-1,-3.9413574E-1,-1.221798E-1,4.138476E0,-5.514943E-1,-5.097738E-1,-4.4893473E-1,2.1792213E-2,-1.8888453E-1,5.0459903E-2,1.0858762E0,1.2426986E0,-2.0749992E-2,-1.7083677E-2,-1.3687174E-2,-1.061952E-2,-7.539622E-3,-5.0039063E-3,-2.8092747E-3,-1.782136E-4,1.7071835E-3,3.6833638E-3,5.6400793E-3,8.453925E-3,1.2482841E-2,1.7652525E-2,3.1354662E-2,4.8046173E-3],"split_indices":[23,23,23,23,23,23,23,23,23,23,3,23,23,23,9,0,0,0,0,0,0,0,0,0,0,0,0,0,0,0,0],"split_type":[0,0,0,0,0,0,0,0,0,0,0,0,0,0,0,0,0,0,0,0,0,0,0,0,0,0,0,0,0,0,0],"sum_hessian":[3.051E3,1.549E3,1.502E3,5.92E2,9.57E2,1.065E3,4.37E2,2.07E2,3.85E2,4.76E2,4.81E2,4.36E2,6.29E2,4.13E2,2.4E1,8.2E1,1.25E2,1.9E2,1.95E2,1.8E2,2.96E2,2.25E2,2.56E2,2.71E2,1.65E2,2.96E2,3.33E2,2.3E2,1.83E2,2.3E1,1E0],"tree_param":{"num_deleted":"0","num_feature":"31","num_nodes":"31","size_leaf_vector":"1"}},{"base_weights":[-3.0869273E-3,-1.5376315E-1,1.5220593E-1,-2.674704E-1,-7.3322505E-2,9.662053E-2,2.8788808E-1,-3.7431893E-1,-2.3174287E-1,-2.4203435E-2,-1.21743724E-1,5.90718E-2,1.5617234E-1,2.4669275E-1,4.392414E-1,-1.5919982E-2,-2.1957142E-2,-1.0373433E-2,-1.757154E-2,-3.4695845E-3,1.230985E-3,-7.461173E-3,-3.5391164E-3,5.371976E-3,5.916959E-4,1.2088784E-2,5.125969E-3,1.9004012E-2,1.0748005E-2,2.2496583E-2,-1.3339295E-2],"categories":[],"categories_nodes":[],"categories_segments":[],"categories_sizes":[],"default_left":[0,0,0,0,0,0,0,0,0,0,0,0,0,0,0,0,0,0,0,0,0,0,0,0,0,0,0,0,0,0,0],"id":37,"left_children":[1,3,5,7,9,11,13,15,17,19,21,23,25,27,29,-1,-1,-1,-1,-1,-1,-1,-1,-1,-1,-1,-1,-1,-1,-1,-1],"loss_changes":[7.1366776E1,1.4139454E1,1.130019E1,2.3602295E0,2.1566458E0,2.376688E0,2.6101265E0,4.365387E-1,1.3303642E0,9.9892527E-1,6.2942314E-1,1.4975502E0,1.8674755E0,1.3785915E0,8.144169E-1,0E0,0E0,0E0,0E0,0E0,0E0,0E0,0E0,0E0,0E0,0E0,0E0,0E0,0E0,0E0,0E0],"parents":[2147483647,0,0,1,1,2,2,3,3,4,4,5,5,6,6,7,7,8,8,9,9,10,10,11,11,12,12,13,13,14,14],"right_children":[2,4,6,8,10,12,14,16,18,20,22,24,26,28,30,-1,-1,-1,-1,-1,-1,-1,-1,-1,-1,-1,-1,-1,-1,-1,-1],"split_conditions":[-2.8325087E-1,-4.7441435E-1,4.0398344E-1,-5.4237777E-1,-2.3662971E-1,-1.0059192E-2,2.1085699E0,-3.0744183E-1,-1.9063382E-1,-3.9413574E-1,-3.5306847E-1,-1.7595701E-1,-1.5218373E-1,-1.6176529E-1,2.3206666E0,-1.5919982E-2,-2.1957142E-2,-1.0373433E-2,-1.757154E-2,-3.4695845E-3,1.230985E-3,-7.461173E-3,-3.5391164E-3,5.371976E-3,5.916959E-4,1.2088784E-2,5.125969E-3,1.9004012E-2,1.0748005E-2,2.2496583E-2,-1.3339295E-2],"split_indices":[23,23,23,23,1,23,23,1,1,23,23,1,1,1,14,0,0,0,0,0,0,0,0,0,0,0,0,0,0,0,0],"split_type":[0,0,0,0,0,0,0,0,0,0,0,0,0,0,0,0,0,0,0,0,0,0,0,0,0,0,0,0,0,0,0],"sum_hessian":[3.048E3,1.547E3,1.501E3,6.4E2,9.07E2,1.066E3,4.35E2,1.58E2,4.82E2,4.51E2,4.56E2,6.55E2,4.11E2,3.44E2,9.1E1,8.8E1,7E1,4.03E2,7.9E1,2.34E2,2.17E2,2.95E2,1.61E2,3.23E2,3.32E2,1.57E2,2.54E2,6.4E1,2.8E2,9E1,1E0],"tree_param":{"num_deleted":"0","num_feature":"31","num_nodes":"31","size_leaf_vector":"1"}},{"base_weights":[7.0792396E-4,-3.716245E-2,5.856224E-2,-8.018973E-2,-1.7501332E-2,3.298644E-2,1.11382775E-1,-8.4953934E-2,1.5199861E-1,-2.9735807E-2,2.4275599E-2,1.06424965E-1,2.2581026E-2,1.5870929E-1,8.132099E-2,-7.9824246E-4,-4.938817E-3,1.2887447E-2,-2.3800817E-3,-2.1439763E-3,1.6852564E-4,5.0691795E-3,-7.102446E-5,-4.691515E-3,6.2330076E-3,1.4126402E-3,-3.8299821E-3,-1.331027E-2,8.3074765E-3,-1.5658254E-2,4.804146E-3],"categories":[],"categories_nodes":[],"categories_segments":[],"categories_sizes":[],"default_left":[0,0,0,0,0,0,0,0,0,0,0,0,0,0,0,0,0,0,0,0,0,0,0,0,0,0,0,0,0,0,0],"id":38,"left_children":[1,3,5,7,9,11,13,15,17,19,21,23,25,27,29,-1,-1,-1,-1,-1,-1,-1,-1,-1,-1,-1,-1,-1,-1,-1,-1],"loss_changes":[6.6955724E0,1.5610921E0,1.6295977E0,6.533997E-1,6.493316E-1,6.2114996E-1,5.476451E-1,5.400648E-1,2.6556274E-1,4.2745215E-1,5.707796E-1,3.8051772E-1,4.0493616E-1,5.247724E-1,1.44517E0,0E0,0E0,0E0,0E0,0E0,0E0,0E0,0E0,0E0,0E0,0E0,0E0,0E0,0E0,0E0,0E0],"parents":[2147483647,0,0,1,1,2,2,3,3,4,4,5,5,6,6,7,7,8,8,9,9,10,10,11,11,12,12,13,13,14,14],"right_children":[2,4,6,8,10,12,14,16,18,20,22,24,26,28,30,-1,-1,-1,-1,-1,-1,-1,-1,-1,-1,-1,-1,-1,-1,-1,-1],"split_conditions":[-1.3137904E-1,-2.6186323E-1,1.5885022E-1,1.6758089E0,2.8068003E-1,-4.02262E-1,-3.858998E-1,-2.7954647E-1,-2.3058473E-1,1.9425707E-1,-7.599597E-1,-2.3813365E0,1.8214185E0,-2.86365E0,-3.5827452E-1,-7.9824246E-4,-4.938817E-3,1.2887447E-2,-2.3800817E-3,-2.1439763E-3,1.6852564E-4,5.0691795E-3,-7.102446E-5,-4.691515E-3,6.2330076E-3,1.4126402E-3,-3.8299821E-3,-1.331027E-2,8.3074765E-3,-1.5658254E-2,4.804146E-3],"split_indices":[0,0,0,3,19,3,14,3,29,3,29,3,8,3,14,0,0,0,0,0,0,0,0,0,0,0,0,0,0,0,0],"split_type":[0,0,0,0,0,0,0,0,0,0,0,0,0,0,0,0,0,0,0,0,0,0,0,0,0,0,0,0,0,0,0],"sum_hessian":[3.054E3,1.846E3,1.208E3,5.78E2,1.268E3,8.15E2,3.93E2,5.67E2,1.1E1,9.81E2,2.87E2,1E2,7.15E2,1.51E2,2.42E2,9.5E1,4.72E2,7E0,4E0,7.02E2,2.79E2,7.1E1,2.16E2,8E0,9.2E1,6.77E2,3.8E1,2E0,1.49E2,8E0,2.34E2],"tree_param":{"num_deleted":"0","num_feature":"31","num_nodes":"31","size_leaf_vector":"1"}},{"base_weights":[2.623848E-3,1.3132905E-2,-2.9263362E-2,1.0104713E-1,1.0328839E-2,4.022396E-2,-4.693995E-2,2.3179609E-1,-5.737499E-2,-1.6873308E-1,1.1570993E-2,4.802548E-2,-1.2826899E-2,-5.5173557E-2,5.1272817E-2,1.3030043E-3,1.4737329E-2,-1.3717935E-4,-1.7591793E-2,1.0844022E-3,-1.3305622E-2,-9.853524E-4,8.8251365E-4,3.230401E-3,-3.7202702E-3,-8.156912E-3,-2.4823984E-3,1.1843077E-2,-3.429546E-4],"categories":[],"categories_nodes":[],"categories_segments":[],"categories_sizes":[],"default_left":[0,0,0,0,0,0,0,0,0,0,0,0,0,0,0,0,0,0,0,0,0,0,0,0,0,0,0,0,0],"id":39,"left_children":[1,3,5,7,9,11,13,15,17,19,21,23,-1,25,27,-1,-1,-1,-1,-1,-1,-1,-1,-1,-1,-1,-1,-1,-1],"loss_changes":[9.963149E-1,5.501689E-1,9.071444E-1,1.4425328E0,4.8416436E-1,3.5959965E-1,4.7831225E-1,4.8446393E-1,5.1381266E-1,2.8391775E-1,4.0992662E-1,3.032488E-1,0E0,3.1583738E-1,4.9790144E-1,0E0,0E0,0E0,0E0,0E0,0E0,0E0,0E0,0E0,0E0,0E0,0E0,0E0,0E0],"parents":[2147483647,0,0,1,1,2,2,3,3,4,4,5,5,6,6,7,7,8,8,9,9,10,10,11,11,13,13,14,14],"right_children":[2,4,6,8,10,12,14,16,18,20,22,24,-1,26,28,-1,-1,-1,-1,-1,-1,-1,-1,-1,-1,-1,-1,-1,-1],"split_conditions":[5.088132E-1,-2.0325954E0,-9.3552595E-1,-1.7368557E-2,-1.1046343E0,1.7261755E0,1.1784565E0,-7.559665E-1,1.1305357E0,-4.6736163E-1,-5.5812955E-1,-6.1528116E-1,-1.2826899E-2,-9.1047287E-1,-3.7706906E-1,1.3030043E-3,1.4737329E-2,-1.3717935E-4,-1.7591793E-2,1.0844022E-3,-1.3305622E-2,-9.853524E-4,8.8251365E-4,3.230401E-3,-3.7202702E-3,-8.156912E-3,-2.4823984E-3,1.1843077E-2,-3.429546E-4],"split_indices":[30,2,28,27,28,13,27,27,6,2,13,27,0,28,13,0,0,0,0,0,0,0,0,0,0,0,0,0,0],"split_type":[0,0,0,0,0,0,0,0,0,0,0,0,0,0,0,0,0,0,0,0,0,0,0,0,0,0,0,0,0],"sum_hessian":[2.971E3,2.235E3,7.36E2,6.8E1,2.167E3,1.49E2,5.87E2,3.7E1,3.1E1,1.4E1,2.153E3,1.46E2,3E0,5.42E2,4.5E1,9E0,2.8E1,2.7E1,4E0,5E0,9E0,3.5E2,1.803E3,1.29E2,1.7E1,2.5E1,5.17E2,1E1,3.5E1],"tree_param":{"num_deleted":"0","num_feature":"31","num_nodes":"29","size_leaf_vector":"1"}},{"base_weights":[-4.2822533E-3,-6.7752875E-2,3.4079533E-2,-1.164824E-1,-5.5239867E-2,1.3473999E-2,9.022742E-2,-1.23741925E-1,1.0134462E-1,-7.384356E-2,-1.5778063E-3,1.8372431E-2,-3.3579238E-2,1.3352405E-1,6.0095873E-2,-3.4768383E-3,-7.555358E-3,9.451363E-3,5.4647925E-4,4.113784E-3,-3.816307E-3,4.3141664E-4,-7.0587858E-3,4.7499753E-4,2.8251277E-3,1.11309E-2,-2.1739646E-3,7.021138E-3,-1.9004876E-2,2.4585293E-3,1.3949563E-2],"categories":[],"categories_nodes":[],"categories_segments":[],"categories_sizes":[],"default_left":[0,0,0,0,0,0,0,0,0,0,0,0,0,0,0,0,0,0,0,0,0,0,0,0,0,0,0,0,0,0,0],"id":40,"left_children":[1,3,5,7,9,11,13,15,17,19,21,23,25,27,29,-1,-1,-1,-1,-1,-1,-1,-1,-1,-1,-1,-1,-1,-1,-1,-1],"loss_changes":[7.336067E0,6.8563557E-1,2.17155E0,3.7782574E-1,9.033561E-1,3.175367E-1,6.4949083E-1,3.2175994E-1,6.1356656E-2,2.6673245E-1,3.3461094E-1,4.2099595E-1,3.3940694E-1,7.833016E-1,7.013385E-1,0E0,0E0,0E0,0E0,0E0,0E0,0E0,0E0,0E0,0E0,0E0,0E0,0E0,0E0,0E0,0E0],"parents":[2147483647,0,0,1,1,2,2,3,3,4,4,5,5,6,6,7,7,8,8,9,9,10,10,11,11,12,12,13,13,14,14],"right_children":[2,4,6,8,10,12,14,16,18,20,22,24,26,28,30,-1,-1,-1,-1,-1,-1,-1,-1,-1,-1,-1,-1,-1,-1,-1,-1],"split_conditions":[-2.4444953E-1,-3.2363725E-1,8.1065774E-2,3.6114125E0,1.0452193E0,1.1613065E0,-4.7874314E-1,-4.7874314E-1,-1.1076797E0,-3.227706E-1,1.7319628E0,2.687735E-1,-2.3662971E-1,2.9721942E0,2.5368044E0,-3.4768383E-3,-7.555358E-3,9.451363E-3,5.4647925E-4,4.113784E-3,-3.816307E-3,4.3141664E-4,-7.0587858E-3,4.7499753E-4,2.8251277E-3,1.11309E-2,-2.1739646E-3,7.021138E-3,-1.9004876E-2,2.4585293E-3,1.3949563E-2],"split_indices":[1,1,1,7,26,7,7,7,27,1,17,7,1,27,20,0,0,0,0,0,0,0,0,0,0,0,0,0,0,0,0],"split_type":[0,0,0,0,0,0,0,0,0,0,0,0,0,0,0,0,0,0,0,0,0,0,0,0,0,0,0,0,0,0,0],"sum_hessian":[3.011E3,1.134E3,1.877E3,2.3E2,9.04E2,1.374E3,5.03E2,2.23E2,7E0,6.71E2,2.33E2,1.245E3,1.29E2,2.05E2,2.98E2,7.6E1,1.47E2,3E0,4E0,1E1,6.61E2,2.18E2,1.5E1,1.011E3,2.34E2,4E0,1.25E2,2.03E2,2E0,2.85E2,1.3E1],"tree_param":{"num_deleted":"0","num_feature":"31","num_nodes":"31","size_leaf_vector":"1"}},{"base_weights":[5.9582334E-4,-2.3313614E-2,7.0926055E-2,-5.386047E-2,3.602177E-3,5.4452E-2,1.5390532E-1,-9.446355E-2,-3.7580375E-2,6.0021817E-3,-2.3549847E-1,1.4763386E-2,8.5918546E-2,2.8880244E-1,1.0347546E-1,-5.7223826E-3,-7.468747E-4,-2.3854584E-3,4.3770374E-4,4.439538E-4,-5.9336214E-3,-1.3396958E-2,-2.4431697E-3,3.556255E-3,-1.0173537E-3,3.386429E-3,7.4766013E-3,1.1708402E-2,2.523675E-2,-7.0484667E-3,6.550816E-3],"categories":[],"categories_nodes":[],"categories_segments":[],"categories_sizes":[],"default_left":[0,0,0,0,0,0,0,0,0,0,0,0,0,0,0,0,0,0,0,0,0,0,0,0,0,0,0,0,0,0,0],"id":41,"left_children":[1,3,5,7,9,11,13,15,17,19,21,23,25,27,29,-1,-1,-1,-1,-1,-1,-1,-1,-1,-1,-1,-1,-1,-1,-1,-1],"loss_changes":[5.103495E0,1.8624607E0,1.0442135E0,6.9779444E-1,6.92894E-1,8.03E-1,8.340769E-1,4.798348E-1,3.5662556E-1,4.2931244E-1,5.9562385E-2,5.6740844E-1,4.0528107E-1,2.8291702E-1,6.512977E-1,0E0,0E0,0E0,0E0,0E0,0E0,0E0,0E0,0E0,0E0,0E0,0E0,0E0,0E0,0E0,0E0],"parents":[2147483647,0,0,1,1,2,2,3,3,4,4,5,5,6,6,7,7,8,8,9,9,10,10,11,11,12,12,13,13,14,14],"right_children":[2,4,6,8,10,12,14,16,18,20,22,24,26,28,30,-1,-1,-1,-1,-1,-1,-1,-1,-1,-1,-1,-1,-1,-1,-1,-1],"split_conditions":[-4.9280632E-2,-2.5207543E-1,8.623547E-1,-3.1782857E-1,-5.2619115E-2,-1.16609044E-1,-6.407658E-1,7.183186E-1,3.6755627E-1,2.9603157E0,1.9425707E-1,-4.9140865E-1,2.632E-1,-7.872801E-1,-5.8874947E-1,-5.7223826E-3,-7.468747E-4,-2.3854584E-3,4.3770374E-4,4.439538E-4,-5.9336214E-3,-1.3396958E-2,-2.4431697E-3,3.556255E-3,-1.0173537E-3,3.386429E-3,7.4766013E-3,1.1708402E-2,2.523675E-2,-7.0484667E-3,6.550816E-3],"split_indices":[1,1,1,1,1,15,5,5,3,5,3,5,3,5,13,0,0,0,0,0,0,0,0,0,0,0,0,0,0,0,0],"split_type":[0,0,0,0,0,0,0,0,0,0,0,0,0,0,0,0,0,0,0,0,0,0,0,0,0,0,0,0,0,0,0],"sum_hessian":[3.033E3,2.264E3,7.69E2,1.06E3,1.204E3,6.43E2,1.26E2,3.02E2,7.58E2,1.193E3,1.1E1,2.85E2,3.58E2,3.3E1,9.3E1,2.41E2,6.1E1,6.22E2,1.36E2,1.167E3,2.6E1,9E0,2E0,1.09E2,1.76E2,2.8E2,7.8E1,2.8E1,5E0,9E0,8.4E1],"tree_param":{"num_deleted":"0","num_feature":"31","num_nodes":"31","size_leaf_vector":"1"}},{"base_weights":[-1.6424601E-5,9.344795E-3,-2.8997019E-2,-3.5812072E-2,1.5411687E-2,-3.372657E-2,1.3476497E-1,-2.5211053E-2,-1.9334435E-1,4.1835487E-2,3.2372312E-3,1.3161498E-1,-3.838911E-2,1.7956741E-1,-9.695272E-3,-1.5490948E-3,9.224606E-3,9.032759E-4,-1.41468635E-2,8.173906E-4,3.990201E-3,-8.955724E-3,2.547125E-4,-4.607634E-3,1.1704887E-2,-6.816236E-4,-3.5007026E-3,1.5352125E-2,4.8557045E-3],"categories":[],"categories_nodes":[],"categories_segments":[],"categories_sizes":[],"default_left":[0,0,0,0,0,0,0,0,0,0,0,0,0,0,0,0,0,0,0,0,0,0,0,0,0,0,0,0,0],"id":42,"left_children":[1,3,5,7,9,11,13,15,17,19,21,23,25,27,-1,-1,-1,-1,-1,-1,-1,-1,-1,-1,-1,-1,-1,-1,-1],"loss_changes":[8.233761E-1,6.290204E-1,5.7846475E-1,4.4936636E-1,6.5065426E-1,5.608801E-1,3.4404895E-1,3.1551796E-1,3.271054E-1,6.1610687E-1,4.7025433E-1,4.8021927E-1,5.486605E-1,1.6988605E-1,0E0,0E0,0E0,0E0,0E0,0E0,0E0,0E0,0E0,0E0,0E0,0E0,0E0,0E0,0E0],"parents":[2147483647,0,0,1,1,2,2,3,3,4,4,5,5,6,6,7,7,8,8,9,9,10,10,11,11,12,12,13,13],"right_children":[2,4,6,8,10,12,14,16,18,20,22,24,26,28,-1,-1,-1,-1,-1,-1,-1,-1,-1,-1,-1,-1,-1,-1,-1],"split_conditions":[4.9726912E-1,-7.899904E-1,2.616572E0,-4.0223363E-1,-4.7874314E-1,-1.156991E0,1.6975603E0,-2.516457E-1,-8.705486E-1,-5.0059557E-1,-8.4140295E-1,-1.4216784E0,-2.3833525E-1,-9.824098E-2,-9.695272E-3,-1.5490948E-3,9.224606E-3,9.032759E-4,-1.41468635E-2,8.173906E-4,3.990201E-3,-8.955724E-3,2.547125E-4,-4.607634E-3,1.1704887E-2,-6.816236E-4,-3.5007026E-3,1.5352125E-2,4.8557045E-3],"split_indices":[30,7,8,6,7,29,30,10,7,8,5,29,10,29,0,0,0,0,0,0,0,0,0,0,0,0,0,0,0],"split_type":[0,0,0,0,0,0,0,0,0,0,0,0,0,0,0,0,0,0,0,0,0,0,0,0,0,0,0,0,0],"sum_hessian":[3.033E3,2.293E3,7.4E2,2.71E2,2.022E3,7.2E2,2E1,2.55E2,1.6E1,6.37E2,1.385E3,1.9E1,7.01E2,1.8E1,2E0,2.49E2,6E0,5E0,1.1E1,3.82E2,2.55E2,1.3E1,1.372E3,6E0,1.3E1,3.94E2,3.07E2,6E0,1.2E1],"tree_param":{"num_deleted":"0","num_feature":"31","num_nodes":"29","size_leaf_vector":"1"}},{"base_weights":[2.7322506E-3,-3.4960583E-2,4.4270467E-2,5.9158236E-2,-3.9569475E-2,3.3216357E-2,1.5348133E-1,4.497696E-2,2.9963163E-1,-6.9236405E-2,-2.2214971E-2,2.0862956E-2,6.517064E-2,-8.460828E-2,1.6738003E-1,3.2528646E-3,-7.5388574E-3,1.9531889E-2,6.653309E-4,-8.515849E-3,-3.06866E-3,-1.3956305E-3,1.4180115E-3,4.025821E-3,5.874526E-4,3.6774518E-3,-1.0633554E-2,-1.45505415E-2,1.6347185E-3,9.612787E-3,3.2154948E-3],"categories":[],"categories_nodes":[],"categories_segments":[],"categories_sizes":[],"default_left":[0,0,0,0,0,0,0,0,0,0,0,0,0,0,0,0,0,0,0,0,0,0,0,0,0,0,0,0,0,0,0],"id":43,"left_children":[1,3,5,7,9,11,13,15,17,19,21,23,25,27,29,-1,-1,-1,-1,-1,-1,-1,-1,-1,-1,-1,-1,-1,-1,-1,-1],"loss_changes":[4.7722144E0,6.955265E-1,1.7453837E0,2.422899E-1,7.8310084E-1,5.189129E-1,4.542768E-1,2.928273E-1,9.903127E-2,4.362347E-1,2.782889E-1,5.166335E-1,8.699696E-1,2.0320691E-1,3.1069255E-1,0E0,0E0,0E0,0E0,0E0,0E0,0E0,0E0,0E0,0E0,0E0,0E0,0E0,0E0,0E0,0E0],"parents":[2147483647,0,0,1,1,2,2,3,3,4,4,5,5,6,6,7,7,8,8,9,9,10,10,11,11,12,12,13,13,14,14],"right_children":[2,4,6,8,10,12,14,16,18,20,22,24,26,28,30,-1,-1,-1,-1,-1,-1,-1,-1,-1,-1,-1,-1,-1,-1,-1,-1],"split_conditions":[-1.655814E-1,-1.9709263E0,7.659472E-1,-2.0202458E-1,-2.5825927E-1,5.751554E-1,-1.156991E0,-2.4551262E-1,-1.7351253E-1,-2.9562274E-1,1.77823E0,-6.612903E-1,6.1531025E-1,-5.849334E-1,6.9582146E-1,3.2528646E-3,-7.5388574E-3,1.9531889E-2,6.653309E-4,-8.515849E-3,-3.06866E-3,-1.3956305E-3,1.4180115E-3,4.025821E-3,5.874526E-4,3.6774518E-3,-1.0633554E-2,-1.45505415E-2,1.6347185E-3,9.612787E-3,3.2154948E-3],"split_indices":[0,2,0,0,0,17,29,0,0,0,21,2,0,7,29,0,0,0,0,0,0,0,0,0,0,0,0,0,0,0,0],"split_type":[0,0,0,0,0,0,0,0,0,0,0,0,0,0,0,0,0,0,0,0,0,0,0,0,0,0,0,0,0,0,0],"sum_hessian":[3.046E3,1.597E3,1.449E3,7.4E1,1.523E3,1.317E3,1.32E2,7.1E1,3E0,5.61E2,9.62E2,9.51E2,3.66E2,7E0,1.25E2,6.5E1,6E0,2E0,1E0,3.9E1,5.22E2,8.65E2,9.7E1,1.25E2,8.26E2,3.56E2,1E1,2E0,5E0,1E2,2.5E1],"tree_param":{"num_deleted":"0","num_feature":"31","num_nodes":"31","size_leaf_vector":"1"}},{"base_weights":[8.942277E-4,-4.448623E-2,3.747225E-2,-8.841221E-2,-3.3204615E-2,2.4424E-2,1.00644626E-1,-1.0488838E-1,4.311786E-3,1.3803108E-1,-3.5456132E-2,4.6145454E-2,8.526182E-3,7.255367E-2,3.0423558E-1,-5.6062364E-3,5.5420115E-3,5.4080035E-3,-2.8693816E-3,8.516377E-3,-7.0455684E-3,-7.328976E-3,-1.6022047E-3,-4.1101515E-4,2.9090226E-3,8.262448E-4,-3.009601E-3,4.8479945E-3,-2.0392432E-3,1.0346632E-3,1.6065516E-2],"categories":[],"categories_nodes":[],"categories_segments":[],"categories_sizes":[],"default_left":[0,0,0,0,0,0,0,0,0,0,0,0,0,0,0,0,0,0,0,0,0,0,0,0,0,0,0,0,0,0,0],"id":44,"left_children":[1,3,5,7,9,11,13,15,17,19,21,23,25,27,29,-1,-1,-1,-1,-1,-1,-1,-1,-1,-1,-1,-1,-1,-1,-1,-1],"loss_changes":[4.96153E0,6.581359E-1,1.3617404E0,4.1599655E-1,4.1472363E-1,4.73736E-1,1.5964215E0,3.73039E-1,2.7531692E-1,1.50125E-1,3.934183E-1,3.7996757E-1,4.3742248E-1,6.954955E-1,1.5795875E-1,0E0,0E0,0E0,0E0,0E0,0E0,0E0,0E0,0E0,0E0,0E0,0E0,0E0,0E0,0E0,0E0],"parents":[2147483647,0,0,1,1,2,2,3,3,4,4,5,5,6,6,7,7,8,8,9,9,10,10,11,11,12,12,13,13,14,14],"right_children":[2,4,6,8,10,12,14,16,18,20,22,24,26,28,30,-1,-1,-1,-1,-1,-1,-1,-1,-1,-1,-1,-1,-1,-1,-1,-1],"split_conditions":[-2.2164682E-1,-3.2028687E-1,3.042024E-1,1.625469E0,-2.1674616E0,-4.6067247E-1,1.3255928E0,2.315159E0,-7.1631145E-1,8.8427645E-1,-9.071659E-1,-8.192843E-1,1.055523E0,9.5406073E-1,-7.7534354E-1,-5.6062364E-3,5.5420115E-3,5.4080035E-3,-2.8693816E-3,8.516377E-3,-7.0455684E-3,-7.328976E-3,-1.6022047E-3,-4.1101515E-4,2.9090226E-3,8.262448E-4,-3.009601E-3,4.8479945E-3,-2.0392432E-3,1.0346632E-3,1.6065516E-2],"split_indices":[1,1,1,2,2,10,16,7,28,12,7,7,7,10,7,0,0,0,0,0,0,0,0,0,0,0,0,0,0,0,0],"split_type":[0,0,0,0,0,0,0,0,0,0,0,0,0,0,0,0,0,0,0,0,0,0,0,0,0,0,0,0,0,0,0],"sum_hessian":[2.987E3,1.333E3,1.654E3,2.71E2,1.062E3,1.372E3,2.82E2,2.3E2,4.1E1,1.3E1,1.049E3,5.79E2,7.93E2,2.49E2,3.3E1,2.23E2,7E0,1.5E1,2.6E1,1.2E1,1E0,3E1,1.019E3,1.05E2,4.74E2,7.11E2,8.2E1,2.05E2,4.4E1,2E0,3.1E1],"tree_param":{"num_deleted":"0","num_feature":"31","num_nodes":"31","size_leaf_vector":"1"}},{"base_weights":[6.2689455E-3,1.5652744E-3,4.0475525E-2,1.00005575E-1,-2.799034E-4,3.5630667E-1,3.4221932E-2,2.8786662E-1,6.1841432E-2,2.4643157E-2,-6.0673687E-3,2.0715592E-2,7.043123E-3,1.1594354E-1,2.0048335E-2,3.0201932E-3,2.501142E-2,-3.8953465E-3,6.3586845E-3,2.1921904E-3,-2.7097499E-3,-1.0693533E-3,5.793348E-4,-1.1702651E-2,7.0812195E-3,-2.310196E-3,1.7638874E-3],"categories":[],"categories_nodes":[],"categories_segments":[],"categories_sizes":[],"default_left":[0,0,0,0,0,0,0,0,0,0,0,0,0,0,0,0,0,0,0,0,0,0,0,0,0,0,0],"id":45,"left_children":[1,3,5,7,9,11,13,15,17,19,21,-1,-1,23,25,-1,-1,-1,-1,-1,-1,-1,-1,-1,-1,-1,-1],"loss_changes":[4.8713124E-1,4.8373497E-1,7.1068555E-1,3.3350617E-1,3.7734064E-1,2.9117227E-2,4.1465962E-1,3.5621947E-1,3.9337087E-1,7.486516E-1,5.7442355E-1,0E0,0E0,5.095228E-1,3.123967E-1,0E0,0E0,0E0,0E0,0E0,0E0,0E0,0E0,0E0,0E0,0E0,0E0],"parents":[2147483647,0,0,1,1,2,2,3,3,4,4,5,5,6,6,7,7,8,8,9,9,10,10,13,13,14,14],"right_children":[2,4,6,8,10,12,14,16,18,20,22,-1,-1,24,26,-1,-1,-1,-1,-1,-1,-1,-1,-1,-1,-1,-1],"split_conditions":[1.7252886E0,-2.1674616E0,-6.981739E-1,-5.045635E-1,-2.7954647E-1,-3.2666442E-1,1.209129E0,-8.9051443E-1,-4.6362206E-2,9.9626046E-1,1.0407085E-1,2.0715592E-2,7.043123E-3,-6.3440484E-1,-2.041194E-1,3.0201932E-3,2.501142E-2,-3.8953465E-3,6.3586845E-3,2.1921904E-3,-2.7097499E-3,-1.0693533E-3,5.793348E-4,-1.1702651E-2,7.0812195E-3,-2.310196E-3,1.7638874E-3],"split_indices":[20,2,13,3,3,4,22,3,3,4,3,0,0,10,3,0,0,0,0,0,0,0,0,0,0,0,0],"split_type":[0,0,0,0,0,0,0,0,0,0,0,0,0,0,0,0,0,0,0,0,0,0,0,0,0,0,0],"sum_hessian":[3.027E3,2.662E3,3.65E2,4.8E1,2.614E3,6E0,3.59E2,7E0,4.1E1,4.92E2,2.122E3,4E0,2E0,5.2E1,3.07E2,4E0,3E0,1.3E1,2.8E1,3.96E2,9.6E1,1.136E3,9.86E2,3E0,4.9E1,5.7E1,2.5E2],"tree_param":{"num_deleted":"0","num_feature":"31","num_nodes":"27","size_leaf_vector":"1"}},{"base_weights":[-8.6991553E-4,-1.4938462E-1,1.31756E-1,-2.6337188E-1,-8.100354E-2,8.324169E-2,2.739093E-1,-3.509103E-1,-2.2535978E-1,-1.2553915E-1,-4.2440932E-2,2.841965E-2,1.26118E-1,2.5218073E-1,5.414561E-1,-2.1816455E-3,-1.7627394E-2,-1.1676855E-2,-6.9041112E-3,-7.1122567E-3,-4.823138E-3,-2.037868E-4,-3.605504E-3,1.5162595E-3,-1.1510829E-2,4.876241E-3,7.5587006E-3,1.2880911E-2,-3.7957577E-3,4.95455E-3,2.7664656E-2],"categories":[],"categories_nodes":[],"categories_segments":[],"categories_sizes":[],"default_left":[0,0,0,0,0,0,0,0,0,0,0,0,0,0,0,0,0,0,0,0,0,0,0,0,0,0,0,0,0,0,0],"id":46,"left_children":[1,3,5,7,9,11,13,15,17,19,21,23,25,27,29,-1,-1,-1,-1,-1,-1,-1,-1,-1,-1,-1,-1,-1,-1,-1,-1],"loss_changes":[6.029219E1,1.1234028E1,1.1128788E1,1.7211075E0,1.5472102E0,2.8335505E0,2.2527657E0,6.613159E-2,2.3895836E-1,1.8980742E-1,5.529016E-1,2.6868033E-1,4.7028065E-1,7.010498E-1,1.0226345E-1,0E0,0E0,0E0,0E0,0E0,0E0,0E0,0E0,0E0,0E0,0E0,0E0,0E0,0E0,0E0,0E0],"parents":[2147483647,0,0,1,1,2,2,3,3,4,4,5,5,6,6,7,7,8,8,9,9,10,10,11,11,12,12,13,13,14,14],"right_children":[2,4,6,8,10,12,14,16,18,20,22,24,26,28,30,-1,-1,-1,-1,-1,-1,-1,-1,-1,-1,-1,-1,-1,-1,-1,-1],"split_conditions":[-3.0730143E-1,-4.8899722E-1,4.654448E-1,-5.4237777E-1,-4.1428047E-1,-1.221798E-1,4.138476E0,-1.6352496E0,1.3053222E0,-4.4327798E-1,-2.6356786E-1,3.9218202E0,7.098832E-2,2.5853097E0,-1.0649958E0,-2.1816455E-3,-1.7627394E-2,-1.1676855E-2,-6.9041112E-3,-7.1122567E-3,-4.823138E-3,-2.037868E-4,-3.605504E-3,1.5162595E-3,-1.1510829E-2,4.876241E-3,7.5587006E-3,1.2880911E-2,-3.7957577E-3,4.95455E-3,2.7664656E-2],"split_indices":[23,23,23,23,23,23,23,27,2,23,27,27,23,27,3,0,0,0,0,0,0,0,0,0,0,0,0,0,0,0,0],"split_type":[0,0,0,0,0,0,0,0,0,0,0,0,0,0,0,0,0,0,0,0,0,0,0,0,0,0,0,0,0,0,0],"sum_hessian":[3.059E3,1.443E3,1.616E3,5.4E2,9.03E2,1.206E3,4.1E2,1.61E2,3.79E2,4.18E2,4.85E2,5.3E2,6.76E2,3.81E2,2.9E1,1E0,1.6E2,3.45E2,3.4E1,2.63E2,1.55E2,2.12E2,2.73E2,5.27E2,3E0,3.18E2,3.58E2,3.75E2,6E0,1E0,2.8E1],"tree_param":{"num_deleted":"0","num_feature":"31","num_nodes":"31","size_leaf_vector":"1"}},{"base_weights":[-2.547038E-3,-2.562912E-2,4.3078627E-2,-4.5192365E-2,-5.8267247E-3,3.4355227E-2,1.01260535E-1,4.9174935E-2,-5.1786292E-2,1.3697888E-1,-8.859239E-3,4.4980034E-2,-3.8548984E-2,1.4324406E-1,-7.4678375E-3,4.6650395E-3,-2.5962293E-3,-2.0092882E-3,-4.533031E-3,4.0743282E-4,1.5392356E-2,4.577057E-4,-1.1220752E-3,3.04851E-3,8.9776964E-4,-2.4645207E-3,1.0273614E-2,6.165457E-3,2.1085816E-2,-4.371762E-3,9.838221E-3],"categories":[],"categories_nodes":[],"categories_segments":[],"categories_sizes":[],"default_left":[0,0,0,0,0,0,0,0,0,0,0,0,0,0,0,0,0,0,0,0,0,0,0,0,0,0,0,0,0,0,0],"id":47,"left_children":[1,3,5,7,9,11,13,15,17,19,21,23,25,27,29,-1,-1,-1,-1,-1,-1,-1,-1,-1,-1,-1,-1,-1,-1,-1,-1],"loss_changes":[3.2100074E0,7.838323E-1,5.162462E-1,6.3599825E-1,4.3730485E-1,6.926712E-1,6.0818803E-1,3.0373847E-1,4.2567325E-1,4.5976424E-1,2.4168696E-1,3.3553326E-1,3.089375E-1,4.809252E-1,6.378171E-1,0E0,0E0,0E0,0E0,0E0,0E0,0E0,0E0,0E0,0E0,0E0,0E0,0E0,0E0,0E0,0E0],"parents":[2147483647,0,0,1,1,2,2,3,3,4,4,5,5,6,6,7,7,8,8,9,9,10,10,11,11,12,12,13,13,14,14],"right_children":[2,4,6,8,10,12,14,16,18,20,22,24,26,28,30,-1,-1,-1,-1,-1,-1,-1,-1,-1,-1,-1,-1,-1,-1,-1,-1],"split_conditions":[-1.0077507E-1,-2.266517E-1,7.659472E-1,-2.0325954E0,-1.8204507E0,1.0015675E0,7.2247785E-1,3.624982E-1,7.052159E-1,3.624982E-1,-5.0928575E-1,-3.0757353E-2,1.5763831E0,5.469196E0,1.3053222E0,4.6650395E-3,-2.5962293E-3,-2.0092882E-3,-4.533031E-3,4.0743282E-4,