{"learner":{"attributes":{"best_iteration":"0","best_score":"0.8199650856141198","scikit_learn":"{\"_estimator_type\": \"regressor\"}"},"feature_names":[],"feature_types":[],"gradient_booster":{"model":{"cats":{"enc":[],"feature_segments":[],"sorted_idx":[]},"gbtree_model_param":{"num_parallel_tree":"1","num_trees":"21"},"iteration_indptr":[0,1,2,3,4,5,6,7,8,9,10,11,12,13,14,15,16,17,18,19,20,21],"tree_info":[0,0,0,0,0,0,0,0,0,0,0,0,0,0,0,0,0,0,0,0,0],"trees":[{"base_weights":[-6.5082056E-3,-5.986305E-1,1.1595569E-2,-2.8372866E-1,-1.5590665E0,1.5638417E0,4.7092135E-3,-3.0934421E-2,8.617099E-3,-1.3884719E-1,-4.6440184E-2,2.1032119E-1,3.50485E-2,-2.2798453E-2,7.0006296E-4],"categories":[],"categories_nodes":[],"categories_segments":[],"categories_sizes":[],"default_left":[0,0,0,0,0,0,0,0,0,0,0,0,0,0,0],"id":0,"left_children":[1,3,5,7,9,11,13,-1,-1,-1,-1,-1,-1,-1,-1],"loss_changes":[3.2519634E1,2.6777523E1,3.1461988E1,1.0647433E1,1.43075905E1,2.6694141E1,1.2557228E1,0E0,0E0,0E0,0E0,0E0,0E0,0E0,0E0],"parents":[2147483647,0,0,1,1,2,2,3,3,4,4,5,5,6,6],"right_children":[2,4,6,8,10,12,14,-1,-1,-1,-1,-1,-1,-1,-1],"split_conditions":[-3.1769451E-1,4.136363E-1,-3.1660107E-1,9.3272626E-1,-2.452134E-1,-1.0454036E0,-3.1230667E-1,-3.0934421E-2,8.617099E-3,-1.3884719E-1,-4.6440184E-2,2.1032119E-1,3.50485E-2,-2.2798453E-2,7.0006296E-4],"split_indices":[4,7,4,5,34,21,4,0,0,0,0,0,0,0,0],"split_type":[0,0,0,0,0,0,0,0,0,0,0,0,0,0,0],"sum_hessian":[3.032E3,8.9E1,2.943E3,6.8E1,2.1E1,1.2E1,2.931E3,3.9E1,2.9E1,6E0,1.5E1,2E0,1E1,5.7E1,2.874E3],"tree_param":{"num_deleted":"0","num_feature":"36","num_nodes":"15","size_leaf_vector":"1"}},{"base_weights":[4.0096226E-3,-3.813306E-1,1.7327677E-2,-8.6408216E-1,2.636903E-1,1.6987046E0,1.0390594E-2,-7.3300906E-2,-1.645981E-2,7.67976E-2,-1.0347044E-2,1.3778494E-1,9.121376E-3,-1.3019129E-3,5.310957E-3],"categories":[],"categories_nodes":[],"categories_segments":[],"categories_sizes":[],"default_left":[0,0,0,0,0,0,0,0,0,0,0,0,0,0,0],"id":1,"left_children":[1,3,5,7,9,11,13,-1,-1,-1,-1,-1,-1,-1,-1],"loss_changes":[1.5515458E1,3.167772E1,3.406413E1,1.8191483E1,2.6663553E1,1.8729637E1,1.01648445E1,0E0,0E0,0E0,0E0,0E0,0E0,0E0,0E0],"parents":[2147483647,0,0,1,1,2,2,3,3,4,4,5,5,6,6],"right_children":[2,4,6,8,10,12,14,-1,-1,-1,-1,-1,-1,-1,-1],"split_conditions":[-3.1769451E-1,1.1667317E0,-3.1660107E-1,-1.5218493E0,-1.8354027E0,-3.679276E-3,5.5763423E-1,-7.3300906E-2,-1.645981E-2,7.67976E-2,-1.0347044E-2,1.3778494E-1,9.121376E-3,-1.3019129E-3,5.310957E-3],"split_indices":[4,5,4,1,1,6,5,0,0,0,0,0,0,0,0],"split_type":[0,0,0,0,0,0,0,0,0,0,0,0,0,0,0],"sum_hessian":[3.021E3,1E2,2.921E3,5.7E1,4.3E1,1.1E1,2.91E3,2.6E1,3.1E1,1.1E1,3.2E1,6E0,5E0,2.109E3,8.01E2],"tree_param":{"num_deleted":"0","num_feature":"36","num_nodes":"15","size_leaf_vector":"1"}},{"base_weights":[2.7562946E-3,-4.541398E-1,2.1337252E-2,-1.7907953E0,-3.0141753E-1,3.871225E-1,9.459445E-3,-1.0223106E-1,2.5032235E-2,-2.0436136E-2,5.4549374E-2,7.679772E-2,4.346041E-3,3.0035919E-2,2.5226362E-4],"categories":[],"categories_nodes":[],"categories_segments":[],"categories_sizes":[],"default_left":[0,0,0,0,0,0,0,0,0,0,0,0,0,0,0],"id":2,"left_children":[1,3,5,7,9,11,13,-1,-1,-1,-1,-1,-1,-1,-1],"loss_changes":[2.585193E1,2.3752535E1,1.2709007E1,8.003147E0,1.6582432E1,3.1595566E1,7.3960905E0,0E0,0E0,0E0,0E0,0E0,0E0,0E0,0E0],"parents":[2147483647,0,0,1,1,2,2,3,3,4,4,5,5,6,6],"right_children":[2,4,6,8,10,12,14,-1,-1,-1,-1,-1,-1,-1,-1],"split_conditions":[-2.8671885E-1,-2.0375323E0,-1.6922743E0,1.1667317E0,1.0534661E0,-1.0110896E0,-1.9875224E0,-1.0223106E-1,2.5032235E-2,-2.0436136E-2,5.4549374E-2,7.679772E-2,4.346041E-3,3.0035919E-2,2.5226362E-4],"split_indices":[3,0,20,5,5,0,0,0,0,0,0,0,0,0,0],"split_type":[0,0,0,0,0,0,0,0,0,0,0,0,0,0,0],"sum_hessian":[3.043E3,1.18E2,2.925E3,1.1E1,1.07E2,9.1E1,2.834E3,1E1,1E0,1E2,7E0,1.8E1,7.3E1,2E1,2.814E3],"tree_param":{"num_deleted":"0","num_feature":"36","num_nodes":"15","size_leaf_vector":"1"}},{"base_weights":[-1.6320369E-3,-4.613627E-1,1.7517423E-2,-9.8991627E-1,-1.05139844E-1,1.52088255E-2,1.6942737E-1,-6.5665536E-2,1.2332825E-2,-1.4112038E-2,1.3779021E-2,7.221768E-2,6.135019E-4],"categories":[],"categories_nodes":[],"categories_segments":[],"categories_sizes":[],"default_left":[0,0,0,0,0,0,0,0,0,0,0,0,0],"id":3,"left_children":[1,3,5,7,9,11,-1,-1,-1,-1,-1,-1,-1],"loss_changes":[2.6859045E1,2.286643E1,2.2742981E1,1.9919071E1,5.0672965E0,1.2279742E1,0E0,0E0,0E0,0E0,0E0,0E0,0E0],"parents":[2147483647,0,0,1,1,2,2,3,3,4,4,5,5],"right_children":[2,4,6,8,10,12,-1,-1,-1,-1,-1,-1,-1],"split_conditions":[-2.8671885E-1,-1.4235386E0,9.26193E0,4.7388816E-1,4.14628E-1,-2.0467854E0,1.6942737E-1,-6.5665536E-2,1.2332825E-2,-1.4112038E-2,1.3779021E-2,7.221768E-2,6.135019E-4],"split_indices":[3,1,23,20,6,1,0,0,0,0,0,0,0],"split_type":[0,0,0,0,0,0,0,0,0,0,0,0,0],"sum_hessian":[3.049E3,1.21E2,2.928E3,4.8E1,7.3E1,2.927E3,1E0,3.8E1,1E1,5E1,2.3E1,5E0,2.922E3],"tree_param":{"num_deleted":"0","num_feature":"36","num_nodes":"13","size_leaf_vector":"1"}},{"base_weights":[8.666894E-3,6.5068286E-3,1.6519168E-1,3.6538146E-2,-1.029485E-1,1.5042884E-3,2.4902344E-2,-2.4314206E-3,-2.2261415E-2],"categories":[],"categories_nodes":[],"categories_segments":[],"categories_sizes":[],"default_left":[0,0,0,0,0,0,0,0,0],"id":4,"left_children":[1,3,-1,5,7,-1,-1,-1,-1],"loss_changes":[2.1730425E1,1.00458145E1,0E0,7.12585E0,1.2212325E1,0E0,0E0,0E0,0E0],"parents":[2147483647,0,0,1,1,3,3,4,4],"right_children":[2,4,-1,6,8,-1,-1,-1,-1],"split_conditions":[9.26193E0,3.9657295E-1,1.6519168E-1,3.0273738E0,1.1563935E0,1.5042884E-3,2.4902344E-2,-2.4314206E-3,-2.2261415E-2],"split_indices":[23,12,0,35,35,0,0,0,0],"split_type":[0,0,0,0,0,0,0,0,0],"sum_hessian":[3.055E3,3.054E3,1E0,2.397E3,6.57E2,2.365E3,3.2E1,5.68E2,8.9E1],"tree_param":{"num_deleted":"0","num_feature":"36","num_nodes":"9","size_leaf_vector":"1"}},{"base_weights":[1.1093292E-2,-3.7715283E-1,2.7079232E-2,-1.7766206E-1,-1.2194326E0,6.5231645E-1,1.7786317E-2,5.0572384E-2,-1.53905675E-2,-8.65737E-2,-3.4618217E-2,1.1831055E-2,1.0002246E-1,1.7125046E-2,4.9286796E-4],"categories":[],"categories_nodes":[],"categories_segments":[],"categories_sizes":[],"default_left":[0,0,0,0,0,0,0,0,0,0,0,0,0,0,0],"id":5,"left_children":[1,3,5,7,9,11,13,-1,-1,-1,-1,-1,-1,-1,-1],"loss_changes":[1.8989626E1,2.0114622E1,1.705899E1,1.5632751E1,5.0084457E0,2.362439E1,7.4528055E0,0E0,0E0,0E0,0E0,0E0,0E0,0E0,0E0],"parents":[2147483647,0,0,1,1,2,2,3,3,4,4,5,5,6,6],"right_children":[2,4,6,8,10,12,14,-1,-1,-1,-1,-1,-1,-1,-1],"split_conditions":[-2.8671885E-1,2.968691E-1,-3.1660107E-1,-3.2627335E-1,-3.2029718E-1,-3.1769451E-1,-2.026068E0,5.0572384E-2,-1.53905675E-2,-8.65737E-2,-3.4618217E-2,1.1831055E-2,1.0002246E-1,1.7125046E-2,4.9286796E-4],"split_indices":[3,9,4,4,4,4,6,0,0,0,0,0,0,0,0],"split_type":[0,0,0,0,0,0,0,0,0,0,0,0,0,0,0],"sum_hessian":[3.057E3,1.2E2,2.937E3,9.8E1,2.2E1,4.2E1,2.895E3,9E0,8.9E1,1E1,1.2E1,3.3E1,9E0,6.8E1,2.827E3],"tree_param":{"num_deleted":"0","num_feature":"36","num_nodes":"15","size_leaf_vector":"1"}},{"base_weights":[-3.3154413E-3,-5.4363026E-3,1.6104956E-1,-1.331048E0,-1.4983478E-3,-2.7865097E-1,-5.2087107E-3,4.704513E-2,-2.9347462E-4],"categories":[],"categories_nodes":[],"categories_segments":[],"categories_sizes":[],"default_left":[0,0,0,0,0,0,0,0,0],"id":6,"left_children":[1,3,-1,5,7,-1,-1,-1,-1],"loss_changes":[2.0805964E1,1.5862191E1,0E0,4.62587E1,1.2491336E1,0E0,0E0,0E0,0E0],"parents":[2147483647,0,0,1,1,3,3,4,4],"right_children":[2,4,-1,6,8,-1,-1,-1,-1],"split_conditions":[8.646226E0,-7.006971E-1,1.6104956E-1,-1.2523711E0,-2.0467854E0,-2.7865097E-1,-5.2087107E-3,4.704513E-2,-2.9347462E-4],"split_indices":[23,18,0,0,1,0,0,0,0],"split_type":[0,0,0,0,0,0,0,0,0],"sum_hessian":[3.039E3,3.038E3,1E0,8E0,3.03E3,1E0,7E0,1.3E1,3.017E3],"tree_param":{"num_deleted":"0","num_feature":"36","num_nodes":"9","size_leaf_vector":"1"}},{"base_weights":[-4.12595E-3,-6.17654E-3,1.5702333E-1,-3.8027915E-1,2.6940652E-3,-3.7437154E-3,-7.577329E-2,-2.4330014E-4,1.6409105E-2],"categories":[],"categories_nodes":[],"categories_segments":[],"categories_sizes":[],"default_left":[0,0,0,0,0,0,0,0,0],"id":7,"left_children":[1,3,-1,5,7,-1,-1,-1,-1],"loss_changes":[1.9789793E1,1.0172278E1,0E0,2.4501623E1,7.3714275E0,0E0,0E0,0E0,0E0],"parents":[2147483647,0,0,1,1,3,3,4,4],"right_children":[2,4,-1,6,8,-1,-1,-1,-1],"split_conditions":[9.26193E0,-3.2029718E-1,1.5702333E-1,6.808276E-1,2.462301E0,-3.7437154E-3,-7.577329E-2,-2.4330014E-4,1.6409105E-2],"split_indices":[23,4,0,13,7,0,0,0,0],"split_type":[0,0,0,0,0,0,0,0,0],"sum_hessian":[3.065E3,3.064E3,1E0,7E1,2.994E3,5.6E1,1.4E1,2.927E3,6.7E1],"tree_param":{"num_deleted":"0","num_feature":"36","num_nodes":"9","size_leaf_vector":"1"}},{"base_weights":[-3.7866223E-3,-4.3888772E-1,8.345449E-3,-8.9812106E-1,1.856147E-1,1.2978485E0,3.9979503E-3,-1.9356748E-2,-8.6412854E-2,-1.1184607E-1,1.5937103E-2,7.884329E-2,-3.0332664E-2,2.0474177E-3,-3.775817E-3],"categories":[],"categories_nodes":[],"categories_segments":[],"categories_sizes":[],"default_left":[0,0,0,0,0,0,0,0,0,0,0,0,0,0,0],"id":8,"left_children":[1,3,5,7,9,11,13,-1,-1,-1,-1,-1,-1,-1,-1],"loss_changes":[1.6151136E1,2.397047E1,1.6684208E1,1.9691952E1,1.2323211E1,6.2705E0,8.72333E0,0E0,0E0,0E0,0E0,0E0,0E0,0E0,0E0],"parents":[2147483647,0,0,1,1,2,2,3,3,4,4,5,5,6,6],"right_children":[2,4,6,8,10,12,14,-1,-1,-1,-1,-1,-1,-1,-1],"split_conditions":[-3.1891912E-1,1.1667317E0,-2.0467854E0,1.6748193E-1,-3.2003686E0,6.7529804E-1,1.0995296E-1,-1.9356748E-2,-8.6412854E-2,-1.1184607E-1,1.5937103E-2,7.884329E-2,-3.0332664E-2,2.0474177E-3,-3.775817E-3],"split_indices":[4,5,1,7,6,10,12,0,0,0,0,0,0,0,0],"split_type":[0,0,0,0,0,0,0,0,0,0,0,0,0,0,0],"sum_hessian":[3.058E3,8.2E1,2.976E3,4.7E1,3.5E1,9E0,2.967E3,3E1,1.7E1,1E0,3.4E1,8E0,1E0,2.026E3,9.41E2],"tree_param":{"num_deleted":"0","num_feature":"36","num_nodes":"15","size_leaf_vector":"1"}},{"base_weights":[4.5487853E-3,-4.0910402E-1,1.9376028E-2,-1.4628595E0,-2.0322822E-1,1.2413148E0,1.5184672E-2,-7.356847E-3,-9.2818946E-2,2.5407937E-3,-5.1413354E-2,7.553401E-2,-2.9574348E-2,-6.312448E-3,1.650398E-3],"categories":[],"categories_nodes":[],"categories_segments":[],"categories_sizes":[],"default_left":[0,0,0,0,0,0,0,0,0,0,0,0,0,0,0],"id":9,"left_children":[1,3,5,7,9,11,13,-1,-1,-1,-1,-1,-1,-1,-1],"loss_changes":[1.861032E1,2.2481697E1,1.4982265E1,8.52882E0,1.8706318E1,5.8304787E0,7.3649397E0,0E0,0E0,0E0,0E0,0E0,0E0,0E0,0E0],"parents":[2147483647,0,0,1,1,2,2,3,3,4,4,5,5,6,6],"right_children":[2,4,6,8,10,12,14,-1,-1,-1,-1,-1,-1,-1,-1],"split_conditions":[-2.885543E-1,-1.969307E0,-2.0467854E0,-3.2427064E-1,2.968691E-1,5.935765E-1,-2.673857E-1,-7.356847E-3,-9.2818946E-2,2.5407937E-3,-5.1413354E-2,7.553401E-2,-2.9574348E-2,-6.312448E-3,1.650398E-3],"split_indices":[3,1,1,4,9,10,3,0,0,0,0,0,0,0,0],"split_type":[0,0,0,0,0,0,0,0,0,0,0,0,0,0,0],"sum_hessian":[3.032E3,1.04E2,2.928E3,1.6E1,8.8E1,9E0,2.919E3,4E0,1.2E1,6.8E1,2E1,8E0,1E0,3.26E2,2.593E3],"tree_param":{"num_deleted":"0","num_feature":"36","num_nodes":"15","size_leaf_vector":"1"}},{"base_weights":[-1.1807134E-2,-2.968634E-1,1.5015016E-2,-3.567821E-1,3.648418E-1,1.2796558E-2,1.5300529E-1,-3.7238948E-2,-7.4030417E-3,7.053256E-2,-2.3384584E-2,6.910607E-3,-5.5333367E-4],"categories":[],"categories_nodes":[],"categories_segments":[],"categories_sizes":[],"default_left":[0,0,0,0,0,0,0,0,0,0,0,0,0],"id":10,"left_children":[1,3,5,7,9,11,-1,-1,-1,-1,-1,-1,-1],"loss_changes":[2.302603E1,1.03991375E1,1.8558474E1,1.9163729E1,1.9814518E1,8.237773E0,0E0,0E0,0E0,0E0,0E0,0E0,0E0],"parents":[2147483647,0,0,1,1,2,2,3,3,4,4,5,5],"right_children":[2,4,6,8,10,12,-1,-1,-1,-1,-1,-1,-1],"split_conditions":[-2.7837956E-1,1.1667317E0,9.26193E0,-5.1860446E-1,-5.239662E-1,-4.6747372E-1,1.5300529E-1,-3.7238948E-2,-7.4030417E-3,7.053256E-2,-2.3384584E-2,6.910607E-3,-5.5333367E-4],"split_indices":[3,5,23,28,28,28,0,0,0,0,0,0,0],"split_type":[0,0,0,0,0,0,0,0,0,0,0,0,0],"sum_hessian":[3.01E3,2.58E2,2.752E3,2.37E2,2.1E1,2.751E3,1E0,8.2E1,1.55E2,9E0,1.2E1,4.39E2,2.312E3],"tree_param":{"num_deleted":"0","num_feature":"36","num_nodes":"13","size_leaf_vector":"1"}},{"base_weights":[3.6644542E-3,-3.7709944E-2,1.00306995E-1,-3.0489871E-2,-8.7956095E-1,1.4535463E-1,-1.6097826E-1,1.489E-2,-1.9559213E-3,-2.5762025E-1,-1.1715094E-3,5.6420527E-3,3.123918E-2,7.957134E-2,-1.2061878E-2],"categories":[],"categories_nodes":[],"categories_segments":[],"categories_sizes":[],"default_left":[0,0,0,0,0,0,0,0,0,0,0,0,0,0,0],"id":11,"left_children":[1,3,5,7,9,11,13,-1,-1,-1,-1,-1,-1,-1,-1],"loss_changes":[1.2111322E1,1.2865095E1,1.0710814E1,5.971581E0,6.572531E1,1.2010162E1,1.9230587E1,0E0,0E0,0E0,0E0,0E0,0E0,0E0,0E0],"parents":[2147483647,0,0,1,1,2,2,3,3,4,4,5,5,6,6],"right_children":[2,4,6,8,10,12,14,-1,-1,-1,-1,-1,-1,-1,-1],"split_conditions":[5.3008634E-1,3.16954E0,9.9195415E-1,-2.026068E0,9.399444E-1,8.3529353E-1,-1.0454036E0,1.489E-2,-1.9559213E-3,-2.5762025E-1,-1.1715094E-3,5.6420527E-3,3.123918E-2,7.957134E-2,-1.2061878E-2],"split_indices":[5,32,13,6,34,11,21,0,0,0,0,0,0,0,0],"split_type":[0,0,0,0,0,0,0,0,0,0,0,0,0,0,0],"sum_hessian":[3.027E3,2.12E3,9.07E2,2.103E3,1.7E1,7.74E2,1.33E2,5.3E1,2.05E3,2E0,1.5E1,7.26E2,4.8E1,5E0,1.28E2],"tree_param":{"num_deleted":"0","num_feature":"36","num_nodes":"15","size_leaf_vector":"1"}},{"base_weights":[7.867714E-3,5.927891E-3,1.4839919E-1,-2.4675998E-1,1.6160678E-2,3.6554039E-3,-2.5681064E-2,3.1119546E-2,3.5768753E-4],"categories":[],"categories_nodes":[],"categories_segments":[],"categories_sizes":[],"default_left":[0,0,0,0,0,0,0,0,0],"id":12,"left_children":[1,3,-1,5,7,-1,-1,-1,-1],"loss_changes":[1.753601E1,7.9058895E0,0E0,1.0195438E1,1.6037827E1,0E0,0E0,0E0,0E0],"parents":[2147483647,0,0,1,1,3,3,4,4],"right_children":[2,4,-1,6,8,-1,-1,-1,-1],"split_conditions":[9.26193E0,-2.8671885E-1,1.4839919E-1,-2.923081E-1,-3.1660107E-1,3.6554039E-3,-2.5681064E-2,3.1119546E-2,3.5768753E-4],"split_indices":[23,3,0,3,4,0,0,0,0],"split_type":[0,0,0,0,0,0,0,0,0],"sum_hessian":[3.056E3,3.055E3,1E0,1.18E2,2.937E3,5.4E1,6.4E1,4.2E1,2.895E3],"tree_param":{"num_deleted":"0","num_feature":"36","num_nodes":"9","size_leaf_vector":"1"}},{"base_weights":[6.0557607E-3,4.1576936E-3,1.446892E-1,-2.6463063E-3,4.119063E-1,2.1988368E-3,-3.9315685E-3,1.1154473E-1,5.658014E-3],"categories":[],"categories_nodes":[],"categories_segments":[],"categories_sizes":[],"default_left":[0,0,0,0,0,0,0,0,0],"id":13,"left_children":[1,3,-1,5,7,-1,-1,-1,-1],"loss_changes":[1.6688887E1,8.4516735E0,0E0,1.0620793E1,2.6918324E1,0E0,0E0,0E0,0E0],"parents":[2147483647,0,0,1,1,3,3,4,4],"right_children":[2,4,-1,6,8,-1,-1,-1,-1],"split_conditions":[9.26193E0,2.7952664E0,1.446892E-1,3.069729E-1,-5.089201E-1,2.1988368E-3,-3.9315685E-3,1.1154473E-1,5.658014E-3],"split_indices":[23,7,0,23,28,0,0,0,0],"split_type":[0,0,0,0,0,0,0,0,0],"sum_hessian":[3.046E3,3.045E3,1E0,2.996E3,4.9E1,1.857E3,1.139E3,6E0,4.3E1],"tree_param":{"num_deleted":"0","num_feature":"36","num_nodes":"9","size_leaf_vector":"1"}},{"base_weights":[-5.976378E-3,-2.7853674E-1,1.6803728E-2,-3.5578597E-1,3.0526242E-1,1.0361133E0,1.3890616E-2,1.9901058E-2,-2.0821715E-2,5.2797657E-2,-1.2129678E-2,7.495778E-2,-1.1767123E-2,1.2288481E-3,-1.01347035E-2],"categories":[],"categories_nodes":[],"categories_segments":[],"categories_sizes":[],"default_left":[0,0,0,0,0,0,0,0,0,0,0,0,0,0,0],"id":14,"left_children":[1,3,5,7,9,11,13,-1,-1,-1,-1,-1,-1,-1,-1],"loss_changes":[1.8917154E1,1.0706646E1,8.335458E0,9.674915E0,1.1771738E1,5.0627184E0,6.49715E0,0E0,0E0,0E0,0E0,0E0,0E0,0E0,0E0],"parents":[2147483647,0,0,1,1,2,2,3,3,4,4,5,5,6,6],"right_children":[2,4,6,8,10,12,14,-1,-1,-1,-1,-1,-1,-1,-1],"split_conditions":[-2.7899686E-1,1.0822806E0,-2.0467854E0,-2.9562762E-1,-1.4596521E0,-3.8482627E-1,1.8296641E0,1.9901058E-2,-2.0821715E-2,5.2797657E-2,-1.2129678E-2,7.495778E-2,-1.1767123E-2,1.2288481E-3,-1.01347035E-2],"split_indices":[3,20,1,3,1,6,20,0,0,0,0,0,0,0,0],"split_type":[0,0,0,0,0,0,0,0,0,0,0,0,0,0,0],"sum_hessian":[3.045E3,2.34E2,2.811E3,2.07E2,2.7E1,7E0,2.804E3,1.5E1,1.92E2,1.1E1,1.6E1,5E0,2E0,2.673E3,1.31E2],"tree_param":{"num_deleted":"0","num_feature":"36","num_nodes":"15","size_leaf_vector":"1"}},{"base_weights":[-2.8588884E-3,7.371337E-3,-2.5497985E-1,1.8601581E-2,-2.1026583E-1,-1.713282E0,-7.541994E-2,6.413671E-5,6.966751E-3,-6.257391E-3,-1.5790544E-1,-3.535416E-2,-2.415792E-1,-1.4769438E-2,4.7650305E-3],"categories":[],"categories_nodes":[],"categories_segments":[],"categories_sizes":[],"default_left":[0,0,0,0,0,0,0,0,0,0,0,0,0,0,0],"id":15,"left_children":[1,3,5,7,9,11,13,-1,-1,-1,-1,-1,-1,-1,-1],"loss_changes":[7.871184E0,7.1725106E0,3.1031242E1,5.8336105E0,3.5736458E1,3.7372883E1,4.0463424E0,0E0,0E0,0E0,0E0,0E0,0E0,0E0,0E0],"parents":[2147483647,0,0,1,1,2,2,3,3,4,4,5,5,6,6],"right_children":[2,4,6,8,10,12,14,-1,-1,-1,-1,-1,-1,-1,-1],"split_conditions":[1.7967901E0,1.8296641E0,-1.4757887E0,9.429741E-1,1.3472447E0,7.983796E-1,-1.9253097E-1,6.413671E-5,6.966751E-3,-6.257391E-3,-1.5790544E-1,-3.535416E-2,-2.415792E-1,-1.4769438E-2,4.7650305E-3],"split_indices":[2,20,1,2,33,35,28,0,0,0,0,0,0,0,0],"split_type":[0,0,0,0,0,0,0,0,0,0,0,0,0,0,0],"sum_hessian":[3.05E3,2.932E3,1.18E2,2.789E3,1.43E2,1.2E1,1.06E2,2.44E3,3.49E2,1.4E2,3E0,1E1,2E0,4.6E1,6E1],"tree_param":{"num_deleted":"0","num_feature":"36","num_nodes":"15","size_leaf_vector":"1"}},{"base_weights":[3.8289262E-3,1.9621192E-3,1.4103965E-1,-3.8723465E-2,1.0882658E-1,-6.957611E-2,-1.7182926E-3,4.6972004E-3,5.2017342E-2],"categories":[],"categories_nodes":[],"categories_segments":[],"categories_sizes":[],"default_left":[0,0,0,0,0,0,0,0,0],"id":16,"left_children":[1,3,-1,5,7,-1,-1,-1,-1],"loss_changes":[1.5881085E1,1.3134699E1,0E0,1.2850382E1,1.1450492E1,0E0,0E0,0E0,0E0],"parents":[2147483647,0,0,1,1,3,3,4,4],"right_children":[2,4,-1,6,8,-1,-1,-1,-1],"split_conditions":[9.26193E0,5.846243E-1,1.4103965E-1,-7.006971E-1,2.9926467E0,-6.957611E-2,-1.7182926E-3,4.6972004E-3,5.2017342E-2],"split_indices":[23,5,0,18,7,0,0,0,0],"split_type":[0,0,0,0,0,0,0,0,0],"sum_hessian":[3.02E3,3.019E3,1E0,2.187E3,8.32E2,6E0,2.181E3,8.2E2,1.2E1],"tree_param":{"num_deleted":"0","num_feature":"36","num_nodes":"9","size_leaf_vector":"1"}},{"base_weights":[6.809702E-3,-3.7756123E-2,1.14759296E-1,-3.0334791E-2,-9.1055125E-1,5.615998E-1,7.974399E-2,-2.0697683E-2,-1.1570593E-3,-2.9217046E-1,-1.383266E-2,2.211229E-2,2.0202254E-1,-2.8228303E-2,4.91072E-3],"categories":[],"categories_nodes":[],"categories_segments":[],"categories_sizes":[],"default_left":[0,0,0,0,0,0,0,0,0,0,0,0,0,0,0],"id":17,"left_children":[1,3,5,7,9,11,13,-1,-1,-1,-1,-1,-1,-1,-1],"loss_changes":[1.453795E1,1.3827328E1,1.377086E1,5.846297E0,5.4668125E1,2.4786871E1,9.813999E0,0E0,0E0,0E0,0E0,0E0,0E0,0E0,0E0],"parents":[2147483647,0,0,1,1,2,2,3,3,4,4,5,5,6,6],"right_children":[2,4,6,8,10,12,14,-1,-1,-1,-1,-1,-1,-1,-1],"split_conditions":[5.3008634E-1,3.16954E0,-1.6509885E0,-3.1891912E-1,3.2044003E0,-1.3441635E0,-1.5692194E0,-2.0697683E-2,-1.1570593E-3,-2.9217046E-1,-1.383266E-2,2.211229E-2,2.0202254E-1,-2.8228303E-2,4.91072E-3],"split_indices":[5,32,0,4,32,1,1,0,0,0,0,0,0,0,0],"split_type":[0,0,0,0,0,0,0,0,0,0,0,0,0,0,0],"sum_hessian":[3.02E3,2.138E3,8.82E2,2.121E3,1.7E1,6.3E1,8.19E2,3.8E1,2.083E3,1E0,1.6E1,6.2E1,1E0,2.2E1,7.97E2],"tree_param":{"num_deleted":"0","num_feature":"36","num_nodes":"15","size_leaf_vector":"1"}},{"base_weights":[1.3286928E-2,-2.619284E-1,2.7090417E-2,-1.4651971E0,-1.1296484E-1,1.1116228E0,2.33426E-2,-1.20869195E-2,-1.08754925E-1,5.659048E-3,-3.2466955E-2,7.934871E-2,9.2602895E-5,4.6979226E-2,1.0400865E-3],"categories":[],"categories_nodes":[],"categories_segments":[],"categories_sizes":[],"default_left":[0,0,0,0,0,0,0,0,0,0,0,0,0,0,0],"id":18,"left_children":[1,3,5,7,9,11,13,-1,-1,-1,-1,-1,-1,-1,-1],"loss_changes":[1.1612833E1,2.6003994E1,1.1802119E1,1.3370754E1,1.5963634E1,5.2723722E0,6.734132E0,0E0,0E0,0E0,0E0,0E0,0E0,0E0,0E0],"parents":[2147483647,0,0,1,1,2,2,3,3,4,4,5,5,6,6],"right_children":[2,4,6,8,10,12,14,-1,-1,-1,-1,-1,-1,-1,-1],"split_conditions":[-2.8407308E-1,-1.969307E0,-2.0467854E0,-2.923081E-1,2.3681653E-1,-5.1611736E-2,-2.0375323E0,-1.20869195E-2,-1.08754925E-1,5.659048E-3,-3.2466955E-2,7.934871E-2,9.2602895E-5,4.6979226E-2,1.0400865E-3],"split_indices":[3,1,1,3,8,7,0,0,0,0,0,0,0,0,0],"split_type":[0,0,0,0,0,0,0,0,0,0,0,0,0,0,0],"sum_hessian":[3.054E3,1.45E2,2.909E3,1.5E1,1.3E2,9E0,2.9E3,6E0,9E0,9.2E1,3.8E1,6E0,3E0,7E0,2.893E3],"tree_param":{"num_deleted":"0","num_feature":"36","num_nodes":"15","size_leaf_vector":"1"}},{"base_weights":[2.2702282E-3,4.5458358E-4,1.373649E-1,-1.0003916E0,4.1059447E-3,3.660482E-3,-9.536305E-2,4.740726E-3,-1.4629287E-3],"categories":[],"categories_nodes":[],"categories_segments":[],"categories_sizes":[],"default_left":[0,0,0,0,0,0,0,0,0],"id":19,"left_children":[1,3,-1,5,7,-1,-1,-1,-1],"loss_changes":[1.5080319E1,1.1058822E1,0E0,1.0849407E1,9.127516E0,0E0,0E0,0E0,0E0],"parents":[2147483647,0,0,1,1,3,3,4,4],"right_children":[2,4,-1,6,8,-1,-1,-1,-1],"split_conditions":[8.646226E0,-2.0909781E0,1.373649E-1,-1.4220662E-1,-2.2827186E-1,3.660482E-3,-9.536305E-2,4.740726E-3,-1.4629287E-3],"split_indices":[23,0,0,32,30,0,0,0,0],"split_type":[0,0,0,0,0,0,0,0,0],"sum_hessian":[3.025E3,3.024E3,1E0,1E1,3.014E3,5E0,5E0,8.1E2,2.204E3],"tree_param":{"num_deleted":"0","num_feature":"36","num_nodes":"9","size_leaf_vector":"1"}},{"base_weights":[-1.3689652E-2,-5.0042284E-1,-1.741682E-3,-2.5851366E-1,-1.5014318E0,-3.5436228E-3,1.3393077E-1,1.1187356E-2,-4.4888403E-2,-2.351435E-2,-1.1080023E-1,2.086696E-2,-4.4939775E-4],"categories":[],"categories_nodes":[],"categories_segments":[],"categories_sizes":[],"default_left":[0,0,0,0,0,0,0,0,0,0,0,0,0],"id":20,"left_children":[1,3,5,7,9,11,-1,-1,-1,-1,-1,-1,-1],"loss_changes":[1.7718874E1,1.7289045E1,1.4378281E1,1.8698112E1,9.27343E0,6.818452E0,0E0,0E0,0E0,0E0,0E0,0E0,0E0],"parents":[2147483647,0,0,1,1,2,2,3,3,4,4,5,5],"right_children":[2,4,6,8,10,12,-1,-1,-1,-1,-1,-1,-1],"split_conditions":[-3.2029718E-1,8.2573247E-1,9.26193E0,1.7647521E-1,-3.2427064E-1,-3.1660107E-1,1.3393077E-1,1.1187356E-2,-4.4888403E-2,-2.351435E-2,-1.1080023E-1,2.086696E-2,-4.4939775E-4],"split_indices":[4,13,23,31,4,4,0,0,0,0,0,0,0],"split_type":[0,0,0,0,0,0,0,0,0,0,0,0,0],"sum_hessian":[3.046E3,7.2E1,2.974E3,5.9E1,1.3E1,2.973E3,1E0,3.4E1,2.5E1,6E0,7E0,3.7E1,2.936E3],"tree_param":{"num_deleted":"0","num_feature":"36","num_nodes":"13","size_leaf_vector":"1"}}]},"name":"gbtree"},"learner_model_param":{"base_score":"[-8.863434E-3]","boost_from_average":"1","num_class":"0","num_feature":"36","num_target":"1"},"objective":{"name":"reg:squarederror","reg_loss_param":{"scale_pos_weight":"1"}}},"version":[3,1,2]}