{"learner":{"attributes":{"best_iteration":"331","best_score":"0.1939391691620483","scikit_learn":"{\"_estimator_type\": \"regressor\"}"},"feature_names":[],"feature_types":[],"gradient_booster":{"model":{"cats":{"enc":[],"feature_segments":[],"sorted_idx":[]},"gbtree_model_param":{"num_parallel_tree":"1","num_trees":"362"},"iteration_indptr":[0,1,2,3,4,5,6,7,8,9,10,11,12,13,14,15,16,17,18,19,20,21,22,23,24,25,26,27,28,29,30,31,32,33,34,35,36,37,38,39,40,41,42,43,44,45,46,47,48,49,50,51,52,53,54,55,56,57,58,59,60,61,62,63,64,65,66,67,68,69,70,71,72,73,74,75,76,77,78,79,80,81,82,83,84,85,86,87,88,89,90,91,92,93,94,95,96,97,98,99,100,101,102,103,104,105,106,107,108,109,110,111,112,113,114,115,116,117,118,119,120,121,122,123,124,125,126,127,128,129,130,131,132,133,134,135,136,137,138,139,140,141,142,143,144,145,146,147,148,149,150,151,152,153,154,155,156,157,158,159,160,161,162,163,164,165,166,167,168,169,170,171,172,173,174,175,176,177,178,179,180,181,182,183,184,185,186,187,188,189,190,191,192,193,194,195,196,197,198,199,200,201,202,203,204,205,206,207,208,209,210,211,212,213,214,215,216,217,218,219,220,221,222,223,224,225,226,227,228,229,230,231,232,233,234,235,236,237,238,239,240,241,242,243,244,245,246,247,248,249,250,251,252,253,254,255,256,257,258,259,260,261,262,263,264,265,266,267,268,269,270,271,272,273,274,275,276,277,278,279,280,281,282,283,284,285,286,287,288,289,290,291,292,293,294,295,296,297,298,299,300,301,302,303,304,305,306,307,308,309,310,311,312,313,314,315,316,317,318,319,320,321,322,323,324,325,326,327,328,329,330,331,332,333,334,335,336,337,338,339,340,341,342,343,344,345,346,347,348,349,350,351,352,353,354,355,356,357,358,359,360,361,362],"tree_info":[0,0,0,0,0,0,0,0,0,0,0,0,0,0,0,0,0,0,0,0,0,0,0,0,0,0,0,0,0,0,0,0,0,0,0,0,0,0,0,0,0,0,0,0,0,0,0,0,0,0,0,0,0,0,0,0,0,0,0,0,0,0,0,0,0,0,0,0,0,0,0,0,0,0,0,0,0,0,0,0,0,0,0,0,0,0,0,0,0,0,0,0,0,0,0,0,0,0,0,0,0,0,0,0,0,0,0,0,0,0,0,0,0,0,0,0,0,0,0,0,0,0,0,0,0,0,0,0,0,0,0,0,0,0,0,0,0,0,0,0,0,0,0,0,0,0,0,0,0,0,0,0,0,0,0,0,0,0,0,0,0,0,0,0,0,0,0,0,0,0,0,0,0,0,0,0,0,0,0,0,0,0,0,0,0,0,0,0,0,0,0,0,0,0,0,0,0,0,0,0,0,0,0,0,0,0,0,0,0,0,0,0,0,0,0,0,0,0,0,0,0,0,0,0,0,0,0,0,0,0,0,0,0,0,0,0,0,0,0,0,0,0,0,0,0,0,0,0,0,0,0,0,0,0,0,0,0,0,0,0,0,0,0,0,0,0,0,0,0,0,0,0,0,0,0,0,0,0,0,0,0,0,0,0,0,0,0,0,0,0,0,0,0,0,0,0,0,0,0,0,0,0,0,0,0,0,0,0,0,0,0,0,0,0,0,0,0,0,0,0,0,0,0,0,0,0,0,0,0,0,0,0,0,0,0,0,0,0,0,0,0,0,0,0,0,0,0,0,0,0,0,0,0,0,0,0,0,0,0,0,0,0],"trees":[{"base_weights":[4.1444325E-3,-1.866073E-1,2.4560824E-1,-3.6518252E-1,-8.817138E-2,1.6179477E-1,5.4039085E-1,-5.1078033E-1,-2.8815243E-1,-1.5527964E-1,-3.9235923E-2,1.242625E-1,3.1114972E-1,6.2807316E-1,4.4474876E-1,-1.4732048E-2,-2.7010007E-2,-1.8631183E-2,-1.303131E-2,-3.3912503E-3,-1.0144399E-2,1.0928639E-3,-4.3198382E-3,3.9252616E-3,8.502549E-3,2.836057E-2,1.3743246E-2,2.4012333E-2,3.622866E-2,-9.64323E-3,2.3682958E-2],"categories":[],"categories_nodes":[],"categories_segments":[],"categories_sizes":[],"default_left":[0,0,0,0,0,0,0,0,0,0,0,0,0,0,0,0,0,0,0,0,0,0,0,0,0,0,0,0,0,0,0],"id":0,"left_children":[1,3,5,7,9,11,13,15,17,19,21,23,25,27,29,-1,-1,-1,-1,-1,-1,-1,-1,-1,-1,-1,-1,-1,-1,-1,-1],"loss_changes":[1.3974472E2,2.9762878E1,3.299491E1,6.6045E0,3.5865736E0,5.813616E0,2.2029572E0,1.1571007E0,8.236542E-1,1.9056454E0,1.8285731E0,1.7382002E0,1.785944E0,1.8203468E0,2.7642307E0,0E0,0E0,0E0,0E0,0E0,0E0,0E0,0E0,0E0,0E0,0E0,0E0,0E0,0E0,0E0,0E0],"parents":[2147483647,0,0,1,1,2,2,3,3,4,4,5,5,6,6,7,7,8,8,9,9,10,10,11,11,12,12,13,13,14,14],"right_children":[2,4,6,8,10,12,14,16,18,20,22,24,26,28,30,-1,-1,-1,-1,-1,-1,-1,-1,-1,-1,-1,-1,-1,-1,-1,-1],"split_conditions":[-1.7038342E-1,-2.7792564E-1,2.6766646E-1,-3.089793E-1,-2.4034296E-1,6.581108E-2,-1.1129948E-1,-8.866631E-1,-3.0271164E-1,-1.0266454E0,-5.004089E-1,-9.765845E-2,-9.0869045E-1,6.050869E-1,-6.0256445E-1,-1.4732048E-2,-2.7010007E-2,-1.8631183E-2,-1.303131E-2,-3.3912503E-3,-1.0144399E-2,1.0928639E-3,-4.3198382E-3,3.9252616E-3,8.502549E-3,2.836057E-2,1.3743246E-2,2.4012333E-2,3.622866E-2,-9.64323E-3,2.3682958E-2],"split_indices":[1,1,1,1,1,1,7,7,1,18,12,1,7,1,11,0,0,0,0,0,0,0,0,0,0,0,0,0,0,0,0],"split_type":[0,0,0,0,0,0,0,0,0,0,0,0,0,0,0,0,0,0,0,0,0,0,0,0,0,0,0,0,0,0,0],"sum_hessian":[3.032E3,1.694E3,1.338E3,6.01E2,1.093E3,1.043E3,2.95E2,2.06E2,3.95E2,4.6E2,6.33E2,8.35E2,2.08E2,1.51E2,1.44E2,2.6E1,1.8E2,9.4E1,3.01E2,1.63E2,2.97E2,2.76E2,3.57E2,4.19E2,4.16E2,2.4E1,1.84E2,6.2E1,8.9E1,6E0,1.38E2],"tree_param":{"num_deleted":"0","num_feature":"33","num_nodes":"31","size_leaf_vector":"1"}},{"base_weights":[-5.4590283E-3,-5.2787773E-2,4.042412E-2,-7.646418E-2,5.9856117E-2,7.861546E-2,-5.7584822E-2,1.5039048E-1,-8.3625965E-2,2.2097261E-1,2.4943898E-2,6.008373E-2,1.9897813E-1,-1.11994304E-1,7.208757E-2,1.3968212E-2,-7.6166503E-3,5.074578E-4,-4.850965E-3,3.044609E-3,1.5635658E-2,2.274898E-3,-6.983576E-3,7.4062534E-3,1.9140607E-3,1.0658151E-2,-2.764751E-2,-6.011186E-3,2.0208478E-2,5.6929057E-3,-5.68311E-3],"categories":[],"categories_nodes":[],"categories_segments":[],"categories_sizes":[],"default_left":[0,0,0,0,0,0,0,0,0,0,0,0,0,0,0,0,0,0,0,0,0,0,0,0,0,0,0,0,0,0,0],"id":1,"left_children":[1,3,5,7,9,11,13,15,17,19,21,23,25,27,29,-1,-1,-1,-1,-1,-1,-1,-1,-1,-1,-1,-1,-1,-1,-1,-1],"loss_changes":[6.5646834E0,3.9730763E0,5.7501745E0,2.0109391E0,1.4513459E0,2.4527788E0,3.048954E0,1.5262048E0,1.4993467E0,6.565082E-1,7.304271E-1,1.8351521E0,1.685772E0,1.3399E0,1.0060766E0,0E0,0E0,0E0,0E0,0E0,0E0,0E0,0E0,0E0,0E0,0E0,0E0,0E0,0E0,0E0,0E0],"parents":[2147483647,0,0,1,1,2,2,3,3,4,4,5,5,6,6,7,7,8,8,9,9,10,10,11,11,12,12,13,13,14,14],"right_children":[2,4,6,8,10,12,14,16,18,20,22,24,26,28,30,-1,-1,-1,-1,-1,-1,-1,-1,-1,-1,-1,-1,-1,-1,-1,-1],"split_conditions":[1.0711295E-1,1.4340068E0,9.242158E-1,-2.2674608E0,-8.3710146E-1,1.7356008E0,4.504217E-1,4.504217E-1,-8.998795E-1,-5.6091934E-1,1.8045176E0,-8.288412E-1,1.5014713E0,2.6176136E0,1.8498849E0,1.3968212E-2,-7.6166503E-3,5.074578E-4,-4.850965E-3,3.044609E-3,1.5635658E-2,2.274898E-3,-6.983576E-3,7.4062534E-3,1.9140607E-3,1.0658151E-2,-2.764751E-2,-6.011186E-3,2.0208478E-2,5.6929057E-3,-5.68311E-3],"split_indices":[2,22,2,2,7,22,29,29,7,10,23,7,7,20,2,0,0,0,0,0,0,0,0,0,0,0,0,0,0,0,0],"split_type":[0,0,0,0,0,0,0,0,0,0,0,0,0,0,0,0,0,0,0,0,0,0,0,0,0,0,0,0,0,0,0],"sum_hessian":[3.021E3,1.487E3,1.534E3,1.229E3,2.58E2,1.104E3,4.3E2,3.7E1,1.192E3,4.5E1,2.13E2,9.58E2,1.46E2,3.03E2,1.27E2,2.6E1,1.1E1,1.49E2,1.043E3,1.7E1,2.8E1,1.9E2,2.3E1,1.89E2,7.69E2,1.44E2,2E0,2.99E2,4E0,1.04E2,2.3E1],"tree_param":{"num_deleted":"0","num_feature":"33","num_nodes":"31","size_leaf_vector":"1"}},{"base_weights":[-1.8262556E-3,-1.8925357E-1,2.1551096E-1,-4.784455E-1,-1.2390824E-1,1.1488838E-1,4.1084448E-1,-5.738042E-1,-4.2052266E-1,-1.864321E-1,-4.169891E-2,1.3883583E-1,8.26686E-3,3.2519883E-1,5.733639E-1,-2.9523721E-2,9.87164E-4,-2.168184E-2,-5.3572203E-3,-1.233975E-2,-6.965699E-3,6.7819335E-4,-4.3304977E-3,4.9533225E-3,9.325124E-3,-4.10246E-3,3.3339262E-3,1.9491445E-2,6.149822E-3,3.1826496E-2,1.0680804E-2],"categories":[],"categories_nodes":[],"categories_segments":[],"categories_sizes":[],"default_left":[0,0,0,0,0,0,0,0,0,0,0,0,0,0,0,0,0,0,0,0,0,0,0,0,0,0,0,0,0,0,0],"id":2,"left_children":[1,3,5,7,9,11,13,15,17,19,21,23,25,27,29,-1,-1,-1,-1,-1,-1,-1,-1,-1,-1,-1,-1,-1,-1,-1,-1],"loss_changes":[1.2403792E2,3.0837868E1,2.7666298E1,1.4212646E0,6.854183E0,2.378541E0,6.4807816E0,1.1099586E0,7.3848724E-1,2.1215134E0,1.4357183E0,1.4241314E0,9.128589E-1,4.0816536E0,3.5907402E0,0E0,0E0,0E0,0E0,0E0,0E0,0E0,0E0,0E0,0E0,0E0,0E0,0E0,0E0,0E0,0E0],"parents":[2147483647,0,0,1,1,2,2,3,3,4,4,5,5,6,6,7,7,8,8,9,9,10,10,11,11,12,12,13,13,14,14],"right_children":[2,4,6,8,10,12,14,16,18,20,22,24,26,28,30,-1,-1,-1,-1,-1,-1,-1,-1,-1,-1,-1,-1,-1,-1,-1,-1],"split_conditions":[-1.7794852E-1,-3.0271164E-1,9.040817E-2,-3.1549123E-1,-2.4034296E-1,7.202676E-1,6.050869E-1,2.1769278E0,2.2191467E0,-2.7594727E-1,-4.858881E-1,-8.4770106E-2,-3.5359234E-1,2.3648246E-1,1.223334E0,-2.9523721E-2,9.87164E-4,-2.168184E-2,-5.3572203E-3,-1.233975E-2,-6.965699E-3,6.7819335E-4,-4.3304977E-3,4.9533225E-3,9.325124E-3,-4.10246E-3,3.3339262E-3,1.9491445E-2,6.149822E-3,3.1826496E-2,1.0680804E-2],"split_indices":[1,1,1,1,1,32,1,17,30,1,12,1,15,32,32,0,0,0,0,0,0,0,0,0,0,0,0,0,0,0,0],"split_type":[0,0,0,0,0,0,0,0,0,0,0,0,0,0,0,0,0,0,0,0,0,0,0,0,0,0,0,0,0,0,0],"sum_hessian":[3.043E3,1.634E3,1.409E3,3E2,1.334E3,9.31E2,4.78E2,1.1E2,1.9E2,7.57E2,5.77E2,7.6E2,1.71E2,3.15E2,1.63E2,1.07E2,3E0,1.82E2,8E0,3.3E2,4.27E2,2.59E2,3.18E2,4.16E2,3.44E2,6.7E1,1.04E2,2.38E2,7.7E1,1.38E2,2.5E1],"tree_param":{"num_deleted":"0","num_feature":"33","num_nodes":"31","size_leaf_vector":"1"}},{"base_weights":[4.548547E-3,-1.41744325E-2,1.02873236E-1,7.873216E-3,-4.2274073E-2,9.169395E-2,4.7482225E-1,-1.3337019E-2,5.5339657E-2,-2.522412E-1,-2.3808034E-2,4.1934046E-1,7.935913E-2,6.0306925E-1,3.4374446E-3,4.7298844E-4,-5.5561247E-3,1.7814629E-2,1.9025874E-3,-1.6203895E-2,-4.3742093E-3,-3.3002521E-3,1.0821781E-3,7.648594E-3,2.7536293E-2,8.904763E-3,1.7284256E-3,3.6862187E-2,-2.38657E-5,-2.141537E-3,1.6568542E-3],"categories":[],"categories_nodes":[],"categories_segments":[],"categories_sizes":[],"default_left":[0,0,0,0,0,0,0,0,0,0,0,0,0,0,0,0,0,0,0,0,0,0,0,0,0,0,0,0,0,0,0],"id":3,"left_children":[1,3,5,7,9,11,13,15,17,19,21,23,25,27,29,-1,-1,-1,-1,-1,-1,-1,-1,-1,-1,-1,-1,-1,-1,-1,-1],"loss_changes":[5.616298E0,1.5881908E0,1.9856253E0,1.4474728E0,4.363668E0,1.886416E0,8.442786E-1,2.2168708E0,2.2965062E0,1.0486879E0,1.9903133E0,5.107024E-1,2.0237496E0,8.911381E-1,6.9158785E-3,0E0,0E0,0E0,0E0,0E0,0E0,0E0,0E0,0E0,0E0,0E0,0E0,0E0,0E0,0E0,0E0],"parents":[2147483647,0,0,1,1,2,2,3,3,4,4,5,5,6,6,7,7,8,8,9,9,10,10,11,11,12,12,13,13,14,14],"right_children":[2,4,6,8,10,12,14,16,18,20,22,24,26,28,30,-1,-1,-1,-1,-1,-1,-1,-1,-1,-1,-1,-1,-1,-1,-1,-1],"split_conditions":[1.5013121E0,1.815499E-2,2.2567863E0,-2.431386E-1,-4.9081153E-1,-6.078134E-1,2.4374695E0,-4.304555E-1,-4.2112336E-1,2.2116187E-1,5.898636E-1,-4.7870573E-1,-4.8428392E-1,-8.077E-2,-7.12479E-1,4.7298844E-4,-5.5561247E-3,1.7814629E-2,1.9025874E-3,-1.6203895E-2,-4.3742093E-3,-3.3002521E-3,1.0821781E-3,7.648594E-3,2.7536293E-2,8.904763E-3,1.7284256E-3,3.6862187E-2,-2.38657E-5,-2.141537E-3,1.6568542E-3],"split_indices":[22,31,31,16,29,15,29,16,15,15,29,8,8,13,8,0,0,0,0,0,0,0,0,0,0,0,0,0,0,0,0],"split_type":[0,0,0,0,0,0,0,0,0,0,0,0,0,0,0,0,0,0,0,0,0,0,0,0,0,0,0,0,0,0,0],"sum_hessian":[3.049E3,2.562E3,4.87E2,1.436E3,1.126E3,4.74E2,1.3E1,9.93E2,4.43E2,9E1,1.036E3,1.6E1,4.58E2,1E1,3E0,8.06E2,1.87E2,2.3E1,4.2E2,6.2E1,2.8E1,5.37E2,4.99E2,6E0,1E1,1.42E2,3.16E2,8E0,2E0,1E0,2E0],"tree_param":{"num_deleted":"0","num_feature":"33","num_nodes":"31","size_leaf_vector":"1"}},{"base_weights":[4.3140394E-3,-4.444874E-2,5.2978385E-2,6.766672E-2,-6.1009444E-2,7.279506E-2,-3.9769065E-2,8.688205E-2,-2.33152E-2,-4.6387035E-2,-1.716518E-1,8.253147E-2,-3.0864282E-2,-7.291304E-2,2.8795844E-1,1.2879978E-2,2.2784795E-3,-5.1574465E-3,-6.966533E-4,-1.15187885E-2,-2.8775006E-3,3.5967254E-3,1.2661177E-2,2.5044156E-2,-4.783063E-3,1.04749284E-4,-8.36042E-3,6.483813E-3,3.8378634E-2],"categories":[],"categories_nodes":[],"categories_segments":[],"categories_sizes":[],"default_left":[0,0,0,0,0,0,0,0,0,0,0,0,0,0,0,0,0,0,0,0,0,0,0,0,0,0,0,0,0],"id":4,"left_children":[1,3,5,7,9,11,13,15,-1,17,19,21,23,25,27,-1,-1,-1,-1,-1,-1,-1,-1,-1,-1,-1,-1,-1,-1],"loss_changes":[7.2542696E0,2.8393261E0,2.8149538E0,2.0618172E0,2.1454062E0,1.2752352E0,2.953788E0,1.3353382E0,0E0,2.1667717E0,1.025321E0,2.0673518E0,3.8035781E0,1.7402861E0,1.7983236E0,0E0,0E0,0E0,0E0,0E0,0E0,0E0,0E0,0E0,0E0,0E0,0E0,0E0,0E0],"parents":[2147483647,0,0,1,1,2,2,3,3,4,4,5,5,6,6,7,7,9,9,10,10,11,11,12,12,13,13,14,14],"right_children":[2,4,6,8,10,12,14,16,-1,18,20,22,24,26,28,-1,-1,-1,-1,-1,-1,-1,-1,-1,-1,-1,-1,-1,-1],"split_conditions":[1.3192299E-1,-1.5234445E0,1.1667317E0,3.2047327E0,9.739398E-1,1.2430371E0,1.4523677E0,-2.4414027E0,-2.33152E-2,-4.8931465E-1,-1.9249694E-1,1.5502367E0,-5.1109385E-1,4.797069E-2,2.1851277E0,1.2879978E-2,2.2784795E-3,-5.1574465E-3,-6.966533E-4,-1.15187885E-2,-2.8775006E-3,3.5967254E-3,1.2661177E-2,2.5044156E-2,-4.783063E-3,1.04749284E-4,-8.36042E-3,6.483813E-3,3.8378634E-2],"split_indices":[2,2,2,10,11,11,30,2,0,30,30,8,5,5,2,0,0,0,0,0,0,0,0,0,0,0,0,0,0],"split_type":[0,0,0,0,0,0,0,0,0,0,0,0,0,0,0,0,0,0,0,0,0,0,0,0,0,0,0,0,0],"sum_hessian":[3.055E3,1.526E3,1.529E3,1.96E2,1.33E3,1.26E3,2.69E2,1.9E2,6E0,1.176E3,1.54E2,1.152E3,1.08E2,2.45E2,2.4E1,3.6E1,1.54E2,4.27E2,7.49E2,1.01E2,5.3E1,1.086E3,6.6E1,1.1E1,9.7E1,1.37E2,1.08E2,1.9E1,5E0],"tree_param":{"num_deleted":"0","num_feature":"33","num_nodes":"29","size_leaf_vector":"1"}},{"base_weights":[2.1837982E-3,-5.2340098E-2,3.530384E-2,-4.6076525E-2,-2.9416656E-1,9.014513E-2,-6.836738E-4,9.5949005E-3,-7.70354E-2,-4.603639E-1,-5.4203376E-2,8.343202E-2,5.360008E-1,-5.168547E-2,2.8510913E-2,-1.7961186E-3,7.1480083E-3,-1.8677562E-3,-7.7552237E-3,-2.5517449E-2,8.484947E-3,1.368001E-2,-6.933838E-3,3.7938827E-3,1.5345082E-2,-5.612466E-3,3.0602535E-2,-8.551042E-4,-6.835823E-3,2.348787E-4,5.3303954E-3],"categories":[],"categories_nodes":[],"categories_segments":[],"categories_sizes":[],"default_left":[0,0,0,0,0,0,0,0,0,0,0,0,0,0,0,0,0,0,0,0,0,0,0,0,0,0,0,0,0,0,0],"id":5,"left_children":[1,3,5,7,9,11,13,15,17,19,21,23,25,27,29,-1,-1,-1,-1,-1,-1,-1,-1,-1,-1,-1,-1,-1,-1,-1,-1],"loss_changes":[5.524087E0,1.7374356E0,3.755826E0,1.944875E0,1.1316028E0,2.2120624E0,1.7137965E0,2.4575863E0,2.2401133E0,6.219995E-1,3.979208E-1,1.2327127E0,6.1099553E-1,1.2297982E0,1.3608365E0,0E0,0E0,0E0,0E0,0E0,0E0,0E0,0E0,0E0,0E0,0E0,0E0,0E0,0E0,0E0,0E0],"parents":[2147483647,0,0,1,1,2,2,3,3,4,4,5,5,6,6,7,7,8,8,9,9,10,10,11,11,12,12,13,13,14,14],"right_children":[2,4,6,8,10,12,14,16,18,20,22,24,26,28,30,-1,-1,-1,-1,-1,-1,-1,-1,-1,-1,-1,-1,-1,-1,-1,-1],"split_conditions":[-4.6457982E-1,2.5700488E0,-4.3130633E-1,-9.439979E-1,-6.8100935E-1,6.080659E-1,-4.7537208E-2,-3.154581E-1,-1.8931824E-1,4.6797904E-1,-2.821085E-1,1.4257714E0,-4.9081153E-1,1.9150862E-1,4.4597438E-1,-1.7961186E-3,7.1480083E-3,-1.8677562E-3,-7.7552237E-3,-2.5517449E-2,8.484947E-3,1.368001E-2,-6.933838E-3,3.7938827E-3,1.5345082E-2,-5.612466E-3,3.0602535E-2,-8.551042E-4,-6.835823E-3,2.348787E-4,5.3303954E-3],"split_indices":[30,12,9,29,30,12,9,16,14,13,19,16,29,12,14,0,0,0,0,0,0,0,0,0,0,0,0,0,0,0,0],"split_type":[0,0,0,0,0,0,0,0,0,0,0,0,0,0,0,0,0,0,0,0,0,0,0,0,0,0,0,0,0,0,0],"sum_hessian":[3.057E3,1.155E3,1.902E3,1.127E3,2.8E1,7.53E2,1.149E3,4.03E2,7.24E2,1.6E1,1.2E1,7.43E2,1E1,4.18E2,7.31E2,3.01E2,1.02E2,4.81E2,2.43E2,1.5E1,1E0,2E0,1E1,7.2E2,2.3E1,1E0,9E0,2.98E2,1.2E2,5.61E2,1.7E2],"tree_param":{"num_deleted":"0","num_feature":"33","num_nodes":"31","size_leaf_vector":"1"}},{"base_weights":[8.954713E-4,5.7455156E-2,-6.628506E-2,3.32855E-2,1.4623399E-1,-1.023254E-1,3.2616545E-2,1.38853295E-2,9.5396444E-2,3.1410047E-1,1.2377789E-1,-6.8132326E-2,-1.7350993E-1,6.02985E-2,-8.558861E-2,1.7113414E-3,-5.449173E-3,4.198307E-3,2.3353849E-2,-3.6807458E-3,1.8499736E-2,-4.2845658E-4,8.820022E-3,-3.1128547E-3,-2.5288705E-2,-7.819488E-3,-2.0898705E-2,2.0232394E-3,1.1618909E-2,-8.510622E-3,-5.8946264E-4],"categories":[],"categories_nodes":[],"categories_segments":[],"categories_sizes":[],"default_left":[0,0,0,0,0,0,0,0,0,0,0,0,0,0,0,0,0,0,0,0,0,0,0,0,0,0,0,0,0,0,0],"id":6,"left_children":[1,3,5,7,9,11,13,15,17,19,21,23,25,27,29,-1,-1,-1,-1,-1,-1,-1,-1,-1,-1,-1,-1,-1,-1,-1,-1],"loss_changes":[1.1554926E1,3.5377722E0,4.9579186E0,1.5639225E0,1.2918E0,2.468443E0,1.2224007E0,2.480571E0,1.2735431E0,9.157505E-1,2.1813807E0,1.7426724E0,1.315774E0,1.0213162E0,4.4140136E-1,0E0,0E0,0E0,0E0,0E0,0E0,0E0,0E0,0E0,0E0,0E0,0E0,0E0,0E0,0E0,0E0],"parents":[2147483647,0,0,1,1,2,2,3,3,4,4,5,5,6,6,7,7,8,8,9,9,10,10,11,11,12,12,13,13,14,14],"right_children":[2,4,6,8,10,12,14,16,18,20,22,24,26,28,30,-1,-1,-1,-1,-1,-1,-1,-1,-1,-1,-1,-1,-1,-1,-1,-1],"split_conditions":[-1.4383249E-1,3.833318E-1,2.0668182E-1,1.7202337E-1,-9.8541915E-1,9.373003E-1,1.7202337E-1,8.02011E-1,1.0425045E0,-1.0771998E0,-4.4059843E-1,4.0474153E0,3.0273738E0,9.4798267E-1,2.9111478E-1,1.7113414E-3,-5.449173E-3,4.198307E-3,2.3353849E-2,-3.6807458E-3,1.8499736E-2,-4.2845658E-4,8.820022E-3,-3.1128547E-3,-2.5288705E-2,-7.819488E-3,-2.0898705E-2,2.0232394E-3,1.1618909E-2,-8.510622E-3,-5.8946264E-4],"split_indices":[32,21,21,6,7,32,6,12,15,7,6,12,32,19,32,0,0,0,0,0,0,0,0,0,0,0,0,0,0,0,0],"split_type":[0,0,0,0,0,0,0,0,0,0,0,0,0,0,0,0,0,0,0,0,0,0,0,0,0,0,0,0,0,0,0],"sum_hessian":[3.039E3,1.65E3,1.389E3,1.298E3,3.52E2,1.018E3,3.71E2,9.9E2,3.08E2,4E1,3.12E2,6.89E2,3.29E2,3.01E2,7E1,8.5E2,1.4E2,3E2,8E0,5E0,3.5E1,8.9E1,2.23E2,6.81E2,8E0,3.09E2,2E1,2.71E2,3E1,3.2E1,3.8E1],"tree_param":{"num_deleted":"0","num_feature":"33","num_nodes":"31","size_leaf_vector":"1"}},{"base_weights":[-8.585533E-3,-2.081427E-1,1.8269409E-1,-3.4956264E-1,-1.0739761E-1,8.670322E-2,3.8419828E-1,-4.895511E-1,-2.8668195E-1,-7.3156394E-2,-2.3614897E-1,6.0803097E-2,1.7236865E-1,3.175765E-1,5.397526E-1,-2.5018577E-2,-3.5361063E-3,-1.4775938E-2,3.9597754E-3,-1.2104476E-3,-5.7551353E-3,-1.015614E-3,-1.4516852E-2,3.926532E-3,-3.5030243E-3,1.5542606E-2,6.543185E-3,1.7464358E-2,4.2390483E-3,3.0121222E-2,1.3987029E-2],"categories":[],"categories_nodes":[],"categories_segments":[],"categories_sizes":[],"default_left":[0,0,0,0,0,0,0,0,0,0,0,0,0,0,0,0,0,0,0,0,0,0,0,0,0,0,0,0,0,0,0],"id":7,"left_children":[1,3,5,7,9,11,13,15,17,19,21,23,25,27,29,-1,-1,-1,-1,-1,-1,-1,-1,-1,-1,-1,-1,-1,-1,-1,-1],"loss_changes":[1.17070984E2,2.1347748E1,3.0257145E1,5.352463E0,3.8534784E0,2.345827E0,5.0620575E0,8.347435E-1,1.4233742E0,1.4241629E0,2.1461248E0,1.9008515E0,1.3732667E0,2.5984116E0,2.2757912E0,0E0,0E0,0E0,0E0,0E0,0E0,0E0,0E0,0E0,0E0,0E0,0E0,0E0,0E0,0E0,0E0],"parents":[2147483647,0,0,1,1,2,2,3,3,4,4,5,5,6,6,7,7,8,8,9,9,10,10,11,11,12,12,13,13,14,14],"right_children":[2,4,6,8,10,12,14,16,18,20,22,24,26,28,30,-1,-1,-1,-1,-1,-1,-1,-1,-1,-1,-1,-1,-1,-1,-1,-1],"split_conditions":[-1.982198E-1,-2.7691913E-1,7.064391E-2,-3.107391E-1,5.8070725E-1,-4.4434503E-2,7.625611E-1,1.9008436E0,2.429183E0,-4.9165872E-1,-9.778271E-1,1.059702E0,-8.3941644E-1,1.059892E0,9.373003E-1,-2.5018577E-2,-3.5361063E-3,-1.4775938E-2,3.9597754E-3,-1.2104476E-3,-5.7551353E-3,-1.015614E-3,-1.4516852E-2,3.926532E-3,-3.5030243E-3,1.5542606E-2,6.543185E-3,1.7464358E-2,4.2390483E-3,3.0121222E-2,1.3987029E-2],"split_indices":[1,1,1,1,32,1,1,18,3,12,30,32,29,12,32,0,0,0,0,0,0,0,0,0,0,0,0,0,0,0,0],"split_type":[0,0,0,0,0,0,0,0,0,0,0,0,0,0,0,0,0,0,0,0,0,0,0,0,0,0,0,0,0,0,0],"sum_hessian":[3.065E3,1.5E3,1.565E3,6.23E2,8.77E2,1.061E3,5.04E2,1.91E2,4.32E2,6.94E2,1.83E2,8.16E2,2.45E2,3.55E2,1.49E2,1.86E2,5E0,4.22E2,1E1,3.21E2,3.73E2,3.7E1,1.46E2,7.19E2,9.7E1,5.5E1,1.9E2,3.12E2,4.3E1,1.19E2,3E1],"tree_param":{"num_deleted":"0","num_feature":"33","num_nodes":"31","size_leaf_vector":"1"}},{"base_weights":[-5.737782E-3,-3.3696356E-1,3.311687E-1,-5.788832E-1,-1.666882E-1,1.870493E-1,6.1038667E-1,-7.141882E-1,-4.7007725E-1,-2.5597396E-1,-8.8472605E-2,7.999332E-2,2.71063E-1,5.2662957E-1,8.915188E-1,-3.9335147E-2,-3.2349672E-2,-2.6713183E-2,-2.1249486E-2,-1.5440024E-2,-1.1213454E-2,-6.3396613E-3,-2.8872087E-3,2.1573647E-3,6.38726E-3,1.0741207E-2,1.6721204E-2,2.1357996E-2,2.8927362E-2,4.1204605E-2,5.7261046E-2],"categories":[],"categories_nodes":[],"categories_segments":[],"categories_sizes":[],"default_left":[0,0,0,0,0,0,0,0,0,0,0,0,0,0,0,0,0,0,0,0,0,0,0,0,0,0,0,0,0,0,0],"id":8,"left_children":[1,3,5,7,9,11,13,15,17,19,21,23,25,27,29,-1,-1,-1,-1,-1,-1,-1,-1,-1,-1,-1,-1,-1,-1,-1,-1],"loss_changes":[3.4147186E2,6.346422E1,6.0931015E1,9.042191E0,6.3114243E0,8.9904785E0,1.1680664E1,8.6509705E-1,8.032074E-1,6.3921165E-1,5.637815E-1,7.7217245E-1,1.9272003E0,1.8185577E0,1.0576706E0,0E0,0E0,0E0,0E0,0E0,0E0,0E0,0E0,0E0,0E0,0E0,0E0,0E0,0E0,0E0,0E0],"parents":[2147483647,0,0,1,1,2,2,3,3,4,4,5,5,6,6,7,7,8,8,9,9,10,10,11,11,12,12,13,13,14,14],"right_children":[2,4,6,8,10,12,14,16,18,20,22,24,26,28,30,-1,-1,-1,-1,-1,-1,-1,-1,-1,-1,-1,-1,-1,-1,-1,-1],"split_conditions":[-2.7540228E-1,-4.644152E-1,2.7353078E-1,-5.1463854E-1,-3.86941E-1,-1.2667312E-1,1.7107235E0,-5.323166E-1,-4.9721327E-1,-4.3837124E-1,-3.4443736E-1,-1.976598E-1,3.0956078E-2,5.147737E-1,4.028097E0,-3.9335147E-2,-3.2349672E-2,-2.6713183E-2,-2.1249486E-2,-1.5440024E-2,-1.1213454E-2,-6.3396613E-3,-2.8872087E-3,2.1573647E-3,6.38726E-3,1.0741207E-2,1.6721204E-2,2.1357996E-2,2.8927362E-2,4.1204605E-2,5.7261046E-2],"split_indices":[25,25,25,25,25,25,25,25,25,25,25,25,25,25,25,0,0,0,0,0,0,0,0,0,0,0,0,0,0,0,0],"split_type":[0,0,0,0,0,0,0,0,0,0,0,0,0,0,0,0,0,0,0,0,0,0,0,0,0,0,0,0,0,0,0],"sum_hessian":[3.058E3,1.542E3,1.516E3,6.36E2,9.06E2,1.001E3,5.15E2,2.81E2,3.55E2,4.22E2,4.84E2,4.41E2,5.6E2,3.99E2,1.16E2,1.3E2,1.51E2,1.42E2,2.13E2,1.55E2,2.67E2,2.14E2,2.7E2,2.5E2,1.91E2,2.99E2,2.61E2,1.4E2,2.59E2,9.5E1,2.1E1],"tree_param":{"num_deleted":"0","num_feature":"33","num_nodes":"31","size_leaf_vector":"1"}},{"base_weights":[-2.7367247E-3,-1.7840582E-1,1.641281E-1,-3.8868254E-1,-1.1903117E-1,7.657377E-2,3.461935E-1,-3.2260364E-1,-4.4926855E-1,-1.9617766E-1,-9.058804E-2,5.5232015E-2,1.5260719E-1,2.7177414E-1,5.006698E-1,-1.7248884E-2,4.4313744E-3,-2.7053121E-2,-1.9348929E-2,-6.2974403E-3,-1.147567E-2,-2.4547512E-3,-7.211885E-3,2.9374582E-3,-1.3470109E-2,1.0097949E-2,4.142862E-3,1.1085058E-2,1.6130695E-2,2.7308723E-2,1.7597212E-2],"categories":[],"categories_nodes":[],"categories_segments":[],"categories_sizes":[],"default_left":[0,0,0,0,0,0,0,0,0,0,0,0,0,0,0,0,0,0,0,0,0,0,0,0,0,0,0,0,0,0,0],"id":9,"left_children":[1,3,5,7,9,11,13,15,17,19,21,23,25,27,29,-1,-1,-1,-1,-1,-1,-1,-1,-1,-1,-1,-1,-1,-1,-1,-1],"loss_changes":[8.8935585E1,1.8406723E1,2.4777088E1,1.1561852E0,2.5144367E0,1.6986375E0,5.6694183E0,1.4935169E0,7.4549866E-1,6.9684315E-1,1.8739605E0,9.555173E-1,7.7499104E-1,8.01651E-1,9.109154E-1,0E0,0E0,0E0,0E0,0E0,0E0,0E0,0E0,0E0,0E0,0E0,0E0,0E0,0E0,0E0,0E0],"parents":[2147483647,0,0,1,1,2,2,3,3,4,4,5,5,6,6,7,7,8,8,9,9,10,10,11,11,12,12,13,13,14,14],"right_children":[2,4,6,8,10,12,14,16,18,20,22,24,26,28,30,-1,-1,-1,-1,-1,-1,-1,-1,-1,-1,-1,-1,-1,-1,-1,-1],"split_conditions":[-1.982198E-1,-3.0271164E-1,6.581108E-2,-5.6209755E-1,-2.7594727E-1,-4.035151E-2,6.050869E-1,1.7968102E-1,-3.1660107E-1,-6.65114E-1,-1.5253064E-1,2.7666545E0,3.209582E-2,-2.8873208E-1,3.7243658E-1,-1.7248884E-2,4.4313744E-3,-2.7053121E-2,-1.9348929E-2,-6.2974403E-3,-1.147567E-2,-2.4547512E-3,-7.211885E-3,2.9374582E-3,-1.3470109E-2,1.0097949E-2,4.142862E-3,1.1085058E-2,1.6130695E-2,2.7308723E-2,1.7597212E-2],"split_indices":[1,1,1,8,1,1,1,26,1,29,9,23,29,6,9,0,0,0,0,0,0,0,0,0,0,0,0,0,0,0,0],"split_type":[0,0,0,0,0,0,0,0,0,0,0,0,0,0,0,0,0,0,0,0,0,0,0,0,0,0,0,0,0,0,0],"sum_hessian":[3.032E3,1.477E3,1.555E3,3.24E2,1.153E3,1.051E3,5.04E2,1.58E2,1.66E2,3.09E2,8.44E2,8.22E2,2.29E2,3.42E2,1.62E2,1.5E2,8E0,6.4E1,1.02E2,1.01E2,2.08E2,4.77E2,3.67E2,8.14E2,8E0,1.33E2,9.6E1,1.75E2,1.67E2,1.22E2,4E1],"tree_param":{"num_deleted":"0","num_feature":"33","num_nodes":"31","size_leaf_vector":"1"}},{"base_weights":[2.214788E-3,-1.3992507E-2,7.988087E-2,6.321735E-2,-3.0124152E-2,9.0946965E-2,-2.0131876E-1,1.1188711E-1,-8.859212E-4,-1.9921562E-2,-9.834628E-2,7.968799E-2,3.7237522E-1,-2.9984352E-1,1.5422426E-1,8.861013E-3,1.7628375E-3,5.7121417E-3,-2.9451863E-3,-1.6039134E-3,2.2707963E-3,-8.383542E-3,-8.2440645E-4,3.4902922E-3,2.0287693E-2,2.785848E-2,1.2211314E-2,-1.8297663E-2,5.430821E-3,1.0911703E-2,-2.5453733E-3],"categories":[],"categories_nodes":[],"categories_segments":[],"categories_sizes":[],"default_left":[0,0,0,0,0,0,0,0,0,0,0,0,0,0,0,0,0,0,0,0,0,0,0,0,0,0,0,0,0,0,0],"id":10,"left_children":[1,3,5,7,9,11,13,15,17,19,21,23,25,27,29,-1,-1,-1,-1,-1,-1,-1,-1,-1,-1,-1,-1,-1,-1,-1,-1],"loss_changes":[3.7912354E0,3.1057453E0,1.6364357E0,1.3447725E0,1.4332805E0,1.5577908E0,7.46839E-1,1.220345E0,1.2557992E0,1.4272045E0,1.5180771E0,1.5280142E0,3.1386757E-1,4.7179925E-1,7.6761946E-2,0E0,0E0,0E0,0E0,0E0,0E0,0E0,0E0,0E0,0E0,0E0,0E0,0E0,0E0,0E0,0E0],"parents":[2147483647,0,0,1,1,2,2,3,3,4,4,5,5,6,6,7,7,8,8,9,9,10,10,11,11,12,12,13,13,14,14],"right_children":[2,4,6,8,10,12,14,16,18,20,22,24,26,28,30,-1,-1,-1,-1,-1,-1,-1,-1,-1,-1,-1,-1,-1,-1,-1,-1],"split_conditions":[1.4340068E0,-8.470138E-1,1.3623538E0,3.4498206E-1,1.0157813E0,2.0501835E0,2.2164433E0,-2.8495547E-1,-4.4501925E-1,5.026019E-1,-7.984778E-2,3.1377175E0,2.846952E-1,1.2872255E-1,3.584894E0,8.861013E-3,1.7628375E-3,5.7121417E-3,-2.9451863E-3,-1.6039134E-3,2.2707963E-3,-8.383542E-3,-8.2440645E-4,3.4902922E-3,2.0287693E-2,2.785848E-2,1.2211314E-2,-1.8297663E-2,5.430821E-3,1.0911703E-2,-2.5453733E-3],"split_indices":[22,7,11,17,24,10,7,13,15,13,15,20,11,17,7,0,0,0,0,0,0,0,0,0,0,0,0,0,0,0,0],"split_type":[0,0,0,0,0,0,0,0,0,0,0,0,0,0,0,0,0,0,0,0,0,0,0,0,0,0,0,0,0,0,0],"sum_hessian":[3.01E3,2.491E3,5.19E2,4.3E2,2.061E3,5E2,1.9E1,2.44E2,1.86E2,1.794E3,2.67E2,4.82E2,1.8E1,1.5E1,4E0,1.31E2,1.13E2,6.2E1,1.24E2,1.513E3,2.81E2,1.44E2,1.23E2,4.69E2,1.3E1,6E0,1.2E1,1.3E1,2E0,3E0,1E0],"tree_param":{"num_deleted":"0","num_feature":"33","num_nodes":"31","size_leaf_vector":"1"}},{"base_weights":[1.3762519E-3,-1.6202642E-1,1.5729314E-1,-3.666303E-1,-1.1309409E-1,6.0354088E-2,2.954013E-1,-1.9877818E-1,-3.9810485E-1,-1.8311897E-1,-5.16725E-2,2.3652693E-2,9.732674E-2,2.4116437E-1,4.7851774E-1,-1.7921917E-2,-3.8817995E-3,-2.3022264E-2,-1.7457116E-2,-1.4651869E-2,-6.909719E-3,-5.0816853E-3,7.112283E-4,-1.4885444E-3,3.0748749E-3,4.2032097E-3,1.0519308E-2,9.834047E-3,1.5963996E-2,2.2121457E-2,3.9230093E-2],"categories":[],"categories_nodes":[],"categories_segments":[],"categories_sizes":[],"default_left":[0,0,0,0,0,0,0,0,0,0,0,0,0,0,0,0,0,0,0,0,0,0,0,0,0,0,0,0,0,0,0],"id":11,"left_children":[1,3,5,7,9,11,13,15,17,19,21,23,25,27,29,-1,-1,-1,-1,-1,-1,-1,-1,-1,-1,-1,-1,-1,-1,-1,-1],"loss_changes":[7.717055E1,1.4765907E1,2.0733688E1,1.4265404E0,5.1302786E0,1.2352345E0,6.2309456E0,8.812268E-1,5.687523E-1,2.7149296E0,2.101931E0,9.2983913E-1,6.6306686E-1,1.6572514E0,1.2545586E0,0E0,0E0,0E0,0E0,0E0,0E0,0E0,0E0,0E0,0E0,0E0,0E0,0E0,0E0,0E0,0E0],"parents":[2147483647,0,0,1,1,2,2,3,3,4,4,5,5,6,6,7,7,8,8,9,9,10,10,11,11,12,12,13,13,14,14],"right_children":[2,4,6,8,10,12,14,16,18,20,22,24,26,28,30,-1,-1,-1,-1,-1,-1,-1,-1,-1,-1,-1,-1,-1,-1,-1,-1],"split_conditions":[-1.982198E-1,-3.0271164E-1,-9.679591E-3,-5.1464677E-1,1.55520495E-2,1.2178573E-1,7.625611E-1,-3.1230667E-1,-3.1549123E-1,-2.7345002E-1,-2.4853374E-1,-1.4099126E-1,-4.035151E-2,3.4905642E-1,8.906647E-1,-1.7921917E-2,-3.8817995E-3,-2.3022264E-2,-1.7457116E-2,-1.4651869E-2,-6.909719E-3,-5.0816853E-3,7.112283E-4,-1.4885444E-3,3.0748749E-3,4.2032097E-3,1.0519308E-2,9.834047E-3,1.5963996E-2,2.2121457E-2,3.9230093E-2],"split_indices":[1,1,1,13,2,2,1,1,1,1,1,1,1,2,6,0,0,0,0,0,0,0,0,0,0,0,0,0,0,0,0],"split_type":[0,0,0,0,0,0,0,0,0,0,0,0,0,0,0,0,0,0,0,0,0,0,0,0,0,0,0,0,0,0,0],"sum_hessian":[3.027E3,1.478E3,1.549E3,2.84E2,1.194E3,9.11E2,6.38E2,4.6E1,2.38E2,5.57E2,6.37E2,4.58E2,4.53E2,4.94E2,1.44E2,1.9E1,2.7E1,1.01E2,1.37E2,1.6E2,3.97E2,3.62E2,2.75E2,1.9E2,2.68E2,4.07E2,4.6E1,3.17E2,1.77E2,1.31E2,1.3E1],"tree_param":{"num_deleted":"0","num_feature":"33","num_nodes":"31","size_leaf_vector":"1"}},{"base_weights":[7.909871E-4,-1.07667804E-1,2.2202025E-1,-2.6520342E-1,-3.9275844E-2,1.3943326E-1,3.666746E-1,-3.3621857E-1,-2.0961851E-1,-9.001209E-2,4.0944014E-3,1.4348553E-1,-4.0552238E-1,3.0158567E-1,4.8063815E-1,-3.9490997E-3,-1.8335905E-2,-1.0992449E-2,8.061266E-3,-4.6024523E-3,3.1308632E-2,-4.7129695E-4,4.2835437E-3,6.7511476E-3,1.8194837E-2,-4.9761743E-3,-2.285706E-2,1.6066754E-2,-6.489807E-3,3.4333255E-2,1.9766837E-2],"categories":[],"categories_nodes":[],"categories_segments":[],"categories_sizes":[],"default_left":[0,0,0,0,0,0,0,0,0,0,0,0,0,0,0,0,0,0,0,0,0,0,0,0,0,0,0,0,0,0,0],"id":12,"left_children":[1,3,5,7,9,11,13,15,17,19,21,23,25,27,29,-1,-1,-1,-1,-1,-1,-1,-1,-1,-1,-1,-1,-1,-1,-1,-1],"loss_changes":[7.337435E1,2.209818E1,1.1967125E1,2.3808403E0,3.1514032E0,1.4759178E0,2.5625305E0,2.0971947E0,1.3671045E0,1.0204735E0,8.5338145E-1,1.140892E0,3.3480287E-2,2.0437965E0,2.0307808E0,0E0,0E0,0E0,0E0,0E0,0E0,0E0,0E0,0E0,0E0,0E0,0E0,0E0,0E0,0E0,0E0],"parents":[2147483647,0,0,1,1,2,2,3,3,4,4,5,5,6,6,7,7,8,8,9,9,10,10,11,11,12,12,13,13,14,14],"right_children":[2,4,6,8,10,12,14,16,18,20,22,24,26,28,30,-1,-1,-1,-1,-1,-1,-1,-1,-1,-1,-1,-1,-1,-1,-1,-1],"split_conditions":[-9.758755E-2,-2.5388828E-1,1.9823523E-1,-2.763625E-1,-2.0122583E-1,2.6541586E0,7.467171E-1,-2.9458165E-1,1.9541112E0,5.77551E0,1.5013121E0,1.9803976E0,-2.0675117E-2,2.5700488E0,-5.364278E-1,-3.9490997E-3,-1.8335905E-2,-1.0992449E-2,8.061266E-3,-4.6024523E-3,3.1308632E-2,-4.7129695E-4,4.2835437E-3,6.7511476E-3,1.8194837E-2,-4.9761743E-3,-2.285706E-2,1.6066754E-2,-6.489807E-3,3.4333255E-2,1.9766837E-2],"split_indices":[0,0,0,0,0,3,0,0,6,19,22,8,0,12,7,0,0,0,0,0,0,0,0,0,0,0,0,0,0,0,0],"split_type":[0,0,0,0,0,0,0,0,0,0,0,0,0,0,0,0,0,0,0,0,0,0,0,0,0,0,0,0,0,0,0],"sum_hessian":[3.056E3,2.051E3,1.005E3,6.2E2,1.431E3,6.41E2,3.64E2,2.7E2,3.5E2,6.59E2,7.72E2,6.37E2,4E0,2.34E2,1.3E2,2.9E1,2.41E2,3.41E2,9E0,6.58E2,1E0,6.63E2,1.09E2,6.15E2,2.2E1,1E0,3E0,2.24E2,1E1,3.6E1,9.4E1],"tree_param":{"num_deleted":"0","num_feature":"33","num_nodes":"31","size_leaf_vector":"1"}},{"base_weights":[1.9369598E-3,-1.6022243E-1,1.3645217E-1,-2.811611E-1,-9.431018E-2,7.2888985E-2,3.414762E-1,-6.903821E-2,-2.934617E-1,-7.882547E-2,-1.9983843E-1,3.6158424E-2,1.2978937E-1,3.4794345E-1,-1.3472961E-1,-8.631139E-3,2.9781241E-2,-1.7313192E-2,-1.11543825E-2,-4.163435E-3,1.3648151E-2,4.618645E-3,-1.1597115E-2,7.327245E-4,5.968855E-3,1.2835214E-2,5.4755798E-3,1.4658366E-2,2.0102601E-2,-2.2347363E-2,1.6323524E-2],"categories":[],"categories_nodes":[],"categories_segments":[],"categories_sizes":[],"default_left":[0,0,0,0,0,0,0,0,0,0,0,0,0,0,0,0,0,0,0,0,0,0,0,0,0,0,0,0,0,0,0],"id":13,"left_children":[1,3,5,7,9,11,13,15,17,19,21,23,25,27,29,-1,-1,-1,-1,-1,-1,-1,-1,-1,-1,-1,-1,-1,-1,-1,-1],"loss_changes":[6.648578E1,1.0989876E1,2.168639E1,1.2504387E0,1.4483786E0,2.6558566E0,1.2602959E0,2.0305853E0,1.6320686E0,1.2466187E0,1.0908728E0,1.3851357E0,1.2560902E0,1.0350723E0,1.0098839E0,0E0,0E0,0E0,0E0,0E0,0E0,0E0,0E0,0E0,0E0,0E0,0E0,0E0,0E0,0E0,0E0],"parents":[2147483647,0,0,1,1,2,2,3,3,4,4,5,5,6,6,7,7,8,8,9,9,10,10,11,11,12,12,13,13,14,14],"right_children":[2,4,6,8,10,12,14,16,18,20,22,24,26,28,30,-1,-1,-1,-1,-1,-1,-1,-1,-1,-1,-1,-1,-1,-1,-1,-1],"split_conditions":[-1.9117042E-1,-2.6347733E-1,1.5875107E-1,-2.9458165E-1,8.673163E-1,-6.822003E-2,2.9255164E0,1.5215367E0,-2.763625E-1,3.4360156E0,-1.7011274E0,2.613704E-1,-4.1283217E-1,1.0889639E-1,-1.07063755E-1,-8.631139E-3,2.9781241E-2,-1.7313192E-2,-1.11543825E-2,-4.163435E-3,1.3648151E-2,4.618645E-3,-1.1597115E-2,7.327245E-4,5.968855E-3,1.2835214E-2,5.4755798E-3,1.4658366E-2,2.0102601E-2,-2.2347363E-2,1.6323524E-2],"split_indices":[0,0,0,0,11,0,29,5,0,19,17,5,5,17,5,0,0,0,0,0,0,0,0,0,0,0,0,0,0,0,0],"split_type":[0,0,0,0,0,0,0,0,0,0,0,0,0,0,0,0,0,0,0,0,0,0,0,0,0,0,0,0,0,0,0],"sum_hessian":[3.046E3,1.381E3,1.665E3,4.86E2,8.95E2,1.272E3,3.93E2,2.7E1,4.59E2,7.82E2,1.13E2,7.74E2,4.98E2,3.88E2,5E0,2.4E1,3E0,2.6E2,1.99E2,7.73E2,9E0,1.1E1,1.02E2,6.16E2,1.58E2,6.7E1,4.31E2,1.96E2,1.92E2,3E0,2E0],"tree_param":{"num_deleted":"0","num_feature":"33","num_nodes":"31","size_leaf_vector":"1"}},{"base_weights":[4.045447E-3,-1.7679317E-1,1.1094115E-1,-3.263347E-1,-1.2099893E-1,3.756985E-2,2.5773984E-1,-2.6799732E-1,-3.8181397E-1,-1.7947207E-1,-6.828333E-2,1.8642318E-2,1.6082318E-1,2.0774263E-1,3.9092463E-1,-1.4680815E-2,4.470648E-3,-2.0741586E-2,-1.0861981E-2,-6.064611E-3,-1.14011755E-2,-4.463793E-3,7.088729E-3,-7.602737E-4,3.3126555E-3,5.140698E-3,1.7339138E-2,9.237995E-3,1.815765E-2,2.1141632E-2,1.013623E-2],"categories":[],"categories_nodes":[],"categories_segments":[],"categories_sizes":[],"default_left":[0,0,0,0,0,0,0,0,0,0,0,0,0,0,0,0,0,0,0,0,0,0,0,0,0,0,0,0,0,0,0],"id":14,"left_children":[1,3,5,7,9,11,13,15,17,19,21,23,25,27,29,-1,-1,-1,-1,-1,-1,-1,-1,-1,-1,-1,-1,-1,-1,-1,-1],"loss_changes":[5.8901447E1,9.405418E0,2.061642E1,8.912811E-1,2.533846E0,2.9784243E0,4.167145E0,1.4271955E0,7.521324E-1,1.076807E0,1.9352627E0,1.7881835E0,1.7981992E0,1.5973434E0,9.5316315E-1,0E0,0E0,0E0,0E0,0E0,0E0,0E0,0E0,0E0,0E0,0E0,0E0,0E0,0E0,0E0,0E0],"parents":[2147483647,0,0,1,1,2,2,3,3,4,4,5,5,6,6,7,7,8,8,9,9,10,10,11,11,12,12,13,13,14,14],"right_children":[2,4,6,8,10,12,14,16,18,20,22,24,26,28,30,-1,-1,-1,-1,-1,-1,-1,-1,-1,-1,-1,-1,-1,-1,-1,-1],"split_conditions":[-2.3408908E-1,-3.0271164E-1,-9.679591E-3,-5.3499395E-1,1.55520495E-2,8.1193435E-1,5.478367E-1,1.1140779E0,1.4072169E0,-3.8940537E-1,-2.4034296E-1,-1.4099126E-1,1.17706716E-1,7.9946584E-1,7.59246E-1,-1.4680815E-2,4.470648E-3,-2.0741586E-2,-1.0861981E-2,-6.064611E-3,-1.14011755E-2,-4.463793E-3,7.088729E-3,-7.602737E-4,3.3126555E-3,5.140698E-3,1.7339138E-2,9.237995E-3,1.815765E-2,2.1141632E-2,1.013623E-2],"split_indices":[1,1,1,8,2,2,1,18,8,16,1,1,16,2,16,0,0,0,0,0,0,0,0,0,0,0,0,0,0,0,0],"split_type":[0,0,0,0,0,0,0,0,0,0,0,0,0,0,0,0,0,0,0,0,0,0,0,0,0,0,0,0,0,0,0],"sum_hessian":[3.045E3,1.131E3,1.914E3,3.06E2,8.25E2,1.277E3,6.37E2,1.52E2,1.54E2,3.9E2,4.35E2,1.108E3,1.69E2,4.65E2,1.72E2,1.42E2,1E1,1.27E2,2.7E1,1.79E2,2.11E2,3.96E2,3.9E1,6.48E2,4.6E2,1.3E2,3.9E1,4.07E2,5.8E1,1.46E2,2.6E1],"tree_param":{"num_deleted":"0","num_feature":"33","num_nodes":"31","size_leaf_vector":"1"}},{"base_weights":[3.5310031E-3,7.040794E-2,-1.1400454E-2,3.4827486E-2,1.2599562E-1,-2.1794915E-2,3.8991913E-2,-3.971755E-3,9.628971E-2,5.956716E-2,1.7349897E-1,-9.394613E-3,-8.204852E-2,5.1270016E-3,1.4279547E-1,-3.7077607E-3,1.6983275E-3,1.0801357E-2,-1.721833E-4,1.2878651E-2,3.9614286E-4,1.3703564E-2,6.960761E-3,-3.632261E-4,-1.0502397E-2,-6.3134395E-3,2.2387465E-3,1.6542492E-2,-5.350689E-4,1.0661831E-2,-2.020763E-3],"categories":[],"categories_nodes":[],"categories_segments":[],"categories_sizes":[],"default_left":[0,0,0,0,0,0,0,0,0,0,0,0,0,0,0,0,0,0,0,0,0,0,0,0,0,0,0,0,0,0,0],"id":15,"left_children":[1,3,5,7,9,11,13,15,17,19,21,23,25,27,29,-1,-1,-1,-1,-1,-1,-1,-1,-1,-1,-1,-1,-1,-1,-1,-1],"loss_changes":[3.04744E0,1.0972657E0,1.3077345E0,8.1356084E-1,6.744249E-1,1.5451093E0,1.5003002E0,5.616735E-1,1.5770639E0,9.387398E-1,3.9629316E-1,7.323368E-1,1.9853363E0,1.6688203E0,1.3637033E0,0E0,0E0,0E0,0E0,0E0,0E0,0E0,0E0,0E0,0E0,0E0,0E0,0E0,0E0,0E0,0E0],"parents":[2147483647,0,0,1,1,2,2,3,3,4,4,5,5,6,6,7,7,8,8,9,9,10,10,11,11,12,12,13,13,14,14],"right_children":[2,4,6,8,10,12,14,16,18,20,22,24,26,28,30,-1,-1,-1,-1,-1,-1,-1,-1,-1,-1,-1,-1,-1,-1,-1,-1],"split_conditions":[-8.23885E-1,2.851929E-1,1.4340068E0,2.8486073E-1,-4.0274754E-1,6.4536595E-1,8.5548717E-1,-5.1877564E-1,-3.918146E-1,-1.0155232E0,-9.802794E-1,3.16954E0,2.559389E-1,-5.994483E-1,1.0313705E0,-3.7077607E-3,1.6983275E-3,1.0801357E-2,-1.721833E-4,1.2878651E-2,3.9614286E-4,1.3703564E-2,6.960761E-3,-3.632261E-4,-1.0502397E-2,-6.3134395E-3,2.2387465E-3,1.6542492E-2,-5.350689E-4,1.0661831E-2,-2.020763E-3],"split_indices":[7,21,22,19,13,24,8,28,13,7,7,29,13,13,7,0,0,0,0,0,0,0,0,0,0,0,0,0,0,0,0],"split_type":[0,0,0,0,0,0,0,0,0,0,0,0,0,0,0,0,0,0,0,0,0,0,0,0,0,0,0,0,0,0,0],"sum_hessian":[3.05E3,5.56E2,2.494E3,3.4E2,2.16E2,2.068E3,4.26E2,2.09E2,1.31E2,9.1E1,1.25E2,1.716E3,3.52E2,3.22E2,1.04E2,7.3E1,1.36E2,5.9E1,7.2E1,1.8E1,7.3E1,3E1,9.5E1,1.699E3,1.7E1,2.61E2,9.1E1,1.4E1,3.08E2,7.5E1,2.9E1],"tree_param":{"num_deleted":"0","num_feature":"33","num_nodes":"31","size_leaf_vector":"1"}},{"base_weights":[4.0450534E-3,-2.886741E-1,2.9444602E-1,-5.256158E-1,-1.5048671E-1,1.764733E-1,5.383926E-1,-6.6285145E-1,-4.4497818E-1,-2.4992251E-1,-8.4856756E-2,1.1696299E-1,2.863825E-1,4.6220097E-1,7.6944447E-1,-3.0855214E-2,-3.6960546E-2,-2.0667247E-2,-2.6193822E-2,-8.0625685E-3,-1.3955933E-2,-2.191698E-3,-7.076402E-3,2.4056963E-3,7.937745E-3,1.972027E-2,1.22726215E-2,2.4642799E-2,1.6563192E-2,3.355713E-2,5.0562263E-2],"categories":[],"categories_nodes":[],"categories_segments":[],"categories_sizes":[],"default_left":[0,0,0,0,0,0,0,0,0,0,0,0,0,0,0,0,0,0,0,0,0,0,0,0,0,0,0,0,0,0,0],"id":16,"left_children":[1,3,5,7,9,11,13,15,17,19,21,23,25,27,29,-1,-1,-1,-1,-1,-1,-1,-1,-1,-1,-1,-1,-1,-1,-1,-1],"loss_changes":[2.5688788E2,4.9198166E1,4.356279E1,5.8358E0,6.191515E0,6.6642113E0,8.340851E0,2.5295258E-1,6.619797E-1,9.335785E-1,1.330565E0,1.9086657E0,1.4904709E0,1.3379288E0,2.1974182E0,0E0,0E0,0E0,0E0,0E0,0E0,0E0,0E0,0E0,0E0,0E0,0E0,0E0,0E0,0E0,0E0],"parents":[2147483647,0,0,1,1,2,2,3,3,4,4,5,5,6,6,7,7,8,8,9,9,10,10,11,11,12,12,13,13,14,14],"right_children":[2,4,6,8,10,12,14,16,18,20,22,24,26,28,30,-1,-1,-1,-1,-1,-1,-1,-1,-1,-1,-1,-1,-1,-1,-1,-1],"split_conditions":[-2.7540228E-1,-4.730296E-1,3.0168137E-1,-5.239662E-1,-4.057348E-1,-1.4047282E-2,1.5808992E0,-2.7691913E-1,-2.3596159E-1,-2.829976E-1,-1.9381669E-1,-1.9253097E-1,-1.8201083E-1,4.2391053E-1,3.3681304E0,-3.0855214E-2,-3.6960546E-2,-2.0667247E-2,-2.6193822E-2,-8.0625685E-3,-1.3955933E-2,-2.191698E-3,-7.076402E-3,2.4056963E-3,7.937745E-3,1.972027E-2,1.22726215E-2,2.4642799E-2,1.6563192E-2,3.355713E-2,5.0562263E-2],"split_indices":[25,25,25,25,25,25,25,1,1,1,1,25,1,1,25,0,0,0,0,0,0,0,0,0,0,0,0,0,0,0,0],"split_type":[0,0,0,0,0,0,0,0,0,0,0,0,0,0,0,0,0,0,0,0,0,0,0,0,0,0,0,0,0,0,0],"sum_hessian":[3.02E3,1.504E3,1.516E3,5.53E2,9.51E2,1.023E3,4.93E2,2.02E2,3.51E2,3.77E2,5.74E2,6.65E2,3.58E2,3.73E2,1.2E2,1.32E2,7E1,2.55E2,9.6E1,9.5E1,2.82E2,3.34E2,2.4E2,2.52E2,4.13E2,9.6E1,2.62E2,3E2,7.3E1,8.8E1,3.2E1],"tree_param":{"num_deleted":"0","num_feature":"33","num_nodes":"31","size_leaf_vector":"1"}},{"base_weights":[1.2101363E-3,-2.7748835E-1,2.7953917E-1,-4.8195243E-1,-1.3056299E-1,1.7338382E-1,5.4112124E-1,-6.0558033E-1,-3.9649847E-1,-2.1805471E-1,-7.098657E-2,1.0367721E-1,2.7562752E-1,4.6783307E-1,7.3694265E-1,-3.3615142E-2,-2.757662E-2,-2.2386229E-2,-1.753186E-2,-1.3298936E-2,-9.431319E-3,-5.5575706E-3,-2.4031517E-3,2.058639E-3,7.184812E-3,1.1032331E-2,1.4826424E-2,2.369266E-2,-3.1024337E-4,3.314372E-2,4.914994E-2],"categories":[],"categories_nodes":[],"categories_segments":[],"categories_sizes":[],"default_left":[0,0,0,0,0,0,0,0,0,0,0,0,0,0,0,0,0,0,0,0,0,0,0,0,0,0,0,0,0,0,0],"id":17,"left_children":[1,3,5,7,9,11,13,15,17,19,21,23,25,27,29,-1,-1,-1,-1,-1,-1,-1,-1,-1,-1,-1,-1,-1,-1,-1,-1],"loss_changes":[2.344162E2,4.529892E1,4.1891907E1,6.4260864E0,4.571471E0,7.6472664E0,5.9124527E0,5.5239105E-1,7.2634506E-1,4.519062E-1,4.7803593E-1,1.5999618E0,4.356041E-1,9.161377E-1,1.4807167E0,0E0,0E0,0E0,0E0,0E0,0E0,0E0,0E0,0E0,0E0,0E0,0E0,0E0,0E0,0E0,0E0],"parents":[2147483647,0,0,1,1,2,2,3,3,4,4,5,5,6,6,7,7,8,8,9,9,10,10,11,11,12,12,13,13,14,14],"right_children":[2,4,6,8,10,12,14,16,18,20,22,24,26,28,30,-1,-1,-1,-1,-1,-1,-1,-1,-1,-1,-1,-1,-1,-1,-1,-1],"split_conditions":[-2.7540228E-1,-4.644152E-1,3.860402E-1,-5.1860446E-1,-3.9792517E-1,-2.1459488E-2,1.7107235E0,-5.3529483E-1,-4.953818E-1,-4.3837124E-1,-3.586271E-1,-1.9253097E-1,6.0219437E-2,2.542051E0,4.028097E0,-3.3615142E-2,-2.757662E-2,-2.2386229E-2,-1.753186E-2,-1.3298936E-2,-9.431319E-3,-5.5575706E-3,-2.4031517E-3,2.058639E-3,7.184812E-3,1.1032331E-2,1.4826424E-2,2.369266E-2,-3.1024337E-4,3.314372E-2,4.914994E-2],"split_indices":[25,25,25,25,25,25,25,25,25,25,25,25,25,29,25,0,0,0,0,0,0,0,0,0,0,0,0,0,0,0,0],"split_type":[0,0,0,0,0,0,0,0,0,0,0,0,0,0,0,0,0,0,0,0,0,0,0,0,0,0,0,0,0,0,0],"sum_hessian":[3.02E3,1.509E3,1.511E3,6.3E2,8.79E2,1.076E3,4.35E2,2.55E2,3.75E2,3.55E2,5.24E2,6.41E2,4.35E2,3.19E2,1.16E2,1.09E2,1.46E2,1.73E2,2.02E2,1.32E2,2.23E2,1.89E2,3.35E2,2.51E2,3.9E2,1.23E2,3.12E2,3.15E2,4E0,9.2E1,2.4E1],"tree_param":{"num_deleted":"0","num_feature":"33","num_nodes":"31","size_leaf_vector":"1"}},{"base_weights":[9.352727E-3,-1.1554321E-1,1.3037987E-1,-2.1367992E-1,-5.759619E-2,6.918245E-2,2.527593E-1,-3.1506002E-1,-1.6336627E-1,-7.3804386E-2,7.16953E-2,3.345695E-2,1.2731014E-1,2.1112476E-1,3.5227662E-1,-1.6305914E-2,5.571955E-4,-8.850007E-3,3.1720286E-3,-2.3058904E-3,-5.7888217E-3,5.3222473E-3,-4.1525215E-3,2.948332E-3,-3.1787754E-4,5.4957327E-3,1.2988961E-2,9.416619E-3,2.0772828E-2,1.5990326E-2,3.126759E-2],"categories":[],"categories_nodes":[],"categories_segments":[],"categories_sizes":[],"default_left":[0,0,0,0,0,0,0,0,0,0,0,0,0,0,0,0,0,0,0,0,0,0,0,0,0,0,0,0,0,0,0],"id":18,"left_children":[1,3,5,7,9,11,13,15,17,19,21,23,25,27,29,-1,-1,-1,-1,-1,-1,-1,-1,-1,-1,-1,-1,-1,-1,-1,-1],"loss_changes":[4.619383E1,8.540535E0,1.1605921E1,2.794777E0,1.9898071E0,2.1471395E0,2.0677414E0,6.6736794E-1,1.170824E0,9.731169E-1,5.788404E-1,6.5344155E-1,8.7936544E-1,1.6309509E0,1.1388912E0,0E0,0E0,0E0,0E0,0E0,0E0,0E0,0E0,0E0,0E0,0E0,0E0,0E0,0E0,0E0,0E0],"parents":[2147483647,0,0,1,1,2,2,3,3,4,4,5,5,6,6,7,7,8,8,9,9,10,10,11,11,12,12,13,13,14,14],"right_children":[2,4,6,8,10,12,14,16,18,20,22,24,26,28,30,-1,-1,-1,-1,-1,-1,-1,-1,-1,-1,-1,-1,-1,-1,-1,-1],"split_conditions":[-1.9657977E-1,-2.565384E-1,7.064391E-2,-3.089793E-1,-1.5287325E-1,-6.0935035E-2,7.625611E-1,1.6749504E0,-2.329894E-1,-2.9095773E-2,1.1454134E-1,5.477906E-1,1.5875107E-1,1.4171983E0,8.906647E-1,-1.6305914E-2,5.571955E-4,-8.850007E-3,3.1720286E-3,-2.3058904E-3,-5.7888217E-3,5.3222473E-3,-4.1525215E-3,2.948332E-3,-3.1787754E-4,5.4957327E-3,1.2988961E-2,9.416619E-3,2.0772828E-2,1.5990326E-2,3.126759E-2],"split_indices":[1,0,1,1,0,0,1,18,1,4,6,18,0,18,6,0,0,0,0,0,0,0,0,0,0,0,0,0,0,0,0],"split_type":[0,0,0,0,0,0,0,0,0,0,0,0,0,0,0,0,0,0,0,0,0,0,0,0,0,0,0,0,0,0,0],"sum_hessian":[3.054E3,1.503E3,1.551E3,5.57E2,9.46E2,1.035E3,5.16E2,1.83E2,3.74E2,8.41E2,1.05E2,6.42E2,3.93E2,3.66E2,1.5E2,1.77E2,6E0,3.53E2,2.1E1,5.08E2,3.33E2,8.6E1,1.9E1,3.91E2,2.51E2,3.49E2,4.4E1,3.31E2,3.5E1,1.36E2,1.4E1],"tree_param":{"num_deleted":"0","num_feature":"33","num_nodes":"31","size_leaf_vector":"1"}},{"base_weights":[-1.3451426E-3,-1.2281235E-2,7.260312E-2,1.3024817E-1,-1.4304037E-2,4.0241104E-1,6.375618E-2,7.467852E-2,3.5773546E-1,-2.5178304E-2,1.3815011E-2,1.693321E-1,5.29575E-1,5.6479122E-2,2.8281924E-1,6.7259236E-3,-1.3169648E-2,2.2720162E-2,8.581693E-3,-1.0819962E-3,-7.323846E-3,3.2409714E-3,-1.4426176E-3,1.2658647E-2,-4.1507795E-3,7.6970193E-3,2.8695691E-2,5.230162E-3,3.8947962E-4,2.8989002E-2,8.272455E-3],"categories":[],"categories_nodes":[],"categories_segments":[],"categories_sizes":[],"default_left":[0,0,0,0,0,0,0,0,0,0,0,0,0,0,0,0,0,0,0,0,0,0,0,0,0,0,0,0,0,0,0],"id":19,"left_children":[1,3,5,7,9,11,13,15,17,19,21,23,25,27,29,-1,-1,-1,-1,-1,-1,-1,-1,-1,-1,-1,-1,-1,-1,-1,-1],"loss_changes":[2.448033E0,7.621331E-1,1.1122816E0,4.4101626E-1,7.9566616E-1,2.0671856E-1,5.9139216E-1,6.625669E-1,4.793918E-2,8.0201066E-1,1.5818088E0,1.2680249E-1,1.1582613E-2,8.6614704E-1,3.2232785E-1,0E0,0E0,0E0,0E0,0E0,0E0,0E0,0E0,0E0,0E0,0E0,0E0,0E0,0E0,0E0,0E0],"parents":[2147483647,0,0,1,1,2,2,3,3,4,4,5,5,6,6,7,7,8,8,9,9,10,10,11,11,12,12,13,13,14,14],"right_children":[2,4,6,8,10,12,14,16,18,20,22,24,26,28,30,-1,-1,-1,-1,-1,-1,-1,-1,-1,-1,-1,-1,-1,-1,-1,-1],"split_conditions":[1.7306638E0,-1.5017657E0,1.8649824E0,7.828768E-1,4.8528218E-1,8.2495683E-1,3.1377175E0,6.6468257E-1,1.1379083E0,4.155612E-1,1.3646436E-1,-7.305947E-2,-8.0492896E-1,-2.4678808E-1,2.5484107E0,6.7259236E-3,-1.3169648E-2,2.2720162E-2,8.581693E-3,-1.0819962E-3,-7.323846E-3,3.2409714E-3,-1.4426176E-3,1.2658647E-2,-4.1507795E-3,7.6970193E-3,2.8695691E-2,5.230162E-3,3.8947962E-4,2.8989002E-2,8.272455E-3],"split_indices":[22,29,22,3,29,21,20,3,3,29,20,3,3,29,22,0,0,0,0,0,0,0,0,0,0,0,0,0,0,0,0],"split_type":[0,0,0,0,0,0,0,0,0,0,0,0,0,0,0,0,0,0,0,0,0,0,0,0,0,0,0,0,0,0,0],"sum_hessian":[3.025E3,2.636E3,3.89E2,3.6E1,2.6E3,9E0,3.8E2,3E1,6E0,1.875E3,7.25E2,4E0,5E0,3.69E2,1.1E1,2.6E1,4E0,3E0,3E0,1.823E3,5.2E1,3.3E2,3.95E2,3E0,1E0,1E0,4E0,1.85E2,1.84E2,2E0,9E0],"tree_param":{"num_deleted":"0","num_feature":"33","num_nodes":"31","size_leaf_vector":"1"}},{"base_weights":[-1.7007373E-3,-3.8937032E-2,2.0330817E-2,1.4203597E-2,-6.462172E-2,9.815167E-2,-2.1526968E-5,-1.034086E-1,4.495848E-2,-5.5370048E-2,-1.6494666E-1,2.1714845E-1,7.201429E-2,-2.2571428E-2,3.7456367E-2,-3.023721E-3,-1.4614641E-2,1.1571768E-2,1.740404E-3,-1.8500139E-3,-5.4366644E-3,-8.854102E-3,1.4989567E-2,4.5220116E-3,2.2333698E-2,3.971606E-3,-8.553707E-3,-5.3276576E-4,-7.7749044E-3,1.4492713E-3,1.28967045E-2],"categories":[],"categories_nodes":[],"categories_segments":[],"categories_sizes":[],"default_left":[0,0,0,0,0,0,0,0,0,0,0,0,0,0,0,0,0,0,0,0,0,0,0,0,0,0,0,0,0,0,0],"id":20,"left_children":[1,3,5,7,9,11,13,15,17,19,21,23,25,27,29,-1,-1,-1,-1,-1,-1,-1,-1,-1,-1,-1,-1,-1,-1,-1,-1],"loss_changes":[2.5004697E0,1.5473497E0,3.0330493E0,1.3429943E0,6.99991E-1,1.2191372E0,1.2845869E0,6.067622E-1,5.4843175E-1,6.831465E-1,4.1403317E-1,2.0244792E0,6.0323155E-1,1.5015297E0,1.058954E0,0E0,0E0,0E0,0E0,0E0,0E0,0E0,0E0,0E0,0E0,0E0,0E0,0E0,0E0,0E0,0E0],"parents":[2147483647,0,0,1,1,2,2,3,3,4,4,5,5,6,6,7,7,8,8,9,9,10,10,11,11,12,12,13,13,14,14],"right_children":[2,4,6,8,10,12,14,16,18,20,22,24,26,28,30,-1,-1,-1,-1,-1,-1,-1,-1,-1,-1,-1,-1,-1,-1,-1,-1],"split_conditions":[-4.7076353E-1,-1.0137188E0,-3.1650907E-1,-1.1839167E0,3.3876127E-1,-8.8005483E-1,5.866494E-1,1.907213E-1,-1.0400342E0,-1.7706712E-1,5.5500317E-1,-7.354253E-1,2.7836654E0,1.5231031E0,2.1255329E0,-3.023721E-3,-1.4614641E-2,1.1571768E-2,1.740404E-3,-1.8500139E-3,-5.4366644E-3,-8.854102E-3,1.4989567E-2,4.5220116E-3,2.2333698E-2,3.971606E-3,-8.553707E-3,-5.3276576E-4,-7.7749044E-3,1.4492713E-3,1.28967045E-2],"split_indices":[30,29,29,17,6,7,30,20,17,29,29,9,9,20,8,0,0,0,0,0,0,0,0,0,0,0,0,0,0,0,0],"split_type":[0,0,0,0,0,0,0,0,0,0,0,0,0,0,0,0,0,0,0,0,0,0,0,0,0,0,0,0,0,0,0],"sum_hessian":[3.046E3,1.132E3,1.914E3,3.69E2,7.63E2,3.96E2,1.518E3,7.6E1,2.93E2,7E2,6.3E1,7E1,3.26E2,9.48E2,5.7E2,6.3E1,1.3E1,1.4E1,2.79E2,5.22E2,1.78E2,6.2E1,1E0,4.6E1,2.4E1,3.17E2,9E0,8.71E2,7.7E1,5.5E2,2E1],"tree_param":{"num_deleted":"0","num_feature":"33","num_nodes":"31","size_leaf_vector":"1"}},{"base_weights":[4.1500104E-4,-2.6083753E-1,2.644521E-1,-4.6985793E-1,-1.3453184E-1,1.5442944E-1,4.850699E-1,-5.957809E-1,-3.9930993E-1,-2.1373963E-1,-5.9276547E-2,6.671376E-2,2.1987073E-1,4.1420034E-1,7.006734E-1,-2.7263978E-2,-3.3734974E-2,-1.8630087E-2,-2.653235E-2,-7.039059E-3,-1.2602692E-2,-8.5230323E-4,-5.7683797E-3,8.3341645E-3,2.1160692E-3,1.4989172E-2,8.882072E-3,2.6390178E-2,1.9240536E-2,3.1369414E-2,4.6214756E-2],"categories":[],"categories_nodes":[],"categories_segments":[],"categories_sizes":[],"default_left":[0,0,0,0,0,0,0,0,0,0,0,0,0,0,0,0,0,0,0,0,0,0,0,0,0,0,0,0,0,0,0],"id":21,"left_children":[1,3,5,7,9,11,13,15,17,19,21,23,25,27,29,-1,-1,-1,-1,-1,-1,-1,-1,-1,-1,-1,-1,-1,-1,-1,-1],"loss_changes":[2.0818272E2,3.9986305E1,3.6358803E1,4.834633E0,5.6322136E0,5.7427807E0,7.3343735E0,4.4115448E-1,1.0966454E0,1.2531681E0,1.1516156E0,1.0414982E0,1.8838005E0,1.0589447E0,1.4194603E0,0E0,0E0,0E0,0E0,0E0,0E0,0E0,0E0,0E0,0E0,0E0,0E0,0E0,0E0,0E0,0E0],"parents":[2147483647,0,0,1,1,2,2,3,3,4,4,5,5,6,6,7,7,8,8,9,9,10,10,11,11,12,12,13,13,14,14],"right_children":[2,4,6,8,10,12,14,16,18,20,22,24,26,28,30,-1,-1,-1,-1,-1,-1,-1,-1,-1,-1,-1,-1,-1,-1,-1,-1],"split_conditions":[-2.7540228E-1,-4.730296E-1,3.0168137E-1,-5.239662E-1,-3.893008E-1,-1.2667312E-1,1.7107235E0,-2.7594727E-1,-1.8774557E-1,-2.6492095E-1,-1.9233511E-1,-2.5376058E-1,-1.8201083E-1,-1.7537627E-1,4.028097E0,-2.7263978E-2,-3.3734974E-2,-1.8630087E-2,-2.653235E-2,-7.039059E-3,-1.2602692E-2,-8.5230323E-4,-5.7683797E-3,8.3341645E-3,2.1160692E-3,1.4989172E-2,8.882072E-3,2.6390178E-2,1.9240536E-2,3.1369414E-2,4.6214756E-2],"split_indices":[25,25,25,25,25,25,25,1,1,1,1,1,1,1,25,0,0,0,0,0,0,0,0,0,0,0,0,0,0,0,0],"split_type":[0,0,0,0,0,0,0,0,0,0,0,0,0,0,0,0,0,0,0,0,0,0,0,0,0,0,0,0,0,0,0],"sum_hessian":[3.016E3,1.516E3,1.5E3,5.7E2,9.46E2,1.002E3,4.98E2,2.02E2,3.68E2,4.6E2,4.86E2,4.29E2,5.73E2,3.77E2,1.21E2,1.28E2,7.4E1,3.09E2,5.9E1,1.6E2,3E2,2.78E2,2.08E2,8.3E1,3.46E2,1.96E2,3.77E2,7.4E1,3.03E2,9.4E1,2.7E1],"tree_param":{"num_deleted":"0","num_feature":"33","num_nodes":"31","size_leaf_vector":"1"}},{"base_weights":[1.11952024E-4,2.0521924E-2,-6.4449206E-2,4.0933318E-3,6.920269E-2,2.3583239E-2,-9.155427E-2,8.580755E-3,-1.07882306E-1,2.0591426E-1,5.780847E-2,-1.745681E-1,5.2488215E-2,-5.364891E-2,-1.3284594E-1,1.1506195E-2,2.9949538E-4,1.4369425E-2,-6.9009475E-3,-2.4696798E-3,1.2376294E-2,-7.632518E-4,4.3731323E-3,-1.1316064E-2,5.7450696E-3,3.3623555E-3,-1.2931085E-2,-1.9134466E-3,-1.2968259E-2,-6.929036E-3,1.3728008E-2],"categories":[],"categories_nodes":[],"categories_segments":[],"categories_sizes":[],"default_left":[0,0,0,0,0,0,0,0,0,0,0,0,0,0,0,0,0,0,0,0,0,0,0,0,0,0,0,0,0,0,0],"id":22,"left_children":[1,3,5,7,9,11,13,15,17,19,21,23,25,27,29,-1,-1,-1,-1,-1,-1,-1,-1,-1,-1,-1,-1,-1,-1,-1,-1],"loss_changes":[3.9662566E0,1.8287596E0,1.7273271E0,8.606726E-1,8.869016E-1,9.8857546E-1,8.584151E-1,9.434002E-1,8.258661E-1,4.7967207E-1,1.1584779E0,3.555858E-1,7.061374E-1,9.076087E-1,6.548548E-1,0E0,0E0,0E0,0E0,0E0,0E0,0E0,0E0,0E0,0E0,0E0,0E0,0E0,0E0,0E0,0E0],"parents":[2147483647,0,0,1,1,2,2,3,3,4,4,5,5,6,6,7,7,8,8,9,9,10,10,11,11,12,12,13,13,14,14],"right_children":[2,4,6,8,10,12,14,16,18,20,22,24,26,28,30,-1,-1,-1,-1,-1,-1,-1,-1,-1,-1,-1,-1,-1,-1,-1,-1],"split_conditions":[5.23547E-1,-1.7873637E-1,-5.8874285E-1,9.29848E-1,-9.802794E-1,-8.838643E-1,1.7968102E-1,-1.402212E0,-8.730029E-1,-1.0610465E0,-6.2499076E-1,1.7084114E-1,3.608524E0,2.8244076E0,1.6749504E0,1.1506195E-2,2.9949538E-4,1.4369425E-2,-6.9009475E-3,-2.4696798E-3,1.2376294E-2,-7.632518E-4,4.3731323E-3,-1.1316064E-2,5.7450696E-3,3.3623555E-3,-1.2931085E-2,-1.9134466E-3,-1.2968259E-2,-6.929036E-3,1.3728008E-2],"split_indices":[32,21,7,23,7,9,26,32,9,7,18,18,23,32,18,0,0,0,0,0,0,0,0,0,0,0,0,0,0,0,0],"split_type":[0,0,0,0,0,0,0,0,0,0,0,0,0,0,0,0,0,0,0,0,0,0,0,0,0,0,0,0,0,0,0],"sum_hessian":[3.008E3,2.286E3,7.22E2,1.71E3,5.76E2,1.7E2,5.52E2,1.645E3,6.5E1,4.3E1,5.33E2,2.1E1,1.49E2,2.89E2,2.63E2,1.8E1,1.627E3,4E0,6.1E1,6E0,3.7E1,1.54E2,3.79E2,1.8E1,3E0,1.43E2,6E0,2.7E2,1.9E1,2.6E2,3E0],"tree_param":{"num_deleted":"0","num_feature":"33","num_nodes":"31","size_leaf_vector":"1"}},{"base_weights":[-1.1065793E-3,-2.4867702E-1,2.4614243E-1,-4.2330056E-1,-1.22661784E-1,1.490218E-1,4.4549376E-1,-5.2637255E-1,-3.428515E-1,-2.009032E-1,-7.350231E-2,9.700723E-2,2.3917145E-1,3.9445063E-1,7.185563E-1,-3.0537097E-2,-2.4291178E-2,-1.9091578E-2,-1.5021585E-2,-1.0372938E-2,-6.2686624E-3,-5.3515914E-3,-1.9419835E-3,2.9534576E-3,6.7154192E-3,1.2111595E-2,-1.1206329E-2,1.7939847E-2,2.3778303E-2,3.0597357E-2,4.4353727E-2],"categories":[],"categories_nodes":[],"categories_segments":[],"categories_sizes":[],"default_left":[0,0,0,0,0,0,0,0,0,0,0,0,0,0,0,0,0,0,0,0,0,0,0,0,0,0,0,0,0,0,0],"id":23,"left_children":[1,3,5,7,9,11,13,15,17,19,21,23,25,27,29,-1,-1,-1,-1,-1,-1,-1,-1,-1,-1,-1,-1,-1,-1,-1,-1],"loss_changes":[1.8804187E2,3.3726097E1,2.9691666E1,5.151329E0,3.4199848E0,4.8300133E0,6.727356E0,6.611862E-1,4.8717117E-1,1.4431763E-1,6.350646E-1,9.2322445E-1,5.9025383E-1,1.0613861E0,8.5847473E-1,0E0,0E0,0E0,0E0,0E0,0E0,0E0,0E0,0E0,0E0,0E0,0E0,0E0,0E0,0E0,0E0],"parents":[2147483647,0,0,1,1,2,2,3,3,4,4,5,5,6,6,7,7,8,8,9,9,10,10,11,11,12,12,13,13,14,14],"right_children":[2,4,6,8,10,12,14,16,18,20,22,24,26,28,30,-1,-1,-1,-1,-1,-1,-1,-1,-1,-1,-1,-1,-1,-1,-1,-1],"split_conditions":[-2.7540228E-1,-4.644152E-1,3.0168137E-1,-5.1463854E-1,-4.0010735E-1,-2.1459488E-2,2.4005287E0,-5.380972E-1,-4.9216262E-1,1.1379083E0,-3.4443736E-1,-1.7097844E-1,5.518968E0,1.0472921E0,4.028097E0,-3.0537097E-2,-2.4291178E-2,-1.9091578E-2,-1.5021585E-2,-1.0372938E-2,-6.2686624E-3,-5.3515914E-3,-1.9419835E-3,2.9534576E-3,6.7154192E-3,1.2111595E-2,-1.1206329E-2,1.7939847E-2,2.3778303E-2,3.0597357E-2,4.4353727E-2],"split_indices":[25,25,25,25,25,25,25,25,25,3,25,25,12,25,25,0,0,0,0,0,0,0,0,0,0,0,0,0,0,0,0],"split_type":[0,0,0,0,0,0,0,0,0,0,0,0,0,0,0,0,0,0,0,0,0,0,0,0,0,0,0,0,0,0,0],"sum_hessian":[3.07E3,1.534E3,1.536E3,6.42E2,8.92E2,1.034E3,5.02E2,2.79E2,3.63E2,3.43E2,5.49E2,6.57E2,3.77E2,4.25E2,7.7E1,8.6E1,1.93E2,1.85E2,1.78E2,3.14E2,2.9E1,2.78E2,2.71E2,3.27E2,3.3E2,3.75E2,2E0,2.99E2,1.26E2,5E1,2.7E1],"tree_param":{"num_deleted":"0","num_feature":"33","num_nodes":"31","size_leaf_vector":"1"}},{"base_weights":[-3.3530013E-3,8.100466E-3,-3.1366743E-2,-3.5883668E-3,6.2514946E-2,-1.17528E-1,-1.4696805E-2,7.913695E-3,-3.5090677E-2,1.3847359E-1,2.3691412E-2,-7.282839E-2,-2.269556E-1,-1.7147909E-1,-6.447668E-3,3.3239234E-4,1.6772566E-2,-8.904457E-4,-4.490582E-3,5.9679905E-3,2.9431159E-2,1.1632952E-2,4.3328045E-4,-1.9907048E-3,-9.992271E-3,-1.54273575E-2,-5.2779126E-3,-2.2934265E-2,-5.61346E-3,3.1903933E-3,-1.1906986E-3],"categories":[],"categories_nodes":[],"categories_segments":[],"categories_sizes":[],"default_left":[0,0,0,0,0,0,0,0,0,0,0,0,0,0,0,0,0,0,0,0,0,0,0,0,0,0,0,0,0,0,0],"id":24,"left_children":[1,3,5,7,9,11,13,15,17,19,21,23,25,27,29,-1,-1,-1,-1,-1,-1,-1,-1,-1,-1,-1,-1,-1,-1,-1,-1],"loss_changes":[9.7629344E-1,1.3740746E0,1.2665281E0,6.448833E-1,1.1232308E0,6.8293726E-1,9.572434E-1,5.3842485E-1,4.4854158E-1,1.039665E0,7.9552E-1,4.2396116E-1,3.7353492E-1,5.777054E-1,8.61675E-1,0E0,0E0,0E0,0E0,0E0,0E0,0E0,0E0,0E0,0E0,0E0,0E0,0E0,0E0,0E0,0E0],"parents":[2147483647,0,0,1,1,2,2,3,3,4,4,5,5,6,6,7,7,8,8,9,9,10,10,11,11,12,12,13,13,14,14],"right_children":[2,4,6,8,10,12,14,16,18,20,22,24,26,28,30,-1,-1,-1,-1,-1,-1,-1,-1,-1,-1,-1,-1,-1,-1,-1,-1],"split_conditions":[1.6826327E-1,8.092457E-1,1.5548619E-2,2.815234E-1,-4.8293635E-1,3.7098792E-1,2.3945095E-1,1.2760051E0,2.2783289E-2,7.618007E-1,1.2669264E0,1.4071857E0,-1.3311855E-1,-1.0426012E-1,4.7726703E-1,3.3239234E-4,1.6772566E-2,-8.904457E-4,-4.490582E-3,5.9679905E-3,2.9431159E-2,1.1632952E-2,4.3328045E-4,-1.9907048E-3,-9.992271E-3,-1.54273575E-2,-5.2779126E-3,-2.2934265E-2,-5.61346E-3,3.1903933E-3,-1.1906986E-3],"split_indices":[12,22,8,31,12,10,12,10,23,8,22,22,23,10,12,0,0,0,0,0,0,0,0,0,0,0,0,0,0,0,0],"split_type":[0,0,0,0,0,0,0,0,0,0,0,0,0,0,0,0,0,0,0,0,0,0,0,0,0,0,0,0,0,0,0],"sum_hessian":[3.041E3,2.159E3,8.82E2,1.778E3,3.81E2,1.42E2,7.4E2,1.303E3,4.75E2,1.28E2,2.53E2,1.02E2,4E1,3.6E1,7.04E2,1.299E3,4E0,3.62E2,1.13E2,1.24E2,4E0,1.6E1,2.37E2,8.2E1,2E1,2.3E1,1.7E1,5E0,3.1E1,1.39E2,5.65E2],"tree_param":{"num_deleted":"0","num_feature":"33","num_nodes":"31","size_leaf_vector":"1"}},{"base_weights":[2.9278926E-3,-1.1611558E-1,8.0557786E-2,-2.5281426E-1,-8.551364E-2,3.5227597E-2,2.0317757E-1,-2.63929E-1,1.2468307E-1,-7.084234E-2,-1.9888139E-1,3.2779232E-1,3.1492453E-2,2.176028E-1,4.4471588E-2,-7.8311125E-3,-1.5732607E-2,-1.3943805E-2,1.1921114E-2,-5.7258997E-3,-2.0091604E-3,-1.998537E-3,-1.2923496E-2,-7.3024468E-3,1.8326772E-2,6.849962E-4,3.5580178E-3,9.180982E-3,1.5297907E-2,4.454709E-3,-1.5623949E-2],"categories":[],"categories_nodes":[],"categories_segments":[],"categories_sizes":[],"default_left":[0,0,0,0,0,0,0,0,0,0,0,0,0,0,0,0,0,0,0,0,0,0,0,0,0,0,0,0,0,0,0],"id":25,"left_children":[1,3,5,7,9,11,13,15,17,19,21,23,25,27,29,-1,-1,-1,-1,-1,-1,-1,-1,-1,-1,-1,-1,-1,-1,-1,-1],"loss_changes":[2.8352518E1,5.0442905E0,1.0314753E1,9.601755E-1,1.6341939E0,1.4725676E0,1.1372986E0,1.1209497E0,3.877938E-1,1.1724305E0,1.0596938E0,3.6561966E-1,9.454925E-1,1.32201E0,7.1274656E-1,0E0,0E0,0E0,0E0,0E0,0E0,0E0,0E0,0E0,0E0,0E0,0E0,0E0,0E0,0E0,0E0],"parents":[2147483647,0,0,1,1,2,2,3,3,4,4,5,5,6,6,7,7,8,8,9,9,10,10,11,11,12,12,13,13,14,14],"right_children":[2,4,6,8,10,12,14,16,18,20,22,24,26,28,30,-1,-1,-1,-1,-1,-1,-1,-1,-1,-1,-1,-1,-1,-1,-1,-1],"split_conditions":[-2.2770128E-1,-3.0825254E-1,6.581108E-2,3.218121E0,1.2934618E0,-1.3843018E0,1.5254232E0,-5.1457703E-1,-7.416519E-1,-2.7594727E-1,-9.778271E-1,-9.4690853E-1,-9.765845E-2,7.625611E-1,1.5955137E0,-7.8311125E-3,-1.5732607E-2,-1.3943805E-2,1.1921114E-2,-5.7258997E-3,-2.0091604E-3,-1.998537E-3,-1.2923496E-2,-7.3024468E-3,1.8326772E-2,6.849962E-4,3.5580178E-3,9.180982E-3,1.5297907E-2,4.454709E-3,-1.5623949E-2],"split_indices":[1,1,1,9,32,32,32,9,19,1,30,30,1,1,1,0,0,0,0,0,0,0,0,0,0,0,0,0,0,0,0],"split_type":[0,0,0,0,0,0,0,0,0,0,0,0,0,0,0,0,0,0,0,0,0,0,0,0,0,0,0,0,0,0,0],"sum_hessian":[3.066E3,1.21E3,1.856E3,2.2E2,9.9E2,1.356E3,5E2,2.14E2,6E0,8.78E2,1.12E2,1.6E1,1.34E3,4.58E2,4.2E1,7E1,1.44E2,1E0,5E0,3.61E2,5.17E2,3.1E1,8.1E1,1E0,1.5E1,9.26E2,4.14E2,3.33E2,1.25E2,3.8E1,4E0],"tree_param":{"num_deleted":"0","num_feature":"33","num_nodes":"31","size_leaf_vector":"1"}},{"base_weights":[-4.111044E-3,2.327061E-2,-5.4767102E-2,-4.947033E-3,4.8318524E-2,-7.637272E-2,-3.2311544E-2,5.560988E-2,-2.532971E-2,-2.6262847E-1,5.037685E-2,-6.63355E-3,-9.279492E-2,7.947056E-2,-5.095294E-2,7.103305E-3,9.184377E-4,-2.5902044E-3,5.883549E-4,-1.6966084E-2,-2.3631812E-3,3.2701285E-3,7.373371E-4,1.0695792E-3,-1.3610447E-2,-2.1040667E-2,-4.4396436E-3,2.320265E-3,2.6655162E-2,-7.1999207E-3,-1.8373093E-3],"categories":[],"categories_nodes":[],"categories_segments":[],"categories_sizes":[],"default_left":[0,0,0,0,0,0,0,0,0,0,0,0,0,0,0,0,0,0,0,0,0,0,0,0,0,0,0,0,0,0,0],"id":26,"left_children":[1,3,5,7,9,11,13,15,17,19,21,23,25,27,29,-1,-1,-1,-1,-1,-1,-1,-1,-1,-1,-1,-1,-1,-1,-1,-1],"loss_changes":[4.1943164E0,1.387674E0,5.122936E-1,1.1419129E0,6.7886233E-1,6.178305E-1,1.0917796E0,7.4758667E-1,6.802331E-1,9.958157E-2,5.526061E-1,7.7987266E-1,5.363045E-1,1.1002225E0,5.869086E-1,0E0,0E0,0E0,0E0,0E0,0E0,0E0,0E0,0E0,0E0,0E0,0E0,0E0,0E0,0E0,0E0],"parents":[2147483647,0,0,1,1,2,2,3,3,4,4,5,5,6,6,7,7,8,8,9,9,10,10,11,11,12,12,13,13,14,14],"right_children":[2,4,6,8,10,12,14,16,18,20,22,24,26,28,30,-1,-1,-1,-1,-1,-1,-1,-1,-1,-1,-1,-1,-1,-1,-1,-1],"split_conditions":[1.3809793E-1,6.2395E-2,-6.2257245E-2,-1.0739259E0,-9.5989406E-1,-5.746086E-1,1.0514992E-1,-7.5277007E-1,4.0483034E-1,-9.329206E-1,7.2398525E-1,-1.3402613E-1,1.483353E-1,2.123706E0,-7.861118E-1,7.103305E-3,9.184377E-4,-2.5902044E-3,5.883549E-4,-1.6966084E-2,-2.3631812E-3,3.2701285E-3,7.373371E-4,1.0695792E-3,-1.3610447E-2,-2.1040667E-2,-4.4396436E-3,2.320265E-3,2.6655162E-2,-7.1999207E-3,-1.8373093E-3],"split_indices":[32,2,17,2,9,7,17,32,18,7,28,17,32,18,9,0,0,0,0,0,0,0,0,0,0,0,0,0,0,0,0],"split_type":[0,0,0,0,0,0,0,0,0,0,0,0,0,0,0,0,0,0,0,0,0,0,0,0,0,0,0,0,0,0,0],"sum_hessian":[3.022E3,1.962E3,1.06E3,9.23E2,1.039E3,5.39E2,5.21E2,2.32E2,6.91E2,6E0,1.033E3,1.03E2,4.36E2,7.4E1,4.47E2,6.9E1,1.63E2,4.03E2,2.88E2,4E0,2E0,7.26E2,3.07E2,9.4E1,9E0,4E0,4.32E2,7E1,4E0,5.8E1,3.89E2],"tree_param":{"num_deleted":"0","num_feature":"33","num_nodes":"31","size_leaf_vector":"1"}},{"base_weights":[-2.805821E-3,-1.5039371E-2,4.765209E-2,-2.9293193E-2,2.7382346E-2,1.8830818E-1,3.65353E-2,-6.487583E-2,-1.5006087E-2,2.1884674E-2,5.1119244E-1,2.2766879E-1,-5.2264836E-2,2.7375873E-2,1.7770126E-1,-2.1959501E-3,-7.5551006E-3,1.7015095E-3,-1.9781273E-3,3.7497112E-3,7.6819684E-5,2.9179772E-2,1.919362E-3,1.3021159E-2,-5.792465E-3,9.920328E-3,-9.610735E-3,2.5651408E-3,-1.8392788E-3,1.800015E-2,5.3881085E-3],"categories":[],"categories_nodes":[],"categories_segments":[],"categories_sizes":[],"default_left":[0,0,0,0,0,0,0,0,0,0,0,0,0,0,0,0,0,0,0,0,0,0,0,0,0,0,0,0,0,0,0],"id":27,"left_children":[1,3,5,7,9,11,13,15,17,19,21,23,25,27,29,-1,-1,-1,-1,-1,-1,-1,-1,-1,-1,-1,-1,-1,-1,-1,-1],"loss_changes":[1.9105791E0,1.5070391E0,9.375613E-1,9.4714224E-1,1.656525E0,4.285395E-1,7.20508E-1,9.583163E-1,1.6052837E0,6.70992E-1,2.1722496E-1,4.577353E-1,2.8370667E-1,8.1246614E-1,3.94706E-1,0E0,0E0,0E0,0E0,0E0,0E0,0E0,0E0,0E0,0E0,0E0,0E0,0E0,0E0,0E0,0E0],"parents":[2147483647,0,0,1,1,2,2,3,3,4,4,5,5,6,6,7,7,8,8,9,9,10,10,11,11,12,12,13,13,14,14],"right_children":[2,4,6,8,10,12,14,16,18,20,22,24,26,28,30,-1,-1,-1,-1,-1,-1,-1,-1,-1,-1,-1,-1,-1,-1,-1,-1],"split_conditions":[5.619146E-1,2.0668182E-1,6.4848644E-1,-6.7482567E-1,1.9145622E0,1.9968951E-1,1.8603357E0,1.23615585E-1,-3.1650907E-1,-9.091374E-1,9.9195415E-1,6.597464E-1,9.156971E-1,9.071523E-1,9.308826E-1,-2.1959501E-3,-7.5551006E-3,1.7015095E-3,-1.9781273E-3,3.7497112E-3,7.6819684E-5,2.9179772E-2,1.919362E-3,1.3021159E-2,-5.792465E-3,9.920328E-3,-9.610735E-3,2.5651408E-3,-1.8392788E-3,1.800015E-2,5.3881085E-3],"split_indices":[30,21,30,30,29,14,10,10,29,29,10,10,18,18,12,0,0,0,0,0,0,0,0,0,0,0,0,0,0,0,0],"split_type":[0,0,0,0,0,0,0,0,0,0,0,0,0,0,0,0,0,0,0,0,0,0,0,0,0,0,0,0,0,0,0],"sum_hessian":[3.093E3,2.49E3,6.03E2,1.864E3,6.26E2,4.3E1,5.6E2,5.33E2,1.331E3,6.2E2,6E0,3.7E1,6E0,5.27E2,3.3E1,4.3E2,1.03E2,4.44E2,8.87E2,1.71E2,4.49E2,5E0,1E0,3.4E1,3E0,2E0,4E0,3.84E2,1.43E2,8E0,2.5E1],"tree_param":{"num_deleted":"0","num_feature":"33","num_nodes":"31","size_leaf_vector":"1"}},{"base_weights":[-8.2321645E-4,-8.818337E-2,1.1104021E-1,-1.7259765E-1,-3.7877128E-2,6.668266E-2,1.9630928E-1,-2.102133E-1,-1.4033832E-1,-5.7669707E-2,-5.2520673E-4,7.80974E-2,-1.0028546E-2,1.4979358E-1,2.3923376E-1,-5.8383276E-3,-1.2268312E-2,-7.429623E-3,6.2648403E-3,-1.007595E-3,-4.855161E-3,-2.1168154E-4,2.2912916E-2,7.275052E-3,3.3114366E-3,-3.3670205E-3,3.1606317E-3,1.1187767E-2,3.7577387E-3,7.771825E-3,1.3865215E-2],"categories":[],"categories_nodes":[],"categories_segments":[],"categories_sizes":[],"default_left":[0,0,0,0,0,0,0,0,0,0,0,0,0,0,0,0,0,0,0,0,0,0,0,0,0,0,0,0,0,0,0],"id":28,"left_children":[1,3,5,7,9,11,13,15,17,19,21,23,25,27,29,-1,-1,-1,-1,-1,-1,-1,-1,-1,-1,-1,-1,-1,-1,-1,-1],"loss_changes":[2.9796087E1,7.2635813E0,5.0438824E0,7.458973E-1,7.939682E-1,7.722204E-1,8.766384E-1,9.338331E-1,7.7944756E-1,1.0366232E0,6.3654876E-1,6.039572E-1,4.8697942E-1,1.2087159E0,7.097864E-1,0E0,0E0,0E0,0E0,0E0,0E0,0E0,0E0,0E0,0E0,0E0,0E0,0E0,0E0,0E0,0E0],"parents":[2147483647,0,0,1,1,2,2,3,3,4,4,5,5,6,6,7,7,8,8,9,9,10,10,11,11,12,12,13,13,14,14],"right_children":[2,4,6,8,10,12,14,16,18,20,22,24,26,28,30,-1,-1,-1,-1,-1,-1,-1,-1,-1,-1,-1,-1,-1,-1,-1,-1],"split_conditions":[-1.515526E-1,-2.5388828E-1,1.1231818E-1,-2.763625E-1,9.548899E-2,1.1530712E0,4.5250934E-2,-8.374323E-1,2.429183E0,4.7578353E-2,8.646226E0,-8.9276826E-1,9.291301E-2,-7.0531964E-1,-4.7694722E-1,-5.8383276E-3,-1.2268312E-2,-7.429623E-3,6.2648403E-3,-1.007595E-3,-4.855161E-3,-2.1168154E-4,2.2912916E-2,7.275052E-3,3.3114366E-3,-3.3670205E-3,3.1606317E-3,1.1187767E-2,3.7577387E-3,7.771825E-3,1.3865215E-2],"split_indices":[0,0,0,0,5,23,17,28,3,3,20,3,3,17,30,0,0,0,0,0,0,0,0,0,0,0,0,0,0,0,0],"split_type":[0,0,0,0,0,0,0,0,0,0,0,0,0,0,0,0,0,0,0,0,0,0,0,0,0,0,0,0,0,0,0],"sum_hessian":[3.047E3,1.711E3,1.336E3,6.38E2,1.073E3,8.8E2,4.56E2,2.92E2,3.46E2,7.01E2,3.72E2,7.66E2,1.14E2,2.21E2,2.35E2,8.1E1,2.11E2,3.36E2,1E1,3.6E2,3.41E2,3.7E2,2E0,1.13E2,6.53E2,6.4E1,5E1,1.1E2,1.11E2,7.5E1,1.6E2],"tree_param":{"num_deleted":"0","num_feature":"33","num_nodes":"31","size_leaf_vector":"1"}},{"base_weights":[2.5966256E-3,-1.0488097E-1,8.058344E-2,-1.779478E-1,-6.052489E-2,3.77068E-2,2.0240544E-1,-1.9733314E-1,-1.0798312E-1,-7.59319E-2,-1.918545E-2,1.8711077E-2,7.717736E-2,1.7093939E-1,2.782475E-1,-6.4214543E-3,-1.1354356E-2,-1.8032074E-3,-8.766177E-3,3.7557196E-3,-4.0308945E-3,7.322432E-3,-2.2182732E-3,1.0359582E-3,-1.39128715E-2,5.3581186E-3,-2.8774519E-5,6.005678E-3,1.10361455E-2,1.4888919E-2,4.548266E-3],"categories":[],"categories_nodes":[],"categories_segments":[],"categories_sizes":[],"default_left":[0,0,0,0,0,0,0,0,0,0,0,0,0,0,0,0,0,0,0,0,0,0,0,0,0,0,0,0,0,0,0],"id":29,"left_children":[1,3,5,7,9,11,13,15,17,19,21,23,25,27,29,-1,-1,-1,-1,-1,-1,-1,-1,-1,-1,-1,-1,-1,-1,-1,-1],"loss_changes":[2.5514376E1,4.137657E0,9.2063E0,6.337786E-1,5.0680304E-1,9.7775817E-1,1.0478172E0,7.437496E-1,5.1188374E-1,4.1728854E-1,9.1570324E-1,5.323321E-1,9.885838E-1,8.0089283E-1,4.5939732E-1,0E0,0E0,0E0,0E0,0E0,0E0,0E0,0E0,0E0,0E0,0E0,0E0,0E0,0E0,0E0,0E0],"parents":[2147483647,0,0,1,1,2,2,3,3,4,4,5,5,6,6,7,7,8,8,9,9,10,10,11,11,12,12,13,13,14,14],"right_children":[2,4,6,8,10,12,14,16,18,20,22,24,26,28,30,-1,-1,-1,-1,-1,-1,-1,-1,-1,-1,-1,-1,-1,-1,-1,-1],"split_conditions":[-2.0122583E-1,-2.6347733E-1,1.1231818E-1,-1.7873637E-1,2.0668182E-1,-6.822003E-2,7.467171E-1,-2.2827186E-1,7.355512E-2,-1.7011274E0,-3.66971E-1,4.2337523E0,5.6632644E-1,1.0889639E-1,1.4257714E0,-6.4214543E-3,-1.1354356E-2,-1.8032074E-3,-8.766177E-3,3.7557196E-3,-4.0308945E-3,7.322432E-3,-2.2182732E-3,1.0359582E-3,-1.39128715E-2,5.3581186E-3,-2.8774519E-5,6.005678E-3,1.10361455E-2,1.4888919E-2,4.548266E-3],"split_indices":[0,0,0,21,21,0,0,27,17,17,23,13,24,17,16,0,0,0,0,0,0,0,0,0,0,0,0,0,0,0,0],"split_type":[0,0,0,0,0,0,0,0,0,0,0,0,0,0,0,0,0,0,0,0,0,0,0,0,0,0,0,0,0,0,0],"sum_hessian":[3.042E3,1.279E3,1.763E3,4.82E2,7.97E2,1.305E3,4.58E2,3.76E2,1.06E2,5.8E2,2.17E2,8.82E2,4.23E2,3.26E2,1.32E2,1.15E2,2.61E2,5.2E1,5.4E1,1.7E1,5.63E2,2.8E1,1.89E2,8.77E2,5E0,3.05E2,1.18E2,1.63E2,1.63E2,1.19E2,1.3E1],"tree_param":{"num_deleted":"0","num_feature":"33","num_nodes":"31","size_leaf_vector":"1"}},{"base_weights":[-9.826236E-5,-8.189831E-2,9.50008E-2,-1.8640493E-1,-4.402356E-2,5.5206917E-2,1.871387E-1,-2.2692731E-1,-1.1984269E-1,-7.112508E-2,-2.0063287E-3,4.4823594E-2,1.7882013E-1,1.9985153E-1,-1.7790608E-1,-1.1825572E-2,-2.3156607E-3,-5.311144E-3,-1.6288776E-2,-2.3733787E-3,-5.8699283E-3,-4.73683E-4,1.1480736E-2,1.0847017E-3,4.051799E-3,1.0057404E-2,-3.6597264E-3,8.15123E-3,1.3009237E-2,-1.5292776E-2,1.2520936E-2],"categories":[],"categories_nodes":[],"categories_segments":[],"categories_sizes":[],"default_left":[0,0,0,0,0,0,0,0,0,0,0,0,0,0,0,0,0,0,0,0,0,0,0,0,0,0,0,0,0,0,0],"id":30,"left_children":[1,3,5,7,9,11,13,15,17,19,21,23,25,27,29,-1,-1,-1,-1,-1,-1,-1,-1,-1,-1,-1,-1,-1,-1,-1,-1],"loss_changes":[2.4006329E1,6.558383E0,5.221801E0,1.1622972E0,1.3879704E0,1.2729337E0,2.0310764E0,4.6161556E-1,4.394009E-1,8.056116E-1,8.3064944E-1,7.7048767E-1,4.4799924E-1,8.8188744E-1,8.9865065E-1,0E0,0E0,0E0,0E0,0E0,0E0,0E0,0E0,0E0,0E0,0E0,0E0,0E0,0E0,0E0,0E0],"parents":[2147483647,0,0,1,1,2,2,3,3,4,4,5,5,6,6,7,7,8,8,9,9,10,10,11,11,12,12,13,13,14,14],"right_children":[2,4,6,8,10,12,14,16,18,20,22,24,26,28,30,-1,-1,-1,-1,-1,-1,-1,-1,-1,-1,-1,-1,-1,-1,-1,-1],"split_conditions":[-1.7794852E-1,-2.9205263E-1,1.2641671E-1,-2.7133018E-1,-2.0122583E-1,1.5875107E-1,2.5700488E0,1.2069649E0,1.8617338E0,-7.839942E-2,-4.306581E-2,-1.5370734E-1,1.0593354E0,6.895326E-1,6.691192E-1,-1.1825572E-2,-2.3156607E-3,-5.311144E-3,-1.6288776E-2,-2.3733787E-3,-5.8699283E-3,-4.73683E-4,1.1480736E-2,1.0847017E-3,4.051799E-3,1.0057404E-2,-3.6597264E-3,8.15123E-3,1.3009237E-2,-1.5292776E-2,1.2520936E-2],"split_indices":[1,1,1,0,0,0,12,6,31,10,0,6,20,1,0,0,0,0,0,0,0,0,0,0,0,0,0,0,0,0,0],"split_type":[0,0,0,0,0,0,0,0,0,0,0,0,0,0,0,0,0,0,0,0,0,0,0,0,0,0,0,0,0,0,0],"sum_hessian":[3.084E3,1.658E3,1.426E3,4.4E2,1.218E3,9.97E2,4.29E2,2.72E2,1.68E2,7.4E2,4.78E2,9.21E2,7.6E1,4.15E2,1.4E1,2.58E2,1.4E1,1.59E2,9E0,4.91E2,2.49E2,4.64E2,1.4E1,5.63E2,3.58E2,7E1,6E0,2.6E2,1.55E2,1.1E1,3E0],"tree_param":{"num_deleted":"0","num_feature":"33","num_nodes":"31","size_leaf_vector":"1"}},{"base_weights":[2.2739547E-3,-7.0795886E-2,9.429211E-2,-1.4181302E-1,-3.2979306E-2,5.7117373E-2,1.898043E-1,-1.5945859E-1,-7.90536E-2,-3.4228064E-2,2.2231681E-2,6.537968E-2,-2.9916698E-2,1.5475744E-1,2.5205997E-1,-9.948161E-3,-6.2929215E-3,-4.6047796E-3,6.8119685E-3,-2.6467515E-3,-4.2440044E-4,3.7661802E-3,2.9890562E-4,1.006648E-3,-9.804361E-3,8.885114E-3,-2.478269E-4,1.1046371E-2,2.1607157E-2],"categories":[],"categories_nodes":[],"categories_segments":[],"categories_sizes":[],"default_left":[0,0,0,0,0,0,0,0,0,0,0,0,0,0,0,0,0,0,0,0,0,0,0,0,0,0,0,0,0],"id":31,"left_children":[1,3,5,7,9,11,13,15,17,19,-1,21,23,25,27,-1,-1,-1,-1,-1,-1,-1,-1,-1,-1,-1,-1,-1,-1],"loss_changes":[2.0736004E1,4.6119127E0,4.835783E0,6.4852715E-1,6.850027E-1,7.095523E-1,7.9446507E-1,5.921831E-1,3.859908E-1,5.3933275E-1,0E0,5.305753E-1,7.1919066E-1,9.0604067E-1,6.670046E-1,0E0,0E0,0E0,0E0,0E0,0E0,0E0,0E0,0E0,0E0,0E0,0E0,0E0,0E0],"parents":[2147483647,0,0,1,1,2,2,3,3,4,4,5,5,6,6,7,7,8,8,9,9,11,11,12,12,13,13,14,14],"right_children":[2,4,6,8,10,12,14,16,18,20,-1,22,24,26,28,-1,-1,-1,-1,-1,-1,-1,-1,-1,-1,-1,-1,-1,-1],"split_conditions":[-1.5287325E-1,-2.5735313E-1,1.8288837E-1,-1.7873637E-1,8.646226E0,1.5966859E0,7.467171E-1,-2.7837956E-1,1.4485135E0,-2.0694895E-1,2.2231681E-2,1.1530712E0,3.9840978E-1,1.1253331E0,1.2057582E0,-9.948161E-3,-6.2929215E-3,-4.6047796E-3,6.8119685E-3,-2.6467515E-3,-4.2440044E-4,3.7661802E-3,2.9890562E-4,1.006648E-3,-9.804361E-3,8.885114E-3,-2.478269E-4,1.1046371E-2,2.1607157E-2],"split_indices":[0,0,0,21,20,20,0,0,3,0,0,23,3,10,8,0,0,0,0,0,0,0,0,0,0,0,0,0,0],"split_type":[0,0,0,0,0,0,0,0,0,0,0,0,0,0,0,0,0,0,0,0,0,0,0,0,0,0,0,0,0],"sum_hessian":[3.082E3,1.718E3,1.364E3,5.96E2,1.122E3,9.83E2,3.81E2,4.64E2,1.32E2,1.12E3,2E0,8.98E2,8.5E1,2.46E2,1.35E2,2.11E2,2.53E2,1.25E2,7E0,6.48E2,4.72E2,7.69E2,1.29E2,6.6E1,1.9E1,2.15E2,3.1E1,1.17E2,1.8E1],"tree_param":{"num_deleted":"0","num_feature":"33","num_nodes":"29","size_leaf_vector":"1"}},{"base_weights":[3.6340954E-3,3.9704263E-2,-4.3765293E-3,6.0826164E-2,-2.4123238E-3,1.7152705E-3,-5.743164E-2,5.0372843E-2,1.6933858E-1,-1.9698137E-1,2.4889508E-2,7.3208014E-4,2.75811E-1,-8.533862E-2,1.1427167E-2,-1.2462112E-3,2.9028659E-3,1.0882091E-2,-3.812452E-3,-1.3110985E-2,1.5781904E-3,-8.23455E-3,2.0469942E-3,-1.7899358E-4,3.164012E-3,-1.8007199E-3,1.928776E-2,-3.1283682E-3,-1.0457966E-2,8.201001E-3,-1.8063128E-3],"categories":[],"categories_nodes":[],"categories_segments":[],"categories_sizes":[],"default_left":[0,0,0,0,0,0,0,0,0,0,0,0,0,0,0,0,0,0,0,0,0,0,0,0,0,0,0,0,0,0,0],"id":32,"left_children":[1,3,5,7,9,11,13,15,17,19,21,23,25,27,29,-1,-1,-1,-1,-1,-1,-1,-1,-1,-1,-1,-1,-1,-1,-1,-1],"loss_changes":[8.808769E-1,4.929754E-1,8.064853E-1,4.100324E-1,9.9295175E-1,6.0318226E-1,4.9483705E-1,1.9702E-1,3.9620066E-1,3.5120445E-1,5.057678E-1,6.022073E-1,2.8815985E-1,5.028919E-1,5.5014884E-1,0E0,0E0,0E0,0E0,0E0,0E0,0E0,0E0,0E0,0E0,0E0,0E0,0E0,0E0,0E0,0E0],"parents":[2147483647,0,0,1,1,2,2,3,3,4,4,5,5,6,6,7,7,8,8,9,9,10,10,11,11,12,12,13,13,14,14],"right_children":[2,4,6,8,10,12,14,16,18,20,22,24,26,28,30,-1,-1,-1,-1,-1,-1,-1,-1,-1,-1,-1,-1,-1,-1,-1,-1],"split_conditions":[-8.288412E-1,-4.056995E-1,1.2699974E0,-4.7315E-1,-3.1589875E-1,4.7501383E0,-1.0878568E-1,-1.0610465E0,-5.665832E-1,9.29848E-1,-4.798059E-1,1.4307355E0,-6.1627704E-1,-3.0116394E-1,-2.6003847E-1,-1.2462112E-3,2.9028659E-3,1.0882091E-2,-3.812452E-3,-1.3110985E-2,1.5781904E-3,-8.23455E-3,2.0469942E-3,-1.7899358E-4,3.164012E-3,-1.8007199E-3,1.928776E-2,-3.1283682E-3,-1.0457966E-2,8.201001E-3,-1.8063128E-3],"split_indices":[7,6,23,6,6,4,16,7,8,23,16,19,7,16,10,0,0,0,0,0,0,0,0,0,0,0,0,0,0,0,0],"split_type":[0,0,0,0,0,0,0,0,0,0,0,0,0,0,0,0,0,0,0,0,0,0,0,0,0,0,0,0,0,0,0],"sum_hessian":[3.047E3,5.53E2,2.494E3,3.68E2,1.85E2,2.238E3,2.56E2,3.37E2,3.1E1,2.2E1,1.63E2,2.231E3,7E0,1.82E2,7.4E1,3.1E1,3.06E2,2.6E1,5E0,1.7E1,5E0,1.2E1,1.51E2,2.088E3,1.43E2,2E0,5E0,1.55E2,2.7E1,1.7E1,5.7E1],"tree_param":{"num_deleted":"0","num_feature":"33","num_nodes":"31","size_leaf_vector":"1"}},{"base_weights":[-2.5472776E-3,-2.6404256E-2,1.7671788E-2,1.3058706E-1,-3.0844355E-2,2.3549823E-2,-5.0771978E-2,2.2844459E-1,-8.270068E-2,-3.3741277E-2,2.5277412E-1,2.2419512E-2,3.0766574E-1,-1.0680661E-1,1.4330602E-1,5.7583246E-3,2.2110226E-2,-1.1055036E-2,9.147977E-3,-2.4910623E-3,-4.387611E-4,1.7868735E-2,2.6872114E-3,2.1730333E-3,4.372907E-4,1.8703206E-2,-6.0815515E-4,4.05186E-3,-6.393812E-3,-1.2839314E-3,1.4638625E-2],"categories":[],"categories_nodes":[],"categories_segments":[],"categories_sizes":[],"default_left":[0,0,0,0,0,0,0,0,0,0,0,0,0,0,0,0,0,0,0,0,0,0,0,0,0,0,0,0,0,0,0],"id":33,"left_children":[1,3,5,7,9,11,13,15,17,19,21,23,25,27,29,-1,-1,-1,-1,-1,-1,-1,-1,-1,-1,-1,-1,-1,-1,-1,-1],"loss_changes":[1.4837415E0,9.875753E-1,6.7104983E-1,8.328931E-1,1.1366142E0,4.8572987E-1,1.450818E0,6.028596E-1,5.1842856E-1,5.455396E-1,2.722541E-1,4.39529E-1,1.3196653E-1,4.1801608E-1,7.652443E-1,0E0,0E0,0E0,0E0,0E0,0E0,0E0,0E0,0E0,0E0,0E0,0E0,0E0,0E0,0E0,0E0],"parents":[2147483647,0,0,1,1,2,2,3,3,4,4,5,5,6,6,7,7,8,8,9,9,10,10,11,11,12,12,13,13,14,14],"right_children":[2,4,6,8,10,12,14,16,18,20,22,24,26,28,30,-1,-1,-1,-1,-1,-1,-1,-1,-1,-1,-1,-1,-1,-1,-1,-1],"split_conditions":[2.3398276E-2,-2.4414027E0,1.5966859E0,4.5430395E-1,3.1760783E0,4.7501383E0,2.6705127E0,9.195333E-2,1.3401589E0,-6.882291E-2,-4.237762E-1,-3.768976E-1,-1.8585101E-1,-6.5458524E-1,6.615443E-1,5.7583246E-3,2.2110226E-2,-1.1055036E-2,9.147977E-3,-2.4910623E-3,-4.387611E-4,1.7868735E-2,2.6872114E-3,2.1730333E-3,4.372907E-4,1.8703206E-2,-6.0815515E-4,4.05186E-3,-6.393812E-3,-1.2839314E-3,1.4638625E-2],"split_indices":[2,2,20,17,20,4,20,30,17,30,13,31,17,4,2,0,0,0,0,0,0,0,0,0,0,0,0,0,0,0,0],"split_type":[0,0,0,0,0,0,0,0,0,0,0,0,0,0,0,0,0,0,0,0,0,0,0,0,0,0,0,0,0,0,0],"sum_hessian":[3.074E3,1.41E3,1.664E3,3.8E1,1.372E3,1.533E3,1.31E2,2.6E1,1.2E1,1.359E3,1.3E1,1.528E3,5E0,1.02E2,2.9E1,1.8E1,8E0,8E0,4E0,8.26E2,5.33E2,8E0,5E0,6.01E2,9.27E2,4E0,1E0,1E1,9.2E1,1.4E1,1.5E1],"tree_param":{"num_deleted":"0","num_feature":"33","num_nodes":"31","size_leaf_vector":"1"}},{"base_weights":[3.4427484E-3,-2.3123313E-1,2.0665321E-1,-3.863539E-1,-1.2803465E-1,1.2858196E-1,4.2767456E-1,-5.047907E-1,-3.337033E-1,-1.8063748E-1,-6.738373E-2,7.062846E-2,2.2336406E-1,3.9851704E-1,7.3085785E-1,-2.2645839E-2,-3.1795323E-2,-1.4503463E-2,-2.1628244E-2,-7.471669E-3,-1.2651677E-2,-1.5421722E-3,-9.5436E-3,5.5163377E-3,-4.68532E-4,1.42983515E-2,8.365652E-3,1.8232828E-2,2.470105E-2,3.8206182E-2,1.368503E-2],"categories":[],"categories_nodes":[],"categories_segments":[],"categories_sizes":[],"default_left":[0,0,0,0,0,0,0,0,0,0,0,0,0,0,0,0,0,0,0,0,0,0,0,0,0,0,0,0,0,0,0],"id":34,"left_children":[1,3,5,7,9,11,13,15,17,19,21,23,25,27,29,-1,-1,-1,-1,-1,-1,-1,-1,-1,-1,-1,-1,-1,-1,-1,-1],"loss_changes":[1.4468729E2,2.249012E1,2.8002312E1,3.3360596E0,2.6901054E0,6.592249E0,3.456932E0,8.750458E-1,1.5655098E0,9.8554134E-1,1.77647E0,2.376553E0,1.5522404E0,1.0778046E0,3.3833694E-1,0E0,0E0,0E0,0E0,0E0,0E0,0E0,0E0,0E0,0E0,0E0,0E0,0E0,0E0,0E0,0E0],"parents":[2147483647,0,0,1,1,2,2,3,3,4,4,5,5,6,6,7,7,8,8,9,9,10,10,11,11,12,12,13,13,14,14],"right_children":[2,4,6,8,10,12,14,16,18,20,22,24,26,28,30,-1,-1,-1,-1,-1,-1,-1,-1,-1,-1,-1,-1,-1,-1,-1,-1],"split_conditions":[-3.0142432E-1,-4.730296E-1,4.367945E-1,-5.265976E-1,-3.893008E-1,-1.4047282E-2,3.3681304E0,-2.2691962E-1,-2.1786149E-1,-1.7200236E-1,-8.676966E-2,-1.08669266E-1,-8.972401E-2,1.5808992E0,1.005391E0,-2.2645839E-2,-3.1795323E-2,-1.4503463E-2,-2.1628244E-2,-7.471669E-3,-1.2651677E-2,-1.5421722E-3,-9.5436E-3,5.5163377E-3,-4.68532E-4,1.42983515E-2,8.365652E-3,1.8232828E-2,2.470105E-2,3.8206182E-2,1.368503E-2],"split_indices":[25,25,25,25,25,25,25,0,0,0,0,0,0,25,12,0,0,0,0,0,0,0,0,0,0,0,0,0,0,0,0],"split_type":[0,0,0,0,0,0,0,0,0,0,0,0,0,0,0,0,0,0,0,0,0,0,0,0,0,0,0,0,0,0,0],"sum_hessian":[3.032E3,1.407E3,1.625E3,5.61E2,8.46E2,1.202E3,4.23E2,1.7E2,3.91E2,4.52E2,3.94E2,7.47E2,4.55E2,3.88E2,3.5E1,1.25E2,4.5E1,2.74E2,1.17E2,3.18E2,1.34E2,3.05E2,8.9E1,4.99E2,2.48E2,2.13E2,2.42E2,2.9E2,9.8E1,3.2E1,3E0],"tree_param":{"num_deleted":"0","num_feature":"33","num_nodes":"31","size_leaf_vector":"1"}},{"base_weights":[2.253186E-3,3.0975018E-2,-6.652631E-3,2.2676786E-2,9.6477136E-2,2.7020671E-3,-3.782847E-2,2.7297845E-2,-1.10684335E-1,5.8386575E-2,3.3702657E-1,2.800146E-4,1.6953345E-1,-2.6516227E-2,-1.4019507E-1,1.9669353E-3,-9.2135294E-4,-9.700442E-3,1.5614901E-3,6.451887E-3,-1.4510244E-3,-8.642438E-3,2.347688E-2,1.2020351E-3,-6.3430937E-4,1.532356E-2,-7.8832544E-4,-2.4863787E-3,1.609946E-3,3.3186597E-3,-8.369944E-3],"categories":[],"categories_nodes":[],"categories_segments":[],"categories_sizes":[],"default_left":[0,0,0,0,0,0,0,0,0,0,0,0,0,0,0,0,0,0,0,0,0,0,0,0,0,0,0,0,0,0,0],"id":35,"left_children":[1,3,5,7,9,11,13,15,17,19,21,23,25,27,29,-1,-1,-1,-1,-1,-1,-1,-1,-1,-1,-1,-1,-1,-1,-1,-1],"loss_changes":[7.911131E-1,3.9569205E-1,6.886656E-1,4.0421298E-1,7.3166054E-1,7.3415565E-1,6.273905E-1,3.4758228E-1,2.6620713E-1,4.483743E-1,8.243642E-1,5.523948E-1,6.645704E-1,6.721271E-1,3.1456077E-1,0E0,0E0,0E0,0E0,0E0,0E0,0E0,0E0,0E0,0E0,0E0,0E0,0E0,0E0,0E0,0E0],"parents":[2147483647,0,0,1,1,2,2,3,3,4,4,5,5,6,6,7,7,8,8,9,9,10,10,11,11,12,12,13,13,14,14],"right_children":[2,4,6,8,10,12,14,16,18,20,22,24,26,28,30,-1,-1,-1,-1,-1,-1,-1,-1,-1,-1,-1,-1,-1,-1,-1,-1],"split_conditions":[-7.5339746E-1,-7.9084396E-1,8.578211E-1,1.9769912E0,1.6709822E-1,2.7053344E0,1.1756208E0,-8.470138E-1,6.9532424E-1,-2.76203E-1,-2.9291773E-1,-2.452134E-1,3.610426E0,-2.896735E-1,-3.857779E-1,1.9669353E-3,-9.2135294E-4,-9.700442E-3,1.5614901E-3,6.451887E-3,-1.4510244E-3,-8.642438E-3,2.347688E-2,1.2020351E-3,-6.3430937E-4,1.532356E-2,-7.8832544E-4,-2.4863787E-3,1.609946E-3,3.3186597E-3,-8.369944E-3],"split_indices":[7,7,28,20,14,20,20,7,4,13,4,31,20,14,14,0,0,0,0,0,0,0,0,0,0,0,0,0,0,0,0],"split_type":[0,0,0,0,0,0,0,0,0,0,0,0,0,0,0,0,0,0,0,0,0,0,0,0,0,0,0,0,0,0,0],"sum_hessian":[3.091E3,7.31E2,2.36E3,6.5E2,8.1E1,1.816E3,5.44E2,6.29E2,2.1E1,7.1E1,1E1,1.791E3,2.5E1,4.91E2,5.3E1,4.98E2,1.31E2,1.3E1,8E0,3.9E1,3.2E1,2E0,8E0,6.32E2,1.159E3,1.4E1,1.1E1,3.52E2,1.39E2,6E0,4.7E1],"tree_param":{"num_deleted":"0","num_feature":"33","num_nodes":"31","size_leaf_vector":"1"}},{"base_weights":[3.0090443E-3,5.8307494E-3,-7.325638E-2,4.8594503E-3,2.64461E-1,-1.5064363E-1,-1.460523E-5,1.2134725E-1,3.0036378E-3,3.0942363E-1,2.0709734E-3,2.3167197E-2,-1.7136155E-1,2.8548262E-1,-5.9492886E-2,2.1327166E-3,1.5891254E-2,2.1596416E-4,-4.542205E-3,1.7526006E-2,5.519532E-3,1.5369039E-3,-1.0174117E-2,1.6503174E-2,-2.893631E-3,-9.095409E-3,3.6996958E-4],"categories":[],"categories_nodes":[],"categories_segments":[],"categories_sizes":[],"default_left":[0,0,0,0,0,0,0,0,0,0,0,0,0,0,0,0,0,0,0,0,0,0,0,0,0,0,0],"id":36,"left_children":[1,3,5,7,9,11,13,15,17,19,-1,-1,21,23,25,-1,-1,-1,-1,-1,-1,-1,-1,-1,-1,-1,-1],"loss_changes":[6.574283E-1,7.385206E-1,6.178076E-1,6.341224E-1,9.74977E-2,7.5358796E-1,9.848946E-1,6.976685E-1,3.572217E-1,3.4921825E-2,0E0,0E0,3.438177E-1,1.7217237E-1,3.944006E-1,0E0,0E0,0E0,0E0,0E0,0E0,0E0,0E0,0E0,0E0,0E0,0E0],"parents":[2147483647,0,0,1,1,2,2,3,3,4,4,5,5,6,6,7,7,8,8,9,9,12,12,13,13,14,14],"right_children":[2,4,6,8,10,12,14,16,18,20,-1,-1,22,24,26,-1,-1,-1,-1,-1,-1,-1,-1,-1,-1,-1,-1],"split_conditions":[1.7738187E0,4.7501383E0,-1.0878568E-1,-1.5017657E0,5.980202E-1,-6.5665126E-1,7.150068E-3,7.497066E-2,2.820935E0,1.4257714E0,2.0709734E-3,2.3167197E-2,-4.918335E-1,4.7726703E-1,2.4000943E-1,2.1327166E-3,1.5891254E-2,2.1596416E-4,-4.542205E-3,1.7526006E-2,5.519532E-3,1.5369039E-3,-1.0174117E-2,1.6503174E-2,-2.893631E-3,-9.095409E-3,3.6996958E-4],"split_indices":[24,4,16,29,27,15,16,15,29,16,0,0,12,12,16,0,0,0,0,0,0,0,0,0,0,0,0],"split_type":[0,0,0,0,0,0,0,0,0,0,0,0,0,0,0,0,0,0,0,0,0,0,0,0,0,0,0],"sum_hessian":[3.052E3,2.944E3,1.08E2,2.934E3,1E1,5.2E1,5.6E1,4.5E1,2.889E3,8E0,2E0,1E0,5.1E1,9E0,4.7E1,3.3E1,1.2E1,2.85E3,3.9E1,6E0,2E0,7E0,4.4E1,8E0,1E0,1.6E1,3.1E1],"tree_param":{"num_deleted":"0","num_feature":"33","num_nodes":"27","size_leaf_vector":"1"}},{"base_weights":[2.9650694E-3,1.7136872E-2,-7.257502E-2,3.043354E-2,-7.895579E-3,-3.4670245E-2,-1.1500254E-1,6.5490544E-2,1.2195389E-2,-2.0513369E-2,5.9455298E-2,-1.375485E-2,-2.6806846E-1,-1.5300296E-1,-2.9353691E-2,1.7493969E-3,6.446577E-3,-1.9775196E-5,3.8666304E-3,-7.618473E-3,-5.853179E-4,2.217757E-3,2.3065427E-2,6.014185E-4,-6.656758E-3,-1.6626751E-2,4.452402E-3,9.597847E-3,-8.28066E-3,-4.7350116E-3,4.0322198E-3],"categories":[],"categories_nodes":[],"categories_segments":[],"categories_sizes":[],"default_left":[0,0,0,0,0,0,0,0,0,0,0,0,0,0,0,0,0,0,0,0,0,0,0,0,0,0,0,0,0,0,0],"id":37,"left_children":[1,3,5,7,9,11,13,15,17,19,21,23,25,27,29,-1,-1,-1,-1,-1,-1,-1,-1,-1,-1,-1,-1,-1,-1,-1,-1],"loss_changes":[3.2663882E0,8.553272E-1,7.71168E-1,1.0720724E0,7.5925833E-1,1.2460065E0,7.343242E-1,1.1062453E0,9.062806E-1,8.714823E-1,8.351332E-1,7.280114E-1,5.1307464E-1,7.147443E-1,5.179846E-1,0E0,0E0,0E0,0E0,0E0,0E0,0E0,0E0,0E0,0E0,0E0,0E0,0E0,0E0,0E0,0E0],"parents":[2147483647,0,0,1,1,2,2,3,3,4,4,5,5,6,6,7,7,8,8,9,9,10,10,11,11,12,12,13,13,14,14],"right_children":[2,4,6,8,10,12,14,16,18,20,22,24,26,28,30,-1,-1,-1,-1,-1,-1,-1,-1,-1,-1,-1,-1,-1,-1,-1,-1],"split_conditions":[9.373003E-1,-1.2894368E-1,-2.4487858E-1,-3.1650907E-1,8.2495683E-1,3.977561E-1,5.8054394E-1,-2.3817508E-1,3.8386732E-1,-7.1579255E-2,1.6705388E0,2.4996614E0,-4.286148E-1,-1.1880213E0,3.1097972E-1,1.7493969E-3,6.446577E-3,-1.9775196E-5,3.8666304E-3,-7.618473E-3,-5.853179E-4,2.217757E-3,2.3065427E-2,6.014185E-4,-6.656758E-3,-1.6626751E-2,4.452402E-3,9.597847E-3,-8.28066E-3,-4.7350116E-3,4.0322198E-3],"split_indices":[32,32,14,29,21,5,14,14,5,32,29,32,14,29,29,0,0,0,0,0,0,0,0,0,0,0,0,0,0,0,0],"split_type":[0,0,0,0,0,0,0,0,0,0,0,0,0,0,0,0,0,0,0,0,0,0,0,0,0,0,0,0,0,0,0],"sum_hessian":[3.049E3,2.568E3,4.81E2,1.677E3,8.91E2,2.55E2,2.26E2,5.73E2,1.104E3,7.51E2,1.4E2,2.35E2,2E1,1.56E2,7E1,3.88E2,1.85E2,9.26E2,1.78E2,4.6E1,7.05E2,1.36E2,4E0,1.94E2,4.1E1,1.7E1,3E0,5E0,1.51E2,4.4E1,2.6E1],"tree_param":{"num_deleted":"0","num_feature":"33","num_nodes":"31","size_leaf_vector":"1"}},{"base_weights":[-4.1611637E-3,-6.729742E-2,7.53572E-2,-1.3096038E-1,-4.075055E-2,4.2396415E-2,1.5902874E-1,1.2242748E-1,-1.4621891E-1,9.317305E-2,-4.9350966E-2,1.4577131E-1,3.3840086E-2,1.835913E-1,8.072583E-2,2.7606152E-3,2.643596E-2,-7.736133E-3,2.209095E-3,-6.7995756E-4,1.0474285E-2,-3.506509E-3,-5.72156E-4,1.6335702E-2,4.7115698E-3,2.6029644E-3,-6.0623843E-4,1.5279702E-2,7.6544057E-3,-1.3685629E-2,5.198737E-3],"categories":[],"categories_nodes":[],"categories_segments":[],"categories_sizes":[],"default_left":[0,0,0,0,0,0,0,0,0,0,0,0,0,0,0,0,0,0,0,0,0,0,0,0,0,0,0,0,0,0,0],"id":38,"left_children":[1,3,5,7,9,11,13,15,17,19,21,23,25,27,29,-1,-1,-1,-1,-1,-1,-1,-1,-1,-1,-1,-1,-1,-1,-1,-1],"loss_changes":[1.5347695E1,2.8745127E0,3.7246695E0,1.9549313E0,1.3913637E0,8.548101E-1,7.1988773E-1,7.627682E-1,7.726793E-1,9.094327E-1,8.9086866E-1,6.593205E-1,7.5349224E-1,1.032444E0,7.94808E-1,0E0,0E0,0E0,0E0,0E0,0E0,0E0,0E0,0E0,0E0,0E0,0E0,0E0,0E0,0E0,0E0],"parents":[2147483647,0,0,1,1,2,2,3,3,4,4,5,5,6,6,7,7,8,8,9,9,10,10,11,11,12,12,13,13,14,14],"right_children":[2,4,6,8,10,12,14,16,18,20,22,24,26,28,30,-1,-1,-1,-1,-1,-1,-1,-1,-1,-1,-1,-1,-1,-1,-1,-1],"split_conditions":[-1.515526E-1,-2.6347733E-1,1.8288837E-1,-2.4414027E0,-1.5590492E0,-9.172588E-1,3.3623195E-1,1.2095432E0,2.2506042E0,-1.6566883E-1,-2.0122583E-1,-2.0046443E-1,6.4536595E-1,-5.6963563E-2,-1.3176533E0,2.7606152E-3,2.643596E-2,-7.736133E-3,2.209095E-3,-6.7995756E-4,1.0474285E-2,-3.506509E-3,-5.72156E-4,1.6335702E-2,4.7115698E-3,2.6029644E-3,-6.0623843E-4,1.5279702E-2,7.6544057E-3,-1.3685629E-2,5.198737E-3],"split_indices":[0,0,0,2,2,2,9,5,27,15,0,5,24,2,2,0,0,0,0,0,0,0,0,0,0,0,0,0,0,0,0],"split_type":[0,0,0,0,0,0,0,0,0,0,0,0,0,0,0,0,0,0,0,0,0,0,0,0,0,0,0,0,0,0,0],"sum_hessian":[3.055E3,1.703E3,1.352E3,5E2,1.203E3,9.71E2,3.81E2,2.8E1,4.72E2,7.2E1,1.131E3,7.3E1,8.98E2,2.89E2,9.2E1,2.5E1,3E0,4.52E2,2E1,3.8E1,3.4E1,7.3E2,4.01E2,1.5E1,5.8E1,6.43E2,2.55E2,5.6E1,2.33E2,5E0,8.7E1],"tree_param":{"num_deleted":"0","num_feature":"33","num_nodes":"31","size_leaf_vector":"1"}},{"base_weights":[-5.439174E-4,-2.0459706E-1,2.0173283E-1,-3.451029E-1,-9.535018E-2,1.2358988E-1,3.6588475E-1,-4.465508E-1,-2.833821E-1,-1.575925E-1,-5.5298418E-2,7.492452E-2,2.0081477E-1,3.157327E-1,5.092888E-1,-2.3889558E-2,-1.871699E-2,-1.6157504E-2,-1.2777015E-2,-8.791092E-3,-4.9669766E-3,-4.2044865E-3,-1.4546983E-3,1.976618E-3,5.232503E-3,-1.6883698E-3,1.0227916E-2,1.6872792E-2,6.4419503E-3,2.6419858E-2,2.4304956E-3],"categories":[],"categories_nodes":[],"categories_segments":[],"categories_sizes":[],"default_left":[0,0,0,0,0,0,0,0,0,0,0,0,0,0,0,0,0,0,0,0,0,0,0,0,0,0,0,0,0,0,0],"id":39,"left_children":[1,3,5,7,9,11,13,15,17,19,21,23,25,27,29,-1,-1,-1,-1,-1,-1,-1,-1,-1,-1,-1,-1,-1,-1,-1,-1],"loss_changes":[1.2271118E2,2.2684837E1,1.9105957E1,3.924614E0,2.0703764E0,3.7919874E0,3.298561E0,3.6932373E-1,3.6584473E-1,3.287182E-1,3.815738E-1,6.5129066E-1,3.5027122E-1,1.414032E0,1.0570602E0,0E0,0E0,0E0,0E0,0E0,0E0,0E0,0E0,0E0,0E0,0E0,0E0,0E0,0E0,0E0,0E0],"parents":[2147483647,0,0,1,1,2,2,3,3,4,4,5,5,6,6,7,7,8,8,9,9,10,10,11,11,12,12,13,13,14,14],"right_children":[2,4,6,8,10,12,14,16,18,20,22,24,26,28,30,-1,-1,-1,-1,-1,-1,-1,-1,-1,-1,-1,-1,-1,-1,-1,-1],"split_conditions":[-2.7540228E-1,-4.578209E-1,3.0168137E-1,-5.1860446E-1,-3.9597338E-1,-3.9552066E-2,1.5808992E0,-5.278529E-1,-4.9721327E-1,5.846243E-1,-3.4443736E-1,-1.8404981E-1,-1.7079376E0,1.2606729E0,1.2555765E0,-2.3889558E-2,-1.871699E-2,-1.6157504E-2,-1.2777015E-2,-8.791092E-3,-4.9669766E-3,-4.2044865E-3,-1.4546983E-3,1.976618E-3,5.232503E-3,-1.6883698E-3,1.0227916E-2,1.6872792E-2,6.4419503E-3,2.6419858E-2,2.4304956E-3],"split_indices":[25,25,25,25,25,25,25,25,25,2,25,25,5,30,14,0,0,0,0,0,0,0,0,0,0,0,0,0,0,0,0],"split_type":[0,0,0,0,0,0,0,0,0,0,0,0,0,0,0,0,0,0,0,0,0,0,0,0,0,0,0,0,0,0,0],"sum_hessian":[2.971E3,1.479E3,1.492E3,6.46E2,8.33E2,1.012E3,4.8E2,2.42E2,4.04E2,3.25E2,5.08E2,6.22E2,3.9E2,3.58E2,1.22E2,1.65E2,7.7E1,1.62E2,2.42E2,2.46E2,7.9E1,2.41E2,2.67E2,2.85E2,3.37E2,6E0,3.84E2,3.2E2,3.8E1,1.17E2,5E0],"tree_param":{"num_deleted":"0","num_feature":"33","num_nodes":"31","size_leaf_vector":"1"}},{"base_weights":[3.2056158E-3,-1.9207032E-1,1.9590494E-1,-3.392516E-1,-9.7818755E-2,1.1731522E-1,3.5792795E-1,-4.388983E-1,-2.8378567E-1,-1.6072413E-1,-4.9846757E-2,4.881438E-2,1.6710415E-1,3.1189233E-1,5.436009E-1,-1.9932007E-2,-2.960859E-2,-1.0730064E-2,-1.7087197E-2,-3.840036E-3,-1.0200218E-2,6.9899147E-4,-4.7983276E-3,4.698654E-3,-6.5722934E-4,1.2852526E-2,6.0278703E-3,2.3373207E-2,1.4094184E-2,2.8464971E-2,2.9478322E-3],"categories":[],"categories_nodes":[],"categories_segments":[],"categories_sizes":[],"default_left":[0,0,0,0,0,0,0,0,0,0,0,0,0,0,0,0,0,0,0,0,0,0,0,0,0,0,0,0,0,0,0],"id":40,"left_children":[1,3,5,7,9,11,13,15,17,19,21,23,25,27,29,-1,-1,-1,-1,-1,-1,-1,-1,-1,-1,-1,-1,-1,-1,-1,-1],"loss_changes":[1.13415436E2,2.0733295E1,1.927449E1,3.1032104E0,2.750163E0,3.4808702E0,4.0615005E0,1.0412331E0,1.4423714E0,1.4190607E0,1.5320495E0,1.2099653E0,2.4475422E0,1.7309608E0,1.1745358E0,0E0,0E0,0E0,0E0,0E0,0E0,0E0,0E0,0E0,0E0,0E0,0E0,0E0,0E0,0E0,0E0],"parents":[2147483647,0,0,1,1,2,2,3,3,4,4,5,5,6,6,7,7,8,8,9,9,10,10,11,11,12,12,13,13,14,14],"right_children":[2,4,6,8,10,12,14,16,18,20,22,24,26,28,30,-1,-1,-1,-1,-1,-1,-1,-1,-1,-1,-1,-1,-1,-1,-1,-1],"split_conditions":[-2.786904E-1,-4.6903592E-1,3.0168137E-1,-5.239662E-1,-3.9792517E-1,-1.3241777E-1,2.026038E0,-2.3408908E-1,-2.7993968E-1,-2.6492095E-1,-2.3232292E-1,-1.6575895E-1,-1.8201083E-1,-1.8072E-1,1.2555765E0,-1.9932007E-2,-2.960859E-2,-1.0730064E-2,-1.7087197E-2,-3.840036E-3,-1.0200218E-2,6.9899147E-4,-4.7983276E-3,4.698654E-3,-6.5722934E-4,1.2852526E-2,6.0278703E-3,2.3373207E-2,1.4094184E-2,2.8464971E-2,2.9478322E-3],"split_indices":[25,25,25,25,25,25,25,1,1,1,1,1,1,1,14,0,0,0,0,0,0,0,0,0,0,0,0,0,0,0,0],"split_type":[0,0,0,0,0,0,0,0,0,0,0,0,0,0,0,0,0,0,0,0,0,0,0,0,0,0,0,0,0,0,0],"sum_hessian":[3.012E3,1.496E3,1.516E3,5.83E2,9.13E2,1.022E3,4.94E2,2.06E2,3.77E2,3.94E2,5.19E2,4.31E2,5.91E2,3.98E2,9.6E1,1.66E2,4E1,1.74E2,2.03E2,1.35E2,2.59E2,2.18E2,3.01E2,2.49E2,1.82E2,2E2,3.91E2,6.2E1,3.36E2,9.1E1,5E0],"tree_param":{"num_deleted":"0","num_feature":"33","num_nodes":"31","size_leaf_vector":"1"}},{"base_weights":[-1.4011755E-3,-4.1501176E-2,9.199115E-2,-1.0865922E-1,-1.4619463E-2,6.522647E-2,1.8115103E-1,3.850595E-2,-1.2339218E-1,5.227191E-2,-2.3771036E-2,9.195591E-2,2.043034E-2,1.4670719E-1,3.1954867E-1,5.689682E-3,-8.743334E-3,-9.788277E-3,-5.508335E-3,1.6255424E-3,1.0158314E-2,5.1569927E-4,-2.1858371E-3,3.4855206E-3,7.4041933E-3,-1.8422667E-2,1.3155983E-3,8.882293E-3,-2.9377467E-3,1.706004E-2,-1.3663411E-2],"categories":[],"categories_nodes":[],"categories_segments":[],"categories_sizes":[],"default_left":[0,0,0,0,0,0,0,0,0,0,0,0,0,0,0,0,0,0,0,0,0,0,0,0,0,0,0,0,0,0,0],"id":41,"left_children":[1,3,5,7,9,11,13,15,17,19,21,23,25,27,29,-1,-1,-1,-1,-1,-1,-1,-1,-1,-1,-1,-1,-1,-1,-1,-1],"loss_changes":[1.1369989E1,3.832918E0,2.1645217E0,1.3208346E0,9.305034E-1,8.398762E-1,9.541788E-1,9.195013E-1,5.06793E-1,5.390703E-1,9.0873027E-1,5.390587E-1,6.135335E-1,1.0910802E0,6.195054E-1,0E0,0E0,0E0,0E0,0E0,0E0,0E0,0E0,0E0,0E0,0E0,0E0,0E0,0E0,0E0,0E0],"parents":[2147483647,0,0,1,1,2,2,3,3,4,4,5,5,6,6,7,7,8,8,9,9,10,10,11,11,12,12,13,13,14,14],"right_children":[2,4,6,8,10,12,14,16,18,20,22,24,26,28,30,-1,-1,-1,-1,-1,-1,-1,-1,-1,-1,-1,-1,-1,-1,-1,-1],"split_conditions":[-8.0103055E-2,-2.565384E-1,4.2103112E-1,-2.0318265E0,-1.0293113E0,-1.2894368E-1,8.746372E-1,4.6846658E-1,-7.472677E-1,-1.3101873E-1,-8.9882714E-1,7.860801E-2,-1.1479185E-1,7.0816743E-1,1.7573847E0,5.689682E-3,-8.743334E-3,-9.788277E-3,-5.508335E-3,1.6255424E-3,1.0158314E-2,5.1569927E-4,-2.1858371E-3,3.4855206E-3,7.4041933E-3,-1.8422667E-2,1.3155983E-3,8.882293E-3,-2.9377467E-3,1.706004E-2,-1.3663411E-2],"split_indices":[0,0,0,2,2,32,2,32,11,0,18,6,32,2,32,0,0,0,0,0,0,0,0,0,0,0,0,0,0,0,0],"split_type":[0,0,0,0,0,0,0,0,0,0,0,0,0,0,0,0,0,0,0,0,0,0,0,0,0,0,0,0,0,0,0],"sum_hessian":[3.034E3,2.123E3,9.11E2,6.06E2,1.517E3,7.02E2,2.09E2,5.5E1,5.51E2,1.82E2,1.335E3,4.39E2,2.63E2,1.69E2,4E1,4.1E1,1.4E1,8.3E1,4.68E2,1.62E2,2E1,4.93E2,8.42E2,3.16E2,1.23E2,3E0,2.6E2,1.47E2,2.2E1,3.9E1,1E0],"tree_param":{"num_deleted":"0","num_feature":"33","num_nodes":"31","size_leaf_vector":"1"}},{"base_weights":[1.6642966E-3,-4.9844936E-2,6.573553E-2,-7.4997224E-2,-1.3804872E-2,5.0857663E-2,1.974189E-1,1.7069457E-2,-8.941264E-2,9.476171E-2,-1.9376779E-2,3.6901813E-2,9.053273E-2,2.519723E-1,1.1876909E-1,-2.805327E-4,1.3662311E-2,-7.1925893E-3,-3.5134852E-3,1.2837093E-3,1.4190941E-2,-5.7730456E-3,-6.246673E-4,2.242079E-3,-1.7615383E-3,-8.493933E-3,4.7632824E-3,9.822271E-3,2.0436531E-2,-8.163278E-3,8.357997E-3],"categories":[],"categories_nodes":[],"categories_segments":[],"categories_sizes":[],"default_left":[0,0,0,0,0,0,0,0,0,0,0,0,0,0,0,0,0,0,0,0,0,0,0,0,0,0,0,0,0,0,0],"id":42,"left_children":[1,3,5,7,9,11,13,15,17,19,21,23,25,27,29,-1,-1,-1,-1,-1,-1,-1,-1,-1,-1,-1,-1,-1,-1,-1,-1],"loss_changes":[1.0019565E1,1.5245876E0,2.6407132E0,1.3167605E0,4.2104775E-1,6.7051125E-1,5.5788755E-1,7.8589886E-1,8.829918E-1,4.3680373E-1,4.350741E-1,5.181695E-1,4.056549E-1,6.160507E-1,8.188695E-1,0E0,0E0,0E0,0E0,0E0,0E0,0E0,0E0,0E0,0E0,0E0,0E0,0E0,0E0,0E0,0E0],"parents":[2147483647,0,0,1,1,2,2,3,3,4,4,5,5,6,6,7,7,8,8,9,9,10,10,11,11,12,12,13,13,14,14],"right_children":[2,4,6,8,10,12,14,16,18,20,22,24,26,28,30,-1,-1,-1,-1,-1,-1,-1,-1,-1,-1,-1,-1,-1,-1,-1,-1],"split_conditions":[-1.5287325E-1,-2.2610353E-1,7.467171E-1,-1.6039062E0,-8.8054705E-1,1.1231818E-1,-1.6135328E-2,9.809094E-1,-2.763625E-1,-6.3163865E-1,-7.933527E-1,1.1544566E0,-1.8377652E0,-2.0201027E-1,-5.194293E-1,-2.805327E-4,1.3662311E-2,-7.1925893E-3,-3.5134852E-3,1.2837093E-3,1.4190941E-2,-5.7730456E-3,-6.246673E-4,2.242079E-3,-1.7615383E-3,-8.493933E-3,4.7632824E-3,9.822271E-3,2.0436531E-2,-8.163278E-3,8.357997E-3],"split_indices":[0,0,0,2,11,0,11,5,0,9,9,9,2,9,2,0,0,0,0,0,0,0,0,0,0,0,0,0,0,0,0],"split_type":[0,0,0,0,0,0,0,0,0,0,0,0,0,0,0,0,0,0,0,0,0,0,0,0,0,0,0,0,0,0,0],"sum_hessian":[3.034E3,1.682E3,1.352E3,9.9E2,6.92E2,1.216E3,1.36E2,1.34E2,8.56E2,3.3E1,6.59E2,9.01E2,3.15E2,7.9E1,5.7E1,1.24E2,1E1,2.21E2,6.35E2,2.5E1,8E0,4.3E1,6.16E2,8.12E2,8.9E1,5E0,3.1E2,6E1,1.9E1,8E0,4.9E1],"tree_param":{"num_deleted":"0","num_feature":"33","num_nodes":"31","size_leaf_vector":"1"}},{"base_weights":[5.38681E-4,-1.9332452E-1,1.72448E-1,-3.2789525E-1,-1.0354247E-1,7.617108E-2,2.909602E-1,-3.9243665E-1,-2.560328E-1,-1.5869305E-1,-5.3982414E-2,1.0025843E-1,-1.9798605E-2,2.5230256E-1,4.6084255E-1,-1.7157167E-2,-2.5093898E-2,-1.0360847E-2,-1.7842853E-2,-6.198959E-3,-1.1585329E-2,-6.18321E-4,-7.732197E-3,2.108406E-3,6.68173E-3,-4.960871E-3,2.7781632E-3,2.051429E-2,1.1376511E-2,2.048917E-2,3.3251353E-2],"categories":[],"categories_nodes":[],"categories_segments":[],"categories_sizes":[],"default_left":[0,0,0,0,0,0,0,0,0,0,0,0,0,0,0,0,0,0,0,0,0,0,0,0,0,0,0,0,0,0,0],"id":43,"left_children":[1,3,5,7,9,11,13,15,17,19,21,23,25,27,29,-1,-1,-1,-1,-1,-1,-1,-1,-1,-1,-1,-1,-1,-1,-1,-1],"loss_changes":[1.016137E2,1.7279602E1,1.8416374E1,2.5571556E0,2.3447762E0,2.0662937E0,4.63842E0,1.4462013E0,1.2746334E0,1.0028467E0,1.9041413E0,1.3786912E0,1.0828398E0,2.223507E0,1.1140747E0,0E0,0E0,0E0,0E0,0E0,0E0,0E0,0E0,0E0,0E0,0E0,0E0,0E0,0E0,0E0,0E0],"parents":[2147483647,0,0,1,1,2,2,3,3,4,4,5,5,6,6,7,7,8,8,9,9,10,10,11,11,12,12,13,13,14,14],"right_children":[2,4,6,8,10,12,14,16,18,20,22,24,26,28,30,-1,-1,-1,-1,-1,-1,-1,-1,-1,-1,-1,-1,-1,-1,-1,-1],"split_conditions":[-2.976704E-1,-4.730296E-1,8.55542E-2,-5.123211E-1,-3.9792517E-1,-1.7729279E-2,1.5808992E0,-2.3077346E-1,-2.1877323E-1,-1.7200236E-1,-1.3631973E-1,-2.0293948E-1,-1.0218936E-1,-2.1877323E-1,4.028097E0,-1.7157167E-2,-2.5093898E-2,-1.0360847E-2,-1.7842853E-2,-6.198959E-3,-1.1585329E-2,-6.18321E-4,-7.732197E-3,2.108406E-3,6.68173E-3,-4.960871E-3,2.7781632E-3,2.051429E-2,1.1376511E-2,2.048917E-2,3.3251353E-2],"split_indices":[25,25,25,25,25,0,25,0,0,0,0,25,25,0,25,0,0,0,0,0,0,0,0,0,0,0,0,0,0,0,0],"split_type":[0,0,0,0,0,0,0,0,0,0,0,0,0,0,0,0,0,0,0,0,0,0,0,0,0,0,0,0,0,0,0],"sum_hessian":[3.047E3,1.432E3,1.615E3,5.72E2,8.6E2,8.92E2,7.23E2,2.99E2,2.73E2,4.06E2,4.54E2,7.13E2,1.79E2,5.91E2,1.32E2,2.09E2,9E1,1.86E2,8.7E1,2.77E2,1.29E2,3.22E2,1.32E2,2.61E2,4.52E2,8.7E1,9.2E1,7.8E1,5.13E2,1.08E2,2.4E1],"tree_param":{"num_deleted":"0","num_feature":"33","num_nodes":"31","size_leaf_vector":"1"}},{"base_weights":[-1.4498134E-4,-5.583104E-2,4.9447756E-2,-8.574444E-2,-3.1497896E-2,2.5166815E-2,1.12954E-1,2.048641E-2,-9.492177E-2,-1.3110751E-2,-7.418805E-2,2.1379879E-2,1.3492362E-1,9.8008335E-2,2.4096939E-1,4.1874126E-3,-9.604679E-3,-8.345225E-3,-3.8592347E-3,-1.5753249E-3,9.516068E-4,1.2454093E-2,-4.1167024E-3,1.7996443E-2,1.0221121E-3,8.529888E-3,-4.1885665E-3,8.6071035E-3,2.9711998E-3,1.3861886E-2,-1.00045195E-2],"categories":[],"categories_nodes":[],"categories_segments":[],"categories_sizes":[],"default_left":[0,0,0,0,0,0,0,0,0,0,0,0,0,0,0,0,0,0,0,0,0,0,0,0,0,0,0,0,0,0,0],"id":44,"left_children":[1,3,5,7,9,11,13,15,17,19,21,23,25,27,29,-1,-1,-1,-1,-1,-1,-1,-1,-1,-1,-1,-1,-1,-1,-1,-1],"loss_changes":[8.254493E0,1.0221643E0,2.435045E0,6.1711645E-1,6.0971856E-1,4.730255E-1,8.1248426E-1,7.019458E-1,7.289171E-1,3.2285398E-1,6.3671243E-1,3.4436154E-1,3.1075776E-1,1.1139083E0,7.7531505E-1,0E0,0E0,0E0,0E0,0E0,0E0,0E0,0E0,0E0,0E0,0E0,0E0,0E0,0E0,0E0,0E0],"parents":[2147483647,0,0,1,1,2,2,3,3,4,4,5,5,6,6,7,7,8,8,9,9,10,10,11,11,12,12,13,13,14,14],"right_children":[2,4,6,8,10,12,14,16,18,20,22,24,26,28,30,-1,-1,-1,-1,-1,-1,-1,-1,-1,-1,-1,-1,-1,-1,-1,-1],"split_conditions":[-1.8704982E-1,-2.5388828E-1,1.1231818E-1,-2.0318265E0,7.485859E-2,2.3613718E0,1.1886587E0,-3.280103E-2,-2.8484422E-1,-5.097922E-1,-2.1439233E0,-2.2674608E0,1.5013121E0,-3.8940537E-1,1.6825582E0,4.1874126E-3,-9.604679E-3,-8.345225E-3,-3.8592347E-3,-1.5753249E-3,9.516068E-4,1.2454093E-2,-4.1167024E-3,1.7996443E-2,1.0221121E-3,8.529888E-3,-4.1885665E-3,8.6071035E-3,2.9711998E-3,1.3861886E-2,-1.00045195E-2],"split_indices":[0,0,0,2,10,30,2,13,0,10,2,2,22,16,32,0,0,0,0,0,0,0,0,0,0,0,0,0,0,0,0],"split_type":[0,0,0,0,0,0,0,0,0,0,0,0,0,0,0,0,0,0,0,0,0,0,0,0,0,0,0,0,0,0,0],"sum_hessian":[2.987E3,1.407E3,1.58E3,6.3E2,7.77E2,1.144E3,4.36E2,5E1,5.8E2,5.44E2,2.33E2,1.107E3,3.7E1,3.92E2,4.4E1,3.9E1,1.1E1,1.13E2,4.67E2,3.46E2,1.98E2,5E0,2.28E2,2E0,1.105E3,3.2E1,5E0,1.33E2,2.59E2,4.1E1,3E0],"tree_param":{"num_deleted":"0","num_feature":"33","num_nodes":"31","size_leaf_vector":"1"}},{"base_weights":[-3.756631E-3,-4.4465818E-2,4.5968633E-2,-1.063344E-1,-2.7209098E-2,2.6484946E-2,8.7238416E-2,-1.14939906E-1,2.0893382E-1,-2.8174324E-2,2.0038439E-2,4.404939E-2,-1.6260033E-2,1.1990617E-1,5.2320655E-2,-2.499437E-3,-6.3360133E-3,2.1609737E-2,2.5754233E-3,-4.5762674E-4,-2.218453E-3,2.5311762E-3,-3.7208297E-3,-1.7897197E-3,4.132064E-3,1.0133537E-2,4.8457E-3,1.1504205E-3,1.1183484E-2],"categories":[],"categories_nodes":[],"categories_segments":[],"categories_sizes":[],"default_left":[0,0,0,0,0,0,0,0,0,0,0,0,0,0,0,0,0,0,0,0,0,0,0,0,0,0,0,0,0],"id":45,"left_children":[1,3,5,7,9,11,13,15,17,19,-1,21,23,25,27,-1,-1,-1,-1,-1,-1,-1,-1,-1,-1,-1,-1,-1,-1],"loss_changes":[6.133573E0,1.77581E0,1.094465E0,1.0088487E0,5.499678E-1,6.9745106E-1,4.9220562E-1,2.645278E-1,3.2920754E-1,4.0067875E-1,0E0,5.162251E-1,5.26523E-1,4.085188E-1,1.064673E0,0E0,0E0,0E0,0E0,0E0,0E0,0E0,0E0,0E0,0E0,0E0,0E0,0E0,0E0],"parents":[2147483647,0,0,1,1,2,2,3,3,4,4,5,5,6,6,7,7,8,8,9,9,11,11,12,12,13,13,14,14],"right_children":[2,4,6,8,10,12,14,16,18,20,-1,22,24,26,28,-1,-1,-1,-1,-1,-1,-1,-1,-1,-1,-1,-1,-1,-1],"split_conditions":[-1.5287325E-1,-2.7179208E-1,1.1231818E-1,1.5215367E0,8.646226E0,5.008569E-1,3.7119147E-1,-3.0946037E-1,-2.9458165E-1,-4.1376767E-1,2.0038439E-2,7.5276606E-2,1.0918201E0,-1.9481756E-1,1.3115768E0,-2.499437E-3,-6.3360133E-3,2.1609737E-2,2.5754233E-3,-4.5762674E-4,-2.218453E-3,2.5311762E-3,-3.7208297E-3,-1.7897197E-3,4.132064E-3,1.0133537E-2,4.8457E-3,1.1504205E-3,1.1183484E-2],"split_indices":[0,0,0,5,20,24,18,5,0,18,0,0,8,5,8,0,0,0,0,0,0,0,0,0,0,0,0,0,0],"split_type":[0,0,0,0,0,0,0,0,0,0,0,0,0,0,0,0,0,0,0,0,0,0,0,0,0,0,0,0,0],"sum_hessian":[3.028E3,1.665E3,1.363E3,3.62E2,1.303E3,9.27E2,4.36E2,3.53E2,9E0,1.301E3,2E0,6.57E2,2.7E2,2.24E2,2.12E2,5.5E1,2.98E2,3E0,6E0,5.99E2,7.02E2,6.23E2,3.4E1,2.26E2,4.4E1,4.7E1,1.77E2,1.82E2,3E1],"tree_param":{"num_deleted":"0","num_feature":"33","num_nodes":"29","size_leaf_vector":"1"}},{"base_weights":[-3.5178289E-3,1.6271733E-3,-3.0571874E-2,2.701364E-2,-8.877023E-3,-2.7504021E-2,-3.956729E-1,1.9125083E-2,1.14624426E-1,-5.44939E-3,-1.3010624E-1,-3.202668E-2,1.5380973E-1,-2.3134528E-2,-4.865496E-3,-5.2948305E-3,1.1887704E-3,3.7042245E-3,1.13273235E-2,-9.650319E-4,1.1049396E-3,2.7387313E-4,-8.894591E-3,-1.2431865E-3,-7.4978815E-3,-3.7529145E-3,1.6400475E-2],"categories":[],"categories_nodes":[],"categories_segments":[],"categories_sizes":[],"default_left":[0,0,0,0,0,0,0,0,0,0,0,0,0,0,0,0,0,0,0,0,0,0,0,0,0,0,0],"id":46,"left_children":[1,3,5,7,9,11,13,15,17,19,21,23,25,-1,-1,-1,-1,-1,-1,-1,-1,-1,-1,-1,-1,-1,-1],"loss_changes":[4.259807E-1,6.861007E-1,5.368345E-1,5.182232E-1,7.555543E-1,4.0345544E-1,3.4957945E-2,4.0484065E-1,2.6452976E-1,6.7619884E-1,3.249216E-1,3.9751962E-1,5.0304496E-1,0E0,0E0,0E0,0E0,0E0,0E0,0E0,0E0,0E0,0E0,0E0,0E0,0E0,0E0],"parents":[2147483647,0,0,1,1,2,2,3,3,4,4,5,5,6,6,7,7,8,8,9,9,10,10,11,11,12,12],"right_children":[2,4,6,8,10,12,14,16,18,20,22,24,26,-1,-1,-1,-1,-1,-1,-1,-1,-1,-1,-1,-1,-1,-1],"split_conditions":[8.873291E-1,-1.1062044E-1,4.528183E0,8.2378834E-1,2.5700488E0,4.7501383E0,1.6285216E0,-2.8867605E0,1.1084001E0,2.2507273E-1,-7.416519E-1,3.306522E-1,-1.3577791E0,-2.3134528E-2,-4.865496E-3,-5.2948305E-3,1.1887704E-3,3.7042245E-3,1.13273235E-2,-9.650319E-4,1.1049396E-3,2.7387313E-4,-8.894591E-3,-1.2431865E-3,-7.4978815E-3,-3.7529145E-3,1.6400475E-2],"split_indices":[4,5,12,13,12,4,4,5,17,5,19,17,17,0,0,0,0,0,0,0,0,0,0,0,0,0,0],"split_type":[0,0,0,0,0,0,0,0,0,0,0,0,0,0,0,0,0,0,0,0,0,0,0,0,0,0,0],"sum_hessian":[3.059E3,2.571E3,4.88E2,7.52E2,1.819E3,4.85E2,3E0,6.91E2,6.1E1,1.77E3,4.9E1,4.74E2,1.1E1,2E0,1E0,2.4E1,6.67E2,4.6E1,1.5E1,1.178E3,5.92E2,1.3E1,3.6E1,4.48E2,2.6E1,5E0,6E0],"tree_param":{"num_deleted":"0","num_feature":"33","num_nodes":"27","size_leaf_vector":"1"}},{"base_weights":[-1.1173874E-3,-4.3214552E-2,5.1722854E-2,-9.007045E-2,-2.3288127E-2,7.237748E-2,1.6937025E-2,-7.158682E-2,-1.20693326E-1,-4.3112095E-3,-6.260032E-2,5.8002453E-2,1.4786924E-1,4.0588244E-3,1.6654463E-1,-1.1264727E-3,-4.52772E-3,-6.4046322E-3,6.316731E-3,-2.8831535E-4,1.933035E-2,2.913992E-3,-3.8331032E-3,-1.5025954E-3,3.313704E-3,-1.1229581E-2,8.812803E-3,2.9676931E-3,-1.3656697E-3,1.6242921E-2,4.764628E-3],"categories":[],"categories_nodes":[],"categories_segments":[],"categories_sizes":[],"default_left":[0,0,0,0,0,0,0,0,0,0,0,0,0,0,0,0,0,0,0,0,0,0,0,0,0,0,0,0,0,0,0],"id":47,"left_children":[1,3,5,7,9,11,13,15,17,19,21,23,25,27,29,-1,-1,-1,-1,-1,-1,-1,-1,-1,-1,-1,-1,-1,-1,-1,-1],"loss_changes":[6.7822804E0,1.5823417E0,9.7017E-1,2.777667E-1,8.8899106E-1,9.1166973E-1,9.7229576E-1,2.9385865E-1,3.6164403E-1,4.6013275E-1,6.639848E-1,5.220351E-1,1.4669375E0,8.1000435E-1,4.20251E-1,0E0,0E0,0E0,0E0,0E0,0E0,0E0,0E0,0E0,0E0,0E0,0E0,0E0,0E0,0E0,0E0],"parents":[2147483647,0,0,1,1,2,2,3,3,4,4,5,5,6,6,7,7,8,8,9,9,10,10,11,11,12,12,13,13,14,14],"right_children":[2,4,6,8,10,12,14,16,18,20,22,24,26,28,30,-1,-1,-1,-1,-1,-1,-1,-1,-1,-1,-1,-1,-1,-1,-1,-1],"split_conditions":[-1.5287325E-1,-2.6347733E-1,5.02094E-3,