{"learner":{"attributes":{"best_iteration":"36","best_score":"0.17761762051299274","scikit_learn":"{\"_estimator_type\": \"regressor\"}"},"feature_names":[],"feature_types":[],"gradient_booster":{"model":{"cats":{"enc":[],"feature_segments":[],"sorted_idx":[]},"gbtree_model_param":{"num_parallel_tree":"1","num_trees":"67"},"iteration_indptr":[0,1,2,3,4,5,6,7,8,9,10,11,12,13,14,15,16,17,18,19,20,21,22,23,24,25,26,27,28,29,30,31,32,33,34,35,36,37,38,39,40,41,42,43,44,45,46,47,48,49,50,51,52,53,54,55,56,57,58,59,60,61,62,63,64,65,66,67],"tree_info":[0,0,0,0,0,0,0,0,0,0,0,0,0,0,0,0,0,0,0,0,0,0,0,0,0,0,0,0,0,0,0,0,0,0,0,0,0,0,0,0,0,0,0,0,0,0,0,0,0,0,0,0,0,0,0,0,0,0,0,0,0,0,0,0,0,0,0],"trees":[{"base_weights":[9.1925217E-4,2.2720618E-3,-2.2788994E-2,1.2410298E-2,-1.8392132E-3,-8.133532E-2,-9.373781E-3,1.8612733E-2,-3.5668E-2,7.684686E-3,-6.8956856E-3,-1.0841911E-1,1.4889087E-1,8.907114E-3,-3.0252112E-2,8.0215506E-4,5.46698E-3,-1.9332863E-2,-1.3390713E-3,3.378479E-4,5.506634E-3,-3.989179E-4,3.9492627E-3,-3.0554205E-3,-1.0421439E-2,-5.2982005E-3,1.1052732E-2,-5.6383E-3,8.5403275E-4,-3.2828886E-3,-3.0949875E-4],"categories":[],"categories_nodes":[],"categories_segments":[],"categories_sizes":[],"default_left":[0,0,0,0,0,0,0,0,0,0,0,0,0,0,0,0,0,0,0,0,0,0,0,0,0,0,0,0,0,0,0],"id":0,"left_children":[1,3,5,7,9,11,13,15,17,19,21,23,25,27,29,-1,-1,-1,-1,-1,-1,-1,-1,-1,-1,-1,-1,-1,-1,-1,-1],"loss_changes":[1.693317E-1,2.0817813E-1,2.2307983E-1,4.3037367E-1,1.7120416E-1,3.4661868E-1,8.919964E-2,2.9595885E-1,5.04295E-1,1.1644506E-1,2.1653196E-1,2.1437657E-1,1.3377155E-1,1.2623864E-1,9.245459E-2,0E0,0E0,0E0,0E0,0E0,0E0,0E0,0E0,0E0,0E0,0E0,0E0,0E0,0E0,0E0,0E0],"parents":[2147483647,0,0,1,1,2,2,3,3,4,4,5,5,6,6,7,7,8,8,9,9,10,10,11,11,12,12,13,13,14,14],"right_children":[2,4,6,8,10,12,14,16,18,20,22,24,26,28,30,-1,-1,-1,-1,-1,-1,-1,-1,-1,-1,-1,-1,-1,-1,-1,-1],"split_conditions":[1.4110466E0,-4.3547353E-1,-4.9174318E-1,1.1631341E0,-2.310393E-2,4.713199E0,-8.329869E-2,9.4103575E-1,-4.1604152E-1,1.8533345E0,2.9191575E0,1.122762E0,1.8533345E0,-6.2560385E-1,1.8395346E-1,8.0215506E-4,5.46698E-3,-1.9332863E-2,-1.3390713E-3,3.378479E-4,5.506634E-3,-3.989179E-4,3.9492627E-3,-3.0554205E-3,-1.0421439E-2,-5.2982005E-3,1.1052732E-2,-5.6383E-3,8.5403275E-4,-3.2828886E-3,-3.0949875E-4],"split_indices":[14,23,23,10,3,14,23,14,6,11,6,11,11,10,23,0,0,0,0,0,0,0,0,0,0,0,0,0,0,0,0],"split_type":[0,0,0,0,0,0,0,0,0,0,0,0,0,0,0,0,0,0,0,0,0,0,0,0,0,0,0,0,0,0,0],"sum_hessian":[5.277E3,4.993E3,2.84E2,1.44E3,3.553E3,5.2E1,2.32E2,1.276E3,1.64E2,1.232E3,2.321E3,4.7E1,5E0,1.24E2,1.08E2,1.242E3,3.4E1,3E0,1.61E2,1.222E3,1E1,2.293E3,2.8E1,3.3E1,1.4E1,1E0,4E0,7E0,1.17E2,4.3E1,6.5E1],"tree_param":{"num_deleted":"0","num_feature":"31","num_nodes":"31","size_leaf_vector":"1"}},{"base_weights":[-5.1247363E-4,-7.7947434E-3,1.7897446E-2,-8.030969E-3,2.2193354E-2,2.6342891E-2,-1.0884413E-2,-9.0535255E-3,5.9114337E-2,3.1225357E-2,-1.8729774E-2,-3.9988603E-3,-7.724806E-2,-4.380905E-4,-1.394803E-2,1.11343535E-2,1.1902568E-3,1.5088663E-3,9.131078E-3,-5.1023355E-3,1.7248718E-4,-1.1300774E-3,1.5502165E-3,-2.6844562E-5,-6.1623957E-3],"categories":[],"categories_nodes":[],"categories_segments":[],"categories_sizes":[],"default_left":[0,0,0,0,0,0,0,0,0,0,0,0,0,0,0,0,0,0,0,0,0,0,0,0,0],"id":1,"left_children":[1,3,5,7,-1,9,11,13,15,17,19,21,23,-1,-1,-1,-1,-1,-1,-1,-1,-1,-1,-1,-1],"loss_changes":[7.094827E-1,4.0814757E-1,3.649001E-1,2.6082492E-1,0E0,2.5586116E-1,1.5551114E-1,2.9163492E-1,3.239094E-1,1.6061401E-1,2.1101597E-1,2.025583E-1,1.12852335E-1,0E0,0E0,0E0,0E0,0E0,0E0,0E0,0E0,0E0,0E0,0E0,0E0],"parents":[2147483647,0,0,1,1,2,2,3,3,5,5,6,6,7,7,8,8,9,9,10,10,11,11,12,12],"right_children":[2,4,6,8,-1,10,12,14,16,18,20,22,24,-1,-1,-1,-1,-1,-1,-1,-1,-1,-1,-1,-1],"split_conditions":[5.6039876E-1,9.44133E0,1.0551246E0,2.7610953E0,2.2193354E-2,1.40905E0,1.0601008E0,2.725617E0,-6.137976E-1,1.3515747E0,1.5258828E-1,1.0660279E0,-1.3020156E-1,-4.380905E-4,-1.394803E-2,1.11343535E-2,1.1902568E-3,1.5088663E-3,9.131078E-3,-5.1023355E-3,1.7248718E-4,-1.1300774E-3,1.5502165E-3,-2.6844562E-5,-6.1623957E-3],"split_indices":[2,18,26,18,0,10,16,18,10,10,5,2,5,0,0,0,0,0,0,0,0,0,0,0,0],"split_type":[0,0,0,0,0,0,0,0,0,0,0,0,0,0,0,0,0,0,0,0,0,0,0,0,0],"sum_hessian":[5.29E3,3.791E3,1.499E3,3.79E3,1E0,1.159E3,3.4E2,3.734E3,5.6E1,1.046E3,1.13E2,3.09E2,3.1E1,3.731E3,3E0,9E0,4.7E1,1.04E3,6E0,2.3E1,9E1,2.02E2,1.07E2,1.2E1,1.9E1],"tree_param":{"num_deleted":"0","num_feature":"31","num_nodes":"25","size_leaf_vector":"1"}},{"base_weights":[1.9377811E-3,1.7744674E-3,2.163852E-2,4.1455925E-3,-2.4556134E-2,1.8406583E-2,-1.3515481E-3,-7.2248313E-3,-7.794029E-2,2.06078E-3,1.852697E-4,-1.5922124E-3,1.0664465E-5,-4.413868E-3,2.2693619E-4,-8.453658E-3,-2.548724E-3],"categories":[],"categories_nodes":[],"categories_segments":[],"categories_sizes":[],"default_left":[0,0,0,0,0,0,0,0,0,0,0,0,0,0,0,0,0],"id":2,"left_children":[1,3,-1,5,7,9,11,13,15,-1,-1,-1,-1,-1,-1,-1,-1],"loss_changes":[3.7137076E-1,3.3024827E-1,0E0,3.8039583E-1,4.0375674E-1,4.5252886E-1,1.6715634E-1,3.1599784E-1,2.543311E-1,0E0,0E0,0E0,0E0,0E0,0E0,0E0,0E0],"parents":[2147483647,0,0,1,1,3,3,4,4,5,5,6,6,7,7,8,8],"right_children":[2,4,-1,6,8,10,12,14,16,-1,-1,-1,-1,-1,-1,-1,-1],"split_conditions":[9.44133E0,1.5111405E0,2.163852E-2,-4.297894E-1,3.9217862E-1,-4.181131E-1,-4.091256E-1,-8.1954205E-1,-5.373234E-1,2.06078E-3,1.852697E-4,-1.5922124E-3,1.0664465E-5,-4.413868E-3,2.2693619E-4,-8.453658E-3,-2.548724E-3],"split_indices":[18,30,0,23,7,7,23,7,23,0,0,0,0,0,0,0,0],"split_type":[0,0,0,0,0,0,0,0,0,0,0,0,0,0,0,0,0],"sum_hessian":[5.288E3,5.287E3,1E0,4.851E3,4.36E2,1.349E3,3.502E3,3.3E2,1.06E2,5.28E2,8.21E2,1.7E2,3.332E3,4.1E1,2.89E2,2.3E1,8.3E1],"tree_param":{"num_deleted":"0","num_feature":"31","num_nodes":"17","size_leaf_vector":"1"}},{"base_weights":[-7.101219E-5,-1.59273E-2,3.30091E-3,7.334103E-3,-4.3046594E-2,-3.196718E-3,8.787196E-3,7.600707E-2,-2.1599813E-3,-8.7444894E-2,-2.8614484E-2,-2.7343743E-3,-1.5677854E-1,3.7481774E-2,5.9269546E-3,5.146425E-3,-1.6667774E-2,-1.6963416E-3,1.0962923E-3,-3.4534913E-3,-1.0608541E-2,-2.2465477E-3,1.2366343E-3,-1.6426739E-4,5.9759123E-3,-8.8101765E-3,-1.4913408E-3,2.07944E-3,-3.0572207E-3,4.821498E-3,2.7305796E-4],"categories":[],"categories_nodes":[],"categories_segments":[],"categories_sizes":[],"default_left":[0,0,0,0,0,0,0,0,0,0,0,0,0,0,0,0,0,0,0,0,0,0,0,0,0,0,0,0,0,0,0],"id":3,"left_children":[1,3,5,7,9,11,13,15,17,19,21,23,25,27,29,-1,-1,-1,-1,-1,-1,-1,-1,-1,-1,-1,-1,-1,-1,-1,-1],"loss_changes":[2.8385097E-1,5.876211E-1,1.5609436E-1,3.2746163E-1,2.730251E-1,1.4194156E-1,1.9462018E-1,7.065699E-1,3.3893168E-1,2.2598946E-1,2.8487396E-1,1.3510858E-1,9.5406175E-3,8.963081E-2,9.053007E-2,0E0,0E0,0E0,0E0,0E0,0E0,0E0,0E0,0E0,0E0,0E0,0E0,0E0,0E0,0E0,0E0],"parents":[2147483647,0,0,1,1,2,2,3,3,4,4,5,5,6,6,7,7,8,8,9,9,10,10,11,11,12,12,13,13,14,14],"right_children":[2,4,6,8,10,12,14,16,18,20,22,24,26,28,30,-1,-1,-1,-1,-1,-1,-1,-1,-1,-1,-1,-1,-1,-1,-1,-1],"split_conditions":[-2.7552152E-1,-3.7869105E-1,-2.89215E-1,-3.1299067E-1,-1.1203231E-1,1.1945773E0,-2.1344006E-1,-4.8983207E-1,-2.9723918E-1,1.9408934E0,8.5067964E-1,4.9375076E0,5.8912504E-1,8.400515E-1,-5.1481545E-1,5.146425E-3,-1.6667774E-2,-1.6963416E-3,1.0962923E-3,-3.4534913E-3,-1.0608541E-2,-2.2465477E-3,1.2366343E-3,-1.6426739E-4,5.9759123E-3,-8.8101765E-3,-1.4913408E-3,2.07944E-3,-3.0572207E-3,4.821498E-3,2.7305796E-4],"split_indices":[0,10,28,0,10,4,28,10,0,30,30,0,0,0,13,0,0,0,0,0,0,0,0,0,0,0,0,0,0,0,0],"split_type":[0,0,0,0,0,0,0,0,0,0,0,0,0,0,0,0,0,0,0,0,0,0,0,0,0,0,0,0,0,0,0],"sum_hessian":[5.307E3,9.3E2,4.377E3,5.01E2,4.29E2,2.004E3,2.373E3,6E1,4.41E2,1.04E2,3.25E2,1.999E3,5E0,2.14E2,2.159E3,5.7E1,3E0,1.9E2,2.51E2,9.2E1,1.2E1,2.49E2,7.6E1,1.991E3,8E0,4E0,1E0,2.06E2,8E0,1E1,2.149E3],"tree_param":{"num_deleted":"0","num_feature":"31","num_nodes":"31","size_leaf_vector":"1"}},{"base_weights":[-1.3150748E-4,-2.9100856E-4,2.109073E-2,1.1415451E-3,-2.4122955E-2,7.617213E-4,1.2709098E-1,-3.14287E-2,9.934489E-2,8.281015E-5,-2.600016E-3,1.2640792E-2,7.591876E-4,1.2702635E-3,-1.9501055E-3,6.4795287E-3,-1.5675602E-3],"categories":[],"categories_nodes":[],"categories_segments":[],"categories_sizes":[],"default_left":[0,0,0,0,0,0,0,0,0,0,0,0,0,0,0,0,0],"id":4,"left_children":[1,3,-1,5,7,9,11,13,15,-1,-1,-1,-1,-1,-1,-1,-1],"loss_changes":[3.562116E-1,1.8063101E-1,0E0,2.3866561E-1,2.737295E-1,2.3497406E-1,2.0720415E-1,1.232321E-1,7.1263686E-2,0E0,0E0,0E0,0E0,0E0,0E0,0E0,0E0],"parents":[2147483647,0,0,1,1,3,3,4,4,5,5,6,6,7,7,8,8],"right_children":[2,4,-1,6,8,10,12,14,16,-1,-1,-1,-1,-1,-1,-1,-1],"split_conditions":[8.814015E0,1.2618908E0,2.109073E-2,1.2156289E0,6.4911547E0,2.7348044E0,-7.306565E-2,-5.823364E-1,2.3059551E-1,8.281015E-5,-2.600016E-3,1.2640792E-2,7.591876E-4,1.2702635E-3,-1.9501055E-3,6.4795287E-3,-1.5675602E-3],"split_indices":[18,12,0,12,12,22,4,5,8,0,0,0,0,0,0,0,0],"split_type":[0,0,0,0,0,0,0,0,0,0,0,0,0,0,0,0,0],"sum_hessian":[5.29E3,5.289E3,1E0,4.99E3,2.99E2,4.976E3,1.4E1,2.83E2,1.6E1,4.894E3,8.2E1,6E0,8E0,3.3E1,2.5E2,1.3E1,3E0],"tree_param":{"num_deleted":"0","num_feature":"31","num_nodes":"17","size_leaf_vector":"1"}},{"base_weights":[-2.490174E-3,-2.238496E-4,-2.7599918E-2,3.9027844E-2,-1.0642041E-3,3.1451948E-3,-4.6488076E-2,-1.505997E-1,5.0355036E-2,5.6006163E-3,-4.838833E-3,-9.850995E-3,9.458762E-2,-4.960672E-2,1.24843065E-2,-1.002504E-2,2.472645E-3,3.9673545E-3,-8.5193943E-4,1.5911499E-4,2.8627368E-3,-7.0893315E-5,-1.2321839E-3,-1.6773566E-4,-5.490485E-3,1.2306494E-2,2.7828345E-3,-2.1481193E-3,-6.5256427E-3],"categories":[],"categories_nodes":[],"categories_segments":[],"categories_sizes":[],"default_left":[0,0,0,0,0,0,0,0,0,0,0,0,0,0,0,0,0,0,0,0,0,0,0,0,0,0,0,0,0],"id":5,"left_children":[1,3,5,7,9,11,13,15,17,19,21,23,25,27,-1,-1,-1,-1,-1,-1,-1,-1,-1,-1,-1,-1,-1,-1,-1],"loss_changes":[3.017707E-1,1.605152E-1,2.5508168E-1,2.2667408E-1,1.19876124E-1,2.0058349E-1,2.6362234E-1,6.981242E-2,1.9087887E-1,2.150481E-1,2.0606577E-1,9.573687E-2,1.1019452E-1,1.3953614E-1,0E0,0E0,0E0,0E0,0E0,0E0,0E0,0E0,0E0,0E0,0E0,0E0,0E0,0E0,0E0],"parents":[2147483647,0,0,1,1,2,2,3,3,4,4,5,5,6,6,7,7,8,8,9,9,10,10,11,11,12,12,13,13],"right_children":[2,4,6,8,10,12,14,16,18,20,22,24,26,28,-1,-1,-1,-1,-1,-1,-1,-1,-1,-1,-1,-1,-1,-1,-1],"split_conditions":[1.5111405E0,-1.0207703E0,-2.5679934E-1,-1.2640973E0,-2.310393E-2,-3.1927615E-1,3.964314E0,-6.656534E-1,4.1840635E-2,2.574197E0,8.5995394E-1,7.849019E-1,-3.094114E-1,1.4513125E-1,1.24843065E-2,-1.002504E-2,2.472645E-3,3.9673545E-3,-8.5193943E-4,1.5911499E-4,2.8627368E-3,-7.0893315E-5,-1.2321839E-3,-1.6773566E-4,-5.490485E-3,1.2306494E-2,2.7828345E-3,-2.1481193E-3,-6.5256427E-3],"split_indices":[30,5,5,30,3,5,11,6,3,20,9,11,5,3,0,0,0,0,0,0,0,0,0,0,0,0,0,0,0],"split_type":[0,0,0,0,0,0,0,0,0,0,0,0,0,0,0,0,0,0,0,0,0,0,0,0,0,0,0,0,0],"sum_hessian":[5.302E3,4.864E3,4.38E2,1.01E2,4.763E3,1.67E2,2.71E2,5E0,9.6E1,1.722E3,3.041E3,1.47E2,2E1,2.69E2,2E0,4E0,1E0,6.7E1,2.9E1,1.646E3,7.6E1,2.594E3,4.47E2,1.39E2,8E0,3E0,1.7E1,2.5E2,1.9E1],"tree_param":{"num_deleted":"0","num_feature":"31","num_nodes":"29","size_leaf_vector":"1"}},{"base_weights":[-4.697176E-4,-6.25722E-4,2.0565234E-2,-9.6617447E-4,9.8877914E-2,-1.351497E-2,1.9834172E-3,-7.9662845E-2,1.5557976E-1,-4.60479E-3,-4.988721E-4,3.898497E-3,5.6762245E-5,-5.9767845E-3,1.995713E-3,-2.4597207E-3,8.755791E-3],"categories":[],"categories_nodes":[],"categories_segments":[],"categories_sizes":[],"default_left":[0,0,0,0,0,0,0,0,0,0,0,0,0,0,0,0,0],"id":6,"left_children":[1,3,-1,5,7,9,11,13,15,-1,-1,-1,-1,-1,-1,-1,-1],"loss_changes":[3.3924448E-1,1.7882669E-1,0E0,1.946825E-1,1.9461854E-1,2.7734107E-1,2.7440262E-1,2.8610572E-2,6.462142E-2,0E0,0E0,0E0,0E0,0E0,0E0,0E0,0E0],"parents":[2147483647,0,0,1,1,3,3,4,4,5,5,6,6,7,7,8,8],"right_children":[2,4,-1,6,8,10,12,14,16,-1,-1,-1,-1,-1,-1,-1,-1],"split_conditions":[9.44133E0,5.3887787E0,2.0565234E-2,-9.280235E-1,-3.0041233E-1,-3.267747E-1,-3.334163E-1,-4.174495E-1,-1.0819374E0,-4.60479E-3,-4.988721E-4,3.898497E-3,5.6762245E-5,-5.9767845E-3,1.995713E-3,-2.4597207E-3,8.755791E-3],"split_indices":[18,9,0,15,1,1,1,28,28,0,0,0,0,0,0,0,0],"split_type":[0,0,0,0,0,0,0,0,0,0,0,0,0,0,0,0,0],"sum_hessian":[5.276E3,5.275E3,1E0,5.258E3,1.7E1,1E3,4.258E3,4E0,1.3E1,4.2E1,9.58E2,4.6E1,4.212E3,3E0,1E0,1E0,1.2E1],"tree_param":{"num_deleted":"0","num_feature":"31","num_nodes":"17","size_leaf_vector":"1"}},{"base_weights":[6.958187E-4,4.28232E-2,-4.2997944E-4,7.1500495E-2,-1.4205973E-1,-7.107686E-2,7.013376E-4,8.29317E-2,-1.6141959E-1,1.6657455E-2,-2.5900474E-1,-1.7158349E-1,1.13105755E-2,6.307106E-2,-5.027548E-4,5.554271E-3,-7.392262E-5,2.3805553E-3,-1.0637397E-2,-1.2574191E-2,4.08053E-3,-6.643358E-3,-2.2326434E-2,1.114435E-3,-1.0878164E-2,1.7983237E-3,-9.903055E-3,4.7029736E-3,-1.7552248E-3,-1.168181E-3,1.10181376E-4],"categories":[],"categories_nodes":[],"categories_segments":[],"categories_sizes":[],"default_left":[0,0,0,0,0,0,0,0,0,0,0,0,0,0,0,0,0,0,0,0,0,0,0,0,0,0,0,0,0,0,0],"id":7,"left_children":[1,3,5,7,9,11,13,15,17,19,21,23,25,27,29,-1,-1,-1,-1,-1,-1,-1,-1,-1,-1,-1,-1,-1,-1,-1,-1],"loss_changes":[2.532782E-1,7.471273E-1,4.158146E-1,3.355562E-1,3.5697684E-1,6.8094045E-1,3.846132E-1,2.758335E-1,7.450436E-2,1.772733E-1,2.0086294E-1,3.3467472E-1,2.4458691E-1,2.984054E-1,3.1094941E-1,0E0,0E0,0E0,0E0,0E0,0E0,0E0,0E0,0E0,0E0,0E0,0E0,0E0,0E0,0E0,0E0],"parents":[2147483647,0,0,1,1,2,2,3,3,4,4,5,5,6,6,7,7,8,8,9,9,10,10,11,11,12,12,13,13,14,14],"right_children":[2,4,6,8,10,12,14,16,18,20,22,24,26,28,30,-1,-1,-1,-1,-1,-1,-1,-1,-1,-1,-1,-1,-1,-1,-1,-1],"split_conditions":[-3.120744E-1,7.396817E-2,-3.0800712E-1,1.3800013E0,-2.1268606E-1,-3.2772258E-1,-3.2433113E-1,8.393355E-2,-3.356597E-1,-4.708567E-1,1.3478239E-1,-3.3211118E-1,1.564534E0,1.2217511E-2,-2.8059778E-1,5.554271E-3,-7.392262E-5,2.3805553E-3,-1.0637397E-2,-1.2574191E-2,4.08053E-3,-6.643358E-3,-2.2326434E-2,1.114435E-3,-1.0878164E-2,1.7983237E-3,-9.903055E-3,4.7029736E-3,-1.7552248E-3,-1.168181E-3,1.10181376E-4],"split_indices":[0,4,0,12,11,1,1,3,1,12,3,1,16,11,0,0,0,0,0,0,0,0,0,0,0,0,0,0,0,0,0],"split_type":[0,0,0,0,0,0,0,0,0,0,0,0,0,0,0,0,0,0,0,0,0,0,0,0,0,0,0,0,0,0,0],"sum_hessian":[5.339E3,1.38E2,5.201E3,1.2E2,1.8E1,8.1E1,5.12E3,1.15E2,5E0,8E0,1E1,3.6E1,4.5E1,9.6E1,5.024E3,8.6E1,2.9E1,1E0,4E0,1E0,7E0,7E0,3E0,7E0,2.9E1,4.1E1,4E0,7.3E1,2.3E1,5.31E2,4.493E3],"tree_param":{"num_deleted":"0","num_feature":"31","num_nodes":"31","size_leaf_vector":"1"}},{"base_weights":[3.978103E-4,2.9121691E-2,-1.0731037E-3,2.022282E-1,2.1357462E-2,-5.6054197E-2,-6.578635E-5,3.1257373E-1,5.8177985E-2,-2.3214145E-2,5.1427092E-2,-1.3405984E-2,-2.4091077E-1,-1.7886211E-3,2.7035728E-2,1.8295089E-3,1.802262E-2,-9.225976E-4,3.859718E-3,-6.2769093E-3,-5.2951026E-4,-9.300314E-3,2.7961412E-3,1.2098544E-3,-7.6789814E-3,-1.53247835E-2,2.4432035E-3,-5.028025E-4,1.6818542E-4,4.048144E-3,4.7096025E-4],"categories":[],"categories_nodes":[],"categories_segments":[],"categories_sizes":[],"default_left":[0,0,0,0,0,0,0,0,0,0,0,0,0,0,0,0,0,0,0,0,0,0,0,0,0,0,0,0,0,0,0],"id":8,"left_children":[1,3,5,7,9,11,13,15,17,19,21,23,25,27,29,-1,-1,-1,-1,-1,-1,-1,-1,-1,-1,-1,-1,-1,-1,-1,-1],"loss_changes":[2.2463417E-1,3.4378693E-1,2.801256E-1,1.5666339E-1,3.349165E-1,7.1419644E-1,2.3201138E-1,6.6093326E-2,1.0167733E-2,1.2913552E-1,1.6945022E-1,3.9903817E-1,3.3805913E-1,1.9904475E-1,2.8139004E-1,0E0,0E0,0E0,0E0,0E0,0E0,0E0,0E0,0E0,0E0,0E0,0E0,0E0,0E0,0E0,0E0],"parents":[2147483647,0,0,1,1,2,2,3,3,4,4,5,5,6,6,7,7,8,8,9,9,10,10,11,11,12,12,13,13,14,14],"right_children":[2,4,6,8,10,12,14,16,18,20,22,24,26,28,30,-1,-1,-1,-1,-1,-1,-1,-1,-1,-1,-1,-1,-1,-1,-1,-1],"split_conditions":[-9.770183E-1,-3.3109173E-1,-3.3109173E-1,-1.0527933E0,-1.064451E0,1.1266965E0,2.574197E0,-1.134397E0,-5.6176025E-1,-3.1989545E-1,-3.267747E-1,-9.068491E-3,1.6889592E0,-3.708188E-1,-4.2536816E-1,1.8295089E-3,1.802262E-2,-9.225976E-4,3.859718E-3,-6.2769093E-3,-5.2951026E-4,-9.300314E-3,2.7961412E-3,1.2098544E-3,-7.6789814E-3,-1.53247835E-2,2.4432035E-3,-5.028025E-4,1.6818542E-4,4.048144E-3,4.7096025E-4],"split_indices":[28,1,1,28,28,10,20,28,23,1,1,4,9,28,23,0,0,0,0,0,0,0,0,0,0,0,0,0,0,0,0],"split_type":[0,0,0,0,0,0,0,0,0,0,0,0,0,0,0,0,0,0,0,0,0,0,0,0,0,0,0,0,0,0,0],"sum_hessian":[5.315E3,2.58E2,5.057E3,1E1,2.48E2,9E1,4.967E3,5E0,5E0,1E2,1.48E2,7.4E1,1.6E1,4.671E3,2.96E2,1E0,4E0,1E0,4E0,1E1,9E1,2E0,1.46E2,5.9E1,1.5E1,1.3E1,3E0,1.793E3,2.878E3,7.2E1,2.24E2],"tree_param":{"num_deleted":"0","num_feature":"31","num_nodes":"31","size_leaf_vector":"1"}},{"base_weights":[-3.5577154E-4,-4.475564E-3,2.6296439E-2,-9.3982334E-4,-1.7586762E-2,4.700333E-2,9.643827E-3,-5.531376E-3,1.0371757E-2,-1.8900592E-2,1.2640682E-1,4.2065363E-2,2.6038063E-1,-2.4663325E-1,1.2221148E-2,-2.2024084E-4,-3.860563E-3,8.516476E-4,-5.031689E-4,5.347783E-3,-1.0159288E-3,2.303882E-3,1.3585296E-2,1.3108393E-3,5.2774036E-3,2.2157133E-2,6.2617305E-4,-4.756681E-3,-1.7528303E-2,-9.64269E-3,7.143923E-4],"categories":[],"categories_nodes":[],"categories_segments":[],"categories_sizes":[],"default_left":[0,0,0,0,0,0,0,0,0,0,0,0,0,0,0,0,0,0,0,0,0,0,0,0,0,0,0,0,0,0,0],"id":9,"left_children":[1,3,5,7,9,11,13,15,17,19,21,23,25,27,29,-1,-1,-1,-1,-1,-1,-1,-1,-1,-1,-1,-1,-1,-1,-1,-1],"loss_changes":[5.855797E-1,2.1411017E-1,2.4575093E-1,1.8905872E-1,1.8797758E-1,3.2410753E-1,2.652359E-1,2.0872591E-1,1.4323607E-1,1.758168E-1,9.252627E-2,3.1113935E-1,3.1154245E-1,2.9632509E-2,1.6974364E-1,0E0,0E0,0E0,0E0,0E0,0E0,0E0,0E0,0E0,0E0,0E0,0E0,0E0,0E0,0E0,0E0],"parents":[2147483647,0,0,1,1,2,2,3,3,4,4,5,5,6,6,7,7,8,8,9,9,10,10,11,11,12,12,13,13,14,14],"right_children":[2,4,6,8,10,12,14,16,18,20,22,24,26,28,30,-1,-1,-1,-1,-1,-1,-1,-1,-1,-1,-1,-1,-1,-1,-1,-1],"split_conditions":[9.2269117E-1,4.3678185E-1,-3.9144206E-1,3.6240116E-1,2.8230455E0,-3.9736286E-1,-1.3661451E0,6.696202E-1,2.7507475E-1,-4.8979883E0,1.451505E0,2.9514024E-1,-3.3271593E-1,-1.14293724E-1,-3.8925555E-1,-2.2024084E-4,-3.860563E-3,8.516476E-4,-5.031689E-4,5.347783E-3,-1.0159288E-3,2.303882E-3,1.3585296E-2,1.3108393E-3,5.2774036E-3,2.2157133E-2,6.2617305E-4,-4.756681E-3,-1.7528303E-2,-9.64269E-3,7.143923E-4],"split_indices":[2,7,14,2,21,14,27,3,19,2,7,27,29,3,14,0,0,0,0,0,0,0,0,0,0,0,0,0,0,0,0],"split_type":[0,0,0,0,0,0,0,0,0,0,0,0,0,0,0,0,0,0,0,0,0,0,0,0,0,0,0,0,0,0,0],"sum_hessian":[5.331E3,4.618E3,7.13E2,3.638E3,9.8E2,3.17E2,3.96E2,2.588E3,1.05E3,9.72E2,8E0,3.11E2,6E0,3E0,3.93E2,2.549E3,3.9E1,7.92E2,2.58E2,1E1,9.62E2,6E0,2E0,2.5E2,6.1E1,3E0,3E0,2E0,1E0,3E0,3.9E2],"tree_param":{"num_deleted":"0","num_feature":"31","num_nodes":"31","size_leaf_vector":"1"}},{"base_weights":[1.3458556E-4,5.362395E-4,-9.515479E-2,2.6162555E-2,-7.420917E-4,-1.8570931E-1,-4.216906E-3,4.169592E-2,-7.9990655E-2,-1.1746915E-3,1.0130438E-1,3.8006902E-4,-2.2710474E-1,-3.9094467E-2,2.628056E-2,1.1489723E-4,4.263957E-3,-1.0508315E-2,6.3216346E-3,2.322175E-5,-7.469318E-4,6.056349E-3,-2.9003387E-3,6.299596E-4,-6.0145446E-4,-1.3001695E-2,-3.728423E-3,-4.9291435E-3,2.6627446E-3,3.0020485E-3,-7.024995E-4],"categories":[],"categories_nodes":[],"categories_segments":[],"categories_sizes":[],"default_left":[0,0,0,0,0,0,0,0,0,0,0,0,0,0,0,0,0,0,0,0,0,0,0,0,0,0,0,0,0,0,0],"id":10,"left_children":[1,3,5,7,9,11,13,15,17,19,21,23,25,27,29,-1,-1,-1,-1,-1,-1,-1,-1,-1,-1,-1,-1,-1,-1,-1,-1],"loss_changes":[2.0060337E-1,1.7098819E-1,1.8038328E-1,4.122666E-1,2.1960932E-1,8.482212E-2,1.3791551E-2,3.7241265E-1,8.864532E-1,1.1172824E-1,7.334332E-2,6.064439E-4,2.5815666E-2,3.821231E-2,1.0374606E-2,0E0,0E0,0E0,0E0,0E0,0E0,0E0,0E0,0E0,0E0,0E0,0E0,0E0,0E0,0E0,0E0],"parents":[2147483647,0,0,1,1,2,2,3,3,4,4,5,5,6,6,7,7,8,8,9,9,10,10,11,11,12,12,13,13,14,14],"right_children":[2,4,6,8,10,12,14,16,18,20,22,24,26,28,30,-1,-1,-1,-1,-1,-1,-1,-1,-1,-1,-1,-1,-1,-1,-1,-1],"split_conditions":[4.123313E0,-5.541013E-1,-4.9744722E-1,1.3101165E0,3.4246397E0,-5.6176025E-1,-3.5916778E-1,-3.655171E-1,6.7256235E-2,1.1672796E0,-4.807178E-3,-1.6606063E-1,5.8061796E-1,-4.6604E-1,-5.99364E-1,1.1489723E-4,4.263957E-3,-1.0508315E-2,6.3216346E-3,2.322175E-5,-7.469318E-4,6.056349E-3,-2.9003387E-3,6.299596E-4,-6.0145446E-4,-1.3001695E-2,-3.728423E-3,-4.9291435E-3,2.6627446E-3,3.0020485E-3,-7.024995E-4],"split_indices":[30,23,23,10,30,23,23,8,29,30,4,4,14,29,29,0,0,0,0,0,0,0,0,0,0,0,0,0,0,0,0],"split_type":[0,0,0,0,0,0,0,0,0,0,0,0,0,0,0,0,0,0,0,0,0,0,0,0,0,0,0,0,0,0,0],"sum_hessian":[5.239E3,5.218E3,2.1E1,2.47E2,4.971E3,1E1,1.1E1,2.16E2,3.1E1,4.951E3,2E1,2E0,8E0,5E0,6E0,1.14E2,1.02E2,1.9E1,1.2E1,4.425E3,5.26E2,1.8E1,2E0,1E0,1E0,6E0,2E0,3E0,2E0,3E0,3E0],"tree_param":{"num_deleted":"0","num_feature":"31","num_nodes":"31","size_leaf_vector":"1"}},{"base_weights":[2.9364217E-4,-7.5523923E-3,1.3176636E-2,-6.676363E-2,-6.346173E-3,7.1901806E-2,1.0738237E-2,-1.1278003E-1,-5.750859E-3,1.1289917E-1,-6.8685E-3,1.7901458E-1,1.5978277E-2,-6.2346105E-2,1.2941143E-2,-2.2127123E-3,-7.4027115E-3,-9.918312E-4,9.716264E-3,1.0839455E-2,3.9415443E-4,-9.2436856E-4,-4.478267E-5,1.9234506E-2,5.7392116E-3,-1.4815589E-3,2.73729E-3,1.063567E-3,-7.6472634E-3,3.915621E-3,5.3737994E-4],"categories":[],"categories_nodes":[],"categories_segments":[],"categories_sizes":[],"default_left":[0,0,0,0,0,0,0,0,0,0,0,0,0,0,0,0,0,0,0,0,0,0,0,0,0,0,0,0,0,0,0],"id":11,"left_children":[1,3,5,7,9,11,13,15,17,19,21,23,25,27,29,-1,-1,-1,-1,-1,-1,-1,-1,-1,-1,-1,-1,-1,-1,-1,-1],"loss_changes":[5.303673E-1,2.3248255E-1,2.836139E-1,1.8184465E-1,1.9990075E-1,4.7035953E-1,3.0799088E-1,8.288407E-2,8.5583284E-2,1.5103261E-1,2.2094586E-1,3.1253028E-1,9.533495E-2,4.2749086E-1,2.6486883E-1,0E0,0E0,0E0,0E0,0E0,0E0,0E0,0E0,0E0,0E0,0E0,0E0,0E0,0E0,0E0,0E0],"parents":[2147483647,0,0,1,1,2,2,3,3,4,4,5,5,6,6,7,7,8,8,9,9,10,10,11,11,12,12,13,13,14,14],"right_children":[2,4,6,8,10,12,14,16,18,20,22,24,26,28,30,-1,-1,-1,-1,-1,-1,-1,-1,-1,-1,-1,-1,-1,-1,-1,-1],"split_conditions":[3.6240116E-1,-1.064451E0,-1.0061625E0,-1.9062325E-1,-1.0527933E0,9.062831E-3,-3.3109173E-1,-2.7217233E-1,9.435656E-1,-2.711664E-1,-2.6772442E-1,-3.233405E-1,-1.064451E0,-1.16624184E-1,-3.2433113E-1,-2.2127123E-3,-7.4027115E-3,-9.918312E-4,9.716264E-3,1.0839455E-2,3.9415443E-4,-9.2436856E-4,-4.478267E-5,1.9234506E-2,5.7392116E-3,-1.4815589E-3,2.73729E-3,1.063567E-3,-7.6472634E-3,3.915621E-3,5.3737994E-4],"split_indices":[2,28,28,1,28,3,1,11,11,1,11,1,28,4,1,0,0,0,0,0,0,0,0,0,0,0,0,0,0,0,0],"split_type":[0,0,0,0,0,0,0,0,0,0,0,0,0,0,0,0,0,0,0,0,0,0,0,0,0,0,0,0,0,0,0],"sum_hessian":[5.245E3,3.26E3,1.985E3,6.4E1,3.196E3,7.8E1,1.907E3,3.6E1,2.8E1,1.3E1,3.183E3,2.6E1,5.2E1,5.5E1,1.852E3,1.3E1,2.3E1,2.7E1,1E0,6E0,7E0,1.08E3,2.103E3,5E0,2.1E1,2.4E1,2.8E1,2.9E1,2.6E1,5.9E1,1.793E3],"tree_param":{"num_deleted":"0","num_feature":"31","num_nodes":"31","size_leaf_vector":"1"}},{"base_weights":[-2.1361641E-4,-1.6359506E-3,2.5766743E-2,-1.2503646E-3,-1.2222217E-1,2.0206352E-1,1.6247958E-2,1.0998036E-4,-2.3963226E-2,-2.2392182E-2,-1.2629239E-2,2.5275865E-1,-1.142433E-2,4.83804E-2,1.0782757E-3,-1.6227119E-3,3.7816146E-5,-1.4683575E-3,3.727236E-3,-1.7767114E-3,6.555767E-3,1.5503392E-2,-2.0813968E-3,7.762423E-4,6.4936215E-3,-4.3453677E-3,4.827832E-4],"categories":[],"categories_nodes":[],"categories_segments":[],"categories_sizes":[],"default_left":[0,0,0,0,0,0,0,0,0,0,0,0,0,0,0,0,0,0,0,0,0,0,0,0,0,0,0],"id":12,"left_children":[1,3,5,7,9,11,13,15,17,-1,19,21,-1,23,25,-1,-1,-1,-1,-1,-1,-1,-1,-1,-1,-1,-1],"loss_changes":[1.9578089E-1,2.3339845E-1,4.5820287E-1,1.5473644E-1,5.6531703E-1,3.633271E-1,1.2765683E-1,9.9495694E-2,1.5283844E-1,0E0,4.746117E-2,2.322312E-1,0E0,2.2289088E-1,1.359281E-1,0E0,0E0,0E0,0E0,0E0,0E0,0E0,0E0,0E0,0E0,0E0,0E0],"parents":[2147483647,0,0,1,1,2,2,3,3,4,4,5,5,6,6,7,7,8,8,10,10,11,11,13,13,14,14],"right_children":[2,4,6,8,10,12,14,16,18,-1,20,22,-1,24,26,-1,-1,-1,-1,-1,-1,-1,-1,-1,-1,-1,-1],"split_conditions":[1.7614578E0,1.6880201E0,-5.559656E-1,1.2618908E0,-4.9174318E-1,3.7665573E-1,-3.2471374E-1,-5.597929E-1,6.4911547E0,-2.2392182E-2,2.9044628E0,1.9047731E0,-1.142433E-2,-6.846351E-1,-5.235593E-1,-1.6227119E-3,3.7816146E-5,-1.4683575E-3,3.727236E-3,-1.7767114E-3,6.555767E-3,1.5503392E-2,-2.0813968E-3,7.762423E-4,6.4936215E-3,-4.3453677E-3,4.827832E-4],"split_indices":[5,5,23,12,23,22,13,23,12,0,10,10,0,10,23,0,0,0,0,0,0,0,0,0,0,0,0],"split_type":[0,0,0,0,0,0,0,0,0,0,0,0,0,0,0,0,0,0,0,0,0,0,0,0,0,0,0],"sum_hessian":[5.296E3,5.022E3,2.74E2,5.007E3,1.5E1,1.3E1,2.61E2,4.725E3,2.82E2,3E0,1.2E1,1.2E1,1E0,8.3E1,1.78E2,9.1E1,4.634E3,2.68E2,1.4E1,1.1E1,1E0,1E1,2E0,6E1,2.3E1,1.5E1,1.63E2],"tree_param":{"num_deleted":"0","num_feature":"31","num_nodes":"27","size_leaf_vector":"1"}},{"base_weights":[-3.7873627E-4,1.7544278E-3,-2.3871642E-2,4.1627142E-4,3.5249047E-2,-1.57924E-2,-8.985974E-2,1.5443285E-3,-3.0091047E-2,4.681497E-2,-1.1333523E-2,-2.063683E-2,1.9427279E-1,-1.532512E-1,-1.0587553E-3,4.2946016E-5,2.1059092E-3,-8.746675E-3,-4.5972827E-4,4.446515E-3,1.2434004E-3,1.9594498E-3,-2.4929247E-3,-1.174865E-3,1.0130124E-2,1.639551E-2,3.6401197E-3,1.7557268E-3,-8.862983E-3,-8.164564E-3,1.2306315E-3],"categories":[],"categories_nodes":[],"categories_segments":[],"categories_sizes":[],"default_left":[0,0,0,0,0,0,0,0,0,0,0,0,0,0,0,0,0,0,0,0,0,0,0,0,0,0,0,0,0,0,0],"id":13,"left_children":[1,3,5,7,9,11,13,15,17,19,21,23,25,27,29,-1,-1,-1,-1,-1,-1,-1,-1,-1,-1,-1,-1,-1,-1,-1,-1],"loss_changes":[2.6609826E-1,2.1817416E-1,2.3422602E-1,1.611728E-1,1.01280645E-1,4.059794E-1,2.700405E-1,1.2555222E-1,5.038501E-1,1.3643405E-1,7.591628E-2,2.518869E-1,1.2222427E-1,1.3285077E-1,9.147843E-2,0E0,0E0,0E0,0E0,0E0,0E0,0E0,0E0,0E0,0E0,0E0,0E0,0E0,0E0,0E0,0E0],"parents":[2147483647,0,0,1,1,2,2,3,3,4,4,5,5,6,6,7,7,8,8,9,9,10,10,11,11,12,12,13,13,14,14],"right_children":[2,4,6,8,10,12,14,16,18,20,22,24,26,28,30,-1,-1,-1,-1,-1,-1,-1,-1,-1,-1,-1,-1,-1,-1,-1,-1],"split_conditions":[1.5111405E0,2.0468965E0,1.0519775E0,1.9628239E0,4.0071893E0,9.536109E-1,6.018968E-1,1.3651068E0,-2.88233E-1,-2.4106431E-1,-8.427283E-1,1.8533345E0,-2.7973473E-1,3.072458E-1,1.192207E0,4.2946016E-5,2.1059092E-3,-8.746675E-3,-4.5972827E-4,4.446515E-3,1.2434004E-3,1.9594498E-3,-2.4929247E-3,-1.174865E-3,1.0130124E-2,1.639551E-2,3.6401197E-3,1.7557268E-3,-8.862983E-3,-8.164564E-3,1.2306315E-3],"split_indices":[30,5,10,15,5,10,16,30,0,11,15,11,0,5,10,0,0,0,0,0,0,0,0,0,0,0,0,0,0,0,0],"split_type":[0,0,0,0,0,0,0,0,0,0,0,0,0,0,0,0,0,0,0,0,0,0,0,0,0,0,0,0,0,0,0],"sum_hessian":[5.308E3,4.867E3,4.41E2,4.681E3,1.86E2,3.94E2,4.7E1,4.515E3,1.66E2,1.49E2,3.7E1,3.86E2,8E0,2.7E1,2E1,4.441E3,7.4E1,2E1,1.46E2,5E1,9.9E1,1.6E1,2.1E1,3.82E2,4E0,3E0,5E0,3E0,2.4E1,2E0,1.8E1],"tree_param":{"num_deleted":"0","num_feature":"31","num_nodes":"31","size_leaf_vector":"1"}},{"base_weights":[2.2818831E-5,1.4284701E-3,-3.1894937E-2,4.864431E-2,6.581584E-4,-8.242509E-2,-1.6610669E-2,7.846887E-2,-8.980331E-2,-1.919259E-1,1.5428518E-3,-1.09222166E-1,4.1044872E-2,1.5399286E-1,-2.0504257E-2,1.7932598E-3,1.3714864E-2,-6.7827776E-3,1.4516145E-3,1.478293E-3,-1.2005593E-2,5.642676E-3,5.592722E-5,1.0809064E-3,-6.551189E-3,7.987758E-3,-3.2360589E-3,1.4603904E-3,9.292598E-3,1.3234931E-3,-1.6613381E-3],"categories":[],"categories_nodes":[],"categories_segments":[],"categories_sizes":[],"default_left":[0,0,0,0,0,0,0,0,0,0,0,0,0,0,0,0,0,0,0,0,0,0,0,0,0,0,0,0,0,0,0],"id":14,"left_children":[1,3,5,7,9,11,13,15,17,19,21,23,25,27,29,-1,-1,-1,-1,-1,-1,-1,-1,-1,-1,-1,-1,-1,-1,-1,-1],"loss_changes":[2.3931186E-1,1.85787E-1,1.7240202E-1,3.456362E-1,8.569558E-1,1.7653203E-1,1.1873871E-1,5.574869E-1,8.567159E-2,2.525733E-1,2.3630688E-1,1.2549126E-1,1.3589472E-1,1.0473818E-2,1.0307396E-1,0E0,0E0,0E0,0E0,0E0,0E0,0E0,0E0,0E0,0E0,0E0,0E0,0E0,0E0,0E0,0E0],"parents":[2147483647,0,0,1,1,2,2,3,3,4,4,5,5,6,6,7,7,8,8,9,9,10,10,11,11,12,12,13,13,14,14],"right_children":[2,4,6,8,10,12,14,16,18,20,22,24,26,28,30,-1,-1,-1,-1,-1,-1,-1,-1,-1,-1,-1,-1,-1,-1,-1,-1],"split_conditions":[1.864421E0,-3.3211118E-1,-2.823046E-1,1.1266965E0,-3.3109173E-1,1.913099E-1,-2.7908817E-1,2.3034874E-1,1.9047731E0,-9.5082384E-1,-3.302318E-1,-9.2687243E-1,-3.2772258E-1,-8.469935E-1,-9.4550586E-1,1.7932598E-3,1.3714864E-2,-6.7827776E-3,1.4516145E-3,1.478293E-3,-1.2005593E-2,5.642676E-3,5.592722E-5,1.0809064E-3,-6.551189E-3,7.987758E-3,-3.2360589E-3,1.4603904E-3,9.292598E-3,1.3234931E-3,-1.6613381E-3],"split_indices":[15,1,1,10,1,27,1,10,10,27,1,5,1,27,5,0,0,0,0,0,0,0,0,0,0,0,0,0,0,0,0],"split_type":[0,0,0,0,0,0,0,0,0,0,0,0,0,0,0,0,0,0,0,0,0,0,0,0,0,0,0,0,0,0,0],"sum_hessian":[5.332E3,5.108E3,2.24E2,8.1E1,5.027E3,5.1E1,1.73E2,6.7E1,1.4E1,2.2E1,5.005E3,4.2E1,9E0,3E0,1.7E2,5.6E1,1.1E1,1E1,4E0,4E0,1.8E1,1.8E1,4.987E3,6E0,3.6E1,4E0,5E0,1E0,2E0,3.6E1,1.34E2],"tree_param":{"num_deleted":"0","num_feature":"31","num_nodes":"31","size_leaf_vector":"1"}},{"base_weights":[6.707723E-4,-3.681173E-3,1.7030044E-2,-3.8733552E-3,2.0005422E-2,2.5555376E-2,-9.4671315E-4,-4.627456E-3,4.6324644E-2,2.8088149E-2,-4.1209422E-2,3.3287036E-1,-3.749247E-3,-3.4878806E-3,-1.9052965E-4,1.9293107E-2,1.4287846E-3,3.8324588E-3,1.1686184E-3,-8.165031E-3,7.89604E-4,2.4310032E-2,6.552467E-4,-1.8868557E-3,6.1754877E-4],"categories":[],"categories_nodes":[],"categories_segments":[],"categories_sizes":[],"default_left":[0,0,0,0,0,0,0,0,0,0,0,0,0,0,0,0,0,0,0,0,0,0,0,0,0],"id":15,"left_children":[1,3,5,7,-1,9,11,13,15,17,19,21,23,-1,-1,-1,-1,-1,-1,-1,-1,-1,-1,-1,-1],"loss_changes":[3.7710956E-1,3.2623303E-1,1.7060015E-1,1.5855908E-1,0E0,1.2882811E-1,3.3710462E-1,2.190345E-1,3.6261266E-1,1.6492277E-1,1.9744149E-1,1.407175E-1,1.9582084E-1,0E0,0E0,0E0,0E0,0E0,0E0,0E0,0E0,0E0,0E0,0E0,0E0],"parents":[2147483647,0,0,1,1,2,2,3,3,5,5,6,6,7,7,8,8,9,9,10,10,11,11,12,12],"right_children":[2,4,6,8,-1,10,12,14,16,18,20,22,24,-1,-1,-1,-1,-1,-1,-1,-1,-1,-1,-1,-1],"split_conditions":[7.016665E-1,9.44133E0,5.774183E-1,2.8136609E0,2.0005422E-2,1.4110466E0,-1.0592369E0,-3.3109173E-1,-3.1366178E-1,-3.2433113E-1,-2.4467932E-1,-3.2433113E-1,1.9906323E-1,-3.4878806E-3,-1.9052965E-4,1.9293107E-2,1.4287846E-3,3.8324588E-3,1.1686184E-3,-8.165031E-3,7.89604E-4,2.4310032E-2,6.552467E-4,-1.8868557E-3,6.1754877E-4],"split_indices":[2,18,25,18,0,14,16,1,1,1,25,1,18,0,0,0,0,0,0,0,0,0,0,0,0],"split_type":[0,0,0,0,0,0,0,0,0,0,0,0,0,0,0,0,0,0,0,0,0,0,0,0,0],"sum_hessian":[5.295E3,4.183E3,1.112E3,4.182E3,1E0,7.54E2,3.58E2,4.121E3,6.1E1,7.27E2,2.7E1,2E0,3.56E2,5E1,4.071E3,2E0,5.9E1,6.3E1,6.64E2,8E0,1.9E1,1E0,1E0,1.14E2,2.42E2],"tree_param":{"num_deleted":"0","num_feature":"31","num_nodes":"25","size_leaf_vector":"1"}},{"base_weights":[1.3502537E-3,-7.4113063E-3,1.578863E-2,-5.832239E-3,-5.103897E-2,1.5406227E-2,1.9505285E-2,-7.3815137E-3,3.592703E-2,-2.5905263E-1,-3.3065494E-2,3.3234455E-2,8.341321E-3,2.5701005E-5,-8.2216144E-4,-9.098919E-3,2.4858934E-3,-1.747482E-2,1.9166848E-3,2.026832E-3,-2.629618E-3,2.504217E-3,1.6142261E-5,1.5940107E-3,2.2264128E-4],"categories":[],"categories_nodes":[],"categories_segments":[],"categories_sizes":[],"default_left":[0,0,0,0,0,0,0,0,0,0,0,0,0,0,0,0,0,0,0,0,0,0,0,0,0],"id":16,"left_children":[1,3,5,7,9,11,-1,13,15,17,19,21,23,-1,-1,-1,-1,-1,-1,-1,-1,-1,-1,-1,-1],"loss_changes":[6.699488E-1,2.2676714E-1,2.802696E-1,2.0612973E-1,4.2138803E-1,2.5150636E-1,0E0,2.1958643E-1,3.5162884E-1,2.5546813E-1,1.5591434E-1,3.1441754E-1,1.3102178E-1,0E0,0E0,0E0,0E0,0E0,0E0,0E0,0E0,0E0,0E0,0E0,0E0],"parents":[2147483647,0,0,1,1,2,2,3,3,4,4,5,5,7,7,8,8,9,9,10,10,11,11,12,12],"right_children":[2,4,6,8,10,12,-1,14,16,18,20,22,24,-1,-1,-1,-1,-1,-1,-1,-1,-1,-1,-1,-1],"split_conditions":[3.6240116E-1,1.864421E0,8.814015E0,2.110414E0,-5.541013E-1,-4.386272E-1,1.9505285E-2,1.6719882E-1,-4.1224653E-1,2.1697426E0,-1.1149462E-1,5.774183E-1,-1.5659733E-1,2.5701005E-5,-8.2216144E-4,-9.098919E-3,2.4858934E-3,-1.747482E-2,1.9166848E-3,2.026832E-3,-2.629618E-3,2.504217E-3,1.6142261E-5,1.5940107E-3,2.2264128E-4],"split_indices":[2,15,18,18,23,23,0,18,3,15,3,25,3,0,0,0,0,0,0,0,0,0,0,0,0],"split_type":[0,0,0,0,0,0,0,0,0,0,0,0,0,0,0,0,0,0,0,0,0,0,0,0,0],"sum_hessian":[5.294E3,3.295E3,1.999E3,3.181E3,1.14E2,1.998E3,1E0,3.068E3,1.13E2,8E0,1.06E2,5.66E2,1.432E3,1.64E3,1.428E3,6E0,1.07E2,6E0,2E0,2.2E1,8.4E1,3.74E2,1.92E2,2.02E2,1.23E3],"tree_param":{"num_deleted":"0","num_feature":"31","num_nodes":"25","size_leaf_vector":"1"}},{"base_weights":[-1.6208098E-3,-8.8811514E-4,-4.141606E-2,-2.8433495E-3,1.9894855E-2,-3.1041728E-2,-1.9012837E-1,6.2404107E-3,-6.2443023E-3,1.6102564E-2,9.94863E-2,-1.639062E-1,-1.9600146E-2,-1.6120939E-2,4.9634933E-2,2.0535069E-4,5.473507E-3,-7.6564297E-4,2.4735946E-5,1.082327E-3,-2.880732E-3,1.54142305E-2,2.2252575E-3,-3.1417978E-4,-9.456469E-3,1.0666376E-3,-2.8648356E-3,3.0776026E-4,3.4148598E-3],"categories":[],"categories_nodes":[],"categories_segments":[],"categories_sizes":[],"default_left":[0,0,0,0,0,0,0,0,0,0,0,0,0,0,0,0,0,0,0,0,0,0,0,0,0,0,0,0,0],"id":17,"left_children":[1,3,5,7,9,11,13,15,17,19,21,23,25,-1,27,-1,-1,-1,-1,-1,-1,-1,-1,-1,-1,-1,-1,-1,-1],"loss_changes":[1.5321644E-1,2.0981741E-1,1.4066325E-1,1.4582512E-1,1.3241228E-1,1.336036E-1,2.0631354E-1,2.827662E-1,2.0987028E-1,1.7493883E-1,2.1587919E-1,2.6641771E-2,1.3083677E-1,0E0,2.0139068E-3,0E0,0E0,0E0,0E0,0E0,0E0,0E0,0E0,0E0,0E0,0E0,0E0,0E0,0E0],"parents":[2147483647,0,0,1,1,2,2,3,3,4,4,5,5,6,6,7,7,8,8,9,9,10,10,11,11,12,12,14,14],"right_children":[2,4,6,8,10,12,14,16,18,20,22,24,26,-1,28,-1,-1,-1,-1,-1,-1,-1,-1,-1,-1,-1,-1,-1,-1],"split_conditions":[2.7348044E0,1.6989913E0,1.6889592E0,-2.4467932E-1,1.6889592E0,-5.907565E-1,2.4667702E0,1.9337928E0,-2.89215E-1,1.0595293E0,-9.012434E-1,-4.6604E-1,5.774183E-1,-1.6120939E-2,-9.633915E-2,2.0535069E-4,5.473507E-3,-7.6564297E-4,2.4735946E-5,1.082327E-3,-2.880732E-3,1.54142305E-2,2.2252575E-3,-3.1417978E-4,-9.456469E-3,1.0666376E-3,-2.8648356E-3,3.0776026E-4,3.4148598E-3],"split_indices":[22,22,9,25,9,8,8,29,28,9,28,29,25,0,4,0,0,0,0,0,0,0,0,0,0,0,0,0,0],"split_type":[0,0,0,0,0,0,0,0,0,0,0,0,0,0,0,0,0,0,0,0,0,0,0,0,0,0,0,0,0],"sum_hessian":[5.255E3,5.161E3,9.4E1,4.718E3,4.43E2,8.9E1,5E0,1.285E3,3.433E3,4.24E2,1.9E1,6E0,8.3E1,3E0,2E0,1.26E3,2.5E1,1.463E3,1.97E3,3.95E2,2.9E1,3E0,1.6E1,1E0,5E0,4E1,4.3E1,1E0,1E0],"tree_param":{"num_deleted":"0","num_feature":"31","num_nodes":"29","size_leaf_vector":"1"}},{"base_weights":[3.1204193E-4,-4.7469506E-4,5.1750906E-2,5.24244E-4,-3.5767246E-2,6.1698917E-2,-8.1224404E-2,2.1595987E-3,-2.3528194E-2,-4.204349E-2,9.3073994E-2,-4.2772815E-3,7.826426E-2,-1.2182726E-2,-7.485971E-6,6.6304965E-5,4.682932E-3,-2.6918808E-3,4.3283132E-4,-1.807704E-3,-9.573544E-3,6.0868184E-3,-1.9725065E-3,-2.331448E-3,6.72175E-3,6.115302E-3,2.0494007E-3,2.4889342E-3,-2.4895582E-3],"categories":[],"categories_nodes":[],"categories_segments":[],"categories_sizes":[],"default_left":[0,0,0,0,0,0,0,0,0,0,0,0,0,0,0,0,0,0,0,0,0,0,0,0,0,0,0,0,0],"id":18,"left_children":[1,3,5,7,9,11,13,15,17,19,21,23,25,-1,27,-1,-1,-1,-1,-1,-1,-1,-1,-1,-1,-1,-1,-1,-1],"loss_changes":[2.1491419E-1,1.8443821E-1,1.1083868E-1,2.0018357E-1,1.2035714E-1,8.230358E-2,7.915062E-2,3.632757E-1,3.165291E-1,1.1452292E-1,3.139171E-2,1.0026373E-1,9.348965E-2,0E0,1.4871232E-2,0E0,0E0,0E0,0E0,0E0,0E0,0E0,0E0,0E0,0E0,0E0,0E0,0E0,0E0],"parents":[2147483647,0,0,1,1,2,2,3,3,4,4,5,5,6,6,7,7,8,8,9,9,10,10,11,11,12,12,14,14],"right_children":[2,4,6,8,10,12,14,16,18,20,22,24,26,-1,28,-1,-1,-1,-1,-1,-1,-1,-1,-1,-1,-1,-1,-1,-1],"split_conditions":[2.9920158E0,2.0793233E0,9.8734254E-1,1.7550775E0,1.2296133E0,-8.079819E-1,1.0219526E0,1.6395106E0,2.5653286E0,6.9585925E-1,2.2679167E0,9.593643E-1,-4.174495E-1,-1.2182726E-2,1.3629046E-1,6.6304965E-5,4.682932E-3,-2.6918808E-3,4.3283132E-4,-1.807704E-3,-9.573544E-3,6.0868184E-3,-1.9725065E-3,-2.331448E-3,6.72175E-3,6.115302E-3,2.0494007E-3,2.4889342E-3,-2.4895582E-3],"split_indices":[17,15,27,8,27,28,27,8,8,28,27,21,28,0,28,0,0,0,0,0,0,0,0,0,0,0,0,0,0],"split_type":[0,0,0,0,0,0,0,0,0,0,0,0,0,0,0,0,0,0,0,0,0,0,0,0,0,0,0,0,0],"sum_hessian":[5.309E3,5.23E3,7.9E1,5.087E3,1.43E2,7.4E1,5E0,4.764E3,3.23E2,1.37E2,6E0,1.5E1,5.9E1,1E0,4E0,4.722E3,4.2E1,1.66E2,1.57E2,1.33E2,4E0,5E0,1E0,1.2E1,3E0,2.6E1,3.3E1,2E0,2E0],"tree_param":{"num_deleted":"0","num_feature":"31","num_nodes":"29","size_leaf_vector":"1"}},{"base_weights":[2.9928726E-4,-7.820298E-3,1.0917621E-2,-9.203681E-3,8.5327044E-2,1.0591535E-2,1.8965801E-2,-8.0099724E-2,-7.85732E-3,5.4015804E-2,3.8493553E-1,2.0339854E-2,2.0610667E-3,-3.112754E-3,-1.8432757E-2,2.8562858E-3,-4.906968E-4,8.70463E-3,1.6251283E-3,1.7483396E-3,2.4496809E-2,2.981002E-3,6.111023E-4,-2.2530602E-3,3.1239406E-4],"categories":[],"categories_nodes":[],"categories_segments":[],"categories_sizes":[],"default_left":[0,0,0,0,0,0,0,0,0,0,0,0,0,0,0,0,0,0,0,0,0,0,0,0,0],"id":19,"left_children":[1,3,5,7,9,11,-1,13,15,17,19,21,23,-1,-1,-1,-1,-1,-1,-1,-1,-1,-1,-1,-1],"loss_changes":[4.5642912E-1,3.8736057E-1,2.715594E-1,2.816212E-1,3.9197642E-1,1.9063875E-1,0E0,2.6025355E-1,3.696679E-1,1.0025442E-1,1.2985623E-1,3.4046116E-1,2.4176717E-1,0E0,0E0,0E0,0E0,0E0,0E0,0E0,0E0,0E0,0E0,0E0,0E0],"parents":[2147483647,0,0,1,1,2,2,3,3,4,4,5,5,7,7,8,8,9,9,10,10,11,11,12,12],"right_children":[2,4,6,8,10,12,-1,14,16,18,20,22,24,-1,-1,-1,-1,-1,-1,-1,-1,-1,-1,-1,-1],"split_conditions":[2.4444266E-1,2.7610953E0,8.814015E0,-5.597929E-1,9.604702E-1,-1.15389965E-1,1.8965801E-2,1.2734798E0,-5.541013E-1,2.9669642E0,-9.70067E-1,-5.166823E-1,-5.373234E-1,-3.112754E-3,-1.8432757E-2,2.8562858E-3,-4.906968E-4,8.70463E-3,1.6251283E-3,1.7483396E-3,2.4496809E-2,2.981002E-3,6.111023E-4,-2.2530602E-3,3.1239406E-4],"split_indices":[2,18,18,23,15,15,0,15,23,18,2,23,23,0,0,0,0,0,0,0,0,0,0,0,0],"split_type":[0,0,0,0,0,0,0,0,0,0,0,0,0,0,0,0,0,0,0,0,0,0,0,0,0],"sum_hessian":[5.292E3,2.999E3,2.293E3,2.956E3,4.3E1,2.292E3,1E0,5.4E1,2.902E3,4E1,3E0,1.069E3,1.223E3,5.2E1,2E0,8.4E1,2.818E3,5E0,3.5E1,1E0,2E0,1.82E2,8.87E2,9.9E1,1.124E3],"tree_param":{"num_deleted":"0","num_feature":"31","num_nodes":"25","size_leaf_vector":"1"}},{"base_weights":[-1.692654E-3,-3.3059597E-2,1.8681074E-4,-9.3551225E-4,-8.986297E-2,6.7073357E-4,-6.835583E-2,-9.198331E-2,2.8380804E-2,-1.3052824E-1,1.0796035E-2,6.6495985E-2,-8.1384904E-5,-8.100083E-2,4.676221E-3,8.671627E-3,-6.0353237E-3,4.7075613E-3,-6.7945686E-4,-1.0959342E-2,-4.5539793E-3,-6.704697E-3,3.2339972E-3,5.992217E-3,-5.105469E-3,-1.8210314E-5,6.915563E-3,-1.1310655E-2,-3.216755E-3],"categories":[],"categories_nodes":[],"categories_segments":[],"categories_sizes":[],"default_left":[0,0,0,0,0,0,0,0,0,0,0,0,0,0,0,0,0,0,0,0,0,0,0,0,0,0,0,0,0],"id":20,"left_children":[1,3,5,7,9,11,13,15,17,19,21,23,25,27,-1,-1,-1,-1,-1,-1,-1,-1,-1,-1,-1,-1,-1,-1,-1],"loss_changes":[3.118089E-1,5.4551816E-1,1.6559409E-1,5.1509434E-1,4.4348824E-1,2.4541849E-1,7.92197E-2,3.7924284E-1,4.04295E-1,2.4934125E-1,2.5850484E-1,5.1594704E-1,1.9191658E-1,6.5308824E-2,0E0,0E0,0E0,0E0,0E0,0E0,0E0,0E0,0E0,0E0,0E0,0E0,0E0,0E0,0E0],"parents":[2147483647,0,0,1,1,2,2,3,3,4,4,5,5,6,6,7,7,8,8,9,9,10,10,11,11,12,12,13,13],"right_children":[2,4,6,8,10,12,14,16,18,20,22,24,26,28,-1,-1,-1,-1,-1,-1,-1,-1,-1,-1,-1,-1,-1,-1,-1],"split_conditions":[-3.0336764E-1,3.6900118E-2,3.8791306E0,-1.0483528E-1,-3.165547E-1,-3.2433113E-1,2.0356348E-1,-9.162137E-1,-3.1299067E-1,-3.1356078E-1,6.9918975E-2,1.0105064E0,3.5995789E0,-2.8483078E-1,4.676221E-3,8.671627E-3,-6.0353237E-3,4.7075613E-3,-6.7945686E-4,-1.0959342E-2,-4.5539793E-3,-6.704697E-3,3.2339972E-3,5.992217E-3,-5.105469E-3,-1.8210314E-5,6.915563E-3,-1.1310655E-2,-3.216755E-3],"split_indices":[0,3,21,3,1,1,6,27,0,0,3,30,21,0,0,0,0,0,0,0,0,0,0,0,0,0,0,0,0],"split_type":[0,0,0,0,0,0,0,0,0,0,0,0,0,0,0,0,0,0,0,0,0,0,0,0,0,0,0,0,0],"sum_hessian":[5.288E3,2.98E2,4.99E3,1.91E2,1.07E2,4.956E3,3.4E1,4.6E1,1.45E2,7.6E1,3.1E1,5.5E1,4.901E3,3.2E1,2E0,4E0,4.2E1,5.6E1,8.9E1,2.2E1,5.4E1,8E0,2.3E1,4.2E1,1.3E1,4.892E3,9E0,2E0,3E1],"tree_param":{"num_deleted":"0","num_feature":"31","num_nodes":"29","size_leaf_vector":"1"}},{"base_weights":[1.2635319E-3,-4.939046E-3,1.1389431E-2,-3.2713055E-3,-4.3845177E-2,1.1024737E-2,1.849211E-2,-7.6291976E-3,1.2230298E-2,-8.0989614E-2,-1.529683E-2,1.615595E-2,-7.601434E-3,2.855766E-3,-4.3379684E-4,2.0144742E-2,4.9639144E-4,4.4775146E-4,-5.773373E-3,4.044199E-3,-1.4608058E-3,6.724362E-4,2.9692124E-3,-6.776696E-4,4.4919285E-3],"categories":[],"categories_nodes":[],"categories_segments":[],"categories_sizes":[],"default_left":[0,0,0,0,0,0,0,0,0,0,0,0,0,0,0,0,0,0,0,0,0,0,0,0,0],"id":21,"left_children":[1,3,5,7,9,11,-1,13,15,17,19,21,23,-1,-1,-1,-1,-1,-1,-1,-1,-1,-1,-1,-1],"loss_changes":[3.3035657E-1,2.1151254E-1,2.5711268E-1,2.1147074E-1,1.4085639E-1,1.909858E-1,0E0,1.6605915E-1,6.139516E-1,1.8089762E-1,1.0544825E-1,1.8246847E-1,2.517598E-1,0E0,0E0,0E0,0E0,0E0,0E0,0E0,0E0,0E0,0E0,0E0,0E0],"parents":[2147483647,0,0,1,1,2,2,3,3,4,4,5,5,7,7,8,8,9,9,10,10,11,11,12,12],"right_children":[2,4,6,8,10,12,-1,14,16,18,20,22,24,-1,-1,-1,-1,-1,-1,-1,-1,-1,-1,-1,-1],"split_conditions":[3.6240116E-1,1.864421E0,8.814015E0,6.2804955E-1,-6.0323936E-1,4.1745374E-1,1.849211E-2,-3.0912461E0,-9.8308724E-1,-1.4115927E0,-8.79013E-1,1.6671448E0,1.8309848E0,2.855766E-3,-4.3379684E-4,2.0144742E-2,4.9639144E-4,4.4775146E-4,-5.773373E-3,4.044199E-3,-1.4608058E-3,6.724362E-4,2.9692124E-3,-6.776696E-4,4.4919285E-3],"split_indices":[2,15,18,15,2,7,0,2,7,2,7,29,18,0,0,0,0,0,0,0,0,0,0,0,0],"split_type":[0,0,0,0,0,0,0,0,0,0,0,0,0,0,0,0,0,0,0,0,0,0,0,0,0],"sum_hessian":[5.258E3,3.261E3,1.997E3,3.128E3,1.33E2,1.996E3,1E0,2.442E3,6.86E2,5.7E1,7.6E1,1.565E3,4.31E2,3.8E1,2.404E3,3E0,6.83E2,1.6E1,4.1E1,9E0,6.7E1,1.474E3,9.1E1,4.07E2,2.4E1],"tree_param":{"num_deleted":"0","num_feature":"31","num_nodes":"25","size_leaf_vector":"1"}},{"base_weights":[8.0497906E-4,3.7724928E-3,-8.136626E-3,1.26279835E-2,-7.890212E-4,-9.335794E-2,-6.3410494E-3,2.8850313E-3,4.5252804E-2,-6.157439E-2,1.1573834E-3,-2.2543563E-2,-2.9246426E-1,6.4437636E-3,-1.7995631E-2,-7.558061E-4,8.4765704E-4,1.7153002E-2,1.8607014E-3,-3.3403684E-3,2.7931181E-3,-1.09614004E-4,6.7527866E-4,4.605508E-3,-4.322486E-3,-3.8673268E-3,-2.1723295E-2,6.1407145E-3,1.3615766E-4,-6.4216214E-3,-6.856895E-4],"categories":[],"categories_nodes":[],"categories_segments":[],"categories_sizes":[],"default_left":[0,0,0,0,0,0,0,0,0,0,0,0,0,0,0,0,0,0,0,0,0,0,0,0,0,0,0,0,0,0,0],"id":22,"left_children":[1,3,5,7,9,11,13,15,17,19,21,23,25,27,29,-1,-1,-1,-1,-1,-1,-1,-1,-1,-1,-1,-1,-1,-1,-1,-1],"loss_changes":[1.3970745E-1,1.596892E-1,2.0017217E-1,4.2707604E-1,3.0886802E-1,3.7409568E-1,1.917321E-1,2.6261514E-1,7.269812E-1,5.351007E-2,1.0467617E-1,1.6183156E-1,1.8022513E-1,2.6550877E-1,3.164822E-1,0E0,0E0,0E0,0E0,0E0,0E0,0E0,0E0,0E0,0E0,0E0,0E0,0E0,0E0,0E0,0E0],"parents":[2147483647,0,0,1,1,2,2,3,3,4,4,5,5,6,6,7,7,8,8,9,9,10,10,11,11,12,12,13,13,14,14],"right_children":[2,4,6,8,10,12,14,16,18,20,22,24,26,28,30,-1,-1,-1,-1,-1,-1,-1,-1,-1,-1,-1,-1,-1,-1,-1,-1],"split_conditions":[3.2081345E-1,-2.3843117E-1,-3.3109173E-1,3.7665573E-1,-2.3308896E-1,-3.334163E-1,-1.2126297E-1,-2.990128E-1,-3.3211118E-1,2.986594E0,-1.3859959E-1,-2.28379E-1,1.6843669E-1,-3.2547057E-1,-8.837569E-1,-7.558061E-4,8.4765704E-4,1.7153002E-2,1.8607014E-3,-3.3403684E-3,2.7931181E-3,-1.09614004E-4,6.7527866E-4,4.605508E-3,-4.322486E-3,-3.8673268E-3,-2.1723295E-2,6.1407145E-3,1.3615766E-4,-6.4216214E-3,-6.856895E-4],"split_indices":[7,1,1,22,1,1,4,1,1,28,7,11,24,1,28,0,0,0,0,0,0,0,0,0,0,0,0,0,0,0,0],"split_type":[0,0,0,0,0,0,0,0,0,0,0,0,0,0,0,0,0,0,0,0,0,0,0,0,0,0,0,0,0,0,0],"sum_hessian":[5.263E3,3.952E3,1.311E3,1.343E3,2.609E3,2.6E1,1.285E3,1.035E3,3.08E2,8E1,2.529E3,2E1,6E0,6.13E2,6.72E2,4.54E2,5.81E2,7E0,3.01E2,7.7E1,3E0,1.99E3,5.39E2,7E0,1.3E1,3E0,3E0,1.8E1,5.95E2,2.4E1,6.48E2],"tree_param":{"num_deleted":"0","num_feature":"31","num_nodes":"31","size_leaf_vector":"1"}},{"base_weights":[2.2601699E-4,-6.960325E-5,1.4266755E-1,-1.3900408E-2,3.1176927E-3,2.0278971E-1,-1.3243661E-2,2.1317769E-2,-3.975198E-2,1.633411E-2,2.8286243E-4,4.2310706E-3,2.2807558E-1,-1.9810568E-3,1.647219E-3,-2.4906849E-5,2.4710156E-3,-7.8926176E-5,-2.6703733E-3,2.342265E-3,-3.8846975E-4,-2.972079E-3,1.1052478E-4,3.3090815E-3,1.23609025E-2],"categories":[],"categories_nodes":[],"categories_segments":[],"categories_sizes":[],"default_left":[0,0,0,0,0,0,0,0,0,0,0,0,0,0,0,0,0,0,0,0,0,0,0,0,0],"id":23,"left_children":[1,3,5,7,9,11,13,15,17,19,21,-1,23,-1,-1,-1,-1,-1,-1,-1,-1,-1,-1,-1,-1],"loss_changes":[2.2364871E-1,2.3372662E-1,1.0579659E-1,9.049196E-1,1.6143768E-1,4.603803E-3,6.1785886E-3,2.5813234E-1,2.986074E-1,5.6002367E-1,4.087164E-1,0E0,2.2329986E-3,0E0,0E0,0E0,0E0,0E0,0E0,0E0,0E0,0E0,0E0,0E0,0E0],"parents":[2147483647,0,0,1,1,2,2,3,3,4,4,5,5,6,6,7,7,8,8,9,9,10,10,12,12],"right_children":[2,4,6,8,10,12,14,16,18,20,22,-1,24,-1,-1,-1,-1,-1,-1,-1,-1,-1,-1,-1,-1],"split_conditions":[5.778939E0,-2.7153906E-1,7.451092E0,-4.2960984E-1,-2.3151222E-1,-6.8867403E-1,-2.464663E-1,-1.7207745E-1,-5.461062E-1,-4.174363E-1,-5.402248E-1,4.2310706E-3,-4.8758486E-1,-1.9810568E-3,1.647219E-3,-2.4906849E-5,2.4710156E-3,-7.8926176E-5,-2.6703733E-3,2.342265E-3,-3.8846975E-4,-2.972079E-3,1.1052478E-4,3.3090815E-3,1.23609025E-2],"split_indices":[17,0,17,9,0,9,0,11,23,23,23,0,11,0,0,0,0,0,0,0,0,0,0,0,0],"split_type":[0,0,0,0,0,0,0,0,0,0,0,0,0,0,0,0,0,0,0,0,0,0,0,0,0],"sum_hessian":[5.31E3,5.3E3,1E1,9.92E2,4.308E3,7E0,3E0,4.2E2,5.72E2,7.6E2,3.548E3,2E0,5E0,2E0,1E0,2.37E2,1.83E2,1.51E2,4.21E2,3.35E2,4.25E2,1.1E2,3.438E3,1E0,4E0],"tree_param":{"num_deleted":"0","num_feature":"31","num_nodes":"25","size_leaf_vector":"1"}},{"base_weights":[1.2943906E-3,5.6528696E-4,5.0600972E-2,2.1183055E-3,-3.8749333E-2,-1.3309138E-1,6.2489472E-2,4.2608296E-3,-1.7267408E-2,-4.9043324E-2,1.00046225E-1,-1.0438955E-2,-1.3039838E-2,1.3493438E-1,3.2605838E-2,8.9874613E-4,-1.5387195E-5,-6.0213893E-3,-6.2416587E-4,-2.2001388E-3,-9.604293E-3,1.03174215E-2,1.8445246E-3,1.2711525E-3,-2.2491403E-3,8.0916117E-4,9.067799E-3,-8.05992E-3,1.9716406E-3],"categories":[],"categories_nodes":[],"categories_segments":[],"categories_sizes":[],"default_left":[0,0,0,0,0,0,0,0,0,0,0,0,0,0,0,0,0,0,0,0,0,0,0,0,0,0,0,0,0],"id":24,"left_children":[1,3,5,7,9,11,13,15,17,19,21,-1,23,25,27,-1,-1,-1,-1,-1,-1,-1,-1,-1,-1,-1,-1,-1,-1],"loss_changes":[1.8996508E-1,3.1812453E-1,1.7647149E-1,2.0824377E-1,2.8780118E-1,4.27097E-2,1.5363935E-1,2.82825E-1,2.4476746E-1,1.24935E-1,8.637801E-2,0E0,4.8294566E-3,1.1283004E-1,7.648061E-2,0E0,0E0,0E0,0E0,0E0,0E0,0E0,0E0,0E0,0E0,0E0,0E0,0E0,0E0],"parents":[2147483647,0,0,1,1,2,2,3,3,4,4,5,5,6,6,7,7,8,8,9,9,10,10,12,12,13,13,14,14],"right_children":[2,4,6,8,10,12,14,16,18,20,22,-1,24,26,28,-1,-1,-1,-1,-1,-1,-1,-1,-1,-1,-1,-1,-1,-1],"split_conditions":[2.85267E0,1.8772471E0,-3.8871017E-1,2.1099211E-1,3.6174452E-1,-3.843611E-1,-3.8200837E-1,-2.4467932E-1,2.2157688E-1,2.7152416E-1,-5.398552E-1,-1.0438955E-2,-7.1158504E-1,-7.3220694E-1,-1.0819374E0,8.9874613E-4,-1.5387195E-5,-6.0213893E-3,-6.2416587E-4,-2.2001388E-3,-9.604293E-3,1.03174215E-2,1.8445246E-3,1.2711525E-3,-2.2491403E-3,8.0916117E-4,9.067799E-3,-8.05992E-3,1.9716406E-3],"split_indices":[17,17,3,3,11,11,11,25,3,11,28,0,3,28,28,0,0,0,0,0,0,0,0,0,0,0,0,0,0],"split_type":[0,0,0,0,0,0,0,0,0,0,0,0,0,0,0,0,0,0,0,0,0,0,0,0,0,0,0,0,0],"sum_hessian":[5.284E3,5.208E3,7.6E1,5.011E3,1.97E2,4E0,7.2E1,4.513E3,4.98E2,1.84E2,1.3E1,2E0,2E0,2E1,5.2E1,1.127E3,3.386E3,2.1E1,4.77E2,1.79E2,5E0,4E0,9E0,1E0,1E0,6E0,1.4E1,1E0,5.1E1],"tree_param":{"num_deleted":"0","num_feature":"31","num_nodes":"29","size_leaf_vector":"1"}},{"base_weights":[8.825688E-4,-4.953094E-3,1.05984295E-2,-2.207407E-2,-9.046983E-4,2.1547109E-2,1.0044497E-3,9.28677E-2,-2.4071313E-2,-1.9311989E-2,1.9398052E-3,2.4682388E-2,-3.9036892E-2,1.6117963E-1,9.1683534E-5,1.6879367E-3,9.393436E-3,-4.5111426E-3,-1.0283318E-3,-2.676592E-3,-3.6197496E-5,1.741512E-4,-2.0351827E-3,9.363767E-4,4.2072865E-3,-9.830694E-5,-1.074386E-2,1.5763953E-2,2.655077E-4,3.653936E-4,-9.249742E-4],"categories":[],"categories_nodes":[],"categories_segments":[],"categories_sizes":[],"default_left":[0,0,0,0,0,0,0,0,0,0,0,0,0,0,0,0,0,0,0,0,0,0,0,0,0,0,0,0,0,0,0],"id":25,"left_children":[1,3,5,7,9,11,13,15,17,19,21,23,25,27,29,-1,-1,-1,-1,-1,-1,-1,-1,-1,-1,-1,-1,-1,-1,-1,-1],"loss_changes":[2.9993078E-1,2.290578E-1,2.0848556E-1,1.4732161E-1,1.4004704E-1,1.7704508E-1,1.5481368E-1,5.5427313E-2,1.4234877E-1,2.2767785E-1,1.5261932E-1,3.1073648E-1,2.9943004E-1,1.4244221E-1,1.4153706E-1,0E0,0E0,0E0,0E0,0E0,0E0,0E0,0E0,0E0,0E0,0E0,0E0,0E0,0E0,0E0,0E0],"parents":[2147483647,0,0,1,1,2,2,3,3,4,4,5,5,6,6,7,7,8,8,9,9,10,10,11,11,12,12,13,13,14,14],"right_children":[2,4,6,8,10,12,14,16,18,20,22,24,26,28,30,-1,-1,-1,-1,-1,-1,-1,-1,-1,-1,-1,-1,-1,-1,-1,-1],"split_conditions":[3.6240116E-1,-9.280235E-1,-1.15389965E-1,-3.0912461E0,-1.2963341E0,1.2999338E0,-5.613677E-1,-1.2439928E0,-1.9361097E0,-3.964025E-1,3.256092E-1,5.078004E-1,1.5830374E0,-4.2683658E-1,1.17004335E-1,1.6879367E-3,9.393436E-3,-4.5111426E-3,-1.0283318E-3,-2.676592E-3,-3.6197496E-5,1.741512E-4,-2.0351827E-3,9.363767E-4,4.2072865E-3,-9.830694E-5,-1.074386E-2,1.5763953E-2,2.655077E-4,3.653936E-4,-9.249742E-4],"split_indices":[2,15,15,2,2,12,23,15,2,23,2,12,2,12,8,0,0,0,0,0,0,0,0,0,0,0,0,0,0,0,0],"split_type":[0,0,0,0,0,0,0,0,0,0,0,0,0,0,0,0,0,0,0,0,0,0,0,0,0,0,0,0,0,0,0],"sum_hessian":[5.288E3,3.304E3,1.984E3,6.31E2,2.673E3,9.26E2,1.058E3,1E1,6.21E2,3.57E2,2.316E3,8.81E2,4.5E1,5E0,1.053E3,7E0,3E0,3E1,5.91E2,1.25E2,2.32E2,2.236E3,8E1,8.02E2,7.9E1,3.8E1,7E0,2E0,3E0,7.59E2,2.94E2],"tree_param":{"num_deleted":"0","num_feature":"31","num_nodes":"31","size_leaf_vector":"1"}},{"base_weights":[-6.530729E-4,1.1363172E-4,-5.6091655E-2,3.932685E-3,-1.2043012E-2,3.3762317E-2,-7.284831E-2,-3.144542E-2,5.6145363E-3,6.715569E-2,-1.4322047E-2,1.2488282E-1,-4.9164157E-2,-1.3969846E-1,-3.6831204E-2,3.378377E-3,-3.8939405E-3,1.8879449E-3,2.14327E-4,1.2639653E-3,1.0266429E-2,-5.9592645E-3,-6.3645997E-4,-1.518165E-3,8.100235E-3,-6.5241256E-3,4.7298428E-4,-1.2205089E-2,-4.0831836E-3,4.945317E-3,-2.5075064E-3],"categories":[],"categories_nodes":[],"categories_segments":[],"categories_sizes":[],"default_left":[0,0,0,0,0,0,0,0,0,0,0,0,0,0,0,0,0,0,0,0,0,0,0,0,0,0,0,0,0,0,0],"id":26,"left_children":[1,3,5,7,9,11,13,15,17,19,21,23,25,27,29,-1,-1,-1,-1,-1,-1,-1,-1,-1,-1,-1,-1,-1,-1,-1,-1],"loss_changes":[2.2434786E-1,2.4179207E-1,1.1086649E-1,2.359779E-1,2.2568011E-1,9.681538E-2,1.4172739E-1,8.328134E-1,1.6136807E-1,1.9732577E-1,2.0075764E-1,3.949716E-2,3.4604684E-2,1.0730526E-1,7.908315E-2,0E0,0E0,0E0,0E0,0E0,0E0,0E0,0E0,0E0,0E0,0E0,0E0,0E0,0E0,0E0,0E0],"parents":[2147483647,0,0,1,1,2,2,3,3,4,4,5,5,6,6,7,7,8,8,9,9,10,10,11,11,12,12,13,13,14,14],"right_children":[2,4,6,8,10,12,14,16,18,20,22,24,26,28,30,-1,-1,-1,-1,-1,-1,-1,-1,-1,-1,-1,-1,-1,-1,-1,-1],"split_conditions":[3.0003853E0,1.3918761E0,-6.6102266E-1,-3.0582672E-1,-3.1299067E-1,4.1391943E-3,-5.3001095E-2,-4.8983207E-1,-9.770183E-1,-3.1864157E-1,-3.0988157E-1,-1.7145479E-1,9.170861E-3,-2.4323805E-1,-3.0683538E-1,3.378377E-3,-3.8939405E-3,1.8879449E-3,2.14327E-4,1.2639653E-3,1.0266429E-2,-5.9592645E-3,-6.3645997E-4,-1.518165E-3,8.100235E-3,-6.5241256E-3,4.7298428E-4,-1.2205089E-2,-4.0831836E-3,4.945317E-3,-2.5075064E-3],"split_indices":[29,26,10,0,0,3,10,10,28,10,0,3,3,0,0,0,0,0,0,0,0,0,0,0,0,0,0,0,0,0,0],"split_type":[0,0,0,0,0,0,0,0,0,0,0,0,0,0,0,0,0,0,0,0,0,0,0,0,0,0,0,0,0,0,0],"sum_hessian":[5.277E3,5.206E3,7.1E1,3.962E3,1.244E3,1.1E1,6E1,1.79E2,3.783E3,3.4E1,1.21E3,5E0,6E0,2E1,4E1,5.7E1,1.22E2,1.49E2,3.634E3,2.7E1,7E0,1.7E1,1.193E3,1E0,4E0,2E0,4E0,6E0,1.4E1,3E0,3.7E1],"tree_param":{"num_deleted":"0","num_feature":"31","num_nodes":"31","size_leaf_vector":"1"}},{"base_weights":[1.8084803E-4,2.4884124E-3,-1.7282587E-2,6.665158E-2,1.6246994E-3,6.5659597E-3,-4.380308E-2,9.645208E-2,-1.5028337E-1,-2.276129E-1,2.5580092E-3,9.965261E-3,-2.7381828E-1,-1.4544414E-1,-3.1838004E-2,2.2640703E-3,1.0098171E-2,-1.0273072E-2,-2.1869973E-3,-1.35401115E-2,4.649884E-3,5.3387713E-3,1.04314626E-4,2.377978E-3,-2.897999E-4,-2.1174716E-2,-4.1380757E-3,4.845753E-3,-1.1008518E-2,8.636815E-4,-2.2184968E-3],"categories":[],"categories_nodes":[],"categories_segments":[],"categories_sizes":[],"default_left":[0,0,0,0,0,0,0,0,0,0,0,0,0,0,0,0,0,0,0,0,0,0,0,0,0,0,0,0,0,0,0],"id":27,"left_children":[1,3,5,7,9,11,13,15,17,19,21,23,25,27,29,-1,-1,-1,-1,-1,-1,-1,-1,-1,-1,-1,-1,-1,-1,-1,-1],"loss_changes":[2.1648356E-1,2.628528E-1,3.968495E-1,4.2177567E-1,1.0025084E0,3.1820834E-1,3.5656393E-1,2.9320365E-1,3.8044006E-2,2.882762E-1,2.2911371E-1,1.9462664E-1,7.933742E-2,5.8276594E-1,1.6509521E-1,0E0,0E0,0E0,0E0,0E0,0E0,0E0,0E0,0E0,0E0,0E0,0E0,0E0,0E0,0E0,0E0],"parents":[2147483647,0,0,1,1,2,2,3,3,4,4,5,5,6,6,7,7,8,8,9,9,10,10,11,11,12,12,13,13,14,14],"right_children":[2,4,6,8,10,12,14,16,18,20,22,24,26,28,30,-1,-1,-1,-1,-1,-1,-1,-1,-1,-1,-1,-1,-1,-1,-1,-1],"split_conditions":[1.1672796E0,-3.3211118E-1,-2.453692E-1,1.0005245E0,-3.3109173E-1,5.225307E-1,-3.1571284E-1,-1.3257724E-1,8.415803E-1,2.7407002E-1,-3.302318E-1,1.5111405E0,-2.8569853E-1,-2.541312E-1,-2.711664E-1,2.2640703E-3,1.0098171E-2,-1.0273072E-2,-2.1869973E-3,-1.35401115E-2,4.649884E-3,5.3387713E-3,1.04314626E-4,2.377978E-3,-2.897999E-4,-2.1174716E-2,-4.1380757E-3,4.845753E-3,-1.1008518E-2,8.636815E-4,-2.2184968E-3],"split_indices":[30,1,8,29,1,4,1,4,28,4,1,30,1,12,1,0,0,0,0,0,0,0,0,0,0,0,0,0,0,0,0],"split_type":[0,0,0,0,0,0,0,0,0,0,0,0,0,0,0,0,0,0,0,0,0,0,0,0,0,0,0,0,0,0,0],"sum_hessian":[5.37E3,4.744E3,6.26E2,6.2E1,4.682E3,3.3E2,2.96E2,5.5E1,7E0,1.8E1,4.664E3,3.27E2,3E0,3E1,2.66E2,3.8E1,1.7E1,4E0,3E0,1.6E1,2E0,2E1,4.644E3,9.6E1,2.31E2,1E0,2E0,7E0,2.3E1,5.4E1,2.12E2],"tree_param":{"num_deleted":"0","num_feature":"31","num_nodes":"31","size_leaf_vector":"1"}},{"base_weights":[-1.7748683E-4,-1.7931674E-2,1.8092929E-3,-1.0952938E-2,-1.3908023E-1,1.08620375E-1,1.2691213E-3,-1.27647985E-2,2.1962667E-1,-2.0982839E-1,1.6709246E-1,3.0472312E-2,2.9405534E-1,9.767495E-5,2.6843352E-2,-8.108909E-3,-5.011202E-4,1.3101079E-2,2.3110497E-3,-1.6547238E-2,-8.026876E-3,-2.1574055E-4,1.0111843E-2,1.0709715E-2,-3.9619105E-3,1.7586056E-2,-1.2984794E-3,-5.203505E-3,2.2136606E-5,8.919871E-3,1.1115845E-3],"categories":[],"categories_nodes":[],"categories_segments":[],"categories_sizes":[],"default_left":[0,0,0,0,0,0,0,0,0,0,0,0,0,0,0,0,0,0,0,0,0,0,0,0,0,0,0,0,0,0,0],"id":28,"left_children":[1,3,5,7,9,11,13,15,17,19,21,23,25,27,29,-1,-1,-1,-1,-1,-1,-1,-1,-1,-1,-1,-1,-1,-1,-1,-1],"loss_changes":[1.871592E-1,4.499543E-1,2.75189E-1,2.1419911E-1,6.632342E-1,3.3883268E-1,1.422719E-1,2.0447901E-1,1.7295152E-2,9.01494E-2,3.7016645E-2,3.7978455E-1,1.3831538E-1,1.6330297E-1,1.4140853E-1,0E0,0E0,0E0,0E0,0E0,0E0,0E0,0E0,0E0,0E0,0E0,0E0,0E0,0E0,0E0,0E0],"parents":[2147483647,0,0,1,1,2,2,3,3,4,4,5,5,6,6,7,7,8,8,9,9,10,10,11,11,12,12,13,13,14,14],"right_children":[2,4,6,8,10,12,14,16,18,20,22,24,26,28,30,-1,-1,-1,-1,-1,-1,-1,-1,-1,-1,-1,-1,-1,-1,-1,-1],"split_conditions":[-2.9319316E-1,1.5468701E0,-3.2547057E-1,3.1163633E-1,8.1744444E-1,-1.1434974E-1,1.9841458E0,-1.1052529E0,-3.1607285E-1,-7.1055055E-1,-3.15531E-1,-8.168985E-1,-2.3362686E-1,-3.2230747E-1,-2.856212E-1,-8.108909E-3,-5.011202E-4,1.3101079E-2,2.3110497E-3,-1.6547238E-2,-8.026876E-3,-2.1574055E-4,1.0111843E-2,1.0709715E-2,-3.9619105E-3,1.7586056E-2,-1.2984794E-3,-5.203505E-3,2.2136606E-5,8.919871E-3,1.1115845E-3],"split_indices":[0,28,1,1,22,28,5,28,0,9,0,5,0,1,0,0,0,0,0,0,0,0,0,0,0,0,0,0,0,0,0],"split_type":[0,0,0,0,0,0,0,0,0,0,0,0,0,0,0,0,0,0,0,0,0,0,0,0,0,0,0,0,0,0,0],"sum_hessian":[5.304E3,5.33E2,4.771E3,5.05E2,2.8E1,2.3E1,4.748E3,5.02E2,3E0,2.3E1,5E0,1.7E1,6E0,4.541E3,2.07E2,8E0,4.94E2,2E0,1E0,5E0,1.8E1,1E0,4E0,6E0,1.1E1,5E0,1E0,1.4E1,4.527E3,5E0,2.02E2],"tree_param":{"num_deleted":"0","num_feature":"31","num_nodes":"31","size_leaf_vector":"1"}},{"base_weights":[1.7048832E-4,-4.73592E-3,1.3355488E-2,-3.2612693E-3,-4.117738E-2,4.2609107E-2,5.330024E-3,-5.1289382E-3,2.9369475E-2,-1.3400288E-1,-1.9711599E-2,2.7741145E-2,9.3921706E-2,-5.4805648E-2,8.463545E-3,-6.269043E-3,-2.3919973E-4,1.2917456E-2,8.6452434E-4,2.671643E-3,-9.9512935E-3,-2.6656652E-3,3.679022E-4,8.913223E-3,1.1569713E-3,7.096474E-3,2.984015E-3,-9.96498E-3,6.644573E-4,1.1683772E-2,3.7011254E-4],"categories":[],"categories_nodes":[],"categories_segments":[],"categories_sizes":[],"default_left":[0,0,0,0,0,0,0,0,0,0,0,0,0,0,0,0,0,0,0,0,0,0,0,0,0,0,0,0,0,0,0],"id":29,"left_children":[1,3,5,7,9,11,13,15,17,19,21,23,25,27,29,-1,-1,-1,-1,-1,-1,-1,-1,-1,-1,-1,-1,-1,-1,-1,-1],"loss_changes":[3.425374E-1,2.0724234E-1,3.369082E-1,2.2625077E-1,2.9624435E-1,2.3313487E-1,2.1302007E-1,1.4499548E-1,5.5146736E-1,3.5188824E-1,1.1227137E-1,1.628076E-1,1.04955435E-1,5.5364853E-1,2.547344E-1,0E0,0E0,0E0,0E0,0E0,0E0,0E0,0E0,0E0,0E0,0E0,0E0,0E0,0E0,0E0,0E0],"parents":[2147483647,0,0,1,1,2,2,3,3,4,4,5,5,6,6,7,7,8,8,9,9,10,10,11,11,12,12,13,13,14,14],"right_children":[2,4,6,8,10,12,14,16,18,20,22,24,26,28,30,-1,-1,-1,-1,-1,-1,-1,-1,-1,-1,-1,-1,-1,-1,-1,-1],"split_conditions":[5.69419E-1,1.864421E0,-3.6265653E-1,1.4164191E0,-2.823046E-1,-3.909011E-1,-3.2890907E-1,-5.081585E-1,-3.174707E-1,-3.2154727E-1,-3.6265653E-1,-5.030488E-1,-2.652256E-1,1.0396308E0,-3.2772258E-1,-6.269043E-3,-2.3919973E-4,1.2917456E-2,8.6452434E-4,2.671643E-3,-9.9512935E-3,-2.6656652E-3,3.679022E-4,8.913223E-3,1.1569713E-3,7.096474E-3,2.984015E-3,-9.96498E-3,6.644573E-4,1.1683772E-2,3.7011254E-4],"split_indices":[2,15,13,15,1,13,1,11,1,1,13,11,1,2,1,0,0,0,0,0,0,0,0,0,0,0,0,0,0,0,0],"split_type":[0,0,0,0,0,0,0,0,0,0,0,0,0,0,0,0,0,0,0,0,0,0,0,0,0,0,0,0,0,0,0],"sum_hessian":[5.293E3,3.858E3,1.435E3,3.709E3,1.49E2,3.08E2,1.127E3,3.509E3,2E2,2.7E1,1.22E2,2.4E2,6.8E1,5.5E1,1.072E3,9E0,3.5E3,9E0,1.91E2,7E0,2E1,5.4E1,6.8E1,6E0,2.34E2,2.7E1,4.1E1,1.7E1,3.8E1,4E0,1.068E3],"tree_param":{"num_deleted":"0","num_feature":"31","num_nodes":"31","size_leaf_vector":"1"}},{"base_weights":[1.72296E-3,1.5904446E-3,1.7786892E-2,2.5214017E-3,-3.2859642E-2,2.8042162E-2,1.5352283E-3,-5.8197822E-2,1.3248186E-3,7.551807E-4,5.375504E-3,1.2840507E-5,9.1724016E-4,-2.6475806E-3,-1.1947369E-2,-1.6974042E-3,1.9452544E-3],"categories":[],"categories_nodes":[],"categories_segments":[],"categories_sizes":[],"default_left":[0,0,0,0,0,0,0,0,0,0,0,0,0,0,0,0,0],"id":30,"left_children":[1,3,-1,5,7,9,11,13,15,-1,-1,-1,-1,-1,-1,-1,-1],"loss_changes":[2.5074413E-1,1.718581E-1,0E0,1.3123268E-1,1.2220733E-1,1.9784695E-1,1.0793788E-1,6.415564E-2,8.2180224E-2,0E0,0E0,0E0,0E0,0E0,0E0,0E0,0E0],"parents":[2147483647,0,0,1,1,3,3,4,4,5,5,6,6,7,7,8,8],"right_children":[2,4,-1,6,8,10,12,14,16,-1,-1,-1,-1,-1,-1,-1,-1],"split_conditions":[9.44133E0,2.0793233E0,1.7786892E-2,-1.0061625E0,-4.5242256E-1,4.140299E-1,1.5778742E0,-4.6408024E-1,2.2841556E0,7.551807E-4,5.375504E-3,1.2840507E-5,9.1724016E-4,-2.6475806E-3,-1.1947369E-2,-1.6974042E-3,1.9452544E-3],"split_indices":[18,15,0,28,28,13,6,28,15,0,0,0,0,0,0,0,0],"split_type":[0,0,0,0,0,0,0,0,0,0,0,0,0,0,0,0,0],"sum_hessian":[5.356E3,5.355E3,1E0,5.215E3,1.4E2,1.93E2,5.022E3,8E1,6E1,1.67E2,2.6E1,4.668E3,3.54E2,7.9E1,1E0,3.1E1,2.9E1],"tree_param":{"num_deleted":"0","num_feature":"31","num_nodes":"17","size_leaf_vector":"1"}},{"base_weights":[1.487573E-4,-1.07639115E-2,3.7024994E-3,-1.4472375E-2,6.195108E-2,2.322249E-2,1.1432562E-3,-5.2638273E-3,-4.5840718E-2,-1.8843278E-1,9.11017E-2,9.912272E-2,9.848459E-3,-4.7339648E-2,2.6256696E-3,1.9819986E-3,-7.709358E-4,-4.1750264E-3,-6.75388E-4,-3.1360015E-3,-1.6757157E-2,1.0299804E-2,4.8570396E-4,6.2229834E-3,-3.2672489E-3,-2.6749703E-3,7.203779E-4,-8.176791E-3,-6.585202E-4,2.6679642E-3,4.1865864E-5],"categories":[],"categories_nodes":[],"categories_segments":[],"categories_sizes":[],"default_left":[0,0,0,0,0,0,0,0,0,0,0,0,0,0,0,0,0,0,0,0,0,0,0,0,0,0,0,0,0,0,0],"id":31,"left_children":[1,3,5,7,9,11,13,15,17,19,21,23,25,27,29,-1,-1,-1,-1,-1,-1,-1,-1,-1,-1,-1,-1,-1,-1,-1,-1],"loss_changes":[2.0759475E-1,3.5550064E-1,2.0169742E-1,3.6140746E-1,4.8429266E-1,4.7408685E-1,2.5677815E-1,4.4246846E-1,3.4468555E-1,1.0808335E-1,5.403557E-1,2.9983056E-1,1.1600566E-1,4.1870165E-1,3.14424E-1,0E0,0E0,0E0,0E0,0E0,0E0,0E0,0E0,0E0,0E0,0E0,0E0,0E0,0E0,0E0,0E0],"parents":[2147483647,0,0,1,1,2,2,3,3,4,4,5,5,6,6,7,7,8,8,9,9,10,10,11,11,12,12,13,13,14,14],"right_children":[2,4,6,8,10,12,14,16,18,20,22,24,26,28,30,-1,-1,-1,-1,-1,-1,-1,-1,-1,-1,-1,-1,-1,-1,-1,-1],"split_conditions":[-2.5519586E-1,1.748765E0,-2.3151222E-1,4.341274E-1,-5.568213E-1,-5.235593E-1,-5.402248E-1,-5.445405E-1,6.018968E-1,3.3937473E0,-4.9174318E-1,1.2199365E0,-5.021017E-1,-3.7755218E-1,-5.106121E-1,1.9819986E-3,-7.709358E-4,-4.1750264E-3,-6.75388E-4,-3.1360015E-3,-1.6757157E-2,1.0299804E-2,4.8570396E-4,6.2229834E-3,-3.2672489E-3,-2.6749703E-3,7.203779E-4,-8.176791E-3,-6.585202E-4,2.6679642E-3,4.1865864E-5],"split_indices":[0,27,0,6,23,23,23,23,16,24,23,16,23,13,23,0,0,0,0,0,0,0,0,0,0,0,0,0,0,0,0],"split_type":[0,0,0,0,0,0,0,0,0,0,0,0,0,0,0,0,0,0,0,0,0,0,0,0,0,0,0,0,0,0,0],"sum_hessian":[5.351E3,1.314E3,4.037E3,1.251E3,6.3E1,4.67E2,3.57E3,9.68E2,2.83E2,6E0,5.7E1,6.9E1,3.98E2,1.05E2,3.465E3,1.78E2,7.9E2,1.3E2,1.53E2,4E0,2E0,2.3E1,3.4E1,6E1,9E0,2.6E1,3.72E2,2.3E1,8.2E1,1.17E2,3.348E3],"tree_param":{"num_deleted":"0","num_feature":"31","num_nodes":"31","size_leaf_vector":"1"}},{"base_weights":[-8.6959155E-4,-2.5695649E-3,2.2038184E-2,-1.8960709E-3,-4.488759E-2,1.563964E-2,1.1229919E-1,-2.147526E-4,-1.969018E-2,-1.5288626E-1,-2.2597281E-2,2.4882078E-1,1.2842106E-2,6.390699E-2,2.1487115E-2,-1.8783318E-4,6.1037013E-4,-1.8229457E-3,1.7869896E-4,-1.5138633E-3,-1.2682716E-2,-5.342549E-4,-1.3261035E-2,-5.11198E-4,1.692885E-2,1.2034769E-3,-1.3844755E-3,1.0372894E-2,1.9589504E-3],"categories":[],"categories_nodes":[],"categories_segments":[],"categories_sizes":[],"default_left":[0,0,0,0,0,0,0,0,0,0,0,0,0,0,0,0,0,0,0,0,0,0,0,0,0,0,0,0,0],"id":32,"left_children":[1,3,5,7,9,11,13,15,17,19,21,23,25,27,-1,-1,-1,-1,-1,-1,-1,-1,-1,-1,-1,-1,-1,-1,-1],"loss_changes":[2.057515E-1,1.400825E-1,2.0904543E-1,1.448566E-1,1.8190908E-1,2.1990226E-1,3.412189E-1,1.9473775E-1,1.6319644E-1,1.5293598E-1,1.8502745E-1,9.6465126E-2,1.5493385E-1,6.9965936E-2,0E0,0E0,0E0,0E0,0E0,0E0,0E0,0E0,0E0,0E0,0E0,0E0,0E0,0E0,0E0],"parents":[2147483647,0,0,1,1,2,2,3,3,4,4,5,5,6,6,7,7,8,8,9,9,10,10,11,11,12,12,13,13],"right_children":[2,4,6,8,10,12,14,16,18,20,22,24,26,28,-1,-1,-1,-1,-1,-1,-1,-1,-1,-1,-1,-1,-1,-1,-1],"split_conditions":[1.5778742E0,6.696202E-1,1.8186156E0,1.5111405E0,-3.996016E-1,-4.6223223E-1,5.213911E-1,3.3786952E-1,2.2569215E0,-3.4781632E-1,1.4414397E0,-3.499637E-1,5.213911E-1,6.4747053E-1,2.1487115E-2,-1.8783318E-4,6.1037013E-4,-1.8229457E-3,1.7869896E-4,-1.5138633E-3,-1.2682716E-2,-5.342549E-4,-1.3261035E-2,-5.11198E-4,1.692885E-2,1.2034769E-3,-1.3844755E-3,1.0372894E-2,1.9589504E-3],"split_indices":[6,3,16,30,13,11,30,30,30,30,30,3,30,5,0,0,0,0,0,0,0,0,0,0,0,0,0,0,0],"split_type":[0,0,0,0,0,0,0,0,0,0,0,0,0,0,0,0,0,0,0,0,0,0,0,0,0,0,0,0,0],"sum_hessian":[5.281E3,4.917E3,3.64E2,4.841E3,7.6E1,3.41E2,2.3E1,4.424E3,4.17E2,1.2E1,6.4E1,3E0,3.38E2,2.1E1,2E0,3.443E3,9.81E2,2.42E2,1.75E2,6E0,6E0,6.2E1,2E0,1E0,2E0,2.65E2,7.3E1,2E0,1.9E1],"tree_param":{"num_deleted":"0","num_feature":"31","num_nodes":"29","size_leaf_vector":"1"}},{"base_weights":[-5.7185016E-4,-6.423243E-3,9.199353E-3,-2.9581293E-2,-3.5429369E-3,5.7319418E-2,6.919938E-3,-1.451036E-1,-1.8147312E-2,1.521305E-1,-5.2419156E-3,-1.3516148E-2,1.0702568E-1,-4.130405E-2,8.974974E-3,-1.00561185E-2,2.7547632E-3,2.5939455E-3,-1.8054368E-3,9.51071E-3,-8.100449E-3,-4.434338E-4,4.609264E-4,-8.1317965E-3,4.4053825E-4,9.556006E-3,2.7205278E-3,-4.0353383E-3,8.403862E-6,2.7303065E-3,3.206379E-4],"categories":[],"categories_nodes":[],"categories_segments":[],"categories_sizes":[],"default_left":[0,0,0,0,0,0,0,0,0,0,0,0,0,0,0,0,0,0,0,0,0,0,0,0,0,0,0,0,0,0,0],"id":33,"left_children":[1,3,5,7,9,11,13,15,17,19,21,23,25,27,29,-1,-1,-1,-1,-1,-1,-1,-1,-1,-1,-1,-1,-1,-1,-1,-1],"loss_changes":[3.0423084E-1,2.2188038E-1,2.1820666E-1,4.8345056E-1,7.8393996E-1,3.1833398E-1,1.8906097E-1,3.8117224E-1,4.2448425E-1,4.1365153E-1,1.5374431E-1,1.2794955E-1,2.2410691E-1,1.2747449E-1,2.1325698E-1,0E0,0E0,0E0,0E0,0E0,0E0,0E0,0E0,0E0,0E0,0E0,0E0,0E0,0E0,0E0,0E0],"parents":[2147483647,0,0,1,1,2,2,3,3,4,4,5,5,6,6,7,7,8,8,9,9,10,10,11,11,12,12,13,13,14,14],"right_children":[2,4,6,8,10,12,14,16,18,20,22,24,26,28,30,-1,-1,-1,-1,-1,-1,-1,-1,-1,-1,-1,-1,-1,-1,-1,-1],"split_conditions":[3.6240116E-1,-3.0041233E-1,-9.770183E-1,-5.597929E-1,-5.5769867E-1,7.016665E-1,-1.2176523E0,1.987461E-2,-1.007755E0,2.7256687E0,1.951018E-1,-5.2522045E-1,-2.7721092E-1,-1.9762705E-1,-5.529473E-1,-1.00561185E-2,2.7547632E-3,2.5939455E-3,-1.8054368E-3,9.51071E-3,-8.100449E-3,-4.434338E-4,4.609264E-4,-8.1317965E-3,4.4053825E-4,9.556006E-3,2.7205278E-3,-4.0353383E-3,8.403862E-6,2.7303065E-3,3.206379E-4],"split_indices":[2,1,28,23,23,2,30,2,2,30,23,23,1,23,23,0,0,0,0,0,0,0,0,0,0,0,0,0,0,0,0],"split_type":[0,0,0,0,0,0,0,0,0,0,0,0,0,0,0,0,0,0,0,0,0,0,0,0,0,0,0,0,0,0,0],"sum_hessian":[5.319E3,3.327E3,1.992E3,3.67E2,2.96E3,8.9E1,1.903E3,3.2E1,3.35E2,3.1E1,2.929E3,3.7E1,5.2E1,7.7E1,1.826E3,2.5E1,7E0,6.8E1,2.67E2,2.8E1,3E0,2.342E3,5.87E2,4E0,3.3E1,1.9E1,3.3E1,3.9E1,3.8E1,9.6E1,1.73E3],"tree_param":{"num_deleted":"0","num_feature":"31","num_nodes":"31","size_leaf_vector":"1"}},{"base_weights":[5.450182E-5,-1.1087769E-2,6.9545307E-3,-2.7196617E-3,-2.1177897E-2,4.626733E-2,5.0899037E-3,-5.3853527E-2,1.7546555E-4,1.1086056E-2,-2.7043235E-2,3.876803E-2,3.9331105E-1,4.8681935E-3,1.732089E-2,-5.820174E-3,-1.6822929E-3,-5.8851475E-3,6.576596E-5,4.9628406E-3,-9.910759E-6,-7.193293E-4,-1.8725854E-3,-6.842055E-4,3.6946707E-3,3.1237744E-3,2.6374554E-2,5.9344155E-5,8.927922E-4],"categories":[],"categories_nodes":[],"categories_segments":[],"categories_sizes":[],"default_left":[0,0,0,0,0,0,0,0,0,0,0,0,0,0,0,0,0,0,0,0,0,0,0,0,0,0,0,0,0],"id":34,"left_children":[1,3,5,7,9,11,13,15,17,19,21,23,25,27,-1,-1,-1,-1,-1,-1,-1,-1,-1,-1,-1,-1,-1,-1,-1],"loss_changes":[4.0447634E-1,1.6982618E-1,2.379282E-1,1.6300043E-1,1.7288569E-1,3.673321E-1,2.33136E-1,7.065885E-2,1.4029661E-1,1.4030658E-1,1.0116172E-1,2.6815945E-1,1.0021928E-1,1.4829029E-1,0E0,0E0,0E0,0E0,0E0,0E0,0E0,0E0,0E0,0E0,0E0,0E0,0E0,0E0,0E0],"parents":[2147483647,0,0,1,1,2,2,3,3,4,4,5,5,6,6,7,7,8,8,9,9,10,10,11,11,12,12,13,13],"right_children":[2,4,6,8,10,12,14,16,18,20,22,24,26,28,-1,-1,-1,-1,-1,-1,-1,-1,-1,-1,-1,-1,-1,-1,-1],"split_conditions":[-1.9658041E-1,1.5236424E-1,-1.18816815E-1,-1.2659843E0,-1.4154027E-1,3.2407162E0,8.814015E0,-7.898066E-1,-9.7565335E-1,-8.660121E-1,-1.605395E-1,-3.3271593E-1,-1.5736367E-1,9.2269117E-1,1.732089E-2,-5.820174E-3,-1.6822929E-3,-5.8851475E-3,6.576596E-5,4.9628406E-3,-9.910759E-6,-7.193293E-4,-1.8725854E-3,-6.842055E-4,3.6946707E-3,3.1237744E-3,2.6374554E-2,5.9344155E-5,8.927922E-4],"split_indices":[2,18,2,29,4,18,18,7,7,29,11,29,4,2,0,0,0,0,0,0,0,0,0,0,0,0,0,0,0],"split_type":[0,0,0,0,0,0,0,0,0,0,0,0,0,0,0,0,0,0,0,0,0,0,0,0,0,0,0,0,0],"sum_hessian":[5.259E3,2.011E3,3.248E3,1.1E3,9.11E2,1.46E2,3.102E3,5.8E1,1.042E3,1.4E2,7.71E2,1.44E2,2E0,3.101E3,1E0,1.3E1,4.5E1,9E0,1.033E3,1.5E1,1.25E2,3.49E2,4.22E2,5.8E1,8.6E1,1E0,1E0,2.417E3,6.84E2],"tree_param":{"num_deleted":"0","num_feature":"31","num_nodes":"29","size_leaf_vector":"1"}},{"base_weights":[-3.0165762E-3,-3.1431678E-3,1.6887868E-2,-1.4968742E-2,2.460517E-4,-1.3267517E-2,-1.3197306E-1,-3.6601576E-3,1.0837468E-2,-8.471006E-4,1.7706677E-3,-1.2376498E-2,-2.3219646E-3,-9.811058E-4,7.961664E-7,1.9058473E-3,1.3489058E-4],"categories":[],"categories_nodes":[],"categories_segments":[],"categories_sizes":[],"default_left":[0,0,0,0,0,0,0,0,0,0,0,0,0,0,0,0,0],"id":35,"left_children":[1,3,-1,5,7,9,11,13,15,-1,-1,-1,-1,-1,-1,-1,-1],"loss_changes":[2.3233053E-1,2.1482962E-1,0E0,2.3591545E-1,1.72438E-1,2.1131775E-1,1.5653321E-1,1.7867315E-1,2.4925439E-1,0E0,0E0,0E0,0E0,0E0,0E0,0E0,0E0],"parents":[2147483647,0,0,1,1,3,3,4,4,5,5,6,6,7,7,8,8],"right_children":[2,4,-1,6,8,10,12,14,16,-1,-1,-1,-1,-1,-1,-1,-1],"split_conditions":[9.44133E0,-2.6292762E-1,1.6887868E-2,3.0003853E0,5.9990317E-1,1.9437125E0,9.170861E-3,-3.6773175E-1,-3.5354817E-1,-8.471006E-4,1.7706677E-3,-1.2376498E-2,-2.3219646E-3,-9.811058E-4,7.961664E-7,1.9058473E-3,1.3489058E-4],"split_indices":[18,0,0,29,2,18,3,13,13,0,0,0,0,0,0,0,0],"split_type":[0,0,0,0,0,0,0,0,0,0,0,0,0,0,0,0,0],"sum_hessian":[5.36E3,5.359E3,1E0,1.193E3,4.166E3,1.177E3,1.6E1,3.044E3,1.122E3,1.095E3,8.2E1,6E0,1E1,5.69E2,2.475E3,2.57E2,8.65E2],"tree_param":{"num_deleted":"0","num_feature":"31","num_nodes":"17","size_leaf_vector":"1"}},{"base_weights":[-3.7456368E-4,8.364198E-3,-4.581013E-3,8.089958E-2,6.0066753E-3,-1.9748492E-2,-1.2727224E-3,-6.1097577E-2,1.0334805E-1,-4.434732E-3,1.7745597E-2,-3.192978E-2,1.3248098E-2,-6.4832595E-4,-7.6875724E-2,-2.7707865E-4,-7.5921863E-3,3.419921E-4,6.4623244E-3,-4.2922944E-3,2.2387858E-6,5.89556E-3,4.7904873E-4,-6.683603E-3,-1.0780364E-3,7.484607E-3,-1.7813855E-4,-5.705479E-4,1.6234406E-4,3.1263945E-3,-6.897766E-3],"categories":[],"categories_nodes":[],"categories_segments":[],"categories_sizes":[],"default_left":[0,0,0,0,0,0,0,0,0,0,0,0,0,0,0,0,0,0,0,0,0,0,0,0,0,0,0,0,0,0,0],"id":36,"left_children":[1,3,5,7,9,11,13,15,17,19,21,23,25,27,29,-1,-1,-1,-1,-1,-1,-1,-1,-1,-1,-1,-1,-1,-1,-1,-1],"loss_changes":[1.9434723E-1,2.9329863E-1,1.790617E-1,1.7844567E-1,2.0415922E-1,2.5726324E-1,1.3831167E-1,3.94905E-2,1.16588354E-1,3.2165328E-1,6.4003676E-1,4.8978952E-1,3.973508E-1,1.219482E-1,2.1297926E-1,0E0,0E0,0E0,0E0,0E0,0E0,0E0,0E0,0E0,0E0,0E0,0E0,0E0,0E0,0E0,0E0],"parents":[2147483647,0,0,1,1,2,2,3,3,4,4,5,5,6,6,7,7,8,8,9,9,10,10,11,11,12,12,13,13,14,14],"right_children":[2,4,6,8,10,12,14,16,18,20,22,24,26,28,30,-1,-1,-1,-1,-1,-1,-1,-1,-1,-1,-1,-1,-1,-1,-1,-1],"split_conditions":[-3.0622581E-2,-9.478741E-1,6.7223925E-3,-1.0819374E0,-1.14293724E-1,3.495016E-1,4.183773E0,-7.265539E-2,-3.2398626E-1,-5.489146E-1,-5.430225E-1,-5.3880674E-1,-5.475664E-1,-6.7391855E-1,5.9163444E-2,-2.7707865E-4,-7.5921863E-3,3.419921E-4,6.4623244E-3,-4.2922944E-3,2.2387858E-6,5.89556E-3,4.7904873E-4,-6.683603E-3,-1.0780364E-3,7.484607E-3,-1.7813855E-4,-5.705479E-4,1.6234406E-4,3.1263945E-3,-6.897766E-3],"split_indices":[3,28,3,28,3,9,10,11,11,23,23,23,23,28,3,0,0,0,0,0,0,0,0,0,0,0,0,0,0,0,0],"split_type":[0,0,0,0,0,0,0,0,0,0,0,0,0,0,0,0,0,0,0,0,0,0,0,0,0,0,0,0,0,0,0],"sum_hessian":[5.285E3,1.717E3,3.568E3,5.3E1,1.664E3,6.38E2,2.93E3,7E0,4.6E1,8.81E2,7.83E2,4.66E2,1.72E2,2.907E3,2.3E1,5E0,2E0,1E1,3.6E1,4.5E1,8.36E2,5.8E1,7.25E2,4.2E1,4.24E2,1.8E1,1.54E2,7.72E2,2.135E3,7E0,1.6E1],"tree_param":{"num_deleted":"0","num_feature":"31","num_nodes":"31","size_leaf_vector":"1"}},{"base_weights":[1.4149533E-3,6.4862834E-4,5.6046087E-2,-1.3674041E-2,3.0473694E-3,4.7679164E-2,1.646161E-2,-1.620312E-2,2.2197512E-1,2.9962184E-2,-2.9740162E-4,2.0286074E-1,3.307068E-2,-3.6067673E-4,-3.3539564E-3,-4.616201E-3,1.4003207E-2,2.6607194E-3,2.513994E-4,-1.2642465E-3,3.4886296E-5,2.1651846E-3,1.3590666E-2,-3.3025425E-3,2.794906E-3],"categories":[],"categories_nodes":[],"categories_segments":[],"categories_sizes":[],"default_left":[0,0,0,0,0,0,0,0,0,0,0,0,0,0,0,0,0,0,0,0,0,0,0,0,0],"id":37,"left_children":[1,3,5,7,9,11,-1,13,15,17,19,21,23,-1,-1,-1,-1,-1,-1,-1,-1,-1,-1,-1,-1],"loss_changes":[2.2092818E-1,1.7890096E-1,1.5116055E-1,4.487905E-1,4.0151548E-1,1.5651296E-1,0E0,3.3795822E-1,1.719153E-1,2.855615E-1,9.868504E-2,5.424072E-2,1.5529239E-1,0E0,0E0,0E0,0E0,0E0,0E0,0E0,0E0,0E0,0E0,0E0,0E0],"parents":[2147483647,0,0,1,1,2,2,3,3,4,4,5,5,7,7,8,8,9,9,10,10,11,11,12,12],"right_children":[2,4,6,8,10,12,-1,14,16,18,20,22,24,-1,-1,-1,-1,-1,-1,-1,-1,-1,-1,-1,-1],"split_conditions":[2.9920158E0,-2.990128E-1,9.44133E0,2.4472122E0,-4.9563703E-1,-5.445405E-1,1.646161E-2,8.5995394E-1,-3.655814E-1,-2.4032116E-1,-2.8569853E-1,-3.334163E-1,-4.404034E-1,-3.6067673E-4,-3.3539564E-3,-4.616201E-3,1.4003207E-2,2.6607194E-3,2.513994E-4,-1.2642465E-3,3.4886296E-5,2.1651846E-3,1.3590666E-2,-3.3025425E-3,2.794906E-3],"split_indices":[17,1,18,18,23,23,0,9,14,1,1,1,23,0,0,0,0,0,0,0,0,0,0,0,0],"split_type":[0,0,0,0,0,0,0,0,0,0,0,0,0,0,0,0,0,0,0,0,0,0,0,0,0],"sum_hessian":[5.277E3,5.205E3,7.2E1,7.46E2,4.459E3,7.1E1,1E0,7.39E2,7E0,4.92E2,3.967E3,5E0,6.6E1,6.29E2,1.1E2,1E0,6E0,2.54E2,2.38E2,1.51E2,3.816E3,2E0,3E0,1.2E1,5.4E1],"tree_param":{"num_deleted":"0","num_feature":"31","num_nodes":"25","size_leaf_vector":"1"}},{"base_weights":[4.6332803E-5,1.588998E-3,-2.011951E-2,7.1876537E-4,2.9733472E-2,-2.892721E-2,3.9069008E-2,2.1875536E-3,-3.5996843E-2,-8.906898E-2,4.1923776E-2,-7.475005E-2,-1.834998E-2,2.8459507E-1,1.0920133E-2,7.995873E-5,3.6189675E-3,-7.0251883E-3,-6.4595963E-4,-5.351296E-3,3.6092815E-3,1.742523E-2,1.8499161E-3,-6.2618232E-3,1.0220577E-3,-5.844887E-4,-4.5994557E-3,1.6132554E-2,3.3092778E-3,-3.5812912E-4,4.772401E-3],"categories":[],"categories_nodes":[],"categories_segments":[],"categories_sizes":[],"default_left":[0,0,0,0,0,0,0,0,0,0,0,0,0,0,0,0,0,0,0,0,0,0,0,0,0,0,0,0,0,0,0],"id":38,"left_children":[1,3,5,7,9,11,13,15,17,19,21,23,25,27,29,-1,-1,-1,-1,-1,-1,-1,-1,-1,-1,-1,-1,-1,-1,-1,-1],"loss_changes":[1.6416381E-1,1.2003959E-1,1.9662318E-1,2.5655773E-1,2.1662511E-1,1.5711829E-1,3.35545E-1,1.8878765E-1,4.395395E-1,4.8264682E-2,1.894526E-1,2.9571763E-1,1.2987533E-1,2.0204097E-2,6.946587E-2,0E0,0E0,0E0,0E0,0E0,0E0,0E0,0E0,0E0,0E0,0E0,0E0,0E0,0E0,0E0,0E0],"parents":[2147483647,0,0,1,1,2,2,3,3,4,4,5,5,6,6,7,7,8,8,9,9,10,10,11,11,12,12,13,13,14,14],"right_children":[2,4,6,8,10,12,14,16,18,20,22,24,26,28,30,-1,-1,-1,-1,-1,-1,-1,-1,-1,-1,-1,-1,-1,-1,-1,-1],"split_conditions":[2.5718433E-1,2.419716E0,2.2527944E-1,1.7550775E0,-1.5659733E-1,-2.7366313E-1,-2.9378587E-1,1.6395106E0,-2.7552152E-1,9.477706E-2,-4.6223223E-1,-1.4103056E-1,1.5338207E0,8.05547E-2,1.3175987E0,7.995873E-5,3.6189675E-3,-7.0251883E-3,-6.4595963E-4,-5.351296E-3,3.6092815E-3,1.742523E-2,1.8499161E-3,-6.2618232E-3,1.0220577E-3,-5.844887E-4,-4.5994557E-3,1.6132554E-2,3.3092778E-3,-3.5812912E-4,4.772401E-3],"split_indices":[3,6,11,8,3,0,0,8,0,0,11,6,29,6,6,0,0,0,0,0,0,0,0,0,0,0,0,0,0,0,0],"split_type":[0,0,0,0,0,0,0,0,0,0,0,0,0,0,0,0,0,0,0,0,0,0,0,0,0,0,0,0,0,0,0],"sum_hessian":[5.275E3,4.901E3,3.74E2,4.755E3,1.46E2,3.26E2,4.8E1,4.573E3,1.82E2,1.3E1,1.33E2,6E1,2.66E2,4E0,4.4E1,4.536E3,3.7E1,3.2E1,1.5E2,1.2E1,1E0,1E0,1.32E2,3.9E1,2.1E1,2.45E2,2.1E1,3E0,1E0,3.7E1,7E0],"tree_param":{"num_deleted":"0","num_feature":"31","num_nodes":"31","size_leaf_vector":"1"}},{"base_weights":[-6.198197E-4,-2.3424753E-3,1.3742969E-2,2.3590509E-2,-3.3007096E-3,3.1011488E-2,-2.8709255E-2,5.7293866E-2,-2.7832618E-2,2.8235376E-2,-4.044786E-3,2.570021E-2,1.7371841E-1,9.474777E-2,-4.2042155E-2,5.2944412E-3,1.2244539E-3,-2.785479E-3,4.505248E-3,3.3968189E-3,-1.932847E-3,-3.2412552E-3,-1.6552676E-4,2.051867E-3,-6.0571E-4,1.4777272E-2,3.6599182E-3,2.4979047E-3,1.3609185E-2,-4.716748E-3,1.13929615E-4],"categories":[],"categories_nodes":[],"categories_segments":[],"categories_sizes":[],"default_left":[0,0,0,0,0,0,0,0,0,0,0,0,0,0,0,0,0,0,0,0,0,0,0,0,0,0,0,0,0,0,0],"id":39,"left_children":[1,3,5,7,9,11,13,15,17,19,21,23,25,27,29,-1,-1,-1,-1,-1,-1,-1,-1,-1,-1,-1,-1,-1,-1,-1,-1],"loss_changes":[1.2822123E-1,1.15058236E-1,4.0775365E-1,2.875614E-1,1.0483961E-1,2.9492816E-1,2.6899585E-1,1.5682164E-1,2.220106E-1,2.7616248E-1,1.9440812E-1,2.220436E-1,1.4981139E-1,1.1355899E-1,3.385927E-1,0E0,0E0,0E0,0E0,0E0,0E0,0E0,0E0,0E0,0E0,0E0,0E0,0E0,0E0,0E0,0E0],"parents":[2147483647,0,0,1,1,2,2,3,3,4,4,5,5,6,6,7,7,8,8,9,9,10,10,11,11,12,12,13,13,14,14],"right_children":[2,4,6,8,10,12,14,16,18,20,22,24,26,28,30,-1,-1,-1,-1,-1,-1,-1,-1,-1,-1,-1,-1,-1,-1,-1,-1],"split_conditions":[1.0156988E0,-1.296925E0,-3.6433913E-2,7.5791407E-1,-1.0061625E0,1.6449347E0,-3.7755218E-1,-1.7611217E-1,6.8316925E-1,-5.132617E-2,-1.2277048E0,8.5307384E-1,2.2333066E0,2.3601854E0,5.970788E-2,5.2944412E-3,1.2244539E-3,-2.785479E-3,4.505248E-3,3.3968189E-3,-1.932847E-3,-3.2412552E-3,-1.6552676E-4,2.051867E-3,-6.0571E-4,1.4777272E-2,3.6599182E-3,2.4979047E-3,1.3609185E-2,-4.716748E-3,1.13929615E-4],"split_indices":[2,27,4,30,28,27,13,2,2,13,27,26,27,2,4,0,0,0,0,0,0,0,0,0,0,0,0,0,0,0,0],"split_type":[0,0,0,0,0,0,0,0,0,0,0,0,0,0,0,0,0,0,0,0,0,0,0,0,0,0,0,0,0,0,0],"sum_hessian":[5.18E3,4.626E3,5.54E2,1.64E2,4.462E3,3.94E2,1.6E2,9.9E1,6.5E1,1.02E2,4.36E3,3.81E2,1.3E1,1.5E1,1.45E2,3.9E1,6E1,5.3E1,1.2E1,6.4E1,3.8E1,5.1E1,4.309E3,2.71E2,1.1E2,5E0,8E0,1.3E1,2E0,6.6E1,7.9E1],"tree_param":{"num_deleted":"0","num_feature":"31","num_nodes":"31","size_leaf_vector":"1"}},{"base_weights":[1.3196754E-3,6.364505E-4,6.7315005E-2,3.5253544E-3,-8.4601985E-3,1.4260787E-1,1.1094662E-2,2.5719164E-3,5.572678E-2,-1.0886266E-2,2.5576582E-2,1.0169296E-1,1.9073814E-2,-2.33371E-3,1.0684355E-2,8.1831204E-5,2.607933E-3,8.475814E-3,1.4854999E-3,-4.1444978E-4,-6.2673427E-3,-1.5081155E-2,1.657638E-3,7.275231E-3,6.155468E-4,-1.5023815E-3,2.2025318E-3],"categories":[],"categories_nodes":[],"categories_segments":[],"categories_sizes":[],"default_left":[0,0,0,0,0,0,0,0,0,0,0,0,0,0,0,0,0,0,0,0,0,0,0,0,0,0,0],"id":40,"left_children":[1,3,5,7,9,11,13,15,17,19,21,23,-1,25,-1,-1,-1,-1,-1,-1,-1,-1,-1,-1,-1,-1,-1],"loss_changes":[2.3762472E-1,1.3715544E-1,2.2699933E-1,1.969989E-1,1.0415844E-1,1.8599197E-1,8.755426E-2,1.8037184E-1,2.0515469E-1,3.4827107E-1,2.1822919E-1,8.044416E-2,0E0,4.1173868E-2,0E0,0E0,0E0,0E0,0E0,0E0,0E0,0E0,0E0,0E0,0E0,0E0,0E0],"parents":[2147483647,0,0,1,1,2,2,3,3,4,4,5,5,6,6,7,7,8,8,9,9,10,10,11,11,13,13],"right_children":[2,4,6,8,10,12,14,16,18,20,22,24,-1,26,-1,-1,-1,-1,-1,-1,-1,-1,-1,-1,-1,-1,-1],"split_conditions":[3.4379237E0,1.3918761E0,-2.6903903E-1,8.5307384E-1,1.2296133E0,8.6720055E-1,1.960725E0,2.7710168E0,-2.51182E-1,1.0565628E0,-3.2890907E-1,-3.0260327E-1,1.9073814E-2,-1.9939186E-1,1.0684355E-2,8.1831204E-5,2.607933E-3,8.475814E-3,1.4854999E-3,-4.1444978E-4,-6.2673427E-3,-1.5081155E-2,1.657638E-3,7.275231E-3,6.155468E-4,-1.5023815E-3,2.2025318E-3],"split_indices":[17,26,1,26,27,29,7,7,1,27,1,1,0,29,0,0,0,0,0,0,0,0,0,0,0,0,0],"split_type":[0,0,0,0,0,0,0,0,0,0,0,0,0,0,0,0,0,0,0,0,0,0,0,0,0,0,0],"sum_hessian":[5.27E3,5.217E3,5.3E1,3.96E3,1.257E3,2.2E1,3.1E1,3.89E3,7E1,1.174E3,8.3E1,2E1,2E0,3E1,1E0,3.819E3,7.1E1,1.2E1,5.8E1,1.149E3,2.5E1,1E0,8.2E1,1.3E1,7E0,1.9E1,1.1E1],"tree_param":{"num_deleted":"0","num_feature":"31","num_nodes":"27","size_leaf_vector":"1"}},{"base_weights":[4.8585027E-4,1.2748131E-3,-3.810348E-2,9.741139E-4,1.1224915E-1,-9.218584E-3,-3.0559907E-2,1.6394778E-3,-6.720524E-2,1.3238576E-1,-3.7381698E-3,-6.123209E-2,8.111276E-3,1.4746148E-3,2.0358506E-5,-9.390415E-3,-1.8075359E-3,7.0939036E-3,4.619515E-4,2.410401E-3,-3.8758933E-3,8.005799E-3,-3.1086657E-4],"categories":[],"categories_nodes":[],"categories_segments":[],"categories_sizes":[],"default_left":[0,0,0,0,0,0,0,0,0,0,0,0,0,0,0,0,0,0,0,0,0,0,0],"id":41,"left_children":[1,3,5,7,9,-1,11,13,15,17,-1,19,21,-1,-1,-1,-1,-1,-1,-1,-1,-1,-1],"loss_changes":[1.6107507E-1,1.7288017E-1,1.11324444E-1,2.3468788E-1,6.261881E-2,0E0,1.21481895E-1,1.7579164E-1,1.8047418E-1,1.3885498E-2,0E0,1.0532904E-1,1.01184204E-1,0E0,0E0,0E0,0E0,0E0,0E0,0E0,0E0,0E0,0E0],"parents":[2147483647,0,0,1,1,2,2,3,3,4,4,6,6,7,7,8,8,9,9,11,11,12,12],"right_children":[2,4,6,8,10,-1,12,14,16,18,-1,20,22,-1,-1,-1,-1,-1,-1,-1,-1,-1,-1],"split_conditions":[2.7348044E0,6.4911547E0,-3.0348355E-1,2.8396096E0,1.05631E0,-9.218584E-3,-1.3177063E-1,-3.2433113E-1,9.721653E-1,1.1183573E0,-3.7381698E-3,-4.0500435E-1,-1.1058972E-1,1.4746148E-3,2.0358506E-5,-9.390415E-3,-1.8075359E-3,7.0939036E-3,4.619515E-4,2.410401E-3,-3.8758933E-3,8.005799E-3,-3.1086657E-4],"split_indices":[22,12,1,12,5,0,11,1,13,15,0,12,11,0,0,0,0,0,0,0,0,0,0],"split_type":[0,0,0,0,0,0,0,0,0,0,0,0,0,0,0,0,0,0,0,0,0,0,0],"sum_hessian":[5.288E3,5.183E3,1.05E2,5.17E3,1.3E1,4E0,1.01E2,5.121E3,4.9E1,1.2E1,1E0,5.6E1,4.5E1,2.16E2,4.905E3,9E0,4E1,1.1E1,1E0,7E0,4.9E1,3E0,4.2E1],"tree_param":{"num_deleted":"0","num_feature":"31","num_nodes":"23","size_leaf_vector":"1"}},{"base_weights":[4.938523E-4,4.1407645E-3,-1.26169585E-2,3.1336865E-3,7.3217586E-2,-2.0533325E-2,1.5597912E-2,-6.765749E-4,1.1382836E-2,5.2110534E-2,2.907516E-1,-2.5864026E-2,4.452098E-2,3.158828E-2,-4.931512E-2,-6.737895E-5,4.1630096E-3,3.2465847E-3,3.807756E-4,-4.275917E-4,6.2623727E-3,1.6393391E-2,3.5571717E-3,-9.4134425E-4,-3.2223884E-3,4.301037E-3,-1.0841562E-3,9.282007E-4,7.459044E-3,-8.9862023E-4,-7.940273E-3],"categories":[],"categories_nodes":[],"categories_segments":[],"categories_sizes":[],"default_left":[0,0,0,0,0,0,0,0,0,0,0,0,0,0,0,0,0,0,0,0,0,0,0,0,0,0,0,0,0,0,0],"id":42,"left_children":[1,3,5,7,9,11,13,15,17,19,21,23,25,27,29,-1,-1,-1,-1,-1,-1,-1,-1,-1,-1,-1,-1,-1,-1,-1,-1],"loss_changes":[2.5112343E-1,2.8561622E-1,2.556199E-1,1.2733637E-1,2.5574732E-1,3.108306E-1,2.6209155E-1,1.5623654E-1,2.5772744E-1,2.4508731E-1,1.7429471E-2,2.2306156E-1,1.8869211E-1,3.066051E-1,1.6873209E-1,0E0,0E0,0E0,0E0,0E0,0E0,0E0,0E0,0E0,0E0,0E0,0E0,0E0,0E0,0E0,0E0],"parents":[2147483647,0,0,1,1,2,2,3,3,4,4,5,5,6,6,7,7,8,8,9,9,10,10,11,11,12,12,13,13,14,14],"right_children":[2,4,6,8,10,12,14,16,18,20,22,24,26,28,30,-1,-1,-1,-1,-1,-1,-1,-1,-1,-1,-1,-1,-1,-1,-1,-1],"split_conditions":[4.1745374E-1,1.274979E0,1.7614578E0,-8.0598176E-2,1.0005245E0,2.419716E0,8.793525E-1,3.9217862E-1,-2.698979E-2,3.71602E-1,1.3566372E0,1.31389E0,4.6722835E-1,5.576695E-1,-1.1548222E-1,-6.737895E-5,4.1630096E-3,3.2465847E-3,3.807756E-4,-4.275917E-4,6.2623727E-3,1.6393391E-2,3.5571717E-3,-9.4134425E-4,-3.2223884E-3,4.301037E-3,-1.0841562E-3,9.282007E-4,7.459044E-3,-8.9862023E-4,-7.940273E-3],"split_indices":[7,5,5,6,29,6,30,7,6,15,5,5,29,30,4,0,0,0,0,0,0,0,0,0,0,0,0,0,0,0,0],"split_type":[0,0,0,0,0,0,0,0,0,0,0,0,0,0,0,0,0,0,0,0,0,0,0,0,0,0,0,0,0,0,0],"sum_hessian":[5.25E3,4.108E3,1.142E3,4.05E3,5.8E1,8.92E2,2.5E2,2.771E3,1.279E3,5.4E1,4E0,8.25E2,6.7E1,2.01E2,4.9E1,2.75E3,2.1E1,8.3E1,1.196E3,3E1,2.4E1,3E0,1E0,6.99E2,1.26E2,4.1E1,2.6E1,1.82E2,1.9E1,3.9E1,1E1],"tree_param":{"num_deleted":"0","num_feature":"31","num_nodes":"31","size_leaf_vector":"1"}},{"base_weights":[2.1388119E-3,-1.852622E-3,1.7120056E-2,-2.5542292E-3,5.5912677E-2,3.1368583E-2,5.913623E-3,-1.1116716E-3,-3.3185028E-2,2.3485672E-2,1.4639834E-1,2.8168352E-2,1.9856215E-1,-6.60118E-2,9.28841E-3,-1.7340111E-5,-2.480938E-3,-2.156085E-3,3.3774641E-3,2.4854604E-3,-4.987422E-3,1.2770637E-2,-1.1676959E-3,1.2642776E-3,7.4390927E-3,1.3117957E-2,-8.2424557E-4,5.6882887E-3,-6.010661E-3,8.600089E-3,1.9571667E-4],"categories":[],"categories_nodes":[],"categories_segments":[],"categories_sizes":[],"default_left":[0,0,0,0,0,0,0,0,0,0,0,0,0,0,0,0,0,0,0,0,0,0,0,0,0,0,0,0,0,0,0],"id":43,"left_children":[1,3,5,7,9,11,13,15,17,19,21,23,25,27,29,-1,-1,-1,-1,-1,-1,-1,-1,-1,-1,-1,-1,-1,-1,-1,-1],"loss_changes":[3.1521982E-1,1.6886318E-1,1.7689428E-1,1.8174718E-1,1.4327067E-1,2.555151E-1,1.5159304E-1,1.4579202E-1,1.8809125E-1,1.277605E-1,2.4653557E-1,1.6313633E-1,1.2779918E-1,2.8651372E-1,5.1961505E-1,0E0,0E0,0E0,0E0,0E0,0E0,0E0,0E0,0E0,0E0,0E0,0E0,0E0,0E0,0E0,0E0],"parents":[2147483647,0,0,1,1,2,2,3,3,4,4,5,5,6,6,7,7,8,8,9,9,10,10,11,11,12,12,13,13,14,14],"right_children":[2,4,6,8,10,12,14,16,18,20,22,24,26,28,30,-1,-1,-1,-1,-1,-1,-1,-1,-1,-1,-1,-1,-1,-1,-1,-1],"split_conditions":[7.016665E-1,3.2707083E0,-3.9144206E-1,1.8772471E0,-3.5864216E-1,2.067117E0,-3.0462894E-1,3.0003853E0,2.4716006E-1,-4.4599015E-1,-2.4424325E-1,-3.9736286E-1,-1.5544978E-1,-1.6544245E-1,-2.913471E-1,-1.7340111E-5,-2.480938E-3,-2.156085E-3,3.3774641E-3,2.4854604E-3,-4.987422E-3,1.2770637E-2,-1.1676959E-3,1.2642776E-3,7.4390927E-3,1.3117957E-2,-8.2424557E-4,5.6882887E-3,-6.010661E-3,8.600089E-3,1.9571667E-4],"split_indices":[2,17,14,17,7,29,0,29,14,7,0,14,7,14,0,0,0,0,0,0,0,0,0,0,0,0,0,0,0,0,0],"split_type":[0,0,0,0,0,0,0,0,0,0,0,0,0,0,0,0,0,0,0,0,0,0,0,0,0,0,0,0,0,0,0],"sum_hessian":[5.27E3,4.162E3,1.108E3,4.113E3,4.9E1,4.87E2,6.21E2,3.929E3,1.84E2,3.7E1,1.2E1,4.79E2,8E0,2.7E1,5.94E2,3.869E3,6E1,1.68E2,1.6E1,3.1E1,6E0,7E0,5E0,4.69E2,1E1,6E0,2E0,6E0,2.1E1,1.8E1,5.76E2],"tree_param":{"num_deleted":"0","num_feature":"31","num_nodes":"31","size_leaf_vector":"1"}},{"base_weights":[-1.0436954E-3,-6.7578596E-3,5.827087E-3,1.0279823E-1,-7.328496E-3,5.215396E-2,4.0180553E-3,3.1323418E-2,3.7825635E-1,-1.0114198E-2,1.628682E-2,1.3815933E-1,1.1084444E-2,8.165807E-3,-1.6591761E-2,-1.8828105E-3,7.461103E-3,2.8735256E-2,-3.6602942E-4,-4.6248696E-4,-9.666454E-3,1.3826927E-3,-3.0684166E-3,1.2637262E-2,2.1203898E-3,-9.711519E-4,4.3368675E-3,5.0997955E-4,-1.7167988E-3,-1.8409953E-3,3.9341138E-4],"categories":[],"categories_nodes":[],"categories_segments":[],"categories_sizes":[],"default_left":[0,0,0,0,0,0,0,0,0,0,0,0,0,0,0,0,0,0,0,0,0,0,0,0,0,0,0,0,0,0,0],"id":44,"left_children":[1,3,5,7,9,11,13,15,17,19,21,23,25,27,29,-1,-1,-1,-1,-1,-1,-1,-1,-1,-1,-1,-1,-1,-1,-1,-1],"loss_changes":[2.0725776E-1,1.809263E-1,2.0067531E-1,2.8347653E-1,1.8883681E-1,3.163665E-1,1.9743352E-1,1.11343004E-1,2.3144546E-1,4.046193E-1,2.6915783E-1,3.0746317E-1,1.4477944E-1,1.6648668E-1,1.9176966E-1,0E0,0E0,0E0,0E0,0E0,0E0,0E0,0E0,0E0,0E0,0E0,0E0,0E0,0E0,0E0,0E0],"parents":[2147483647,0,0,1,1,2,2,3,3,4,4,5,5,6,6,7,7,8,8,9,9,10,10,11,11,12,12,13,13,14,14],"right_children":[2,4,6,8,10,12,14,16,18,20,22,24,26,28,30,-1,-1,-1,-1,-1,-1,-1,-1,-1,-1,-1,-1,-1,-1,-1,-1],"split_conditions":[2.126423E-1,-9.8308724E-1,-1.0061625E0,9.076949E-2,1.2086253E0,-3.0260327E-1,6.597979E-1,5.1516515E-1,1.708258E-1,3.797798E0,8.9626694E-1,-4.4970706E-1,2.8067058E-1,1.2999338E0,9.536109E-1,-1.8828105E-3,7.461103E-3,2.8735256E-2,-3.6602942E-4,-4.6248696E-4,-9.666454E-3,1.3826927E-3,-3.0684166E-3,1.2637262E-2,2.1203898E-3,-9.711519E-4,4.3368675E-3,5.0997955E-4,-1.7167988E-3,-1.8409953E-3,3.9341138E-4],"split_indices":[2,7,28,1,6,1,7,28,1,10,12,7,7,12,10,0,0,0,0,0,0,0,0,0,0,0,0,0,0,0,0],"split_type":[0,0,0,0,0,0,0,0,0,0,0,0,0,0,0,0,0,0,0,0,0,0,0,0,0,0,0,0,0,0,0],"sum_hessian":[5.277E3,2.881E3,2.396E3,1.4E1,2.867E3,8.9E1,2.307E3,1.2E1,2E0,2.565E3,3.02E2,2.8E1,6.1E1,1.921E3,3.86E2,8E0,4E0,1E0,1E0,2.554E3,1.1E1,2.64E2,3.8E1,1.2E1,1.6E1,4.4E1,1.7E1,1.834E3,8.7E1,2.11E2,1.75E2],"tree_param":{"num_deleted":"0","num_feature":"31","num_nodes":"31","size_leaf_vector":"1"}},{"base_weights":[1.0174593E-3,-8.503917E-3,6.7657433E-3,-1.0830991E-2,2.9947001E-2,3.6403155E-3,2.1330532E-2,-9.8653985E-3,-9.5839165E-2,1.4937023E-2,2.4924578E-2,6.965992E-3,-1.7691994E-2,4.2081673E-2,-2.5739538E-2,2.71379E-3,-5.634452E-4,-7.976658E-3,-4.9112405E-4,2.3075163E-3,-1.5122648E-3,-1.1203414E-3,4.6245745E-4,-5.357371E-4,-4.178504E-3,1.6350256E-3,4.998123E-3,-2.7661517E-3,1.7383113E-4],"categories":[],"categories_nodes":[],"categories_segments":[],"categories_sizes":[],"default_left":[0,0,0,0,0,0,0,0,0,0,0,0,0,0,0,0,0,0,0,0,0,0,0,0,0,0,0,0,0],"id":45,"left_children":[1,3,5,7,9,11,13,15,17,-1,19,21,23,25,27,-1,-1,-1,-1,-1,-1,-1,-1,-1,-1,-1,-1,-1,-1],"loss_changes":[2.8975174E-1,1.7865436E-1,1.501878E-1,1.5337107E-1,1.4645341E-1,1.9302097E-1,5.705328E-1,1.6805345E-1,1.1348665E-1,0E0,1.3372132E-1,1.580059E-1,1.6779542E-1,2.1664178E-1,1.5490493E-1,0E0,0E0,0E0,0E0,0E0,0E0,0E0,0E0,0E0,0E0,0E0,0E0,0E0,0E0],"parents":[2147483647,0,0,1,1,2,2,3,3,4,4,5,5,6,6,7,7,8,8,10,10,11,11,12,12,13,13,14,14],"right_children":[2,4,6,8,10,12,14,16,18,-1,20,22,24,26,28,-1,-1,-1,-1,-1,-1,-1,-1,-1,-1,-1,-1,-1,-1],"split_conditions":[-1.9658041E-1,2.574197E0,1.0156988E0,3.797798E0,-1.6519542E-1,8.605124E-1,-5.0433584E-2,-3.0912461E0,2.9494295E0,1.4937023E-2,-5.6807154E-1,-8.4927756E-1,7.510097E-1,-9.179372E-2,5.970788E-2,2.71379E-3,-5.634452E-4,-7.976658E-3,-4.9112405E-4,2.3075163E-3,-1.5122648E-3,-1.1203414E-3,4.6245745E-4,-5.357371E-4,-4.178504E-3,1.6350256E-3,4.998123E-3,-2.7661517E-3,1.7383113E-4],"split_indices":[2,20,2,10,4,7,4,2,7,0,2,7,11,4,4,0,0,0,0,0,0,0,0,0,0,0,0,0,0],"split_type":[0,0,0,0,0,0,0,0,0,0,0,0,0,0,0,0,0,0,0,0,0,0,0,0,0,0,0,0,0],"sum_hessian":[5.292E3,1.992E3,3.3E3,1.879E3,1.13E2,2.718E3,5.82E2,1.859E3,2E1,1E0,1.12E2,2.352E3,3.66E2,4.04E2,1.78E2,3.9E1,1.82E3,1.1E1,9E0,8.1E1,3.1E1,1.69E2,2.183E3,3.32E2,3.4E1,3.49E2,5.5E1,8.8E1,9E1],"tree_param":{"num_deleted":"0","num_feature":"31","num_nodes":"29","size_leaf_vector":"1"}},{"base_weights":[3.9789188E-4,4.6419166E-3,-1.0095623E-2,4.201707E-2,1.8065596E-3,-3.723467E-2,-7.3058465E-3,9.8114714E-2,1.2773304E-2,-7.3789526E-3,7.1391356E-3,2.1826604E-3,-1.909016E-1,-1.4710697E-2,1.3427465E-2,-3.0392443E-3,5.402993E-3,-1.6210846E-3,5.0345333E-3,3.6090098E-3,-4.440677E-4,-3.6956493E-3,4.1228367E-4,-1.0393283E-3,5.2446676E-3,-1.5321741E-2,-3.1320807E-3,5.1730187E-3,-8.050073E-4,4.9011516E-3,1.20996556E-4],"categories":[],"categories_nodes":[],"categories_segments":[],"categories_sizes":[],"default_left":[0,0,0,0,0,0,0,0,0,0,0,0,0,0,0,0,0,0,0,0,0,0,0,0,0,0,0,0,0,0,0],"id":46,"left_children":[1,3,5,7,9,11,13,15,17,19,21,23,25,27,29,-1,-1,-1,-1,-1,-1,-1,-1,-1,-1,-1,-1,-1,-1,-1,-1],"loss_changes":[2.3599188E-1,3.997561E-1,1.152643E-1,4.351214E-1,1.7188308E-1,8.605306E-1,2.1283256E-1,1.5037388E-1,7.025873E-1,1.5471497E-1,1.9971514E-1,2.7112746E-1,4.1053486E-1,1.6930628E-1,3.3964658E-1,0E0,0E0,0E0,0E0,0E0,0E0,0E0,0E0,0E0,0E0,0E0,0E0,0E0,0E0,0E0,0E0],"parents":[2147483647,0,0,1,1,2,2,3,3,4,4,5,5,6,6,7,7,8,8,9,9,10,10,11,11,12,12,13,13,14,14],"right_children":[2,4,6,8,10,12,14,16,18,20,22,24,26,28,30,-1,-1,-1,-1,-1,-1,-1,-1,-1,-1,-1,-1,-1,-1,-1,-1],"split_conditions":[5.836726E-1,-5.461062E-1,-5.402248E-1,-4.3167216E-1,-2.057721E-1,1.1877957E-1,6.7905046E-2,-1.5738058E0,-3.6074305E-1,-1.3661451E0,-5.402248E-1,1.0396308E0,-3.2784182E-1,-2.4873781E0,-4.9563703E-1,-3.0392443E-3,5.402993E-3,-1.6210846E-3,5.0345333E-3,3.6090098E-3,-4.440677E-4,-3.6956493E-3,4.1228367E-4,-1.0393283E-3,5.2446676E-3,-1.5321741E-2,-3.1320807E-3,5.1730187E-3,-8.050073E-4,4.9011516E-3,1.20996556E-4],"split_indices":[26,23,23,27,2,3,3,27,21,27,23,2,27,2,23,0,0,0,0,0,0,0,0,0,0,0,0,0,0,0,0],"split_type":[0,0,0,0,0,0,0,0,0,0,0,0,0,0,0,0,0,0,0,0,0,0,0,0,0,0,0,0,0,0,0],"sum_hessian":[5.297E3,3.772E3,1.525E3,2.65E2,3.507E3,1.41E2,1.384E3,9E1,1.75E2,1.288E3,2.219E3,1.13E2,2.8E1,1.02E3,3.64E2,5E0,8.5E1,1.16E2,5.9E1,2.3E1,1.265E3,2.9E1,2.19E3,9.3E1,2E1,1.4E1,1.4E1,1.1E1,1.009E3,4.1E1,3.23E2],"tree_param":{"num_deleted":"0","num_feature":"31","num_nodes":"31","size_leaf_vector":"1"}},{"base_weights":[-3.144422E-4,-2.3649782E-3,1.6890433E-2,-2.3277806E-2,-4.1059332E-4,-4.4211693E-2,2.6114209E-2,-1.9884055E-2,-1.4641865E-2,3.2024717E-4,-5.567801E-2,-1.625152E-2,-2.0541166E-1,9.810607E-2,1.991334E-2,-7.566884E-3,-6.859277E-4,4.393239E-5,-2.1061958E-3,-3.9232317E-3,4.6849083E-3,-3.5964411E-3,3.3010516E-4,-2.8171379E-3,-1.865129E-2,5.841052E-3,-4.7427616E-3,1.3256689E-3,-2.5752678E-3],"categories":[],"categories_nodes":[],"categories_segments":[],"categories_sizes":[],"default_left":[0,0,0,0,0,0,0,0,0,0,0,0,0,0,0,0,0,0,0,0,0,0,0,0,0,0,0,0,0],"id":47,"left_children":[1,3,5,7,9,11,13,15,-1,17,19,21,23,25,27,-1,-1,-1,-1,-1,-1,-1,-1,-1,-1,-1,-1,-1,-1],"loss_changes":[1.8850152E-1,1.95112E-1,3.2183856E-1,3.674228E-1,1.7640823E-1,3.347002E-1,2.1902034E-1,3.2535684E-1,0E0,1.0221134E-1,2.0136744E-1,8.318271E-2,2.5382933E-1,1.5192044E-1,2.167799E-1,0E0,0E0,0E0,0E0,0E0,0E0,0E0,0E0,0E0,0E0,0E0,0E0,0E0,0E0],"parents":[2147483647,0,0,1,1,2,2,3,3,4,4,5,5,6,6,7,7,9,9,10,10,11,11,12,12,13,13,14,14],"right_children":[2,4,6,8,10,12,14,16,-1,18,20,22,24,26,28,-1,-1,-1,-1,-1,-1,-1,-1,-1,-1,-1,-1,-1,-1],"split_conditions":[1.0396308E0,-2.9723918E-1,-9.7772014E-1,3.4246397E0,3.553806E0,1.4841582E0,-2.9723918E-1,-1.1405246E0,-1.4641865E-2,3.0003853E0,7.106483E-1,-1.2640973E0,-1.074233E0,1.1011707E0,1.5727278E0,-7.566884E-3,-6.859277E-4,4.393239E-5,-2.1061958E-3,-3.9232317E-3,4.6849083E-3,-3.5964411E-3,3.3010516E-4,-2.8171379E-3,-1.865129E-2,5.841052E-3,-4.7427616E-3,1.3256689E-3,-2.5752678E-3],"split_indices":[2,0,30,30,10,10,0,30,0,29,13,30,30,16,30,0,0,0,0,0,0,0,0,0,0,0,0,0,0],"split_type":[0,0,0,0,0,0,0,0,0,0,0,0,0,0,0,0,0,0,0,0,0,0,0,0,0,0,0,0,0],"sum_hessian":[5.341E3,4.773E3,5.68E2,4.07E2,4.366E3,7.4E1,4.94E2,4.03E2,4E0,4.31E3,5.6E1,6.4E1,1E1,3.8E1,4.56E2,1.7E1,3.86E2,4.255E3,5.5E1,4.9E1,7E0,1.8E1,4.6E1,6E0,4E0,3.5E1,3E0,4.18E2,3.8E1],"tree_param":{"num_deleted":"0","num_feature":"31","num_nodes":"29","size_leaf_vector":"1"}},{"base_weights":[1.5066678E-4,2.0803394E-2,-1.3935317E-3,1.2901636E-2,1.3979949E-1,-1.7184046E-3,7.163331E-2,2.811982E-2,-5.6630433E-2,3.190199E-1,5.777935E-2,4.0840893E-4,-9.864313E-3,1.2762877E-1,1.4334697E-2,1.7951652E-3,-6.311132E-3,-4.5003E-3,1.1161606E-2,1.8958777E-2,5.6210267E-3,5.8857924E-3,-2.2330384E-3,5.605947E-4,-1.4736368E-4,2.3533171E-4,-1.350922E-3,7.7601904E-3,1.180384E-4,-1.7288087E-3,4.4862577E-3],"categories":[],"categories_nodes":[],"categories_segments":[],"categories_sizes":[],"default_left":[0,0,0,0,0,0,0,0,0,0,0,0,0,0,0,0,0,0,0,0,0,0,0,0,0,0,0,0,0,0,0],"id":48,"left_children":[1,3,5,7,9,11,13,15,17,19,21,23,25,27,29,-1,-1,-1,-1,-1,-1,-1,-1,-1,-1,-1,-1,-1,-1,-1,-1],"loss_changes":[1.7007665E-1,3.4703967E-1,1.17843784E-1,3.708874E-1,3.1965992E-1,8.5606E-2,6.875664E-2,3.493112E-1,6.085482E-1,4.4369757E-2,1.0963561E-1,1.4210881E-1,2.5582796E-1,3.7630558E-2,4.7351304E-2,0E0,0E0,0E0,0E0,0E0,0E0,0E0,0E0,0E0,0E0,0E0,0E0,0E0,0E0,0E0,0E0],"parents":[2147483647,0,0,1,1,2,2,3,3,4,4,5,5,6,6,7,7,8,8,9,9,10,10,11,11,12,12,13,13,14,14],"right_children":[2,4,6,8,10,12,14,16,18,20,22,24,26,28,30,-1,-1,-1,-1,-1,-1,-1,-1,-1,-1,-1,-1,-1,-1,-1,-1],"split_conditions":[-5.461062E-1,-5.475664E-1,5.1275535E0,1.1877957E-1,-1.6606063E-1,4.3678185E-1,-2.4152517E-1,-5.489146E-1,6.081009E-1,-1.7731363E-1,-2.3222768E-1,-4.297894E-1,1.92833E-2,3.0415269E-2,1.6549551E-1,1.7951652E-3,-6.311132E-3,-4.5003E-3,1.1161606E-2,1.8958777E-2,5.6210267E-3,5.8857924E-3,-2.2330384E-3,5.605947E-4,-1.4736368E-4,2.3533171E-4,-1.350922E-3,7.7601904E-3,1.180384E-4,-1.7288087E-3,4.4862577E-3],"split_indices":[23,23,7,3,4,7,13,23,13,13,9,23,3,3,13,0,0,0,0,0,0,0,0,0,0,0,0,0,0,0,0],"split_type":[0,0,0,0,0,0,0,0,0,0,0,0,0,0,0,0,0,0,0,0,0,0,0,0,0,0,0,0,0,0,0],"sum_hessian":[5.331E3,3.7E2,4.961E3,3.48E2,2.2E1,4.94E3,2.1E1,2.86E2,6.2E1,6E0,1.6E1,3.918E3,1.022E3,1E1,1.1E1,2.73E2,1.3E1,5.6E1,6E0,4E0,2E0,1E1,6E0,9.28E2,2.99E3,5.53E2,4.69E2,8E0,2E0,7E0,4E0],"tree_param":{"num_deleted":"0","num_feature":"31","num_nodes":"31","size_leaf_vector":"1"}},{"base_weights":[-2.9652132E-4,5.15437E-4,-2.8968854E-2,-6.190032E-4,1.76616E-2,-1.3221107E-1,-5.497947E-3,4.3246066E-3,-6.1559216E-3,8.8272505E-2,5.1818006E-3,-2.2787416E-1,-1.1660516E-2,-1.5597889E-2,8.6701356E-2,9.0532E-4,-2.0701285E-5,-2.3167005E-3,-2.0983942E-4,-5.781209E-3,5.7335175E-3,-3.019887E-3,1.1191942E-3,-6.350157E-4,-1.4030463E-2,-6.006235E-3,4.9234726E-3,-6.2441216E-3,-4.5715162E-4,5.060447E-3,-1.8220496E-3],"categories":[],"categories_nodes":[],"categories_segments":[],"categories_sizes":[],"default_left":[0,0,0,0,0,0,0,0,0,0,0,0,0,0,0,0,0,0,0,0,0,0,0,0,0,0,0,0,0,0,0],"id":49,"left_children":[1,3,5,7,9,11,13,15,17,19,21,23,25,27,29,-1,-1,-1,-1,-1,-1,-1,-1,-1,-1,-1,-1,-1,-1,-1,-1],"loss_changes":[1.2342613E-1,1.0030182E-1,3.5305867E-1,1.3242675E-1,2.8152975E-1,3.087133E-1,1.13097265E-1,1.669318E-1,1.7943142E-1,2.7161554E-1,3.0932453E-1,1.666444E-1,1.6711564E-1,7.574855E-2,2.5126114E-2,0E0,0E0,0E0,0E0,0E0,0E0,0E0,0E0,0E0,0E0,0E0,0E0,0E0,0E0,0E0,0E0],"parents":[2147483647,0,0,1,1,2,2,3,3,4,4,5,5,6,6,7,7,8,8,9,9,10,10,11,11,12,12,13,13,14,14],"right_children":[2,4,6,8,10,12,14,16,18,20,22,24,26,28,30,-1,-1,-1,-1,-1,-1,-1,-1,-1,-1,-1,-1,-1,-1,-1,-1],"split_conditions":[2.0793233E0,1.4815141E0,-4.7741327E-1,-6.671133E-2,-5.203316E-1,-4.5242256E-1,6.025978E-1,-2.6407632E-1,-3.2230747E-1,-9.285482E-1,-2.4315841E-1,-7.496935E-1,-2.9415998E-1,-3.099245E-1,7.5997204E-1,9.0532E-4,-2.0701285E-5,-2.3167005E-3,-2.0983942E-4,-5.781209E-3,5.7335175E-3,-3.019887E-3,1.1191942E-3,-6.350157E-4,-1.4030463E-2,-6.006235E-3,4.9234726E-3,-6.2441216E-3,-4.5715162E-4,5.060447E-3,-1.8220496E-3],"split_indices":[15,15,23,15,23,28,28,1,1,9,1,28,11,1,23,0,0,0,0,0,0,0,0,0,0,0,0,0,0,0,0],"split_type":[0,0,0,0,0,0,0,0,0,0,0,0,0,0,0,0,0,0,0,0,0,0,0,0,0,0,0,0,0,0,0],"sum_hessian":[5.3E3,5.155E3,1.45E2,4.836E3,3.19E2,2.6E1,1.19E2,2.555E3,2.281E3,4.7E1,2.72E2,1.4E1,1.2E1,1.08E2,1.1E1,6.53E2,1.902E3,1.05E2,2.176E3,5E0,4.2E1,5.6E1,2.16E2,3E0,1.1E1,6E0,6E0,5E0,1.03E2,1E1,1E0],"tree_param":{"num_deleted":"0","num_feature":"31","num_nodes":"31","size_leaf_vector":"1"}},{"base_weights":[-7.98887E-5,-3.4565473E-4,1.2756756E-1,5.3337067E-3,-5.3116996E-3,1.8250874E-1,2.5136406E-2,-4.9489574E-3,1.5300017E-2,-1.5306786E-1,-4.994767E-3,2.0251437E-1,1.5618736E-3,1.9455355E-3,-7.4902026E-4,-1.5232341E-3,-7.5682554E-5,1.9952646E-3,6.257605E-5,-1.0096265E-2,2.2804828E-3,-2.3922152E-4,-1.0024259E-2,1.1010567E-2,2.8507374E-3],"categories":[],"categories_nodes":[],"categories_segments":[],"categories_sizes":[],"default_left":[0,0,0,0,0,0,0,0,0,0,0,0,0,0,0,0,0,0,0,0,0,0,0,0,0],"id":50,"left_children":[1,3,5,7,9,11,13,15,17,19,21,23,-1,-1,-1,-1,-1,-1,-1,-1,-1,-1,-1,-1,-1],"loss_changes":[1.7960572E-1,1.4902987E-1,5.7316944E-2,2.5268948E-1,1.3124573E-1,1.4857903E-2,3.3458036E-3,1.0636623E-1,4.3272525E-1,6.745097E-2,1.1474897E-1,2.8941333E-3,0E0,0E0,0E0,0E0,0E0,0E0,0E0,0E0,0E0,0E0,0E0,0E0,0E0],"parents":[2147483647,0,0,1,1,2,2,3,3,4,4,5,5,6,6,7,7,8,8,9,9,10,10,11,11],"right_children":[2,4,6,8,10,12,14,16,18,20,22,24,-1,-1,-1,-1,-1,-1,-1,-1,-1,-1,-1,-1,-1],"split_conditions":[5.778939E0,-1.025038E-1,7.7678263E-1,-7.8752923E-1,-1.4295195E0,7.451092E0,-8.344098E-1,-9.210355E-1,-1.19053386E-1,-7.551152E-1,4.777052E0,-1.6606063E-1,1.5618736E-3,1.9455355E-3,-7.4902026E-4,-1.5232341E-3,-7.5682554E-5,1.9952646E-3,6.257605E-5,-1.0096265E-2,2.2804828E-3,-2.3922152E-4,-1.0024259E-2,1.1010567E-2,2.8507374E-3],"split_indices":[17,15,15,15,30,17,7,30,4,7,18,4,0,0,0,0,0,0,0,0,0,0,0,0,0],"split_type":[0,0,0,0,0,0,0,0,0,0,0,0,0,0,0,0,0,0,0,0,0,0,0,0,0],"sum_hessian":[5.292E3,5.282E3,1E1,2.464E3,2.818E3,6E0,4E0,1.213E3,1.251E3,5E0,2.813E3,5E0,1E0,3E0,1E0,1.43E2,1.07E3,4.54E2,7.97E2,4E0,1E0,2.811E3,2E0,4E0,1E0],"tree_param":{"num_deleted":"0","num_feature":"31","num_nodes":"25","size_leaf_vector":"1"}},{"base_weights":[-4.274562E-4,-6.4280387E-3,6.8765664E-3,-1.0593778E-2,4.695884E-3,1.4881507E-3,2.4542408E-2,4.2303847E-3,-1.9125322E-2,-6.440469E-3,2.7958512E-2,4.4262866E-3,-3.204899E-2,6.5778494E-2,1.8020967E-2,1.0358497E-2,1.1765843E-4,-7.867019E-3,-9.136906E-4,-8.036671E-5,-5.909429E-3,1.7802609E-3,-3.424656E-3,1.7655506E-4,4.826078E-3,-3.6260204E-3,9.7501586E-4,1.6773939E-3,5.650308E-3,7.401553E-4,5.2205515E-3],"categories":[],"categories_nodes":[],"categories_segments":[],"categories_sizes":[],"default_left":[0,0,0,0,0,0,0,0,0,0,0,0,0,0,0,0,0,0,0,0,0,0,0,0,0,0,0,0,0,0,0],"id":51,"left_children":[1,3,5,7,9,11,13,15,17,19,21,23,25,27,29,-1,-1,-1,-1,-1,-1,-1,-1,-1,-1,-1,-1,-1,-1,-1,-1],"loss_changes":[2.2952965E-1,1.3327542E-1,2.248044E-1,2.6466244E-1,2.0328377E-1,1.7859176E-1,1.4725778E-1,2.9094794E-1,1.534192E-1,2.8659976E-1,1.897732E-1,1.370081E-1,3.0601007E-1,1.10372126E-1,1.313342E-1,0E0,0E0,0E0,0E0,0E0,0E0,0E0,0E0,0E0,0E0,0E0,0E0,0E0,0E0,0E0,0E0],"parents":[2147483647,0,0,1,1,2,2,3,3,4,4,5,5,6,6,7,7,8,8,9,9,10,10,11,11,12,12,13,13,14,14],"right_children":[2,4,6,8,10,12,14,16,18,20,22,24,26,28,30,-1,-1,-1,-1,-1,-1,-1,-1,-1,-1,-1,-1,-1,-1,-1,-1],"split_conditions":[2.126423E-1,4.3358067E-1,8.257366E-2,-6.3933283E-1,-2.057721E-1,2.7227052E-3,-1.4287294E-1,-9.8308724E-1,-9.7565335E-1,-2.3651579E-1,2.4409673E0,4.319956E-1,-8.607229E-2,-2.2171621E-1,2.637207E0,1.0358497E-2,1.1765843E-4,-7.867019E-3,-9.136906E-4,-8.036671E-5,-5.909429E-3,1.7802609E-3,-3.424656E-3,1.7655506E-4,4.826078E-3,-3.6260204E-3,9.7501586E-4,1.6773939E-3,5.650308E-3,7.401553E-4,5.2205515E-3],"split_indices":[2,27,11,27,2,11,3,7,7,2,27,12,4,3,7,0,0,0,0,0,0,0,0,0,0,0,0,0,0,0,0],"split_type":[0,0,0,0,0,0,0,0,0,0,0,0,0,0,0,0,0,0,0,0,0,0,0,0,0,0,0,0,0,0,0],"sum_hessian":[5.235E3,2.874E3,2.361E3,2.091E3,7.83E2,1.81E3,5.51E2,7.64E2,1.327E3,5.3E2,2.53E2,1.665E3,1.45E2,7.4E1,4.77E2,6E0,7.58E2,7E0,1.32E3,5.09E2,2.1E1,2.35E2,1.8E1,1.65E3,1.5E1,8.1E1,6.4E1,4.5E1,2.9E1,4.61E2,1.6E1],"tree_param":{"num_deleted":"0","num_feature":"31","num_nodes":"31","size_leaf_vector":"1"}},{"base_weights":[-1.1737784E-3,1.1860784E-3,-1.2121664E-2,4.3884777E-3,-6.8183043E-3,-1.0879427E-2,-1.2668607E-1,1.49938725E-2,-4.9920805E-4,-7.717431E-3,6.760441E-2,-1.6005695E-2,1.3954855E-2,-1.2039799E-2,-1.0480111E-2,5.6893483E-4,5.0013787E-3,-1.2172553E-3,1.0430027E-4,-2.5258277E-4,-2.7408523E-3,1.5719436E-2,-1.014537E-3,-1.5708786E-3,-2.5537223E-4,-3.6549927E-3,1.4927475E-3,5.493397E-4,-8.485426E-4],"categories":[],